~o
<STREAMINFO> 1 25
<VECSIZE> 25<NULLD><MFCC_D_N_Z_0><DIAGC>
~s "silst"
<MEAN> 25
 -1.451017e+000 2.694000e+000 5.390500e-001 4.068300e+000 3.563052e+000 3.187053e+000 1.737430e+000 1.580097e+000 1.908140e+000 1.650566e+000 2.970444e+000 2.291362e+000 1.583757e-001 -2.534064e-001 -1.377148e-001 -5.688187e-001 -5.042648e-001 -6.447432e-001 -6.578410e-001 -5.136511e-001 -1.944013e-001 -1.654444e-002 -1.836473e-001 -2.168825e-001 9.450582e-001
<VARIANCE> 25
 3.473177e+001 5.157542e+001 4.453011e+001 5.430894e+001 6.811666e+001 5.875229e+001 6.759975e+001 6.434100e+001 4.441086e+001 3.879239e+001 4.388116e+001 3.427574e+001 3.551135e+000 4.975713e+000 3.164089e+000 4.966812e+000 6.114295e+000 6.821366e+000 8.040592e+000 6.724262e+000 4.651231e+000 4.017831e+000 4.640319e+000 3.411995e+000 8.844213e+000
<GCONST> 1.138856e+002
~h "a"
<BEGINHMM>
<NUMSTATES> 5
<STATE> 2
<MEAN> 25
 9.513421e-001 -8.970104e+000 -5.941990e+000 -3.506452e+000 5.647466e-001 -1.982001e+000 2.555333e+000 5.996217e+000 -1.645904e+000 -4.845193e+000 -3.918294e+000 -5.488590e-001 -2.049014e-001 -1.001651e+000 -7.733905e-001 1.375584e-001 6.892605e-001 8.173212e-001 8.391303e-001 6.899611e-001 -6.463305e-001 -9.703057e-001 -3.508634e-001 1.372197e-001 7.371244e-001
<VARIANCE> 25
 1.067107e+001 1.830162e+001 2.157349e+001 2.138512e+001 4.396163e+001 3.845188e+001 4.440522e+001 3.419698e+001 5.094459e+001 3.157229e+001 3.563566e+001 3.264818e+001 8.084095e-001 1.665584e+000 1.899227e+000 1.854006e+000 3.363316e+000 3.089796e+000 3.096522e+000 3.245571e+000 2.853115e+000 2.921208e+000 3.021612e+000 2.325020e+000 1.014331e+000
<GCONST> 9.684503e+001
<STATE> 3
<MEAN> 25
 5.706436e-001 -9.617877e+000 -6.490586e+000 -1.940196e+000 1.927052e+000 -2.074141e-001 2.664226e+000 5.095804e+000 -3.158959e+000 -5.543256e+000 -3.672956e+000 -3.891273e-001 1.948631e-001 5.886447e-001 2.562289e-001 8.937425e-002 -3.987440e-001 -5.508368e-002 -1.813117e-001 -4.562104e-001 4.856110e-002 2.676486e-001 1.498412e-001 -1.931141e-001 -5.091162e-001
<VARIANCE> 25
 1.067414e+001 1.711475e+001 1.637220e+001 1.981157e+001 3.705719e+001 3.335871e+001 4.637614e+001 3.155056e+001 4.827058e+001 2.874516e+001 3.336057e+001 2.906875e+001 5.028735e-001 1.198672e+000 1.077811e+000 1.417207e+000 2.529667e+000 2.111934e+000 2.786879e+000 1.923835e+000 2.021439e+000 2.213465e+000 1.931160e+000 1.881428e+000 6.196965e-001
<GCONST> 9.103938e+001
<STATE> 4
<MEAN> 25
 2.611240e+000 -3.093266e+000 -3.844720e+000 -7.494166e-001 -6.045397e-001 -1.847286e+000 9.442101e-001 2.144664e+000 -1.042315e+000 -3.038651e+000 -2.355573e+000 -8.017845e-001 3.502197e-002 2.027140e+000 1.159383e+000 7.351960e-001 -1.283380e-001 9.838986e-002 -5.349123e-001 -9.815754e-001 4.147805e-001 8.507707e-001 6.684208e-001 1.145206e-001 -2.124943e+000
<VARIANCE> 25
 1.392609e+001 3.463947e+001 2.330157e+001 3.021657e+001 5.205956e+001 3.812680e+001 5.515815e+001 3.916432e+001 4.099762e+001 3.931834e+001 3.546283e+001 3.125878e+001 1.979978e+000 1.857312e+000 1.776511e+000 2.387186e+000 4.256106e+000 4.455282e+000 4.853306e+000 3.955986e+000 3.509222e+000 3.476492e+000 3.372864e+000 2.983025e+000 1.951022e+000
<GCONST> 1.024726e+002
<TRANSP> 5
 0.000000e+000 1.000000e+000 0.000000e+000 0.000000e+000 0.000000e+000
 0.000000e+000 5.413370e-001 4.586630e-001 0.000000e+000 0.000000e+000
 0.000000e+000 0.000000e+000 6.678302e-001 3.321699e-001 0.000000e+000
 0.000000e+000 0.000000e+000 0.000000e+000 6.544941e-001 3.455059e-001
 0.000000e+000 0.000000e+000 0.000000e+000 0.000000e+000 0.000000e+000
<ENDHMM>
~h "b"
<BEGINHMM>
<NUMSTATES> 5
<STATE> 2
<MEAN> 25
 7.708731e-001 -1.215048e+001 -7.039349e+000 -3.492863e+000 1.703359e+000 1.909893e+000 -6.083031e-001 3.848070e+000 5.745415e+000 -2.288522e+000 -9.722704e+000 -2.438533e+000 -1.054307e+000 -2.340036e+000 -7.452934e-001 -4.816726e-001 1.189998e+000 9.907499e-001 1.593442e+000 2.153139e+000 -6.882884e-001 -2.257368e+000 -1.469753e+000 1.695735e+000 1.992274e+000
<VARIANCE> 25
 7.374440e+000 1.626749e+001 1.067653e+001 2.533734e+001 1.482381e+001 4.855853e+001 2.843496e+001 3.190991e+001 2.144722e+001 4.222438e+001 2.058142e+001 2.257165e+001 7.239485e-001 3.062052e+000 2.228743e+000 4.413151e+000 1.214212e+000 2.277593e+000 2.087116e+000 3.711735e+000 3.373126e+000 2.803971e+000 3.068534e+000 1.704177e+000 2.534235e+000
<GCONST> 9.365128e+001
<STATE> 3
<MEAN> 25
 -2.380261e+000 -1.419986e+001 -4.649086e+000 -1.779953e+000 5.158425e+000 2.537743e+000 2.851317e+000 7.018825e+000 -1.057225e+000 -8.689382e+000 -1.220863e+001 1.430575e+000 -6.692777e-002 4.694264e-001 8.485078e-001 -1.280768e-001 5.874862e-001 -8.754204e-001 -1.579367e-001 2.759346e-002 -1.152870e+000 9.533247e-002 -4.429862e-001 -1.647389e-001 -3.966054e-001
<VARIANCE> 25
 4.303484e+000 5.703460e+000 8.327236e+000 1.206657e+001 1.153329e+001 1.715593e+001 1.593550e+001 1.589688e+001 2.976751e+001 1.975870e+001 1.390356e+001 1.535778e+001 2.757925e-001 6.732059e-001 2.814550e-001 1.148890e+000 9.385222e-001 1.599414e+000 1.183938e+000 1.704615e+000 1.646834e+000 1.774459e+000 8.565694e-001 1.572217e+000 2.218009e-001
<GCONST> 7.448005e+001
<STATE> 4
<MEAN> 25
 -1.897326e-002 -8.857460e+000 -2.992978e-001 -2.933447e+000 6.129013e+000 -4.034170e+000 -1.384564e-001 3.523706e+000 -2.329843e+000 -1.962777e+000 -1.367473e+001 -2.831060e+000 8.348384e-001 1.760023e+000 1.114833e+000 4.579942e-002 -9.566072e-001 -1.342993e+000 -6.058687e-001 -2.055070e+000 8.272599e-001 2.145772e+000 4.231647e-001 -9.204546e-001 -1.339849e+000
<VARIANCE> 25
 4.997716e+000 1.300719e+001 8.544952e+000 1.685999e+001 1.466983e+001 2.215809e+001 1.843979e+001 2.811743e+001 2.441724e+001 3.262440e+001 2.244156e+001 2.930192e+001 2.496911e-001 3.485906e-001 5.703520e-001 9.325579e-001 1.560368e+000 2.054779e+000 1.624524e+000 3.344643e+000 2.898261e+000 1.872891e+000 2.037482e+000 1.942140e+000 1.965836e-001
<GCONST> 8.152089e+001
<TRANSP> 5
 0.000000e+000 1.000000e+000 0.000000e+000 0.000000e+000 0.000000e+000
 0.000000e+000 7.132549e-001 2.867452e-001 0.000000e+000 0.000000e+000
 0.000000e+000 0.000000e+000 8.008731e-001 1.991269e-001 0.000000e+000
 0.000000e+000 0.000000e+000 0.000000e+000 7.042919e-001 2.957081e-001
 0.000000e+000 0.000000e+000 0.000000e+000 0.000000e+000 0.000000e+000
<ENDHMM>
~h "c"
<BEGINHMM>
<NUMSTATES> 5
<STATE> 2
<MEAN> 25
 -3.939327e+000 4.378981e+000 1.710360e+000 8.942464e+000 6.645828e+000 5.916330e+000 7.171079e+000 3.839273e+000 8.722309e-001 6.882811e-001 5.758731e+000 1.026178e+000 -2.118432e-001 -1.830814e+000 -3.152407e+000 -1.784592e+000 1.880280e+000 1.625418e+000 1.178854e+000 1.198464e+000 -1.104998e+000 1.005706e+000 2.151600e-001 6.657728e-001 1.172636e+000
<VARIANCE> 25
 6.747971e+000 2.512072e+001 5.113224e+001 2.939064e+001 2.973688e+001 3.767394e+001 2.670907e+001 2.699647e+001 2.621682e+001 2.861671e+001 2.304119e+001 1.336383e+001 1.782463e+000 2.793392e+000 7.612137e+000 6.469556e+000 5.660109e+000 3.434039e+000 2.837671e+000 2.440104e+000 3.656116e+000 3.259110e+000 2.394054e+000 1.935222e+000 2.573523e+000
<GCONST> 9.970789e+001
<STATE> 3
<MEAN> 25
 -1.288953e+000 -6.515187e-001 -1.207576e+001 -2.405618e+000 9.394326e+000 6.425540e+000 4.341954e+000 5.021738e+000 -4.947417e+000 5.441727e+000 6.975084e+000 4.151952e+000 1.642208e+000 8.252515e-001 -8.163370e-001 -3.252372e+000 -2.070565e+000 -1.445454e+000 -2.472222e+000 -1.559431e+000 -1.571380e+000 -2.699243e-001 -3.111891e-001 2.157732e-001 1.670577e+000
<VARIANCE> 25
 1.329716e+001 2.834440e+001 4.376973e+001 4.344185e+001 4.699592e+001 3.890223e+001 3.670126e+001 4.105482e+001 3.053638e+001 2.533514e+001 2.903889e+001 1.186464e+001 1.438910e+000 3.709410e+000 8.738145e+000 4.731055e+000 7.142586e+000 4.425504e+000 3.478955e+000 3.476257e+000 3.011405e+000 4.295722e+000 3.318166e+000 1.674489e+000 2.289198e+000
<GCONST> 1.031973e+002
<STATE> 4
<MEAN> 25
 5.986776e+000 4.486296e+000 -8.224978e+000 -1.508652e+001 -1.401870e+000 1.510253e+000 -3.274345e+000 -8.467007e-002 -8.120740e+000 3.195735e+000 3.197058e+000 2.459560e+000 9.139341e-001 -1.551689e-001 3.984004e-001 -2.164871e+000 -1.272839e+000 -2.179194e-002 -7.132749e-001 -2.873707e-001 2.654169e-001 -8.851000e-003 -6.430212e-001 -9.643439e-002 1.146260e+000
<VARIANCE> 25
 6.158542e+000 1.030636e+001 2.175667e+001 3.693553e+001 2.463926e+001 2.765942e+001 2.208068e+001 2.399752e+001 2.324242e+001 2.630692e+001 3.493587e+001 2.281551e+001 1.181048e+000 1.823807e+000 2.116781e+000 5.291540e+000 5.143968e+000 3.715523e+000 3.062562e+000 3.156415e+000 2.336809e+000 2.699404e+000 2.541139e+000 2.461120e+000 1.055954e+000
<GCONST> 9.481221e+001
<TRANSP> 5
 0.000000e+000 1.000000e+000 0.000000e+000 0.000000e+000 0.000000e+000
 0.000000e+000 7.008088e-001 2.991912e-001 0.000000e+000 0.000000e+000
 0.000000e+000 0.000000e+000 6.385182e-001 3.614818e-001 0.000000e+000
 0.000000e+000 0.000000e+000 0.000000e+000 7.458775e-001 2.541225e-001
 0.000000e+000 0.000000e+000 0.000000e+000 0.000000e+000 0.000000e+000
<ENDHMM>
~h "e"
<BEGINHMM>
<NUMSTATES> 5
<STATE> 2
<MEAN> 25
 5.339347e-001 -6.414970e-001 2.700008e+000 -2.975567e+000 -1.049420e+001 -5.564868e+000 1.207452e+000 -2.246469e+000 -1.141900e+000 1.852890e+000 1.430025e+000 1.142745e+000 1.418145e-001 3.094938e-001 8.007111e-002 1.737132e-001 -1.117591e+000 2.539657e-002 -1.180739e-001 5.915774e-002 -3.734963e-001 5.077623e-001 4.852005e-001 -2.199926e-001 6.801219e-002
<VARIANCE> 25
 1.191141e+001 2.458672e+001 1.524401e+001 2.169770e+001 3.154252e+001 5.101112e+001 4.409775e+001 2.498859e+001 1.648364e+001 3.541973e+001 2.641116e+001 1.818150e+001 1.984709e+000 1.373872e+000 1.335916e+000 2.036943e+000 5.209465e+000 5.220681e+000 3.862029e+000 3.671407e+000 2.690078e+000 2.789571e+000 3.787699e+000 2.484488e+000 1.726411e+000
<GCONST> 9.712244e+001
<STATE> 3
<MEAN> 25
 7.020400e-001 1.506168e+000 2.781591e+000 -1.117676e+000 -1.046849e+001 -4.224467e+000 8.985169e-001 -1.720437e+000 -2.118653e+000 1.620686e+000 8.526771e-001 -1.868701e-001 4.692305e-001 9.228482e-001 -2.815957e-001 1.127018e+000 1.062722e+000 -5.720221e-001 3.587104e-002 7.735618e-001 -4.887401e-001 -1.016542e+000 3.336387e-001 -1.093658e-001 -1.603544e+000
<VARIANCE> 25
 1.205951e+001 1.986396e+001 1.558808e+001 2.887745e+001 2.878607e+001 4.307181e+001 2.679579e+001 2.812343e+001 2.040150e+001 3.132116e+001 3.479909e+001 3.147844e+001 1.046055e+000 2.159965e+000 1.200134e+000 1.829137e+000 4.599556e+000 3.726733e+000 2.439713e+000 2.209204e+000 1.661627e+000 3.006181e+000 2.988760e+000 2.675727e+000 2.378317e+000
<GCONST> 9.542300e+001
<STATE> 4
<MEAN> 25
 1.904887e+000 5.001659e+000 1.791413e+000 2.888996e+000 -5.501689e+000 -4.268173e+000 5.570341e-001 -1.800818e+000 -2.704049e+000 -1.400449e+000 1.958979e+000 -3.017195e-001 -2.796847e-001 1.068552e+000 -1.989407e-001 1.484217e+000 2.474393e+000 1.223751e+000 -9.491815e-002 -1.554569e-001 4.834669e-001 -1.055608e-002 2.314119e-001 2.919301e-001 -2.118508e+000
<VARIANCE> 25
 1.783665e+001 2.960532e+001 1.545489e+001 2.237743e+001 3.713720e+001 3.198778e+001 1.877221e+001 2.142222e+001 2.238269e+001 2.424843e+001 2.208262e+001 2.714849e+001 2.579145e+000 3.581662e+000 2.227103e+000 2.265598e+000 2.368704e+000 3.372573e+000 3.279076e+000 3.582108e+000 4.938383e+000 3.648464e+000 3.148425e+000 2.694356e+000 2.690872e+000
<GCONST> 9.823428e+001
<TRANSP> 5
 0.000000e+000 1.000000e+000 0.000000e+000 0.000000e+000 0.000000e+000
 0.000000e+000 5.969369e-001 4.030631e-001 0.000000e+000 0.000000e+000
 0.000000e+000 0.000000e+000 4.558870e-001 5.441130e-001 0.000000e+000
 0.000000e+000 0.000000e+000 0.000000e+000 5.940500e-001 4.059500e-001
 0.000000e+000 0.000000e+000 0.000000e+000 0.000000e+000 0.000000e+000
<ENDHMM>
~h "h"
<BEGINHMM>
<NUMSTATES> 5
<STATE> 2
<MEAN> 25
 -7.811632e+000 -1.451134e+000 1.903722e+000 3.120791e+000 6.341516e+000 2.564671e+000 3.296145e+000 2.538558e+000 5.050647e+000 1.975998e+000 2.516831e+000 2.454530e+000 1.921906e+000 4.553213e-001 1.372401e-001 -1.164406e+000 -2.020398e+000 -7.111368e-001 -1.557817e+000 -2.345450e+000 -1.623470e+000 -1.135612e+000 -1.075859e+000 -8.377898e-001 9.819357e-001
<VARIANCE> 25
 6.191638e+001 5.944477e+001 4.220423e+001 8.474696e+001 7.688571e+001 4.297853e+001 4.880487e+001 6.091379e+001 6.403458e+001 3.692620e+001 3.702485e+001 2.740672e+001 3.669612e+000 2.508217e+000 2.384928e+000 2.791561e+000 4.815612e+000 3.674782e+000 4.609089e+000 4.390200e+000 5.348112e+000 4.142968e+000 3.265894e+000 2.311753e+000 1.206709e+000
<GCONST> 1.084348e+002
<STATE> 3
<MEAN> 25
 1.658250e+000 2.757139e+000 1.652451e+000 -3.030102e+000 -1.775025e+000 -3.141799e-001 -2.618096e+000 -5.774412e+000 -3.079995e+000 -2.127195e+000 -1.086030e+000 -1.060361e+000 2.431111e+000 2.943607e-001 -6.243814e-001 -1.867732e+000 -2.984821e+000 -7.591529e-001 -1.584495e+000 -1.791939e+000 -1.769198e+000 -9.466273e-001 -1.401417e+000 -1.115552e+000 1.677141e+000
<VARIANCE> 25
 2.424239e+001 5.579744e+001 4.864252e+001 5.419334e+001 6.248582e+001 4.497720e+001 4.391126e+001 3.339373e+001 3.558398e+001 3.742396e+001 2.706827e+001 2.244614e+001 4.797069e+000 2.444736e+000 3.589200e+000 5.848092e+000 7.122685e+000 4.409286e+000 5.625216e+000 4.705018e+000 5.930046e+000 4.439849e+000 4.775878e+000 2.756235e+000 1.551323e+000
<GCONST> 1.083852e+002
<STATE> 4
<MEAN> 25
 4.018980e+000 1.702952e+000 -5.051689e-001 -6.280162e+000 -5.884252e+000 1.643643e-001 -3.172602e+000 -5.767590e+000 -3.624333e+000 -1.808934e+000 -1.964176e+000 -2.198434e+000 1.046970e+000 -4.975415e-001 -7.911324e-001 -9.758623e-001 -1.727005e+000 1.188031e-001 -2.996987e-001 -1.526093e-001 -5.954308e-001 8.606613e-002 -6.902143e-001 -6.177985e-001 1.292913e+000
<VARIANCE> 25
 1.562802e+001 5.686935e+001 5.610442e+001 5.703985e+001 5.040759e+001 3.467546e+001 5.282687e+001 3.805447e+001 3.856196e+001 4.134590e+001 3.168583e+001 2.993204e+001 2.432718e+000 1.615493e+000 2.985822e+000 5.468176e+000 5.541200e+000 3.739881e+000 4.656262e+000 3.438422e+000 3.278523e+000 3.133917e+000 3.230368e+000 2.325914e+000 1.822383e+000
<GCONST> 1.050215e+002
<TRANSP> 5
 0.000000e+000 1.000000e+000 0.000000e+000 0.000000e+000 0.000000e+000
 0.000000e+000 4.768421e-001 5.231579e-001 0.000000e+000 0.000000e+000
 0.000000e+000 0.000000e+000 1.332408e-001 8.667592e-001 0.000000e+000
 0.000000e+000 0.000000e+000 0.000000e+000 1.435214e-001 8.564786e-001
 0.000000e+000 0.000000e+000 0.000000e+000 0.000000e+000 0.000000e+000
<ENDHMM>
~h "i"
<BEGINHMM>
<NUMSTATES> 5
<STATE> 2
<MEAN> 25
 -7.461321e-001 4.336365e+000 8.792242e+000 -5.155106e+000 -9.786435e+000 -2.854429e+000 -4.546046e+000 -5.546479e+000 -7.249079e-001 7.642223e-001 7.199063e-001 -1.023132e+000 1.448040e-001 1.634686e-001 8.729521e-001 -1.804139e+000 -1.141184e+000 3.470292e-001 -1.031932e+000 -8.658503e-001 8.380444e-002 3.318167e-001 -8.570021e-001 -3.025668e-001 1.125915e+000
<VARIANCE> 25
 1.415704e+001 3.415685e+001 2.490626e+001 3.371097e+001 4.537797e+001 3.217823e+001 4.717657e+001 3.874182e+001 4.645483e+001 2.999875e+001 3.099488e+001 2.438084e+001 2.637485e+000 1.931614e+000 2.196779e+000 3.733796e+000 6.706642e+000 4.169449e+000 5.122868e+000 3.846829e+000 3.283269e+000 3.096294e+000 3.861166e+000 2.564785e+000 1.702266e+000
<GCONST> 1.027137e+002
<STATE> 3
<MEAN> 25
 -9.370936e-001 4.924316e+000 8.168840e+000 -8.095622e+000 -8.265227e+000 -6.123277e-001 -6.319936e+000 -5.771770e+000 7.533799e-001 1.245950e+000 -1.729764e+000 -1.220444e+000 3.460160e-001 -1.999748e-002 -4.024364e-001 4.835047e-001 4.851520e-001 3.163732e-002 2.665365e-001 6.928537e-002 -4.919639e-002 -9.234959e-003 -2.074153e-001 5.049162e-002 -4.019433e-001
<VARIANCE> 25
 1.013956e+001 2.412573e+001 2.308542e+001 2.422526e+001 4.377030e+001 2.813581e+001 5.019716e+001 3.565334e+001 4.007096e+001 3.244736e+001 3.558034e+001 2.493936e+001 8.260705e-001 1.684130e+000 1.175128e+000 2.431546e+000 2.506401e+000 2.272709e+000 2.925389e+000 2.222951e+000 2.220136e+000 2.210982e+000 2.007909e+000 1.807154e+000 7.733594e-001
<GCONST> 9.395256e+001
<STATE> 4
<MEAN> 25
 1.282166e+000 5.424741e+000 5.286410e+000 -2.804572e-001 -3.676556e+000 -1.434788e+000 -2.525274e+000 -4.129403e+000 -8.560258e-001 3.600264e-001 -1.584433e-001 -3.686527e-001 7.432766e-002 2.628033e-002 -1.158546e+000 1.887538e+000 1.833148e+000 3.619290e-001 7.368771e-001 5.361310e-001 -1.916508e-002 1.021947e-002 4.693244e-001 3.647885e-001 -1.491116e+000
<VARIANCE> 25
 1.678090e+001 3.388807e+001 2.108305e+001 3.960059e+001 5.564789e+001 3.954961e+001 5.218511e+001 4.376757e+001 3.469809e+001 3.184136e+001 3.304239e+001 2.805271e+001 2.621642e+000 2.359025e+000 1.945107e+000 2.598885e+000 3.736740e+000 3.757820e+000 4.888820e+000 3.698295e+000 3.072597e+000 2.974223e+000 3.400059e+000 2.603494e+000 1.831926e+000
<GCONST> 1.022650e+002
<TRANSP> 5
 0.000000e+000 1.000000e+000 0.000000e+000 0.000000e+000 0.000000e+000
 0.000000e+000 5.778698e-001 4.221302e-001 0.000000e+000 0.000000e+000
 0.000000e+000 0.000000e+000 7.186641e-001 2.813359e-001 0.000000e+000
 0.000000e+000 0.000000e+000 0.000000e+000 6.776567e-001 3.223433e-001
 0.000000e+000 0.000000e+000 0.000000e+000 0.000000e+000 0.000000e+000
<ENDHMM>
~h "j"
<BEGINHMM>
<NUMSTATES> 5
<STATE> 2
<MEAN> 25
 -2.878187e+000 2.905542e+000 -5.935910e+000 -2.034544e+000 5.720658e-001 9.159262e+000 1.205663e+001 9.806726e+000 2.099820e+000 6.292361e+000 4.899653e+000 2.607484e+000 6.638476e-001 3.706815e-001 -2.884556e-001 -1.778140e+000 -1.034291e+000 -7.000652e-001 -5.925105e-001 -6.286467e-001 -7.301547e-001 -1.705626e-001 -8.107536e-001 -1.891133e-001 8.777024e-001
<VARIANCE> 25
 2.898382e+001 1.653851e+001 5.060402e+001 3.006521e+001 3.439760e+001 2.640854e+001 4.946966e+001 5.469247e+001 2.755869e+001 2.393693e+001 1.472997e+001 3.430877e+001 1.652437e+000 1.733456e+000 4.117727e+000 3.879709e+000 2.347965e+000 4.273796e+000 5.736911e+000 6.733935e+000 5.241997e+000 4.348777e+000 2.461174e+000 2.453716e+000 1.756785e+000
<GCONST> 1.021504e+002
<STATE> 3
<MEAN> 25
 5.136638e+000 6.017116e+000 -2.420478e+000 -1.072810e+001 -5.431889e+000 1.294186e-002 1.749330e+000 -8.044789e-001 -7.884743e+000 -6.470938e-001 -2.536241e+000 1.820422e+000 1.389940e+000 -2.935254e-001 5.913087e-001 -2.942084e+000 -1.405976e+000 -1.074373e+000 -1.900870e+000 -1.485643e+000 -1.918173e+000 -6.418253e-001 -2.102053e+000 -7.329752e-001 1.928478e+000
<VARIANCE> 25
 2.669890e+001 1.456180e+001 3.430894e+001 6.328982e+001 4.830540e+001 2.127595e+001 1.814105e+001 2.430701e+001 2.102874e+001 3.021445e+001 2.868065e+001 2.011889e+001 2.450518e+000 4.607424e+000 2.118063e+000 2.953765e+000 5.625101e+000 5.112845e+000 5.280223e+000 4.007792e+000 6.753105e+000 4.004369e+000 2.712772e+000 4.611599e+000 1.829589e+000
<GCONST> 1.025260e+002
<STATE> 4
<MEAN> 25
 4.339027e+000 -2.501657e+000 -2.625921e+000 -1.333535e+001 -2.134189e+000 2.420976e+000 2.334310e+000 -3.091154e+000 -7.597929e+000 7.623683e-001 -7.121945e+000 -2.668162e+000 -4.942515e-001 -1.455196e+000 7.390168e-001 8.802838e-001 1.161247e+000 -3.743356e-001 -6.479391e-001 -1.151538e+000 8.001127e-001 5.682521e-001 -4.703572e-001 -7.619628e-001 7.851955e-001
<VARIANCE> 25
 7.122102e+000 2.296532e+001 1.479326e+001 1.585908e+001 2.136396e+001 1.908801e+001 2.145378e+001 3.235257e+001 2.952253e+001 2.310870e+001 3.576471e+001 3.444767e+001 5.611407e-001 1.406739e+000 1.226629e+000 1.875274e+000 2.947102e+000 4.110880e+000 2.960883e+000 2.267000e+000 3.907296e+000 1.787292e+000 3.331489e+000 3.571361e+000 6.003855e-001
<GCONST> 9.160181e+001
<TRANSP> 5
 0.000000e+000 1.000000e+000 0.000000e+000 0.000000e+000 0.000000e+000
 0.000000e+000 7.471152e-001 2.528848e-001 0.000000e+000 0.000000e+000
 0.000000e+000 0.000000e+000 5.513121e-001 4.486879e-001 0.000000e+000
 0.000000e+000 0.000000e+000 0.000000e+000 7.728382e-001 2.271618e-001
 0.000000e+000 0.000000e+000 0.000000e+000 0.000000e+000 0.000000e+000
<ENDHMM>
~h "k"
<BEGINHMM>
<NUMSTATES> 5
<STATE> 2
<MEAN> 25
 -2.930501e+000 8.012425e-001 -1.669172e+000 4.106456e+000 5.337633e+000 6.641605e-001 3.820162e+000 5.033486e+000 2.092710e+000 2.984115e+000 2.822954e+000 3.339699e+000 3.745023e-001 -1.246349e+000 -1.369231e+000 -1.907794e+000 -5.043287e-001 -1.587270e+000 1.337617e-001 5.637202e-001 -4.738778e-001 5.004191e-002 -1.142244e+000 -4.191507e-001 2.476398e+000
<VARIANCE> 25
 2.257284e+001 4.152309e+001 4.122794e+001 4.042625e+001 6.151468e+001 9.247351e+001 5.907026e+001 4.046736e+001 3.732672e+001 3.358035e+001 4.755340e+001 2.792275e+001 4.285353e+000 3.992714e+000 5.392751e+000 5.191596e+000 9.977486e+000 1.173822e+001 5.850672e+000 5.340899e+000 5.386262e+000 4.339513e+000 7.196543e+000 4.428683e+000 4.991893e+000
<GCONST> 1.135569e+002
<STATE> 3
<MEAN> 25
 4.444165e-001 -1.552425e+000 -5.000897e+000 -3.467366e+000 5.093265e-001 -3.466714e+000 3.939864e+000 4.930175e+000 -1.115560e+000 2.275862e+000 -1.662433e+000 1.677462e+000 1.339739e+000 -2.340751e-001 -8.830144e-002 -1.769742e+000 -1.506116e+000 -3.729742e-001 5.357111e-002 -1.100271e+000 -1.218174e+000 -7.191469e-001 -1.288299e+000 -9.732597e-001 1.823858e+000
<VARIANCE> 25
 2.944682e+001 3.637447e+001 6.065878e+001 3.326578e+001 7.064324e+001 1.045703e+002 5.523323e+001 3.701196e+001 4.140094e+001 3.600613e+001 7.273164e+001 3.303325e+001 2.527199e+000 3.709716e+000 3.881273e+000 4.443491e+000 6.102523e+000 6.584955e+000 6.701008e+000 4.501219e+000 6.136048e+000 3.695952e+000 5.976679e+000 3.173239e+000 3.467285e+000
<GCONST> 1.116479e+002
<STATE> 4
<MEAN> 25
 1.395351e+000 -9.290775e-001 -3.795732e+000 -4.032866e+000 -6.452033e-001 -2.314715e+000 4.199789e+000 2.948351e+000 -2.365815e+000 8.448482e-001 -2.477607e+000 3.994362e-001 9.630345e-001 -1.318079e-001 5.155323e-001 -8.356507e-001 -1.127411e+000 2.297265e-001 -3.710911e-001 -1.490339e+000 -6.223174e-001 -7.346649e-001 -6.718829e-001 -8.108711e-001 1.253962e+000
<VARIANCE> 25
 2.641262e+001 6.183250e+001 4.392426e+001 3.174363e+001 5.688229e+001 8.294901e+001 6.150470e+001 4.092715e+001 4.607163e+001 3.511728e+001 7.137638e+001 3.430403e+001 2.264420e+000 4.052656e+000 4.025370e+000 4.151763e+000 6.097374e+000 5.591475e+000 6.650756e+000 5.685917e+000 4.572568e+000 3.502671e+000 4.359560e+000 2.517884e+000 2.623637e+000
<GCONST> 1.103962e+002
<TRANSP> 5
 0.000000e+000 1.000000e+000 0.000000e+000 0.000000e+000 0.000000e+000
 0.000000e+000 5.904700e-001 4.095300e-001 0.000000e+000 0.000000e+000
 0.000000e+000 0.000000e+000 1.990709e-001 8.009291e-001 0.000000e+000
 0.000000e+000 0.000000e+000 0.000000e+000 1.954965e-001 8.045035e-001
 0.000000e+000 0.000000e+000 0.000000e+000 0.000000e+000 0.000000e+000
<ENDHMM>
~h "l"
<BEGINHMM>
<NUMSTATES> 5
<STATE> 2
<MEAN> 25
 4.127274e+000 -3.517604e+000 5.506019e+000 -2.405262e+000 4.801386e+000 -1.046906e+001 -4.186796e+000 1.098617e+000 -3.929826e+000 -4.125820e+000 -3.164610e+000 5.636011e+000 -7.522659e-001 1.020475e-001 8.791805e-001 -3.786229e-001 -5.963904e-001 -5.620308e-001 1.145763e+000 -9.402958e-001 -2.519888e-002 1.038924e+000 1.057950e-001 5.664697e-001 4.542843e-001
<VARIANCE> 25
 8.845498e+000 9.776432e+000 2.735630e+001 1.787095e+001 2.438882e+001 5.223445e+001 4.658458e+001 1.796652e+001 1.986851e+001 2.284235e+001 2.347690e+001 2.339666e+001 3.723950e-001 9.981808e-001 1.107496e+000 2.751736e+000 3.277523e+000 4.012022e+000 3.249638e+000 2.414080e+000 3.249848e+000 1.818151e+000 3.722111e+000 3.002321e+000 1.252210e+000
<GCONST> 9.208092e+001
<STATE> 3
<MEAN> 25
 7.389341e-001 -4.097966e+000 4.130247e+000 -6.994994e+000 -3.351759e+000 -8.592349e+000 2.086689e+000 -2.054046e+000 1.615412e+000 1.754447e+000 -1.426322e+000 2.291397e+000 -5.961573e-001 5.610406e-001 -2.761145e-001 -5.741360e-001 -3.245590e+000 1.881631e+000 2.381895e-001 -1.570997e+000 9.483790e-001 1.475573e+000 3.832009e-001 -1.124917e+000 8.102552e-001
<VARIANCE> 25
 9.855451e+000 9.368316e+000 2.263164e+001 1.545427e+001 2.270770e+001 2.508995e+001 2.115171e+001 3.934772e+001 1.645835e+001 2.711126e+001 2.542970e+001 2.003791e+001 7.532111e-001 1.777913e+000 4.951403e+000 4.318066e+000 2.776967e+000 3.524782e+000 8.817842e+000 1.743919e+000 2.218903e+000 4.231804e+000 3.362657e+000 4.860744e+000 2.815780e+000
<GCONST> 9.617058e+001
<STATE> 4
<MEAN> 25
 1.855008e+000 2.640285e+000 6.245017e+000 -3.830047e+000 -1.179045e+001 -1.416728e+000 -2.639252e+000 -6.132451e+000 -6.385002e-001 2.874648e+000 -3.427912e+000 6.569823e-003 2.002542e-002 1.239138e+000 2.247739e-002 8.810248e-001 -1.165076e+000 1.180596e+000 -2.652541e-001 -9.113716e-001 -8.761536e-001 1.223464e-001 -9.887626e-002 -8.201767e-001 -5.767538e-001
<VARIANCE> 25
 9.182804e+000 1.510202e+001 1.383091e+001 4.478054e+001 2.844956e+001 3.565150e+001 3.090250e+001 3.153804e+001 1.312275e+001 3.916841e+001 4.274129e+001 2.974523e+001 3.583870e-001 5.429541e-001 1.190973e+000 2.109629e+000 2.567021e+000 3.210998e+000 3.253203e+000 2.055777e+000 2.044436e+000 2.117772e+000 3.296000e+000 1.672029e+000 5.212779e-001
<GCONST> 9.031657e+001
<TRANSP> 5
 0.000000e+000 1.000000e+000 0.000000e+000 0.000000e+000 0.000000e+000
 0.000000e+000 7.489923e-001 2.510077e-001 0.000000e+000 0.000000e+000
 0.000000e+000 0.000000e+000 6.156623e-001 3.843377e-001 0.000000e+000
 0.000000e+000 0.000000e+000 0.000000e+000 7.970378e-001 2.029622e-001
 0.000000e+000 0.000000e+000 0.000000e+000 0.000000e+000 0.000000e+000
<ENDHMM>
~h "m"
<BEGINHMM>
<NUMSTATES> 5
<STATE> 2
<MEAN> 25
 5.564103e+000 -7.274405e-001 2.427231e+000 3.378374e+000 2.727841e-001 -7.326034e-001 -6.811348e+000 -1.134687e+001 -3.091116e+000 3.999641e+000 -6.690071e-001 -2.981402e+000 6.222388e-002 -8.280450e-002 6.315949e-002 2.513886e-001 4.408635e-001 -7.626124e-002 -3.460697e-001 -6.756728e-001 -1.484610e-001 4.042063e-001 2.713777e-002 -2.372775e-001 6.750310e-002
<VARIANCE> 25
 9.043423e+000 1.801308e+001 1.592037e+001 2.469222e+001 3.381053e+001 3.283846e+001 7.326105e+001 4.532753e+001 3.966813e+001 2.991350e+001 3.175652e+001 3.257618e+001 4.215268e-001 1.367357e+000 1.905021e+000 2.446187e+000 1.830109e+000 1.761217e+000 3.119931e+000 4.312613e+000 2.362891e+000 2.135671e+000 1.972962e+000 2.172858e+000 1.091797e+000
<GCONST> 9.407484e+001
<STATE> 3
<MEAN> 25
 4.885263e+000 -2.790894e+000 -3.657912e-001 -7.451301e-001 2.023930e+000 -3.875201e-001 -5.362464e+000 -8.623154e+000 -2.224052e+000 3.741174e+000 -1.483359e+000 -4.406763e+000 -4.042878e-001 -1.112301e+000 -1.704392e+000 -1.385665e+000 1.387582e-001 5.519494e-001 4.979492e-001 2.628349e+000 7.103666e-001 -1.232709e+000 -4.206137e-001 2.689616e-001 1.236847e+000
<VARIANCE> 25
 8.419188e+000 1.986703e+001 2.913770e+001 3.578745e+001 2.730673e+001 2.941543e+001 4.349594e+001 4.782503e+001 3.086684e+001 2.568695e+001 3.467495e+001 2.686518e+001 4.536480e-001 1.542178e+000 3.155282e+000 2.570693e+000 1.762132e+000 3.034211e+000 3.993115e+000 5.583769e+000 5.014244e+000 3.483165e+000 3.209198e+000 4.319801e+000 1.226754e+000
<GCONST> 9.806827e+001
<STATE> 4
<MEAN> 25
 2.583439e+000 -4.837973e+000 -3.745633e+000 -1.434886e+000 2.883952e+000 1.196718e+000 -4.165593e+000 -5.465810e-001 -7.379009e-001 -1.207551e+000 -2.233014e+000 -9.830883e-001 -8.800148e-001 -3.653967e-001 -2.834628e-001 2.897820e-001 1.057931e-001 1.474619e-001 8.939893e-001 1.899932e+000 -6.509747e-002 -1.349624e+000 1.105653e-001 1.151621e+000 4.367877e-001
<VARIANCE> 25
 1.165462e+001 4.124031e+001 3.475086e+001 2.421256e+001 3.276594e+001 3.781347e+001 3.161348e+001 4.676484e+001 3.456226e+001 2.835452e+001 2.894764e+001 3.029300e+001 6.664809e-001 1.692322e+000 2.356520e+000 2.570839e+000 2.490997e+000 3.058704e+000 3.350431e+000 3.784992e+000 2.769941e+000 3.702482e+000 2.982667e+000 2.531413e+000 1.245531e+000
<GCONST> 9.800342e+001
<TRANSP> 5
 0.000000e+000 1.000000e+000 0.000000e+000 0.000000e+000 0.000000e+000
 0.000000e+000 7.600821e-001 2.399179e-001 0.000000e+000 0.000000e+000
 0.000000e+000 0.000000e+000 5.976174e-001 4.023826e-001 0.000000e+000
 0.000000e+000 0.000000e+000 0.000000e+000 5.286553e-001 4.713447e-001
 0.000000e+000 0.000000e+000 0.000000e+000 0.000000e+000 0.000000e+000
<ENDHMM>
~h "n"
<BEGINHMM>
<NUMSTATES> 5
<STATE> 2
<MEAN> 25
 4.650636e+000 4.307195e-001 2.776667e+000 -5.634068e-001 -4.605860e+000 -2.667151e+000 -4.779519e+000 -6.168342e+000 -5.301156e-001 -9.906142e-002 -4.684063e+000 -6.344544e-001 3.752059e-001 7.630790e-001 1.005570e+000 8.433578e-001 -5.596899e-001 -6.273023e-001 -1.179973e-001 -1.034456e+000 4.583646e-001 3.544270e-001 -4.850443e-001 2.978383e-001 -9.099815e-001
<VARIANCE> 25
 8.426681e+000 1.563426e+001 2.079246e+001 2.664326e+001 3.044500e+001 4.885409e+001 7.646549e+001 4.750503e+001 3.958421e+001 5.178358e+001 4.267175e+001 3.042547e+001 4.729468e-001 1.193994e+000 2.481928e+000 1.597870e+000 1.956775e+000 3.285283e+000 3.253484e+000 3.517698e+000 3.164124e+000 2.862793e+000 2.955270e+000 2.218019e+000 5.608080e-001
<GCONST> 9.605170e+001
<STATE> 3
<MEAN> 25
 4.885495e+000 2.655518e+000 5.151538e+000 2.328446e+000 -5.710785e+000 -4.088604e+000 -4.799238e+000 -7.432582e+000 7.331679e-001 1.448577e-001 -4.803024e+000 3.672228e-001 -3.093104e-001 4.805292e-001 1.289537e-002 3.097328e-001 5.444580e-001 -6.759159e-002 4.648317e-002 5.426673e-001 -1.756451e-001 -1.124138e-001 3.247342e-001 6.965908e-002 -4.843928e-001
<VARIANCE> 25
 9.209797e+000 1.883013e+001 2.124540e+001 2.156936e+001 3.008558e+001 5.161731e+001 6.629459e+001 4.128086e+001 4.186138e+001 5.104947e+001 4.705724e+001 2.965007e+001 4.081745e-001 1.764353e+000 1.419546e+000 1.562169e+000 1.742891e+000 2.422946e+000 2.499412e+000 2.728019e+000 2.055278e+000 2.508867e+000 2.343179e+000 2.077363e+000 1.456973e+000
<GCONST> 9.482797e+001
<STATE> 4
<MEAN> 25
 2.288784e+000 3.764372e+000 3.257059e+000 2.627525e+000 -1.376272e+000 -3.159597e+000 -3.442008e+000 -3.754884e+000 -1.025589e+000 8.009142e-002 -2.120503e+000 6.241650e-001 -1.273929e+000 -5.375092e-001 -1.215907e+000 -2.773263e-001 1.792476e+000 7.452613e-001 9.982134e-001 2.205594e+000 -7.569854e-001 -5.509394e-001 1.307385e+000 1.895305e-001 1.635934e-001
<VARIANCE> 25
 1.216273e+001 3.629133e+001 2.288690e+001 2.506209e+001 3.617306e+001 4.545164e+001 4.999364e+001 4.479561e+001 3.691044e+001 3.528344e+001 4.611420e+001 2.709252e+001 8.836976e-001 2.675178e+000 4.215950e+000 3.717157e+000 2.706952e+000 4.384561e+000 5.569073e+000 5.371164e+000 5.512415e+000 5.232752e+000 3.420819e+000 2.760034e+000 3.506448e+000
<GCONST> 1.041561e+002
<TRANSP> 5
 0.000000e+000 1.000000e+000 0.000000e+000 0.000000e+000 0.000000e+000
 0.000000e+000 7.050439e-001 2.949561e-001 0.000000e+000 0.000000e+000
 0.000000e+000 0.000000e+000 5.942430e-001 4.057570e-001 0.000000e+000
 0.000000e+000 0.000000e+000 0.000000e+000 6.041617e-001 3.958383e-001
 0.000000e+000 0.000000e+000 0.000000e+000 0.000000e+000 0.000000e+000
<ENDHMM>
~h "o"
<BEGINHMM>
<NUMSTATES> 5
<STATE> 2
<MEAN> 25
 3.835386e+000 -4.218598e-001 -4.191838e+000 -1.159425e+001 2.979696e+000 -2.315979e+000 -7.506500e+000 -1.802157e+000 4.219049e-001 1.781932e+000 1.227921e+000 8.262544e-001 1.195018e+000 -3.372851e-001 2.925555e-002 -9.401447e-001 7.220588e-001 2.391682e-001 -1.698998e+000 -4.815623e-001 5.629395e-001 -1.283622e-001 -6.325895e-001 -4.521740e-001 -4.380280e-002
<VARIANCE> 25
 1.957012e+001 2.744189e+001 2.405765e+001 4.906356e+001 2.605556e+001 6.662524e+001 5.193226e+001 2.948524e+001 4.917723e+001 2.451833e+001 4.846463e+001 3.142180e+001 3.224477e+000 1.565574e+000 1.624064e+000 6.848786e+000 3.079791e+000 2.865541e+000 8.917829e+000 2.836896e+000 3.050451e+000 2.462391e+000 4.202655e+000 2.313554e+000 7.203549e-001
<GCONST> 1.019222e+002
<STATE> 3
<MEAN> 25
 6.032510e+000 -2.446936e-001 -5.350234e+000 -1.233102e+001 3.183024e+000 1.892320e+000 -6.576779e+000 -1.964171e+000 -1.278143e+000 1.305300e+000 -1.153417e-001 -5.992742e-001 5.414370e-002 5.432641e-001 5.430964e-001 1.868588e+000 -3.126496e-001 -3.240658e-001 2.435168e-001 -3.705362e-001 7.044365e-002 -8.058082e-001 1.745058e-001 -5.003166e-001 -9.216861e-001
<VARIANCE> 25
 6.506107e+000 1.919133e+001 2.508954e+001 3.328173e+001 2.022515e+001 4.888331e+001 3.907939e+001 2.719548e+001 3.385972e+001 2.813534e+001 4.981479e+001 2.868510e+001 4.265699e-001 1.398432e+000 1.022576e+000 4.092416e+000 1.624608e+000 2.020376e+000 2.698050e+000 2.218582e+000 2.170567e+000 1.910433e+000 1.948046e+000 2.296952e+000 8.461663e-001
<GCONST> 9.213701e+001
<STATE> 4
<MEAN> 25
 3.685786e+000 5.756891e+000 -1.394548e+000 -1.374913e+000 -5.758895e-001 -2.353724e+000 -2.383349e+000 -2.747923e+000 -1.644629e+000 -3.513981e+000 2.494371e+000 -2.299039e+000 -1.665259e+000 1.518514e+000 1.782331e+000 2.949177e+000 -6.026315e-001 -7.828980e-001 1.433050e+000 4.169047e-001 -4.168369e-003 -4.190052e-001 5.143967e-001 -7.116367e-002 -1.590877e+000
<VARIANCE> 25
 1.514669e+001 3.520943e+001 2.352571e+001 2.826442e+001 2.089515e+001 4.609414e+001 4.680838e+001 2.408913e+001 2.964783e+001 3.221182e+001 2.940450e+001 2.173022e+001 1.169146e+000 2.514309e+000 2.176849e+000 2.028218e+000 2.956911e+000 3.048649e+000 2.999381e+000 4.225055e+000 3.647120e+000 3.233629e+000 3.060044e+000 2.433022e+000 1.050052e+000
<GCONST> 9.777086e+001
<TRANSP> 5
 0.000000e+000 1.000000e+000 0.000000e+000 0.000000e+000 0.000000e+000
 0.000000e+000 3.905646e-001 6.094354e-001 0.000000e+000 0.000000e+000
 0.000000e+000 0.000000e+000 6.688167e-001 3.311833e-001 0.000000e+000
 0.000000e+000 0.000000e+000 0.000000e+000 6.435352e-001 3.564648e-001
 0.000000e+000 0.000000e+000 0.000000e+000 0.000000e+000 0.000000e+000
<ENDHMM>
~h "p"
<BEGINHMM>
<NUMSTATES> 5
<STATE> 2
<MEAN> 25
 2.073598e+000 4.828207e+000 -9.878142e-001 3.477825e+000 2.654290e+000 3.755113e+000 2.091396e+000 -9.992895e-002 6.386720e-001 7.208947e-001 1.066499e+000 4.387760e-001 -8.772429e-001 5.398727e-001 4.927510e-001 1.043339e+000 5.804645e-001 8.349043e-001 6.170750e-001 7.381637e-001 1.011612e-001 1.435462e-001 5.457577e-001 8.356164e-001 -1.490392e+000
<VARIANCE> 25
 2.191553e+001 3.254794e+001 2.575770e+001 2.920656e+001 3.539416e+001 3.118427e+001 4.348798e+001 3.458434e+001 3.020413e+001 2.649754e+001 4.346110e+001 3.463897e+001 1.884616e+000 3.949461e+000 1.587191e+000 2.411006e+000 3.058068e+000 2.990924e+000 3.079258e+000 2.711222e+000 2.654381e+000 2.400391e+000 4.035803e+000 2.937020e+000 4.819681e+000
<GCONST> 1.010461e+002
<STATE> 3
<MEAN> 25
 -2.538714e+000 3.594179e+000 7.890680e-001 6.560037e+000 5.877567e+000 6.284444e+000 5.296707e+000 2.702803e+000 1.673361e+000 1.518932e+000 4.123100e+000 2.758832e+000 -3.803268e-001 -1.405211e+000 -1.136136e-001 -3.262335e-001 -3.119619e-001 -9.909042e-001 -2.883157e-001 2.420142e-001 3.732710e-001 4.730418e-002 6.943958e-003 -2.491307e-001 1.739260e+000
<VARIANCE> 25
 1.608543e+001 4.000795e+001 2.552077e+001 3.053406e+001 3.908279e+001 3.632147e+001 4.860228e+001 2.952345e+001 3.199863e+001 2.576259e+001 4.299076e+001 2.746474e+001 1.945612e+000 2.890775e+000 2.211474e+000 3.166944e+000 3.651041e+000 5.104870e+000 3.595353e+000 3.092675e+000 3.007161e+000 2.620787e+000 3.278375e+000 3.232198e+000 4.385330e+000
<GCONST> 1.022984e+002
<STATE> 4
<MEAN> 25
 7.743673e-001 -2.858938e+000 -2.124178e+000 3.804685e-001 1.006933e+000 -1.489263e+000 -5.796678e-002 9.773049e-001 2.338130e+000 1.742317e+000 1.462932e+000 -1.374208e+000 1.743996e+000 -2.530693e+000 -1.342438e+000 -2.883452e+000 -1.927171e+000 -1.905679e+000 -1.485161e+000 -6.925450e-001 -3.058181e-001 -1.623214e-001 -2.002277e+000 -1.721918e+000 4.363926e+000
<VARIANCE> 25
 3.252861e+001 3.881884e+001 4.552758e+001 6.113740e+001 4.116911e+001 5.224611e+001 4.929506e+001 3.778193e+001 3.411967e+001 2.680345e+001 4.846880e+001 3.481527e+001 2.364898e+000 4.662862e+000 7.067276e+000 4.296499e+000 6.536864e+000 8.398017e+000 7.495438e+000 5.228722e+000 6.216836e+000 3.616980e+000 8.091189e+000 4.462403e+000 4.945168e+000
<GCONST> 1.122574e+002
<TRANSP> 5
 0.000000e+000 1.000000e+000 0.000000e+000 0.000000e+000 0.000000e+000
 0.000000e+000 6.614528e-001 3.385472e-001 0.000000e+000 0.000000e+000
 0.000000e+000 0.000000e+000 4.611216e-001 5.388784e-001 0.000000e+000
 0.000000e+000 0.000000e+000 0.000000e+000 6.079530e-001 3.920470e-001
 0.000000e+000 0.000000e+000 0.000000e+000 0.000000e+000 0.000000e+000
<ENDHMM>
~h "q"
<BEGINHMM>
<NUMSTATES> 5
<STATE> 2
<MEAN> 25
 -4.465420e+000 8.837020e-001 -3.545431e-001 3.229629e+000 4.984540e+000 2.404715e+000 2.516263e+000 4.336406e+000 7.840843e-001 -1.288117e+000 2.672145e+000 1.664370e+000 -3.737310e-001 -3.731461e-003 4.020002e-001 -6.944335e-001 -8.346861e-002 -4.809543e-001 -4.626741e-001 1.235296e-001 -1.493007e-001 -8.313365e-002 5.147464e-002 -1.347122e-001 6.521735e-001
<VARIANCE> 25
 3.494813e+001 2.574397e+001 4.008754e+001 5.129728e+001 5.180884e+001 6.588114e+001 6.129311e+001 4.682028e+001 3.948235e+001 3.641879e+001 3.867395e+001 2.861183e+001 7.021675e+000 3.171300e+000 4.098528e+000 8.791032e+000 8.348648e+000 6.086223e+000 7.984396e+000 6.391407e+000 4.899372e+000 3.983763e+000 3.027736e+000 3.163405e+000 5.436887e+000
<GCONST> 1.122271e+002
<STATE> 3
<MEAN> 25
 -4.059451e+000 -1.015756e-001 -2.801377e-001 1.016883e+000 4.685198e+000 4.803104e-001 -2.041653e-001 3.638870e+000 6.502841e-001 -1.560575e+000 1.509295e+000 7.446424e-001 -3.472043e-001 -2.738516e-002 4.311286e-001 -5.966174e-002 -4.282540e-002 -1.958525e-001 -1.718933e-001 -1.379620e-001 4.162886e-001 5.794527e-001 1.522997e-001 -5.408748e-002 2.625035e-001
<VARIANCE> 25
 3.838223e+001 2.237517e+001 4.299488e+001 5.777406e+001 7.627932e+001 6.520413e+001 5.488930e+001 4.812987e+001 3.913338e+001 3.549767e+001 3.758455e+001 2.908025e+001 5.971576e+000 2.450308e+000 2.787256e+000 6.482193e+000 6.981416e+000 4.242530e+000 5.503695e+000 6.893765e+000 4.069878e+000 3.647681e+000 3.022160e+000 2.593473e+000 3.722897e+000
<GCONST> 1.098173e+002
<STATE> 4
<MEAN> 25
 -6.389898e+000 -3.467594e-002 2.283011e-001 3.616498e+000 7.833444e+000 1.500126e+000 1.784081e+000 4.972031e+000 3.185235e+000 2.303456e-001 2.545668e+000 9.939072e-001 6.911179e-001 2.954416e-001 3.328888e-001 -2.743819e-001 -8.027815e-001 1.421316e-001 -6.287250e-002 -7.443512e-001 -5.160661e-002 3.867415e-001 -2.847462e-002 -2.229446e-002 -2.258135e-001
<VARIANCE> 25
 4.057043e+001 2.038578e+001 3.371540e+001 5.683778e+001 7.700372e+001 5.617521e+001 5.578345e+001 5.104858e+001 3.749664e+001 3.247744e+001 3.323351e+001 2.674529e+001 3.791539e+000 2.069387e+000 1.927213e+000 3.912766e+000 6.289988e+000 4.018159e+000 4.621423e+000 5.584872e+000 3.490123e+000 3.567433e+000 3.492188e+000 2.623165e+000 3.039737e+000
<GCONST> 1.068536e+002
<TRANSP> 5
 0.000000e+000 1.000000e+000 0.000000e+000 0.000000e+000 0.000000e+000
 0.000000e+000 4.053794e-001 5.946206e-001 0.000000e+000 0.000000e+000
 0.000000e+000 0.000000e+000 1.916153e-001 8.083847e-001 0.000000e+000
 0.000000e+000 0.000000e+000 0.000000e+000 6.339909e-001 3.660091e-001
 0.000000e+000 0.000000e+000 0.000000e+000 0.000000e+000 0.000000e+000
<ENDHMM>
~h "r"
<BEGINHMM>
<NUMSTATES> 5
<STATE> 2
<MEAN> 25
 3.124078e+000 -2.368890e+000 2.056183e+000 1.811979e+000 -6.425875e+000 -5.043828e+000 -3.842504e+000 1.357289e+000 2.484754e+000 -5.352738e-001 7.630693e-001 1.050886e-001 3.342715e-001 2.487337e-001 5.915214e-001 -1.687838e-001 -7.450824e-001 -1.856564e-001 -2.930079e-001 -8.850009e-001 1.188411e-001 -1.074630e-002 4.282123e-001 1.410979e-001 -6.314345e-002
<VARIANCE> 25
 1.289968e+001 2.974250e+001 2.811321e+001 3.724464e+001 4.989613e+001 3.965725e+001 8.694155e+001 5.293141e+001 4.776172e+001 4.479329e+001 3.551567e+001 3.308308e+001 1.835280e+000 3.558628e+000 3.047166e+000 4.218811e+000 5.963824e+000 4.719130e+000 4.475441e+000 6.483826e+000 3.653756e+000 5.104682e+000 3.117655e+000 3.423139e+000 2.526056e+000
<GCONST> 1.069680e+002
<STATE> 3
<MEAN> 25
 3.789341e+000 -8.325495e-001 2.845378e+000 1.260051e+000 -7.211848e+000 -3.997632e+000 -3.795916e+000 -1.725548e+000 2.062916e+000 5.417665e-002 1.740610e+000 -2.035827e-001 -2.084625e-001 5.666689e-001 1.281813e-001 -5.426803e-001 3.155163e-001 6.384366e-001 4.198090e-001 -7.454274e-001 -1.841119e-001 2.338526e-001 -1.885426e-002 -2.134120e-001 -1.858476e-001
<VARIANCE> 25
 1.322761e+001 3.421739e+001 2.799720e+001 2.704820e+001 3.529069e+001 4.369567e+001 7.079285e+001 4.891757e+001 4.383284e+001 3.764646e+001 3.970110e+001 2.859486e+001 1.538266e+000 3.618025e+000 2.017913e+000 4.758214e+000 4.548805e+000 3.879482e+000 4.570187e+000 8.225799e+000 4.334454e+000 3.977105e+000 3.215973e+000 2.806488e+000 2.284487e+000
<GCONST> 1.049750e+002
<STATE> 4
<MEAN> 25
 2.569229e+000 6.365105e-001 2.494523e+000 -3.996962e-001 -5.153828e+000 -2.351722e+000 -2.617532e+000 -2.466088e+000 1.673324e+000 6.923960e-001 8.698698e-001 -6.711175e-001 -6.303875e-001 1.913966e-001 -1.326713e-001 -8.117056e-001 6.123990e-001 6.309741e-001 5.403591e-001 -7.700649e-002 -1.678396e-001 1.535659e-001 -3.101349e-001 -2.221336e-001 2.708942e-001
<VARIANCE> 25
 1.394417e+001 4.350352e+001 2.525523e+001 3.777579e+001 3.724464e+001 4.408410e+001 6.016342e+001 7.161708e+001 3.785297e+001 3.601659e+001 4.244728e+001 2.971505e+001 1.335223e+000 2.406396e+000 1.661315e+000 3.136544e+000 2.742306e+000 3.238152e+000 4.856232e+000 6.015530e+000 4.034142e+000 2.978634e+000 3.521510e+000 2.474674e+000 1.664894e+000
<GCONST> 1.028825e+002
<TRANSP> 5
 0.000000e+000 1.000000e+000 0.000000e+000 0.000000e+000 0.000000e+000
 0.000000e+000 4.191597e-001 5.808403e-001 0.000000e+000 0.000000e+000
 0.000000e+000 0.000000e+000 2.969256e-001 7.030743e-001 0.000000e+000
 0.000000e+000 0.000000e+000 0.000000e+000 3.533682e-001 6.466318e-001
 0.000000e+000 0.000000e+000 0.000000e+000 0.000000e+000 0.000000e+000
<ENDHMM>
~h "s"
<BEGINHMM>
<NUMSTATES> 5
<STATE> 2
<MEAN> 25
 -1.031590e+001 7.053254e+000 -7.851328e-001 7.187207e+000 2.429361e+000 1.389018e+000 2.476563e+000 1.708558e+000 1.027868e+000 -5.839343e-001 3.949806e+000 1.114609e-001 -1.818328e+000 -6.056385e-002 -1.175046e-001 1.088159e+000 8.135045e-001 1.331396e+000 1.054710e+000 6.766906e-001 3.815784e-001 8.285412e-001 8.582045e-001 2.889076e-001 -6.740265e-001
<VARIANCE> 25
 2.802731e+001 1.766962e+001 2.298702e+001 3.695030e+001 4.223004e+001 3.645343e+001 4.918993e+001 4.018456e+001 2.837465e+001 3.149227e+001 2.803414e+001 2.812341e+001 3.205480e+000 2.238232e+000 1.757147e+000 2.517317e+000 2.543322e+000 2.579734e+000 3.329610e+000 3.132581e+000 3.009543e+000 3.633672e+000 2.617168e+000 2.287468e+000 7.846974e-001
<GCONST> 9.891248e+001
<STATE> 3
<MEAN> 25
 -1.123072e+001 3.088011e+000 -1.382508e+000 7.284571e+000 7.115520e+000 5.336576e+000 6.258227e+000 5.643530e+000 4.340256e+000 2.875282e+000 6.770738e+000 2.770519e+000 8.072111e-001 -7.306395e-001 9.192237e-002 -6.474763e-001 3.199949e-001 3.316110e-002 1.122335e-001 2.786256e-001 4.399441e-001 3.241010e-001 1.899763e-001 2.737038e-001 -4.687947e-001
<VARIANCE> 25
 3.138895e+001 2.605830e+001 2.541939e+001 4.014549e+001 4.612139e+001 4.009024e+001 4.119696e+001 3.792576e+001 3.578206e+001 3.100089e+001 3.190548e+001 2.299961e+001 2.163525e+000 1.910376e+000 2.033391e+000 2.831562e+000 3.201919e+000 3.996296e+000 3.034681e+000 3.075016e+000 3.566909e+000 2.546804e+000 2.417244e+000 2.236531e+000 2.416370e+000
<GCONST> 1.007963e+002
<STATE> 4
<MEAN> 25
 -6.336446e+000 1.381062e+000 -2.353618e-001 3.692655e+000 4.909464e+000 1.903705e+000 2.954120e+000 4.170424e+000 3.812635e+000 1.399067e+000 4.847759e+000 2.269358e+000 3.238092e+000 -4.310646e-001 3.268457e-001 -1.679227e+000 -1.576080e+000 -1.989619e+000 -2.096467e+000 -1.517255e+000 -8.649644e-001 -9.825725e-001 -1.724306e+000 -8.286268e-001 9.273548e-001
<VARIANCE> 25
 4.856082e+001 2.770718e+001 3.654978e+001 3.151918e+001 7.495093e+001 5.872238e+001 6.049061e+001 5.978054e+001 3.961863e+001 4.923627e+001 4.549227e+001 2.474357e+001 6.405871e+000 2.851108e+000 4.188034e+000 5.192430e+000 7.943745e+000 6.783604e+000 7.181247e+000 7.194167e+000 4.677812e+000 5.163442e+000 5.074335e+000 3.533703e+000 3.653727e+000
<GCONST> 1.126683e+002
<TRANSP> 5
 0.000000e+000 1.000000e+000 0.000000e+000 0.000000e+000 0.000000e+000
 0.000000e+000 7.876256e-001 2.123744e-001 0.000000e+000 0.000000e+000
 0.000000e+000 0.000000e+000 7.346379e-001 2.653621e-001 0.000000e+000
 0.000000e+000 0.000000e+000 0.000000e+000 5.458694e-001 4.541306e-001
 0.000000e+000 0.000000e+000 0.000000e+000 0.000000e+000 0.000000e+000
<ENDHMM>
~h "t"
<BEGINHMM>
<NUMSTATES> 5
<STATE> 2
<MEAN> 25
 1.035566e+000 7.436803e+000 1.854227e+000 5.488591e+000 1.413922e+000 2.506176e+000 1.709948e+000 1.092162e+000 1.011354e+000 2.345914e-001 2.188113e+000 1.617195e+000 -1.129661e+000 -3.661521e-002 1.619379e-001 9.166443e-001 1.111104e+000 1.507545e+000 9.318517e-001 5.450972e-001 2.609652e-001 5.826382e-001 1.215276e+000 6.867858e-001 -1.247082e+000
<VARIANCE> 25
 1.416075e+001 2.132704e+001 1.917672e+001 1.694958e+001 4.507686e+001 3.494154e+001 4.779520e+001 3.608588e+001 2.833301e+001 3.184941e+001 3.642794e+001 2.292180e+001 1.401578e+000 2.780202e+000 1.469875e+000 1.541822e+000 3.207381e+000 2.452246e+000 2.844064e+000 2.381677e+000 2.542007e+000 3.403609e+000 3.100164e+000 2.229144e+000 3.300913e+000
<GCONST> 9.722749e+001
<STATE> 3
<MEAN> 25
 -3.236339e+000 5.040787e+000 1.974829e+000 7.395458e+000 5.896484e+000 6.722012e+000 5.232692e+000 2.434078e+000 2.302988e+000 2.142807e+000 5.339339e+000 3.104675e+000 -9.944624e-001 -2.142721e+000 -7.446737e-001 -1.097380e+000 -2.642440e-001 -9.776891e-001 1.539973e-001 2.885070e-001 5.379997e-001 3.934376e-002 4.333945e-001 -2.456562e-001 2.795250e+000
<VARIANCE> 25
 1.127901e+001 2.347213e+001 1.807165e+001 2.043119e+001 3.714523e+001 3.207703e+001 5.148277e+001 3.197998e+001 2.984110e+001 2.984311e+001 2.922977e+001 2.357918e+001 1.388005e+000 2.457451e+000 2.415269e+000 2.310064e+000 4.132983e+000 4.693074e+000 4.154621e+000 3.736428e+000 3.106203e+000 3.471841e+000 3.173062e+000 2.433163e+000 4.667147e+000
<GCONST> 9.986986e+001
<STATE> 4
<MEAN> 25
 -2.683765e+000 -2.209516e+000 -1.929310e+000 2.708680e-001 -1.488380e-001 -2.676198e+000 1.804143e+000 3.391018e+000 3.127217e+000 -8.694189e-001 3.301603e+000 9.185708e-001 1.333099e+000 -2.278413e+000 -1.806395e+000 -2.846977e+000 -2.213261e+000 -2.856431e+000 -1.181058e+000 9.119599e-001 -1.684235e-001 -1.759976e+000 -2.123628e+000 -8.834568e-001 4.848887e+000
<VARIANCE> 25
 2.395784e+001 1.871832e+001 3.157759e+001 3.109665e+001 4.771703e+001 5.202382e+001 4.881230e+001 3.588795e+001 2.864290e+001 4.182505e+001 4.824269e+001 2.646548e+001 1.505362e+000 2.994815e+000 3.901902e+000 2.534639e+000 8.012802e+000 6.227605e+000 6.851118e+000 6.541266e+000 5.876088e+000 6.160223e+000 4.681746e+000 4.679372e+000 4.301819e+000
<GCONST> 1.081130e+002
<TRANSP> 5
 0.000000e+000 1.000000e+000 0.000000e+000 0.000000e+000 0.000000e+000
 0.000000e+000 6.909145e-001 3.090855e-001 0.000000e+000 0.000000e+000
 0.000000e+000 0.000000e+000 4.596574e-001 5.403426e-001 0.000000e+000
 0.000000e+000 0.000000e+000 0.000000e+000 6.004139e-001 3.995861e-001
 0.000000e+000 0.000000e+000 0.000000e+000 0.000000e+000 0.000000e+000
<ENDHMM>
~h "u"
<BEGINHMM>
<NUMSTATES> 5
<STATE> 2
<MEAN> 25
 6.568168e+000 2.364747e+000 -4.436141e+000 -9.065927e+000 -2.923857e+000 1.294599e+000 -4.682281e+000 -4.586164e+000 -4.005462e+000 3.295179e+000 3.915452e-001 -3.991550e-001 7.933818e-001 -6.629099e-001 -2.397536e-001 -8.015233e-001 -1.508141e-001 1.160065e-001 -1.386618e+000 -1.244932e+000 2.581140e-001 1.102347e+000 -3.916743e-001 -5.298448e-001 1.045257e+000
<VARIANCE> 25
 1.028976e+001 2.749917e+001 2.334394e+001 5.975452e+001 3.560399e+001 5.169742e+001 4.823162e+001 3.500227e+001 4.473211e+001 4.218422e+001 4.090844e+001 3.760801e+001 2.464613e+000 2.222340e+000 2.878564e+000 6.856640e+000 5.024910e+000 5.479212e+000 4.792381e+000 4.548106e+000 5.747616e+000 4.224061e+000 4.133984e+000 3.493999e+000 1.746931e+000
<GCONST> 1.061613e+002
<STATE> 3
<MEAN> 25
 6.385603e+000 -1.212880e+000 -3.433376e+000 -6.783669e+000 -1.763220e+000 6.897694e-001 -7.680102e+000 -5.379986e+000 -8.863758e-001 3.970198e+000 -1.406191e+000 -2.382230e+000 -1.709917e-001 -1.982715e-001 8.280530e-001 1.061453e+000 -1.371885e-001 -5.836762e-001 -2.489049e-001 3.567259e-001 6.611001e-001 -8.284872e-001 -6.519588e-001 1.517377e-001 -2.125409e-001
<VARIANCE> 25
 8.529802e+000 2.559844e+001 2.254524e+001 3.576323e+001 3.495834e+001 4.143257e+001 4.774530e+001 3.652310e+001 4.549210e+001 4.257812e+001 4.360391e+001 3.024312e+001 6.885184e-001 1.547711e+000 2.263758e+000 3.623181e+000 2.782551e+000 5.594445e+000 4.468626e+000 3.620710e+000 4.666934e+000 4.033596e+000 3.276119e+000 3.329031e+000 9.398684e-001
<GCONST> 1.004801e+002
<STATE> 4
<MEAN> 25
 4.818526e+000 1.107173e+000 2.494817e-001 -1.190357e+000 -2.046169e+000 -2.144553e+000 -5.855955e+000 -3.548904e+000 3.395030e-001 -6.738616e-001 -1.622863e+000 -3.674110e-001 -8.489067e-001 7.189429e-001 1.042996e+000 1.468990e+000 4.127968e-002 -2.026993e-001 9.521966e-001 3.776068e-001 -1.831991e-002 -7.870590e-001 2.115248e-001 5.135638e-001 -1.125956e+000
<VARIANCE> 25
 1.234730e+001 3.661444e+001 2.681470e+001 4.006169e+001 4.025301e+001 5.402366e+001 5.740232e+001 4.348794e+001 4.205342e+001 4.356313e+001 3.418001e+001 2.619974e+001 1.450493e+000 1.829120e+000 2.728476e+000 2.839174e+000 4.524339e+000 3.527193e+000 4.706261e+000 4.101680e+000 4.094299e+000 3.726816e+000 3.874041e+000 3.135655e+000 1.613483e+000
<GCONST> 1.033118e+002
<TRANSP> 5
 0.000000e+000 1.000000e+000 0.000000e+000 0.000000e+000 0.000000e+000
 0.000000e+000 6.226144e-001 3.773856e-001 0.000000e+000 0.000000e+000
 0.000000e+000 0.000000e+000 5.942433e-001 4.057567e-001 0.000000e+000
 0.000000e+000 0.000000e+000 0.000000e+000 6.465174e-001 3.534826e-001
 0.000000e+000 0.000000e+000 0.000000e+000 0.000000e+000 0.000000e+000
<ENDHMM>
~h "v"
<BEGINHMM>
<NUMSTATES> 5
<STATE> 2
<MEAN> 25
 -9.465448e-001 -3.931563e+000 6.058783e+000 -3.433340e+000 -9.892234e+000 -5.970025e+000 5.357661e+000 5.623448e+000 4.519173e+000 3.257780e+000 3.404812e+000 3.514389e+000 -1.711741e+000 -4.168164e-001 5.512249e-001 -2.354725e+000 -1.668593e+000 2.134866e+000 2.295264e+000 6.758448e-001 -1.123173e+000 1.767188e+000 1.906403e+000 -5.684265e-001 2.095785e+000
<VARIANCE> 25
 6.999232e+000 2.209053e+000 1.409801e+000 2.307689e+001 2.148603e+001 1.970001e+001 2.522668e+001 1.521913e+001 1.745784e+001 2.438263e+001 1.898014e+001 1.178884e+001 8.140793e-001 3.003634e+000 4.697491e-001 1.696423e+000 1.892608e+000 1.560187e+000 1.722618e+000 3.095028e+000 1.349699e+000 3.971606e+000 1.151401e+000 2.449042e+000 2.657449e+000
<GCONST> 8.274684e+001
<STATE> 3
<MEAN> 25
 -3.998003e+000 -5.079434e-001 4.843008e+000 -5.105085e+000 -1.113846e+001 2.354532e+000 6.527362e+000 1.746385e+000 -1.220069e+000 4.735689e+000 6.247913e+000 -7.797969e-001 3.089762e-001 8.007474e-001 -1.989675e-002 1.508645e+000 3.148142e-001 -6.228042e-001 -1.031003e+000 -8.469681e-001 -1.349059e+000 -8.919343e-001 -3.746794e-001 2.074575e-001 -8.371637e-001
<VARIANCE> 25
 3.391467e+000 1.613747e+000 2.417843e+000 1.071148e+001 9.535326e+000 2.606686e+001 6.459893e+000 1.583406e+001 2.929213e+001 1.002558e+001 5.320041e+000 6.725013e+000 7.322217e-001 1.856417e-001 2.783721e-001 6.420962e-001 3.000731e-001 4.614848e+000 1.381838e+000 1.448598e+000 3.859773e-001 1.010992e+000 1.327011e+000 3.157714e+000 3.015625e-001
<GCONST> 6.689925e+001
<STATE> 4
<MEAN> 25
 2.760374e+000 4.160169e+000 6.745940e+000 1.939339e+000 -6.169136e+000 -7.266166e+000 1.194722e+000 -6.148184e+000 9.167792e-001 -5.569995e-001 -2.884456e+000 7.229358e+000 1.234478e+000 9.608976e-001 -5.264822e-002 4.843000e-001 1.019275e+000 -5.615276e-001 -6.529605e-001 -1.286479e+000 1.400586e+000 -7.062647e-001 -1.932530e+000 7.818630e-001 -1.522459e+000
<VARIANCE> 25
 6.906090e+000 6.767375e+000 4.139237e+000 2.771014e+000 8.039829e+000 5.532225e+000 2.553375e+001 2.248434e+001 2.448604e+001 2.964235e+001 3.491536e+001 2.067897e+001 9.324327e-001 1.897010e-001 5.864046e-001 6.498697e-001 1.398283e+000 2.487893e+000 1.677391e+000 4.325876e+000 2.832951e+000 4.786860e-001 3.808512e+000 2.685325e+000 5.050664e-001
<GCONST> 7.802647e+001
<TRANSP> 5
 0.000000e+000 1.000000e+000 0.000000e+000 0.000000e+000 0.000000e+000
 0.000000e+000 7.061143e-001 2.938857e-001 0.000000e+000 0.000000e+000
 0.000000e+000 0.000000e+000 7.650163e-001 2.349837e-001 0.000000e+000
 0.000000e+000 0.000000e+000 0.000000e+000 8.198145e-001 1.801855e-001
 0.000000e+000 0.000000e+000 0.000000e+000 0.000000e+000 0.000000e+000
<ENDHMM>
~h "w"
<BEGINHMM>
<NUMSTATES> 5
<STATE> 2
<MEAN> 25
 7.902993e+000 3.316891e+000 -4.519744e+000 -1.260964e+001 -3.473841e+000 2.768400e+000 2.397469e-001 -3.143965e+000 -3.240199e+000 3.612016e+000 8.466931e-001 -9.532686e-001 4.261143e-001 -1.533664e-001 -5.911411e-001 -1.134994e+000 7.754550e-002 8.277283e-001 2.710008e-001 -2.987530e-001 -6.319264e-001 3.389679e-001 2.954378e-001 2.294951e-001 3.613736e-001
<VARIANCE> 25
 9.047910e+000 4.182299e+001 2.653956e+001 3.886002e+001 4.974061e+001 3.195534e+001 3.534734e+001 2.967414e+001 3.308163e+001 2.986166e+001 3.430816e+001 2.792831e+001 1.430807e+000 4.681446e+000 2.182511e+000 4.443516e+000 6.214242e+000 3.861754e+000 3.397238e+000 2.774777e+000 3.603106e+000 3.211717e+000 3.685804e+000 3.408412e+000 2.908470e+000
<GCONST> 1.025510e+002
<STATE> 3
<MEAN> 25
 6.634686e+000 -2.592319e+000 -7.920563e+000 -1.196650e+001 1.998690e+000 5.739157e+000 8.337215e-001 -4.155411e+000 -2.554375e+000 5.073472e+000 1.084626e-001 -3.045880e+000 -7.337593e-001 -1.382604e+000 -1.256606e-001 1.402397e+000 1.178501e+000 -4.395596e-001 -4.306937e-001 4.692288e-001 1.135695e+000 -2.420847e-001 -1.280040e+000 -1.183088e+000 8.116723e-001
<VARIANCE> 25
 8.046837e+000 3.527576e+001 2.088416e+001 2.561950e+001 4.085881e+001 2.630848e+001 3.638651e+001 2.599139e+001 3.881248e+001 3.448265e+001 4.548919e+001 3.143822e+001 8.134795e-001 3.402050e+000 1.209498e+000 3.170743e+000 3.518752e+000 2.509237e+000 3.010546e+000 2.401668e+000 3.118502e+000 2.785854e+000 3.772381e+000 3.342665e+000 1.866684e+000
<GCONST> 9.801345e+001
<STATE> 4
<MEAN> 25
 3.896804e+000 -5.048553e+000 -6.689381e+000 -5.493487e+000 4.261312e+000 2.007200e+000 -1.791341e+000 -7.269465e-001 1.385918e+000 2.039757e+000 -4.718863e+000 -4.410848e+000 -1.007646e+000 -2.674598e-001 1.117769e+000 2.248329e+000 -1.559494e-001 -1.603922e+000 -3.527652e-002 1.563131e+000 5.306658e-001 -1.414793e+000 -8.884341e-001 5.116873e-001 -1.485640e-001
<VARIANCE> 25
 1.027389e+001 6.997594e+001 2.573448e+001 2.921143e+001 5.072654e+001 3.849415e+001 5.558679e+001 3.534779e+001 3.753563e+001 3.698785e+001 6.253678e+001 4.375985e+001 9.781457e-001 2.004220e+000 1.676079e+000 1.922872e+000 3.117954e+000 3.118759e+000 3.583306e+000 2.761598e+000 3.048108e+000 3.420404e+000 4.504895e+000 2.828395e+000 1.928611e+000
<GCONST> 1.014137e+002
<TRANSP> 5
 0.000000e+000 1.000000e+000 0.000000e+000 0.000000e+000 0.000000e+000
 0.000000e+000 7.833619e-001 2.166381e-001 0.000000e+000 0.000000e+000
 0.000000e+000 0.000000e+000 6.450245e-001 3.549755e-001 0.000000e+000
 0.000000e+000 0.000000e+000 0.000000e+000 6.173012e-001 3.826988e-001
 0.000000e+000 0.000000e+000 0.000000e+000 0.000000e+000 0.000000e+000
<ENDHMM>
~h "x"
<BEGINHMM>
<NUMSTATES> 5
<STATE> 2
<MEAN> 25
 6.241413e+000 3.743604e+000 6.916916e-001 2.469882e+000 -6.063905e+000 -2.860870e+000 -4.808071e+000 -5.475887e+000 -9.215458e-001 3.024057e+000 -2.400748e+000 -4.397124e+000 1.331649e-001 -3.163637e-001 -6.920095e-002 -5.803370e-001 -2.148530e-001 -7.292902e-003 -2.173442e-001 -3.098369e-001 3.078481e-003 8.128209e-001 -8.014946e-001 -4.566571e-001 7.158020e-001
<VARIANCE> 25
 9.203375e+000 2.881209e+001 4.184570e+001 3.156750e+001 2.079605e+001 2.935476e+001 3.553853e+001 5.107995e+001 4.088340e+001 3.991062e+001 3.094083e+001 2.685455e+001 1.353923e+000 1.225101e+000 1.601022e+000 2.562233e+000 2.285081e+000 2.302431e+000 3.466470e+000 2.933115e+000 3.002331e+000 2.349757e+000 2.201381e+000 1.471817e+000 1.356907e+000
<GCONST> 9.608312e+001
<STATE> 3
<MEAN> 25
 2.113731e+000 3.786764e+000 3.160961e+000 -3.808733e+000 -3.286833e+000 -2.960091e+000 -3.504670e+000 -4.602947e+000 -1.948799e+000 5.295842e+000 -3.516474e+000 -5.530154e+000 -1.489429e+000 -3.886119e-001 7.847583e-001 -2.019408e+000 1.856075e-001 6.116232e-001 6.822795e-001 6.841994e-001 -6.210041e-001 -1.290686e-001 4.288159e-001 -5.897327e-002 1.305730e+000
<VARIANCE> 25
 1.210081e+001 2.640015e+001 5.853691e+001 3.352361e+001 3.402155e+001 1.976266e+001 3.127881e+001 5.275448e+001 4.863253e+001 3.228023e+001 2.644937e+001 2.171786e+001 7.153952e-001 2.461457e+000 1.801821e+000 3.145105e+000 3.251153e+000 2.896490e+000 3.913715e+000 4.315067e+000 3.980867e+000 2.912060e+000 2.233418e+000 1.621882e+000 5.256281e-001
<GCONST> 9.739088e+001
<STATE> 4
<MEAN> 25
 -2.051760e+000 -1.159559e+000 3.804588e+000 -7.811824e+000 -5.041454e+000 1.600875e+000 2.151112e+000 -5.161725e-001 -5.613838e+000 4.670041e-001 -7.798485e-001 -4.201344e+000 -1.834940e-001 -1.647867e+000 -6.754740e-001 3.634985e-001 -1.425558e-001 3.941485e-001 9.508877e-001 1.416176e+000 -1.328569e-001 -1.907435e+000 3.620954e-001 1.109079e+000 7.374015e-001
<VARIANCE> 25
 9.948927e+000 2.304864e+001 3.433299e+001 1.611561e+001 3.425050e+001 3.214682e+001 6.287911e+001 3.345070e+001 3.352238e+001 3.766703e+001 2.410427e+001 2.598480e+001 5.876681e-001 2.720284e+000 2.816364e+000 2.428813e+000 3.477989e+000 3.154320e+000 3.283851e+000 5.216814e+000 4.848627e+000 3.171193e+000 2.945504e+000 2.277158e+000 5.316241e-001
<GCONST> 9.756641e+001
<TRANSP> 5
 0.000000e+000 1.000000e+000 0.000000e+000 0.000000e+000 0.000000e+000
 0.000000e+000 7.369805e-001 2.630195e-001 0.000000e+000 0.000000e+000
 0.000000e+000 0.000000e+000 7.121230e-001 2.878770e-001 0.000000e+000
 0.000000e+000 0.000000e+000 0.000000e+000 6.760042e-001 3.239958e-001
 0.000000e+000 0.000000e+000 0.000000e+000 0.000000e+000 0.000000e+000
<ENDHMM>
~h "y"
<BEGINHMM>
<NUMSTATES> 5
<STATE> 2
<MEAN> 25
 -8.159718e-001 -1.162875e+000 4.571772e+000 -6.308047e+000 -1.131828e+001 -2.599228e+000 2.010830e+000 -4.775359e-001 -1.384963e+000 8.581231e-001 -6.048279e-001 -2.684110e+000 -2.540534e-001 1.493502e+000 1.547206e+000 -4.275099e-001 -5.723299e-001 1.418188e-001 -1.469445e+000 -1.651067e+000 3.111986e-001 8.756109e-001 1.492392e-001 1.251018e-001 -6.217695e-001
<VARIANCE> 25
 1.044414e+001 1.880429e+001 2.959174e+001 2.591213e+001 2.642381e+001 3.640925e+001 4.060025e+001 3.716806e+001 2.861682e+001 2.533205e+001 3.371505e+001 1.889388e+001 2.705637e-001 1.281542e+000 1.328579e+000 1.178778e+000 1.980788e+000 1.825828e+000 3.832042e+000 2.284509e+000 3.172222e+000 2.193919e+000 2.013898e+000 1.983828e+000 3.449970e-001
<GCONST> 9.020590e+001
<STATE> 3
<MEAN> 25
 -1.233891e+000 5.207043e+000 9.163606e+000 -6.838897e+000 -9.370754e+000 -1.476356e+000 -5.504247e+000 -6.101843e+000 3.660683e-001 1.563715e+000 -1.545798e+000 -1.384877e+000 2.642456e-001 6.781139e-001 2.591353e-001 5.336539e-001 6.329926e-001 6.176865e-002 -5.799963e-001 -3.034811e-001 6.220407e-002 -2.972307e-001 -1.720948e-001 1.205127e-001 -8.664699e-001
<VARIANCE> 25
 1.032263e+001 2.748342e+001 2.468209e+001 3.100858e+001 3.290837e+001 2.923147e+001 4.056325e+001 3.445421e+001 3.809259e+001 2.888130e+001 3.284774e+001 2.436024e+001 4.820884e-001 1.726275e+000 1.303863e+000 1.504060e+000 1.946274e+000 1.857870e+000 2.971175e+000 2.087270e+000 1.900276e+000 1.938276e+000 1.882293e+000 1.606864e+000 8.181231e-001
<GCONST> 9.184454e+001
<STATE> 4
<MEAN> 25
 8.749277e-001 6.411195e+000 6.927062e+000 1.760309e-001 -4.985527e+000 -1.401267e+000 -2.650316e+000 -4.453598e+000 -2.741769e-001 7.597502e-001 -7.642946e-002 -7.798229e-001 3.358917e-001 -1.849484e-001 -1.032515e+000 1.734493e+000 1.438112e+000 1.740611e-001 8.101591e-001 7.527258e-001 -4.965290e-002 9.558666e-002 4.042387e-001 1.778930e-001 -1.445368e+000
<VARIANCE> 25
 1.528806e+001 3.538876e+001 2.382894e+001 4.963534e+001 4.987983e+001 3.743962e+001 5.109394e+001 4.191936e+001 3.656782e+001 3.357222e+001 3.631738e+001 2.834609e+001 1.910482e+000 2.543346e+000 1.754329e+000 3.138392e+000 3.809298e+000 3.860043e+000 4.333023e+000 3.439492e+000 3.054863e+000 3.308892e+000 3.372298e+000 2.654707e+000 2.686628e+000
<GCONST> 1.027373e+002
<TRANSP> 5
 0.000000e+000 1.000000e+000 0.000000e+000 0.000000e+000 0.000000e+000
 0.000000e+000 7.326481e-001 2.673519e-001 0.000000e+000 0.000000e+000
 0.000000e+000 0.000000e+000 6.943759e-001 3.056241e-001 0.000000e+000
 0.000000e+000 0.000000e+000 0.000000e+000 7.409931e-001 2.590069e-001
 0.000000e+000 0.000000e+000 0.000000e+000 0.000000e+000 0.000000e+000
<ENDHMM>
~h "al"
<BEGINHMM>
<NUMSTATES> 5
<STATE> 2
<MEAN> 25
 -6.732167e+000 -1.590131e+000 -1.998588e+000 6.496665e+000 9.491469e+000 -9.974245e-001 7.632460e-001 5.497021e+000 5.096437e+000 4.691980e-001 1.038689e+000 5.849119e-001 1.063543e+000 -1.075964e+000 -6.259856e-001 -7.374780e-001 -7.416641e-001 -4.254020e-001 7.718450e-002 -3.958904e-001 -1.973070e-001 -1.119071e+000 -7.182360e-001 -4.596727e-001 1.449018e+000
<VARIANCE> 25
 2.948758e+001 2.969356e+001 2.775271e+001 3.008310e+001 4.872598e+001 5.401598e+001 4.523687e+001 3.692827e+001 3.232789e+001 3.470063e+001 3.175323e+001 2.384768e+001 7.003136e+000 2.602489e+000 2.457103e+000 4.713993e+000 7.870644e+000 5.255973e+000 5.511703e+000 5.287660e+000 5.098530e+000 4.248775e+000 3.677250e+000 3.022133e+000 4.137336e+000
<GCONST> 1.077487e+002
<STATE> 3
<MEAN> 25
 3.769851e+000 -7.748368e+000 -6.804892e+000 -2.516457e+000 1.137488e+000 -2.226518e+000 1.851289e+000 7.881308e-001 6.776913e-001 -5.692529e+000 -4.473890e+000 -3.059733e+000 1.222810e+000 -1.643039e+000 -9.002530e-001 -1.458002e+000 -1.015238e+000 5.389297e-001 7.421999e-001 -2.884633e-001 -8.031220e-001 -7.830419e-001 -8.494327e-001 -3.304636e-001 1.850880e+000
<VARIANCE> 25
 1.308416e+001 1.774609e+001 1.658223e+001 2.415875e+001 3.139175e+001 2.469922e+001 4.921130e+001 3.769818e+001 3.348196e+001 2.656830e+001 2.444629e+001 4.010744e+001 3.181608e+000 1.747087e+000 2.298192e+000 2.939583e+000 5.343682e+000 4.878320e+000 3.655648e+000 3.673232e+000 3.408285e+000 2.464565e+000 2.568110e+000 2.207148e+000 1.875422e+000
<GCONST> 9.922101e+001
<STATE> 4
<MEAN> 25
 4.139651e+000 -8.072173e+000 -6.681777e+000 -5.844488e-001 2.037800e+000 1.079077e+000 6.737309e-002 3.944393e-001 -2.355943e+000 -4.506240e+000 -3.926338e+000 -7.479287e-001 6.546397e-002 8.648811e-001 5.212532e-001 4.570561e-001 -1.692928e-001 2.108122e-001 -4.086111e-001 -9.902234e-002 -2.371939e-001 5.131574e-001 4.324171e-001 3.647753e-001 -9.432771e-001
<VARIANCE> 25
 1.234960e+001 2.484707e+001 1.808294e+001 2.632259e+001 3.410079e+001 3.042759e+001 5.537609e+001 3.690026e+001 3.909758e+001 3.139072e+001 2.731689e+001 3.149127e+001 6.778129e-001 2.034922e+000 1.319911e+000 1.734661e+000 2.084816e+000 2.126748e+000 2.700554e+000 2.258152e+000 2.079507e+000 2.031847e+000 2.138311e+000 2.022630e+000 1.616101e+000
<GCONST> 9.410825e+001
<TRANSP> 5
 0.000000e+000 1.000000e+000 0.000000e+000 0.000000e+000 0.000000e+000
 0.000000e+000 7.938594e-001 2.061406e-001 0.000000e+000 0.000000e+000
 0.000000e+000 0.000000e+000 6.306419e-001 3.693581e-001 0.000000e+000
 0.000000e+000 0.000000e+000 0.000000e+000 8.503594e-001 1.496406e-001
 0.000000e+000 0.000000e+000 0.000000e+000 0.000000e+000 0.000000e+000
<ENDHMM>
~h "ch"
<BEGINHMM>
<NUMSTATES> 5
<STATE> 2
<MEAN> 25
 -1.271970e+001 5.310268e+000 2.919469e+000 2.224087e+000 7.089662e+000 3.260825e+000 5.056715e+000 2.675654e+000 4.114776e+000 3.133662e+000 7.171666e+000 1.863886e+000 -1.914213e+000 -5.106332e-001 3.233933e-001 -8.544818e-001 -2.853242e-001 -5.187180e-001 3.955356e-001 5.313998e-001 3.870210e-001 2.798994e-001 6.698104e-001 -3.195765e-002 1.842662e+000
<VARIANCE> 25
 6.616708e+001 3.495554e+001 2.986330e+001 3.551790e+001 4.478804e+001 3.937060e+001 5.185541e+001 3.380882e+001 3.268496e+001 3.069215e+001 3.251912e+001 2.325898e+001 8.253134e+000 2.227441e+000 2.244681e+000 3.399127e+000 6.618152e+000 5.387162e+000 3.812559e+000 3.548091e+000 3.424607e+000 3.135270e+000 2.601831e+000 1.922602e+000 3.764148e+000
<GCONST> 1.055746e+002
<STATE> 3
<MEAN> 25
 -1.190641e+001 2.487550e+000 4.844098e+000 8.534601e-001 1.189809e+000 -1.778859e+000 4.441855e+000 3.415615e+000 2.900039e+000 4.129759e-001 7.087054e+000 1.082201e+000 5.227085e+000 -8.575170e-001 3.426294e-001 -7.600629e-001 -3.554316e+000 -3.034391e+000 -2.489716e+000 -1.315238e+000 -1.943674e+000 -2.464011e+000 -2.299891e+000 -1.410792e+000 7.943632e-001
<VARIANCE> 25
 4.629096e+001 3.199275e+001 2.749120e+001 4.580495e+001 4.971188e+001 5.520073e+001 5.194212e+001 4.711903e+001 4.550744e+001 4.368192e+001 3.612086e+001 2.815268e+001 2.760627e+000 2.936064e+000 3.436721e+000 3.671679e+000 7.274865e+000 4.930905e+000 4.935717e+000 4.076316e+000 4.185704e+000 4.067677e+000 4.336445e+000 2.268199e+000 1.992450e+000
<GCONST> 1.076445e+002
<STATE> 4
<MEAN> 25
 1.512590e+000 -4.235031e-001 3.460773e+000 -3.650883e+000 -8.538521e+000 -8.262678e+000 -2.181485e+000 6.529390e-001 -1.343114e+000 -4.252388e+000 8.757889e-001 -2.074603e+000 3.856350e+000 -2.115395e+000 -1.329068e+000 -1.395701e+000 -2.097372e+000 -7.685456e-001 -1.416148e+000 5.850593e-002 -9.219912e-001 -9.849227e-001 -2.098810e+000 -9.482197e-001 1.422542e+000
<VARIANCE> 25
 1.830069e+001 2.933708e+001 2.728825e+001 4.101747e+001 4.218421e+001 3.274913e+001 3.296393e+001 4.565516e+001 3.112376e+001 2.751079e+001 2.546240e+001 2.552719e+001 3.703944e+000 3.602716e+000 3.832596e+000 3.561985e+000 8.157707e+000 6.488397e+000 7.213957e+000 5.687575e+000 5.362947e+000 6.014163e+000 4.936703e+000 3.273869e+000 1.700306e+000
<GCONST> 1.067055e+002
<TRANSP> 5
 0.000000e+000 1.000000e+000 0.000000e+000 0.000000e+000 0.000000e+000
 0.000000e+000 8.033805e-001 1.966195e-001 0.000000e+000 0.000000e+000
 0.000000e+000 0.000000e+000 4.813680e-001 5.186320e-001 0.000000e+000
 0.000000e+000 0.000000e+000 0.000000e+000 3.610922e-001 6.389077e-001
 0.000000e+000 0.000000e+000 0.000000e+000 0.000000e+000 0.000000e+000
<ENDHMM>
~h "ll"
<BEGINHMM>
<NUMSTATES> 5
<STATE> 2
<MEAN> 25
 1.146084e+000 3.635606e+000 6.359920e+000 3.712458e+000 -9.387855e+000 -7.191825e+000 1.557167e+000 -5.943344e+000 -2.378399e+000 1.111435e+000 5.700255e-001 -2.423352e+000 -2.259910e-001 4.656547e-001 4.557435e-001 4.533108e-001 3.520551e-002 -3.461038e-001 5.800367e-002 -2.109156e-001 -2.898245e-001 4.478405e-001 1.757698e-001 -1.813410e-001 -4.272001e-001
<VARIANCE> 25
 9.616816e+000 2.164967e+001 2.868237e+001 3.233703e+001 4.919781e+001 3.672881e+001 5.335429e+001 7.277109e+001 3.591936e+001 3.757520e+001 2.697577e+001 3.209336e+001 1.131211e+000 1.939585e+000 1.891769e+000 3.672622e+000 3.544907e+000 3.200821e+000 4.421766e+000 7.182870e+000 3.163736e+000 2.658518e+000 2.719635e+000 2.313905e+000 1.803908e+000
<GCONST> 1.010231e+002
<STATE> 3
<MEAN> 25
 -7.177761e-001 3.640790e+000 5.574562e+000 1.501718e+000 -5.818123e+000 -7.163184e+000 -6.039312e-001 -7.724674e-001 -3.163854e+000 2.312329e+000 2.373177e+000 -1.805940e+000 -6.974891e-001 -7.629886e-001 -9.005013e-001 -1.433295e+000 8.653288e-001 4.789332e-001 -1.368694e-001 2.171211e+000 4.110821e-001 -6.842045e-002 6.087519e-001 1.938072e-001 8.313606e-001
<VARIANCE> 25
 9.214807e+000 2.270581e+001 2.948007e+001 4.115998e+001 4.227397e+001 3.342888e+001 4.600838e+001 5.172459e+001 3.552755e+001 3.836586e+001 2.717260e+001 3.090115e+001 1.171525e+000 3.185867e+000 1.702065e+000 4.491906e+000 3.354889e+000 3.556413e+000 5.916597e+000 5.911496e+000 4.063529e+000 3.177316e+000 2.819087e+000 2.530486e+000 2.437479e+000
<GCONST> 1.021692e+002
<STATE> 4
<MEAN> 25
 -2.023002e+000 5.276590e-001 2.053590e+000 -1.894886e+000 -3.511777e+000 -4.099505e+000 6.609563e-001 4.007270e+000 -3.336063e-001 5.390888e-001 2.213467e+000 -1.298705e+000 -5.955116e-001 -1.307264e+000 -1.247213e+000 -5.510908e-001 1.340568e+000 1.557040e+000 8.587325e-001 1.180256e+000 8.116496e-001 -1.228321e+000 -7.776729e-001 2.025309e-001 7.338027e-001
<VARIANCE> 25
 1.040811e+001 3.322489e+001 2.442381e+001 5.647561e+001 5.390670e+001 3.828628e+001 5.392405e+001 3.581412e+001 3.321539e+001 3.336487e+001 2.421470e+001 2.450116e+001 1.233487e+000 2.730759e+000 2.445415e+000 3.856617e+000 2.602325e+000 3.136117e+000 7.367658e+000 3.574522e+000 4.213601e+000 3.872363e+000 3.420513e+000 3.272895e+000 1.607931e+000
<GCONST> 1.021280e+002
<TRANSP> 5
 0.000000e+000 1.000000e+000 0.000000e+000 0.000000e+000 0.000000e+000
 0.000000e+000 7.146356e-001 2.853645e-001 0.000000e+000 0.000000e+000
 0.000000e+000 0.000000e+000 5.019970e-001 4.980030e-001 0.000000e+000
 0.000000e+000 0.000000e+000 0.000000e+000 4.809767e-001 5.190232e-001
 0.000000e+000 0.000000e+000 0.000000e+000 0.000000e+000 0.000000e+000
<ENDHMM>
~h "rr"
<BEGINHMM>
<NUMSTATES> 5
<STATE> 2
<MEAN> 25
 9.535651e-001 -9.258918e-001 5.690988e+000 8.470476e+000 -2.571268e+000 -8.281880e+000 -6.983504e+000 -3.274764e+000 5.346545e+000 -2.339545e-001 -1.362650e+000 -5.636952e+000 -4.046106e-001 -2.881583e-001 3.464628e-001 -1.019894e-001 1.730545e-001 -1.092748e+000 1.053224e+000 1.156240e+000 -4.462199e-002 -1.285739e+000 -3.223599e-001 1.193684e-001 8.384971e-002
<VARIANCE> 25
 2.936944e+001 1.809148e+001 2.360119e+001 2.505146e+001 2.764801e+001 3.186807e+001 1.731451e+001 3.332756e+001 2.293229e+001 2.913472e+001 1.853112e+001 1.763059e+001 5.552563e+000 3.494042e+000 4.906711e+000 9.557201e+000 2.923474e+000 8.360197e+000 2.037470e+000 8.516505e+000 2.895419e+000 1.299301e+000 1.979831e+000 2.349606e+000 6.311132e-001
<GCONST> 9.930234e+001
<STATE> 3
<MEAN> 25
 4.447247e+000 -1.040871e+001 3.958611e-001 -3.885134e+000 -2.073943e+000 -2.288388e+000 2.162529e+000 1.232856e+001 -7.511501e+000 -4.794527e+000 -7.955333e+000 -1.297306e-002 -6.153582e-001 -1.412924e+000 -7.195409e-001 -1.166256e+000 8.902111e-001 1.300735e+000 2.873083e+000 7.057420e-001 -4.423900e+000 -2.635254e-001 -8.028852e-001 2.747237e+000 1.442539e+000
<VARIANCE> 25
 5.651751e+000 9.996846e+000 1.952216e+000 1.143981e+001 1.328585e+001 9.253895e+000 1.210053e+001 7.093969e+000 6.993326e+001 1.701218e+001 1.168355e+001 4.018482e+001 2.601021e+000 1.435511e+000 1.346033e+000 2.868430e+000 1.691413e+000 3.067503e+000 6.306442e-001 5.945455e+000 3.696764e+000 2.168811e+000 1.523334e+000 5.091335e+000 2.289428e-001
<GCONST> 8.387679e+001
<STATE> 4
<MEAN> 25
 -1.951533e+000 -8.321201e+000 -4.794889e-002 -3.134416e+000 -2.752764e+000 -2.629820e+000 1.112522e+001 4.125558e+000 -1.273972e+001 -9.862908e+000 -1.183386e+000 5.356514e+000 -1.448083e+000 1.548538e+000 -3.983095e-001 2.301685e-001 -1.907190e+000 8.021088e-001 9.019907e-001 -2.235600e+000 8.051611e-001 3.601728e-001 3.049341e+000 -9.144098e-001 5.984649e-001
<VARIANCE> 25
 4.868957e+000 9.505973e+000 7.601826e+000 3.233024e+000 1.157336e+001 1.238314e+001 3.353417e+000 1.811570e+001 2.422278e+001 6.690280e+000 2.546421e+001 1.683582e+001 3.285093e-001 2.508208e-001 1.496114e+000 4.632904e-001 7.475795e-001 1.444159e+000 2.240527e+000 1.083494e+000 4.211004e+000 4.039580e+000 1.426294e+000 2.376984e+000 1.713065e-001
<GCONST> 7.359530e+001
<TRANSP> 5
 0.000000e+000 1.000000e+000 0.000000e+000 0.000000e+000 0.000000e+000
 0.000000e+000 8.919862e-001 1.080138e-001 0.000000e+000 0.000000e+000
 0.000000e+000 0.000000e+000 7.066410e-001 2.933590e-001 0.000000e+000
 0.000000e+000 0.000000e+000 0.000000e+000 7.050411e-001 2.949589e-001
 0.000000e+000 0.000000e+000 0.000000e+000 0.000000e+000 0.000000e+000
<ENDHMM>
~h "sp"
<BEGINHMM>
<NUMSTATES> 3
<STATE> 2
~s "silst"
<TRANSP> 3
 0.000000e+000 7.000000e-001 3.000000e-001
 0.000000e+000 9.000000e-001 9.999999e-002
 0.000000e+000 0.000000e+000 0.000000e+000
<ENDHMM>
~h "ul"
<BEGINHMM>
<NUMSTATES> 5
<STATE> 2
<MEAN> 25
 3.442837e+000 -2.813522e+000 2.896794e+000 -4.871278e-001 -7.122596e+000 -7.831740e+000 -6.755066e+000 1.368117e+000 -7.081661e-001 3.299525e+000 -1.682920e+000 -3.129945e+000 1.365281e+000 -1.300235e-001 -2.825957e+000 -8.149349e-001 2.198042e+000 4.674217e-001 -1.600871e+000 -4.806734e-001 1.666900e+000 1.115061e+000 -4.774795e-001 -4.588350e-001 -9.819636e-002
<VARIANCE> 25
 1.295245e+001 1.843973e+001 3.043278e+001 3.316488e+001 4.266895e+001 3.480431e+001 5.257636e+001 4.691586e+001 4.063930e+001 3.727991e+001 3.418764e+001 2.166116e+001 9.730384e-001 1.332518e+000 1.438959e+000 2.875746e+000 3.283916e+000 4.895332e+000 4.088552e+000 1.022069e+001 4.306804e+000 3.426290e+000 3.305222e+000 2.181870e+000 7.681142e-001
<GCONST> 9.997758e+001
<STATE> 3
<MEAN> 25
 6.973671e+000 4.487852e-001 -5.016609e+000 -7.598421e+000 -3.175258e-001 -3.001995e-001 -5.573208e+000 -6.602792e+000 -1.036785e-001 5.613715e+000 4.600811e-001 -3.724172e+000 3.264807e-001 1.324359e+000 -1.115545e+000 -7.728728e-001 1.064157e+000 1.575667e+000 1.681494e+000 -1.219388e+000 -8.575518e-001 -5.304302e-001 1.154896e+000 1.014962e+000 -1.126999e+000
<VARIANCE> 25
 1.014203e+001 2.316873e+001 1.780065e+001 2.953341e+001 3.342887e+001 2.947959e+001 3.619445e+001 4.563862e+001 4.966584e+001 3.968465e+001 4.408387e+001 2.739549e+001 7.630608e-001 1.186458e+000 1.194772e+000 2.935107e+000 3.132829e+000 2.586292e+000 4.363027e+000 3.428030e+000 2.763933e+000 2.949445e+000 2.410229e+000 2.713733e+000 8.431088e-001
<GCONST> 9.641493e+001
<STATE> 4
<MEAN> 25
 3.471500e-001 5.103902e+000 -5.735500e+000 -2.388793e+000 6.113018e+000 4.571580e+000 -1.564731e-001 -1.566722e+000 2.924027e-001 1.365657e+000 3.506956e+000 8.692588e-001 -1.221697e+000 3.737888e-002 4.094604e-002 1.185906e+000 1.158181e+000 4.005136e-001 1.826688e-001 1.319486e+000 4.816698e-001 -5.348019e-001 8.192862e-002 3.500614e-001 -7.622518e-001
<VARIANCE> 25
 3.756259e+001 3.091569e+001 2.336246e+001 4.144460e+001 7.630124e+001 4.365406e+001 4.485263e+001 4.920008e+001 5.124769e+001 4.495655e+001 2.885542e+001 3.092498e+001 2.552124e+000 2.938346e+000 1.713507e+000 2.239482e+000 4.441235e+000 3.290055e+000 3.977950e+000 3.792544e+000 4.471820e+000 5.014178e+000 3.477482e+000 2.591450e+000 1.636419e+000
<GCONST> 1.047825e+002
<TRANSP> 5
 0.000000e+000 1.000000e+000 0.000000e+000 0.000000e+000 0.000000e+000
 0.000000e+000 6.713427e-001 3.286573e-001 0.000000e+000 0.000000e+000
 0.000000e+000 0.000000e+000 6.629190e-001 3.370809e-001 0.000000e+000
 0.000000e+000 0.000000e+000 0.000000e+000 8.235946e-001 1.764054e-001
 0.000000e+000 0.000000e+000 0.000000e+000 0.000000e+000 0.000000e+000
<ENDHMM>
~h "sil"
<BEGINHMM>
<NUMSTATES> 5
<STATE> 2
<MEAN> 25
 -2.152850e+000 2.957192e+000 1.197872e+000 5.883790e+000 5.248302e+000 4.840640e+000 4.130531e+000 3.044487e+000 2.481169e+000 2.203204e+000 4.282593e+000 2.762582e+000 -2.720342e-001 1.421695e-001 3.453159e-003 1.608574e-001 1.465271e-001 1.899263e-001 2.061198e-001 2.075740e-001 2.236974e-001 2.520698e-001 2.783549e-001 1.155177e-001 -3.054558e-001
<VARIANCE> 25
 2.608340e+001 3.642536e+001 3.341645e+001 4.384321e+001 5.301979e+001 5.409971e+001 6.718016e+001 5.547747e+001 4.270573e+001 3.883907e+001 4.633437e+001 3.056559e+001 1.600973e+000 2.651880e+000 1.888562e+000 2.593894e+000 3.454887e+000 3.539822e+000 3.948137e+000 3.459201e+000 2.848357e+000 2.800575e+000 2.878908e+000 2.350222e+000 3.701933e+000
<GCONST> 1.043979e+002
<STATE> 3
~s "silst"
<STATE> 4
<MEAN> 25
 -2.306998e+000 2.142174e+000 4.035148e-001 4.015887e+000 4.088490e+000 3.341053e+000 2.595301e+000 1.871739e+000 1.949323e+000 2.169288e+000 3.516814e+000 2.243232e+000 -1.431702e-001 -1.305323e-001 -5.784432e-002 -3.434509e-001 -1.821908e-001 -4.021307e-002 1.846728e-001 3.346954e-002 -2.226422e-002 3.342898e-002 -1.313382e-002 -9.583943e-002 4.045733e-001
<VARIANCE> 25
 3.902887e+001 5.057039e+001 4.208585e+001 5.457891e+001 6.687383e+001 5.246179e+001 6.339389e+001 6.049668e+001 4.278383e+001 3.758992e+001 4.437128e+001 3.321319e+001 1.859043e+000 2.107616e+000 1.740661e+000 3.001182e+000 3.540923e+000 3.884863e+000 3.594529e+000 3.372164e+000 2.785555e+000 2.583224e+000 3.072400e+000 2.345654e+000 3.803769e+000
<GCONST> 1.057871e+002
<TRANSP> 5
 0.000000e+000 1.000000e+000 0.000000e+000 0.000000e+000 0.000000e+000
 0.000000e+000 3.314421e-001 4.685580e-001 2.000000e-001 0.000000e+000
 0.000000e+000 0.000000e+000 2.344562e-001 7.655438e-001 0.000000e+000
 0.000000e+000 2.000000e-001 0.000000e+000 3.020056e-001 4.979944e-001
 0.000000e+000 0.000000e+000 0.000000e+000 0.000000e+000 0.000000e+000
<ENDHMM>
