~o
<STREAMINFO> 1 25
<VECSIZE> 25<NULLD><MFCC_D_N_Z_0><DIAGC>
~s "silst"
<MEAN> 25
 -1.822016e-001 2.494810e+000 6.857505e-001 3.308813e+000 1.824988e+000 1.979265e+000 9.227926e-001 8.583537e-001 2.118214e+000 1.650501e+000 2.668239e+000 1.669011e+000 1.129471e+000 -4.993556e-001 -2.818956e-001 -1.183055e+000 -1.198061e+000 -1.569144e+000 -2.055787e+000 -1.664016e+000 -7.332309e-001 -2.486956e-001 -8.323202e-001 -5.906898e-001 1.931430e+000
<VARIANCE> 25
 3.180978e+001 6.177687e+001 4.686665e+001 5.639770e+001 6.482651e+001 6.394667e+001 7.964820e+001 6.960803e+001 4.942138e+001 4.191970e+001 4.805936e+001 3.714273e+001 3.968330e+000 8.351975e+000 4.616418e+000 7.432300e+000 7.909973e+000 7.923903e+000 1.001848e+001 8.362789e+000 6.163632e+000 5.520223e+000 6.160270e+000 4.384134e+000 1.302425e+001
<GCONST> 1.184761e+002
~h "a"
<BEGINHMM>
<NUMSTATES> 5
<STATE> 2
<MEAN> 25
 1.190614e+000 -8.711200e+000 -5.707357e+000 -3.904134e+000 -1.474664e-001 -2.455395e+000 2.825423e+000 6.036937e+000 -1.416529e+000 -4.455896e+000 -4.013690e+000 -8.717654e-001 -2.534501e-001 -1.199908e+000 -8.747167e-001 1.790003e-001 9.009834e-001 9.870967e-001 9.059801e-001 7.311919e-001 -6.235701e-001 -1.000983e+000 -4.114840e-001 1.451432e-001 8.619059e-001
<VARIANCE> 25
 1.078915e+001 1.752148e+001 2.332788e+001 2.106695e+001 4.493937e+001 4.001889e+001 4.693493e+001 3.510960e+001 5.071518e+001 3.374600e+001 3.768783e+001 3.330327e+001 7.939169e-001 1.448684e+000 1.919608e+000 1.869208e+000 3.235197e+000 3.152957e+000 2.995343e+000 3.289835e+000 2.936271e+000 2.929045e+000 3.093570e+000 2.391230e+000 8.136901e-001
<GCONST> 9.684285e+001
<STATE> 3
<MEAN> 25
 3.766440e-001 -9.620129e+000 -6.417882e+000 -1.759028e+000 2.372119e+000 1.310042e-001 2.243041e+000 4.821692e+000 -3.242787e+000 -5.404979e+000 -3.355719e+000 -2.368782e-001 1.602119e-001 4.686697e-001 2.138079e-001 4.406438e-002 -4.006372e-001 -4.333066e-002 -6.106536e-002 -3.723134e-001 2.179301e-002 2.167364e-001 8.824590e-002 -1.970388e-001 -3.988737e-001
<VARIANCE> 25
 1.040948e+001 1.682092e+001 1.621601e+001 2.082467e+001 3.466753e+001 3.267358e+001 4.683442e+001 3.165358e+001 4.732645e+001 2.769188e+001 3.383529e+001 2.937415e+001 4.325401e-001 8.955790e-001 9.649482e-001 1.372432e+000 2.301212e+000 1.890184e+000 2.623748e+000 1.850701e+000 1.938878e+000 2.087458e+000 1.779647e+000 1.769635e+000 4.075564e-001
<GCONST> 8.937856e+001
<STATE> 4
<MEAN> 25
 2.979399e+000 -3.190759e+000 -3.916571e+000 -1.137379e+000 -1.147499e+000 -2.211833e+000 8.703506e-001 2.093623e+000 -9.215096e-001 -2.839706e+000 -2.734551e+000 -9.469328e-001 1.247592e-001 2.215817e+000 1.201708e+000 8.462477e-001 -2.275662e-001 3.893163e-002 -6.230981e-001 -1.016634e+000 3.429858e-001 7.522572e-001 6.906980e-001 1.803045e-001 -2.307854e+000
<VARIANCE> 25
 1.351991e+001 3.507570e+001 2.452295e+001 2.883095e+001 5.040568e+001 3.838429e+001 5.707013e+001 4.298462e+001 4.141635e+001 4.115980e+001 3.698013e+001 3.190473e+001 1.982285e+000 1.739153e+000 1.891596e+000 2.441474e+000 4.319575e+000 4.820889e+000 5.253914e+000 4.334233e+000 3.767926e+000 3.859520e+000 3.629128e+000 3.193713e+000 1.942436e+000
<GCONST> 1.032773e+002
<TRANSP> 5
 0.000000e+000 1.000000e+000 0.000000e+000 0.000000e+000 0.000000e+000
 0.000000e+000 5.024539e-001 4.975460e-001 0.000000e+000 0.000000e+000
 0.000000e+000 0.000000e+000 7.045576e-001 2.954424e-001 0.000000e+000
 0.000000e+000 0.000000e+000 0.000000e+000 6.630712e-001 3.369289e-001
 0.000000e+000 0.000000e+000 0.000000e+000 0.000000e+000 0.000000e+000
<ENDHMM>
~h "b"
<BEGINHMM>
<NUMSTATES> 5
<STATE> 2
<MEAN> 25
 1.269553e+000 -1.142930e+001 -6.555967e+000 -3.579645e+000 8.782417e-001 1.644820e+000 -1.798985e+000 2.947549e+000 5.763821e+000 -9.093384e-001 -9.046174e+000 -3.205141e+000 -1.149759e+000 -2.499855e+000 -9.655415e-001 -8.886899e-001 1.108173e+000 8.886834e-001 1.548313e+000 2.570382e+000 -2.846358e-001 -2.047701e+000 -1.582023e+000 1.622211e+000 2.291815e+000
<VARIANCE> 25
 7.277226e+000 1.762526e+001 1.190223e+001 2.355957e+001 1.474630e+001 4.866731e+001 2.866997e+001 3.880882e+001 1.816404e+001 3.742813e+001 2.592480e+001 2.475516e+001 5.641875e-001 2.472034e+000 2.119502e+000 5.006810e+000 1.263306e+000 2.709933e+000 2.162143e+000 3.334305e+000 3.230776e+000 3.340539e+000 3.064457e+000 1.679240e+000 2.543286e+000
<GCONST> 9.386506e+001
<STATE> 3
<MEAN> 25
 -2.393392e+000 -1.434764e+001 -4.838565e+000 -1.639535e+000 4.937288e+000 2.645067e+000 2.915556e+000 6.928425e+000 -6.035922e-001 -8.470004e+000 -1.199053e+001 1.634291e+000 -1.346171e-001 3.396450e-001 8.205579e-001 -5.675171e-002 6.520339e-001 -7.417896e-001 -1.124972e-001 2.006127e-003 -1.246276e+000 -1.321662e-001 -3.947384e-001 -1.408919e-002 -3.205625e-001
<VARIANCE> 25
 4.212266e+000 5.387744e+000 9.390615e+000 1.340998e+001 1.149137e+001 1.801163e+001 1.566978e+001 1.581170e+001 3.142859e+001 2.101753e+001 1.474876e+001 1.596761e+001 2.575564e-001 6.137471e-001 2.749392e-001 1.207435e+000 8.879002e-001 1.715044e+000 1.334840e+000 1.764801e+000 1.581143e+000 1.749017e+000 8.259025e-001 1.585508e+000 2.052902e-001
<GCONST> 7.473815e+001
<STATE> 4
<MEAN> 25
 -3.351178e-001 -9.409858e+000 -9.052355e-001 -3.186656e+000 6.633666e+000 -3.220384e+000 -4.940906e-003 4.405621e+000 -2.620156e+000 -3.594337e+000 -1.404029e+001 -2.921812e+000 8.274386e-001 1.778659e+000 1.065109e+000 -9.721406e-002 -7.642002e-001 -1.525282e+000 -4.028300e-001 -1.776520e+000 5.649255e-001 2.183864e+000 2.594901e-001 -1.114558e+000 -1.327410e+000
<VARIANCE> 25
 5.560369e+000 1.006540e+001 7.562985e+000 1.008136e+001 1.342536e+001 2.024112e+001 1.930531e+001 2.611327e+001 2.323839e+001 3.039580e+001 1.750393e+001 2.365755e+001 2.193267e-001 2.902541e-001 5.304911e-001 8.436381e-001 1.465337e+000 1.880681e+000 1.378344e+000 3.236628e+000 2.582083e+000 1.474333e+000 1.913579e+000 1.866748e+000 1.560792e-001
<GCONST> 7.842310e+001
<TRANSP> 5
 0.000000e+000 1.000000e+000 0.000000e+000 0.000000e+000 0.000000e+000
 0.000000e+000 7.232109e-001 2.767891e-001 0.000000e+000 0.000000e+000
 0.000000e+000 0.000000e+000 7.992561e-001 2.007438e-001 0.000000e+000
 0.000000e+000 0.000000e+000 0.000000e+000 6.684290e-001 3.315710e-001
 0.000000e+000 0.000000e+000 0.000000e+000 0.000000e+000 0.000000e+000
<ENDHMM>
~h "c"
<BEGINHMM>
<NUMSTATES> 5
<STATE> 2
<MEAN> 25
 -3.862897e+000 4.837525e+000 2.930508e+000 9.601670e+000 5.777556e+000 5.257082e+000 6.598414e+000 3.247422e+000 9.804538e-001 1.699998e-001 5.918513e+000 1.005303e+000 -4.147688e-001 -1.758358e+000 -2.739362e+000 -1.361960e+000 1.907133e+000 1.709858e+000 1.426584e+000 1.238317e+000 -9.807613e-001 7.169597e-001 8.172622e-002 5.901253e-001 9.422056e-001
<VARIANCE> 25
 5.804792e+000 2.200749e+001 3.557775e+001 2.024258e+001 2.669375e+001 3.443849e+001 2.554726e+001 2.594252e+001 2.371654e+001 2.735436e+001 2.245948e+001 1.395750e+001 1.951171e+000 2.810037e+000 7.611251e+000 7.010319e+000 4.911184e+000 2.873904e+000 2.741822e+000 2.299850e+000 3.832982e+000 3.099827e+000 2.400913e+000 1.996758e+000 2.842507e+000
<GCONST> 9.817364e+001
<STATE> 3
<MEAN> 25
 -1.217019e+000 -3.941322e-001 -1.213535e+001 -2.303261e+000 9.581235e+000 6.436858e+000 4.349244e+000 4.919672e+000 -5.077561e+000 5.194914e+000 6.702200e+000 3.936473e+000 1.547521e+000 7.937840e-001 -8.280239e-001 -3.161535e+000 -1.905691e+000 -1.366313e+000 -2.363789e+000 -1.513618e+000 -1.503481e+000 -3.454433e-002 -2.837124e-001 2.216853e-001 1.630351e+000
<VARIANCE> 25
 1.357712e+001 2.859176e+001 4.231589e+001 4.031298e+001 4.619120e+001 3.856045e+001 4.049174e+001 4.180336e+001 3.200574e+001 2.700605e+001 2.879521e+001 1.210444e+001 1.494141e+000 3.923923e+000 9.817889e+000 4.673408e+000 7.982909e+000 4.727478e+000 3.234295e+000 3.606490e+000 2.902767e+000 4.686224e+000 3.351876e+000 1.713624e+000 2.240443e+000
<GCONST> 1.037322e+002
<STATE> 4
<MEAN> 25
 5.992364e+000 5.031578e+000 -7.173551e+000 -1.461994e+001 -2.386309e+000 5.466675e-001 -3.340440e+000 -9.422157e-001 -8.065898e+000 3.626928e+000 3.507297e+000 2.758634e+000 1.093573e+000 -2.244111e-001 4.542625e-001 -2.843504e+000 -1.617371e+000 -5.325053e-002 -8.346404e-001 -8.452921e-002 2.545440e-001 1.847492e-001 -7.648275e-001 -1.266627e-001 1.467895e+000
<VARIANCE> 25
 5.956398e+000 9.997444e+000 2.012139e+001 3.528349e+001 2.283779e+001 2.751194e+001 2.259498e+001 2.124811e+001 2.474789e+001 2.536117e+001 3.355989e+001 2.089151e+001 1.266649e+000 1.678463e+000 2.125071e+000 4.418898e+000 5.275959e+000 4.050769e+000 3.428399e+000 3.130897e+000 2.689028e+000 2.907140e+000 2.886940e+000 2.794530e+000 9.241653e-001
<GCONST> 9.470536e+001
<TRANSP> 5
 0.000000e+000 1.000000e+000 0.000000e+000 0.000000e+000 0.000000e+000
 0.000000e+000 7.171320e-001 2.828680e-001 0.000000e+000 0.000000e+000
 0.000000e+000 0.000000e+000 6.809266e-001 3.190733e-001 0.000000e+000
 0.000000e+000 0.000000e+000 0.000000e+000 6.688065e-001 3.311934e-001
 0.000000e+000 0.000000e+000 0.000000e+000 0.000000e+000 0.000000e+000
<ENDHMM>
~h "e"
<BEGINHMM>
<NUMSTATES> 5
<STATE> 2
<MEAN> 25
 8.964261e-002 -1.397231e+000 2.231117e+000 -4.083860e+000 -9.943852e+000 -5.832541e+000 3.187789e+000 -1.863670e+000 -7.256034e-001 1.229370e+000 1.230393e+000 4.000278e-001 -1.101638e-001 3.718116e-001 8.472029e-002 1.900958e-003 -1.305422e+000 5.729429e-001 1.453441e-001 -1.582158e-001 -5.019222e-001 5.339478e-001 7.165425e-001 -4.004874e-001 1.501112e-001
<VARIANCE> 25
 1.052940e+001 2.212353e+001 1.687180e+001 1.862366e+001 2.934369e+001 5.167824e+001 4.037735e+001 2.749576e+001 1.702499e+001 3.068580e+001 3.023890e+001 1.943768e+001 1.598376e+000 1.521050e+000 1.080031e+000 1.782172e+000 2.644152e+000 3.640710e+000 3.642771e+000 2.737823e+000 2.457979e+000 2.311810e+000 2.005539e+000 2.186305e+000 1.448330e+000
<GCONST> 9.381261e+001
<STATE> 3
<MEAN> 25
 1.255853e+000 6.629879e-001 3.086597e+000 -4.785942e-001 -1.169022e+001 -4.260180e+000 7.677279e-002 -2.328684e+000 -1.971870e+000 1.852942e+000 3.701209e-001 1.161345e-001 6.374589e-001 1.013749e+000 -2.577146e-001 1.692976e+000 1.528930e+000 -6.216059e-001 -4.771564e-001 9.229614e-001 -3.860240e-001 -1.385307e+000 -1.037037e-001 1.190465e-001 -1.942449e+000
<VARIANCE> 25
 1.061637e+001 1.917324e+001 1.515595e+001 2.698200e+001 2.534564e+001 5.078551e+001 2.652535e+001 3.574809e+001 2.054037e+001 2.752150e+001 3.158401e+001 3.074384e+001 9.682334e-001 1.810695e+000 1.397397e+000 1.989664e+000 4.258381e+000 3.498014e+000 2.475391e+000 1.981988e+000 1.974775e+000 2.803102e+000 4.641544e+000 2.979410e+000 1.645977e+000
<GCONST> 9.521880e+001
<STATE> 4
<MEAN> 25
 2.408049e+000 5.918062e+000 1.353627e+000 3.488491e+000 -4.682086e+000 -3.938392e+000 4.236942e-002 -1.999900e+000 -2.529600e+000 -2.076360e+000 2.379675e+000 -3.620619e-001 -4.157063e-001 1.486740e+000 -2.917054e-001 1.381699e+000 2.677952e+000 1.497662e+000 -7.784721e-003 -3.052700e-001 2.778814e-001 1.603750e-001 5.001415e-001 2.463634e-001 -2.332527e+000
<VARIANCE> 25
 1.992405e+001 2.447072e+001 1.424337e+001 1.645242e+001 3.153405e+001 2.964147e+001 1.866016e+001 1.762463e+001 2.045156e+001 2.261541e+001 1.906919e+001 3.273023e+001 2.159860e+000 2.616243e+000 2.199676e+000 2.078722e+000 2.245531e+000 2.926805e+000 2.799475e+000 4.431218e+000 5.211677e+000 3.087045e+000 3.424314e+000 2.259357e+000 1.688826e+000
<GCONST> 9.580302e+001
<TRANSP> 5
 0.000000e+000 1.000000e+000 0.000000e+000 0.000000e+000 0.000000e+000
 0.000000e+000 5.962769e-001 4.037232e-001 0.000000e+000 0.000000e+000
 0.000000e+000 0.000000e+000 5.510774e-001 4.489225e-001 0.000000e+000
 0.000000e+000 0.000000e+000 0.000000e+000 5.253320e-001 4.746679e-001
 0.000000e+000 0.000000e+000 0.000000e+000 0.000000e+000 0.000000e+000
<ENDHMM>
~h "h"
<BEGINHMM>
<NUMSTATES> 5
<STATE> 2
<MEAN> 25
 -8.633775e+000 -1.695368e+000 1.978869e+000 4.037624e+000 7.600597e+000 2.500620e+000 3.973750e+000 3.692849e+000 5.380008e+000 2.123645e+000 2.484482e+000 2.764548e+000 2.030216e+000 5.624290e-001 1.734175e-001 -1.288329e+000 -2.228390e+000 -8.034793e-001 -1.662770e+000 -2.491642e+000 -1.640858e+000 -1.249082e+000 -1.164578e+000 -8.456016e-001 1.102528e+000
<VARIANCE> 25
 5.627733e+001 5.655741e+001 4.065234e+001 7.640985e+001 6.699722e+001 4.522440e+001 4.464002e+001 5.842499e+001 6.077527e+001 3.800786e+001 3.715687e+001 2.678572e+001 3.546528e+000 2.342044e+000 2.365177e+000 2.737619e+000 4.761417e+000 3.734091e+000 4.552202e+000 3.803026e+000 4.971023e+000 3.784830e+000 3.039649e+000 2.257696e+000 1.444962e+000
<GCONST> 1.075275e+002
<STATE> 3
<MEAN> 25
 2.068756e+000 3.115120e+000 1.594759e+000 -3.216428e+000 -2.193221e+000 -6.641344e-001 -2.863429e+000 -6.074468e+000 -3.305123e+000 -2.656842e+000 -1.405342e+000 -8.936807e-001 2.726562e+000 3.815350e-001 -7.641690e-001 -2.364703e+000 -3.462665e+000 -8.185393e-001 -1.701514e+000 -1.939276e+000 -1.911288e+000 -9.235670e-001 -1.475667e+000 -1.168979e+000 1.999570e+000
<VARIANCE> 25
 2.138860e+001 5.882799e+001 5.306342e+001 4.850806e+001 5.548257e+001 4.440316e+001 4.286972e+001 2.776363e+001 3.307859e+001 3.525481e+001 2.611210e+001 1.856115e+001 3.779653e+000 2.517149e+000 3.659278e+000 3.818722e+000 6.095518e+000 4.685197e+000 5.612877e+000 4.572579e+000 5.531985e+000 4.419725e+000 4.662327e+000 2.883898e+000 1.307240e+000
<GCONST> 1.066241e+002
<STATE> 4
<MEAN> 25
 4.000147e+000 1.830212e+000 -4.216045e-001 -6.128645e+000 -5.929941e+000 4.498625e-001 -3.143271e+000 -5.905831e+000 -3.630361e+000 -1.617579e+000 -1.897930e+000 -1.553838e+000 1.093735e+000 -6.080419e-001 -9.650992e-001 -1.288982e+000 -1.938884e+000 1.159020e-001 -3.537402e-001 -2.055694e-001 -4.739265e-001 1.747424e-001 -5.852195e-001 -6.671087e-001 1.628375e+000
<VARIANCE> 25
 1.623274e+001 6.607014e+001 6.343122e+001 5.432537e+001 5.272623e+001 3.683717e+001 5.356675e+001 3.513482e+001 4.040078e+001 3.688243e+001 2.926660e+001 2.602856e+001 2.026564e+000 1.663842e+000 2.751246e+000 4.841503e+000 5.621140e+000 4.077782e+000 4.815006e+000 3.663163e+000 3.169344e+000 3.160845e+000 3.171271e+000 2.615698e+000 1.541810e+000
<GCONST> 1.047835e+002
<TRANSP> 5
 0.000000e+000 1.000000e+000 0.000000e+000 0.000000e+000 0.000000e+000
 0.000000e+000 5.480151e-001 4.519849e-001 0.000000e+000 0.000000e+000
 0.000000e+000 0.000000e+000 1.457484e-001 8.542516e-001 0.000000e+000
 0.000000e+000 0.000000e+000 0.000000e+000 4.698187e-002 9.530181e-001
 0.000000e+000 0.000000e+000 0.000000e+000 0.000000e+000 0.000000e+000
<ENDHMM>
~h "i"
<BEGINHMM>
<NUMSTATES> 5
<STATE> 2
<MEAN> 25
 -4.456933e-001 3.722188e+000 8.719993e+000 -4.253284e+000 -1.002060e+001 -3.638784e+000 -3.641707e+000 -5.051680e+000 -1.339452e+000 3.659495e-001 1.151675e+000 -8.848503e-001 3.476571e-001 7.990213e-002 1.077037e+000 -2.162386e+000 -1.712064e+000 1.454310e-001 -1.134022e+000 -1.094146e+000 -2.957033e-002 3.927758e-001 -8.132977e-001 -4.177193e-001 1.491577e+000
<VARIANCE> 25
 1.342123e+001 3.686202e+001 2.470737e+001 3.253487e+001 4.320684e+001 3.571573e+001 4.637833e+001 4.228257e+001 4.379246e+001 3.075284e+001 2.939417e+001 2.501132e+001 3.418339e+000 2.163893e+000 2.543711e+000 3.615428e+000 7.450031e+000 5.195477e+000 5.708144e+000 4.573400e+000 3.769325e+000 3.486788e+000 4.414766e+000 2.707179e+000 1.790416e+000
<GCONST> 1.043460e+002
<STATE> 3
<MEAN> 25
 -1.157593e+000 4.862473e+000 7.586941e+000 -8.549373e+000 -7.433099e+000 -1.723722e-001 -6.682065e+000 -5.472954e+000 1.150584e+000 1.095847e+000 -1.726032e+000 -1.204093e+000 2.878438e-001 -8.806358e-002 -2.525322e-001 2.556367e-001 3.196697e-001 1.409870e-001 1.520497e-001 9.912304e-003 -1.295165e-002 1.411587e-002 -2.912866e-001 2.938413e-002 -2.341731e-001
<VARIANCE> 25
 9.617748e+000 2.426500e+001 2.531760e+001 2.212491e+001 4.912540e+001 2.615333e+001 5.213378e+001 3.550864e+001 4.083767e+001 3.275500e+001 3.654841e+001 2.541681e+001 6.332856e-001 1.491042e+000 1.023124e+000 2.047717e+000 2.008505e+000 1.987641e+000 2.651970e+000 2.000396e+000 2.135439e+000 2.039882e+000 1.769836e+000 1.666474e+000 5.464933e-001
<GCONST> 9.212657e+001
<STATE> 4
<MEAN> 25
 1.703018e+000 4.942110e+000 5.865005e+000 -7.176307e-001 -5.253145e+000 -2.147569e+000 -2.656410e+000 -4.420819e+000 -1.088300e+000 5.254913e-001 -4.886787e-001 -5.828671e-001 2.686126e-001 2.221123e-001 -1.236421e+000 2.045033e+000 1.868699e+000 1.843543e-001 6.479418e-001 3.714935e-001 -3.124923e-002 1.962751e-002 4.037520e-001 3.407281e-001 -1.633455e+000
<VARIANCE> 25
 1.461706e+001 3.632199e+001 2.478167e+001 3.439972e+001 5.258864e+001 3.910536e+001 4.960820e+001 4.583584e+001 3.571705e+001 3.196083e+001 3.232733e+001 2.810594e+001 2.507889e+000 2.525813e+000 2.034459e+000 2.568563e+000 3.876727e+000 4.170939e+000 5.372823e+000 4.084035e+000 3.281905e+000 3.172763e+000 3.694354e+000 2.807241e+000 1.708831e+000
<GCONST> 1.027687e+002
<TRANSP> 5
 0.000000e+000 1.000000e+000 0.000000e+000 0.000000e+000 0.000000e+000
 0.000000e+000 5.371960e-001 4.628040e-001 0.000000e+000 0.000000e+000
 0.000000e+000 0.000000e+000 7.463667e-001 2.536333e-001 0.000000e+000
 0.000000e+000 0.000000e+000 0.000000e+000 6.860077e-001 3.139923e-001
 0.000000e+000 0.000000e+000 0.000000e+000 0.000000e+000 0.000000e+000
<ENDHMM>
~h "j"
<BEGINHMM>
<NUMSTATES> 5
<STATE> 2
<MEAN> 25
 -3.014736e+000 3.115688e+000 -5.249043e+000 -1.088872e+000 8.019751e-001 9.325415e+000 1.222933e+001 9.565475e+000 2.289735e+000 6.150487e+000 5.032018e+000 2.725372e+000 7.432704e-001 4.442548e-001 -4.078643e-001 -1.864138e+000 -1.121614e+000 -8.225014e-001 -5.763972e-001 -5.467638e-001 -7.343980e-001 -2.309657e-001 -8.776903e-001 -2.627437e-001 9.086949e-001
<VARIANCE> 25
 2.793926e+001 1.602603e+001 5.244408e+001 3.670172e+001 3.426118e+001 2.540829e+001 4.463691e+001 5.579575e+001 3.120181e+001 2.620240e+001 1.592693e+001 3.228404e+001 1.765787e+000 1.455491e+000 4.745214e+000 4.062122e+000 2.560655e+000 4.603010e+000 5.876496e+000 6.927399e+000 4.994959e+000 4.531692e+000 2.288381e+000 2.294292e+000 1.828748e+000
<GCONST> 1.026096e+002
<STATE> 3
<MEAN> 25
 4.230020e+000 6.728714e+000 -1.075311e+000 -9.666777e+000 -6.039920e+000 -4.421974e-001 1.295523e+000 -1.133895e+000 -8.037507e+000 -1.194259e+000 -2.892350e+000 1.639698e+000 1.590997e+000 -2.591306e-001 2.664297e-001 -3.037506e+000 -2.067742e+000 -1.479293e+000 -1.798666e+000 -1.247632e+000 -1.518821e+000 -6.125189e-001 -1.791295e+000 -4.918281e-001 2.163181e+000
<VARIANCE> 25
 3.090022e+001 1.083002e+001 3.974030e+001 6.366413e+001 4.557535e+001 1.513155e+001 1.498787e+001 2.046795e+001 2.190471e+001 2.971441e+001 2.156096e+001 1.411777e+001 1.873407e+000 3.727758e+000 2.399552e+000 2.594813e+000 3.301493e+000 3.198601e+000 5.481722e+000 4.452291e+000 7.283741e+000 3.382394e+000 3.935656e+000 4.420665e+000 1.114581e+000
<GCONST> 9.954826e+001
<STATE> 4
<MEAN> 25
 4.899477e+000 -1.595848e+000 -3.569208e+000 -1.404404e+001 -3.777691e+000 2.636243e+000 2.873808e+000 -1.807312e+000 -7.630489e+000 6.872302e-001 -6.272197e+000 -1.736861e+000 -6.601638e-001 -1.971722e+000 4.775318e-001 7.064694e-001 1.599145e+000 4.268537e-001 -2.834579e-001 -1.215778e+000 4.827265e-001 7.925729e-001 -9.453940e-002 -1.150069e+000 9.844326e-001
<VARIANCE> 25
 6.787494e+000 2.118988e+001 1.366566e+001 1.519737e+001 1.998917e+001 2.050105e+001 2.036705e+001 3.120994e+001 2.924898e+001 2.519001e+001 4.221743e+001 4.151180e+001 3.048544e-001 6.956835e-001 9.756100e-001 1.889438e+000 2.057441e+000 3.195359e+000 1.978882e+000 2.773615e+000 3.699307e+000 1.863612e+000 3.250831e+000 3.035471e+000 3.809291e-001
<GCONST> 8.869441e+001
<TRANSP> 5
 0.000000e+000 1.000000e+000 0.000000e+000 0.000000e+000 0.000000e+000
 0.000000e+000 7.712835e-001 2.287165e-001 0.000000e+000 0.000000e+000
 0.000000e+000 0.000000e+000 5.905135e-001 4.094866e-001 0.000000e+000
 0.000000e+000 0.000000e+000 0.000000e+000 7.268106e-001 2.731894e-001
 0.000000e+000 0.000000e+000 0.000000e+000 0.000000e+000 0.000000e+000
<ENDHMM>
~h "k"
<BEGINHMM>
<NUMSTATES> 5
<STATE> 2
<MEAN> 25
 -3.882909e+000 1.185257e+000 -1.625152e+000 4.913065e+000 6.572298e+000 2.676657e+000 4.380317e+000 5.239751e+000 2.752181e+000 3.497322e+000 4.016653e+000 3.836701e+000 -1.684519e-002 -1.168865e+000 -1.240344e+000 -1.465090e+000 -1.264016e-001 -1.406119e+000 1.036209e-001 7.261077e-001 -2.654113e-001 2.204211e-001 -7.285415e-001 -1.911015e-001 2.116270e+000
<VARIANCE> 25
 2.086237e+001 4.045116e+001 4.005550e+001 3.518354e+001 5.196646e+001 7.513387e+001 5.739563e+001 4.137779e+001 3.480979e+001 3.200820e+001 3.730131e+001 2.531216e+001 3.549655e+000 3.913958e+000 5.189247e+000 5.015391e+000 8.118587e+000 1.170187e+001 4.745925e+000 4.582602e+000 4.574577e+000 3.866915e+000 6.026041e+000 3.980578e+000 6.005473e+000
<GCONST> 1.112117e+002
<STATE> 3
<MEAN> 25
 -8.730165e-001 -5.070150e-001 -4.776289e+000 -1.611549e+000 2.178054e+000 -2.842069e+000 3.144216e+000 5.421543e+000 -3.492290e-001 2.481990e+000 -3.162916e-001 2.448365e+000 1.944591e+000 1.640698e-001 2.060808e-001 -2.163133e+000 -2.368767e+000 -1.422856e+000 -3.242760e-001 -1.406021e+000 -1.539282e+000 -9.872156e-001 -1.753492e+000 -1.278109e+000 2.182645e+000
<VARIANCE> 25
 2.833990e+001 2.856108e+001 6.234004e+001 3.971207e+001 6.629530e+001 1.054121e+002 5.068797e+001 3.658460e+001 3.996455e+001 3.467589e+001 5.738149e+001 3.033961e+001 2.212896e+000 3.727792e+000 4.310114e+000 4.792336e+000 5.912374e+000 7.807917e+000 7.582818e+000 4.395105e+000 5.879840e+000 4.041371e+000 7.085783e+000 3.829087e+000 3.875406e+000
<GCONST> 1.118312e+002
<STATE> 4
<MEAN> 25
 2.054487e+000 -2.489818e-001 -2.751325e+000 -3.727914e+000 -1.839244e+000 -4.265750e+000 2.731637e+000 2.337625e+000 -2.533549e+000 6.736600e-001 -2.521659e+000 2.696673e-001 1.536214e+000 -3.038780e-001 6.235937e-001 -1.469162e+000 -1.900994e+000 -3.370946e-001 -2.102510e-001 -1.664036e+000 -9.315444e-001 -8.619376e-001 -1.160814e+000 -1.074597e+000 1.827280e+000
<VARIANCE> 25
 2.150759e+001 5.901722e+001 4.449887e+001 2.988270e+001 5.326166e+001 8.529750e+001 5.625598e+001 4.081914e+001 4.304797e+001 3.324330e+001 6.805766e+001 3.082221e+001 2.185354e+000 4.145017e+000 4.418894e+000 4.640549e+000 5.774459e+000 6.608253e+000 8.568837e+000 6.127971e+000 5.809615e+000 3.577634e+000 5.453425e+000 2.983230e+000 2.918173e+000
<GCONST> 1.110827e+002
<TRANSP> 5
 0.000000e+000 1.000000e+000 0.000000e+000 0.000000e+000 0.000000e+000
 0.000000e+000 6.378711e-001 3.621289e-001 0.000000e+000 0.000000e+000
 0.000000e+000 0.000000e+000 2.310548e-001 7.689452e-001 0.000000e+000
 0.000000e+000 0.000000e+000 0.000000e+000 1.568208e-001 8.431792e-001
 0.000000e+000 0.000000e+000 0.000000e+000 0.000000e+000 0.000000e+000
<ENDHMM>
~h "l"
<BEGINHMM>
<NUMSTATES> 5
<STATE> 2
<MEAN> 25
 4.523580e+000 -3.296100e+000 5.833329e+000 -1.982668e+000 4.614323e+000 -1.092448e+001 -5.112208e+000 1.367072e+000 -4.156322e+000 -4.088441e+000 -3.076005e+000 5.953292e+000 -7.397727e-001 2.016596e-001 9.472498e-001 -2.081406e-001 -3.059178e-001 -4.881358e-001 9.945530e-001 -1.004034e+000 -2.037006e-001 8.576246e-001 2.004575e-002 6.706156e-001 3.097885e-001
<VARIANCE> 25
 7.481153e+000 1.030442e+001 1.976859e+001 1.929885e+001 2.534151e+001 5.683889e+001 3.691660e+001 1.685896e+001 1.894129e+001 2.286687e+001 2.425127e+001 1.995894e+001 3.751930e-001 1.022712e+000 9.425382e-001 2.761081e+000 3.026392e+000 3.981438e+000 3.472362e+000 2.298348e+000 3.242861e+000 2.018860e+000 3.759444e+000 2.816697e+000 1.186976e+000
<GCONST> 9.117027e+001
<STATE> 3
<MEAN> 25
 6.713473e-001 -3.952600e+000 4.874413e+000 -6.678362e+000 -2.798485e+000 -8.786248e+000 1.512613e+000 -2.630854e+000 1.341337e+000 1.651472e+000 -1.516133e+000 2.795721e+000 -7.025275e-001 3.570336e-001 -4.020929e-001 -8.298311e-001 -3.405177e+000 1.849882e+000 5.305896e-001 -1.574414e+000 1.106910e+000 1.589217e+000 5.565171e-001 -1.273921e+000 1.050668e+000
<VARIANCE> 25
 9.155875e+000 1.000696e+001 1.976830e+001 1.651227e+001 2.782787e+001 1.874465e+001 1.881717e+001 3.515891e+001 1.571444e+001 2.643770e+001 2.622257e+001 1.673036e+001 6.971526e-001 1.774185e+000 4.705424e+000 4.127036e+000 2.196007e+000 3.262444e+000 8.497948e+000 1.738219e+000 1.990994e+000 4.343953e+000 3.293916e+000 4.356179e+000 2.635605e+000
<GCONST> 9.474847e+001
<STATE> 4
<MEAN> 25
 2.015717e+000 2.394128e+000 6.506682e+000 -4.316110e+000 -1.133539e+001 -1.683637e+000 -3.112860e+000 -5.730724e+000 -3.972066e-001 2.854625e+000 -3.723977e+000 6.156869e-001 5.918139e-002 1.247378e+000 9.002330e-002 8.367460e-001 -1.196992e+000 1.359522e+000 -2.912397e-001 -9.066572e-001 -8.472514e-001 1.474512e-001 -3.538292e-001 -8.890989e-001 -6.030344e-001
<VARIANCE> 25
 9.622799e+000 1.386000e+001 1.298180e+001 4.659491e+001 2.885584e+001 3.298751e+001 2.941805e+001 3.353081e+001 1.253910e+001 4.171323e+001 4.613480e+001 2.937111e+001 2.713548e-001 4.919564e-001 1.262452e+000 1.704531e+000 2.613678e+000 3.064280e+000 3.464852e+000 1.872957e+000 2.048471e+000 2.014825e+000 3.015875e+000 1.507504e+000 4.854045e-001
<GCONST> 8.938148e+001
<TRANSP> 5
 0.000000e+000 1.000000e+000 0.000000e+000 0.000000e+000 0.000000e+000
 0.000000e+000 7.422067e-001 2.577933e-001 0.000000e+000 0.000000e+000
 0.000000e+000 0.000000e+000 6.168863e-001 3.831137e-001 0.000000e+000
 0.000000e+000 0.000000e+000 0.000000e+000 7.648586e-001 2.351414e-001
 0.000000e+000 0.000000e+000 0.000000e+000 0.000000e+000 0.000000e+000
<ENDHMM>
~h "m"
<BEGINHMM>
<NUMSTATES> 5
<STATE> 2
<MEAN> 25
 5.392903e+000 -5.227894e-001 2.552617e+000 3.121059e+000 4.824879e-001 -1.078886e+000 -6.454836e+000 -1.099805e+001 -2.916386e+000 3.822913e+000 -1.186668e+000 -3.197914e+000 -2.784833e-002 -7.706968e-002 1.111322e-001 1.996163e-001 3.880256e-001 -2.660382e-002 -1.972702e-001 -4.551799e-001 -1.491340e-001 2.330037e-001 7.644973e-002 -1.427846e-001 7.013895e-002
<VARIANCE> 25
 9.278905e+000 1.814720e+001 1.560932e+001 2.455682e+001 3.725159e+001 3.287148e+001 6.751342e+001 4.437650e+001 3.846239e+001 3.117139e+001 3.292379e+001 3.293545e+001 3.004656e-001 1.114702e+000 1.207801e+000 1.660746e+000 1.626259e+000 1.482567e+000 2.179828e+000 2.967853e+000 1.852270e+000 1.873404e+000 1.717868e+000 1.818784e+000 7.724580e-001
<GCONST> 9.068993e+001
<STATE> 3
<MEAN> 25
 4.900528e+000 -2.523744e+000 -2.419651e-001 -4.019696e-001 1.831115e+000 1.433250e-002 -5.395690e+000 -9.225126e+000 -2.530732e+000 3.686581e+000 -6.501673e-001 -4.038937e+000 -4.249096e-001 -1.288842e+000 -2.049177e+000 -1.819444e+000 2.943775e-002 6.469592e-001 6.214865e-001 3.115014e+000 8.646249e-001 -1.309100e+000 -4.228505e-001 2.531317e-001 1.455661e+000
<VARIANCE> 25
 8.001155e+000 2.161824e+001 2.854037e+001 3.823814e+001 2.561131e+001 2.814632e+001 5.110580e+001 5.111386e+001 3.317245e+001 2.638518e+001 3.370802e+001 2.773460e+001 5.086095e-001 1.486094e+000 3.122304e+000 2.388004e+000 1.943853e+000 3.302912e+000 4.710272e+000 4.981185e+000 5.674678e+000 3.945122e+000 3.702580e+000 4.944820e+000 1.157961e+000
<GCONST> 9.906506e+001
<STATE> 4
<MEAN> 25
 2.683640e+000 -5.825181e+000 -4.651620e+000 -2.258229e+000 3.060901e+000 1.694799e+000 -4.518040e+000 -2.189444e-001 -4.166893e-001 -8.725865e-001 -2.180474e+000 -1.231436e+000 -1.145530e+000 -7.378781e-001 -5.503755e-001 1.438252e-001 4.131258e-001 3.849496e-001 9.339986e-001 2.447552e+000 -3.787922e-002 -1.681449e+000 -1.585686e-002 1.381935e+000 7.690038e-001
<VARIANCE> 25
 1.043903e+001 3.757050e+001 3.328397e+001 2.620005e+001 3.280557e+001 3.627821e+001 3.225790e+001 4.168485e+001 3.314340e+001 2.827940e+001 2.926344e+001 2.904333e+001 6.896308e-001 1.646919e+000 2.941142e+000 3.183812e+000 2.803187e+000 3.768648e+000 4.140875e+000 4.042906e+000 3.319868e+000 4.171342e+000 3.543753e+000 2.924135e+000 1.240304e+000
<GCONST> 9.928459e+001
<TRANSP> 5
 0.000000e+000 1.000000e+000 0.000000e+000 0.000000e+000 0.000000e+000
 0.000000e+000 7.767786e-001 2.232214e-001 0.000000e+000 0.000000e+000
 0.000000e+000 0.000000e+000 5.326220e-001 4.673781e-001 0.000000e+000
 0.000000e+000 0.000000e+000 0.000000e+000 3.525427e-001 6.474573e-001
 0.000000e+000 0.000000e+000 0.000000e+000 0.000000e+000 0.000000e+000
<ENDHMM>
~h "n"
<BEGINHMM>
<NUMSTATES> 5
<STATE> 2
<MEAN> 25
 4.895922e+000 4.662925e-001 2.516878e+000 -4.699691e-001 -4.681907e+000 -2.781263e+000 -4.880992e+000 -6.197864e+000 -1.006464e+000 -1.534182e-001 -4.390131e+000 -6.462014e-001 4.874948e-001 9.674234e-001 1.158773e+000 9.865294e-001 -7.395354e-001 -6.497858e-001 -1.608520e-001 -1.374992e+000 6.004677e-001 4.701154e-001 -5.904595e-001 4.003079e-001 -1.108156e+000
<VARIANCE> 25
 8.308928e+000 1.574101e+001 1.904969e+001 2.498233e+001 3.203715e+001 4.769620e+001 8.514536e+001 4.884504e+001 3.936934e+001 5.277279e+001 4.554391e+001 3.087209e+001 4.893847e-001 1.219717e+000 2.906687e+000 1.793018e+000 2.159333e+000 3.845913e+000 3.717813e+000 3.564845e+000 3.542625e+000 3.077749e+000 3.361659e+000 2.422701e+000 5.103766e-001
<GCONST> 9.718779e+001
<STATE> 3
<MEAN> 25
 4.832008e+000 2.521331e+000 5.142091e+000 2.315128e+000 -5.758123e+000 -3.788878e+000 -4.671738e+000 -7.442767e+000 8.138434e-001 8.287966e-002 -4.603521e+000 3.471084e-001 -2.604343e-001 4.365214e-001 1.524343e-001 3.443582e-001 4.340231e-001 -1.292553e-001 7.181592e-002 3.842742e-001 -5.431779e-002 -3.274614e-002 1.573248e-001 8.501091e-002 -4.783897e-001
<VARIANCE> 25
 8.939725e+000 1.848947e+001 2.163402e+001 2.190505e+001 2.963121e+001 5.074408e+001 6.252433e+001 4.089269e+001 4.072986e+001 5.262547e+001 4.584561e+001 2.887704e+001 3.208448e-001 1.483766e+000 9.872444e-001 1.223355e+000 1.470542e+000 1.988258e+000 2.098524e+000 2.067222e+000 1.723968e+000 2.132513e+000 2.032990e+000 1.891401e+000 1.054703e+000
<GCONST> 9.192513e+001
<STATE> 4
<MEAN> 25
 2.540249e+000 3.412190e+000 3.330130e+000 2.265211e+000 -2.010705e+000 -3.884783e+000 -3.451826e+000 -4.002133e+000 -6.906371e-001 3.533691e-001 -3.065887e+000 5.938476e-001 -1.304273e+000 -6.258039e-001 -1.395579e+000 -4.130346e-001 1.870112e+000 6.861669e-001 9.203179e-001 2.415885e+000 -8.535840e-001 -7.070736e-001 1.381661e+000 1.293402e-001 3.445637e-001
<VARIANCE> 25
 1.140595e+001 3.550828e+001 2.353519e+001 2.459088e+001 3.275870e+001 4.594854e+001 4.782958e+001 4.754555e+001 3.623769e+001 3.581352e+001 4.647549e+001 2.786017e+001 9.407040e-001 2.848784e+000 4.455410e+000 3.924062e+000 2.875304e+000 4.736378e+000 6.140195e+000 5.587409e+000 5.873406e+000 5.568855e+000 3.542778e+000 2.953333e+000 3.701448e+000
<GCONST> 1.048303e+002
<TRANSP> 5
 0.000000e+000 1.000000e+000 0.000000e+000 0.000000e+000 0.000000e+000
 0.000000e+000 6.137010e-001 3.862990e-001 0.000000e+000 0.000000e+000
 0.000000e+000 0.000000e+000 6.657737e-001 3.342263e-001 0.000000e+000
 0.000000e+000 0.000000e+000 0.000000e+000 5.832163e-001 4.167837e-001
 0.000000e+000 0.000000e+000 0.000000e+000 0.000000e+000 0.000000e+000
<ENDHMM>
~h "o"
<BEGINHMM>
<NUMSTATES> 5
<STATE> 2
<MEAN> 25
 3.654209e+000 -5.859007e-001 -3.919400e+000 -1.152612e+001 2.960394e+000 -3.173599e+000 -7.610804e+000 -1.689414e+000 1.234111e+000 1.863437e+000 1.430335e+000 1.007273e+000 1.059748e+000 -4.556160e-001 2.995177e-002 -1.106733e+000 7.741817e-001 3.552906e-001 -1.491875e+000 -2.761662e-001 5.158404e-001 3.499769e-002 -6.181311e-001 -4.158474e-001 6.001003e-002
<VARIANCE> 25
 1.564757e+001 2.829141e+001 2.214290e+001 4.562909e+001 2.742044e+001 5.807359e+001 5.747802e+001 2.755324e+001 5.228922e+001 2.426630e+001 4.782182e+001 3.759288e+001 2.910055e+000 1.360771e+000 1.586112e+000 5.432225e+000 3.087521e+000 3.010066e+000 8.737793e+000 2.847934e+000 3.029512e+000 2.228216e+000 4.259146e+000 2.347310e+000 5.654246e-001
<GCONST> 1.009538e+002
<STATE> 3
<MEAN> 25
 6.345609e+000 -1.023671e-001 -6.186928e+000 -1.332008e+001 2.673145e+000 2.976748e+000 -6.291221e+000 -1.231336e+000 -2.295901e+000 1.375353e+000 -2.313079e-001 -5.737753e-001 1.055521e-001 4.126288e-001 4.055805e-001 1.864646e+000 -2.509155e-001 -2.953168e-001 1.150062e-001 -4.622012e-001 9.924824e-002 -8.593842e-001 1.986928e-001 -3.567028e-001 -8.434239e-001
<VARIANCE> 25
 5.939571e+000 1.895355e+001 2.731167e+001 3.625373e+001 2.019671e+001 4.308679e+001 3.408869e+001 2.959071e+001 3.361328e+001 2.982479e+001 4.749536e+001 2.678778e+001 2.665527e-001 1.403256e+000 8.759890e-001 3.754163e+000 1.701029e+000 2.181275e+000 2.500241e+000 2.198652e+000 2.149861e+000 1.649520e+000 1.607767e+000 2.119974e+000 7.485309e-001
<GCONST> 9.073736e+001
<STATE> 4
<MEAN> 25
 4.288233e+000 5.739720e+000 -1.979951e+000 -1.686537e+000 -6.348274e-001 -2.081100e+000 -2.541974e+000 -3.317942e+000 -2.095262e+000 -3.548790e+000 2.344408e+000 -2.505502e+000 -1.625687e+000 1.798664e+000 1.969828e+000 3.062973e+000 -7.776341e-001 -1.014715e+000 1.521097e+000 3.166666e-001 -7.628377e-002 -6.348200e-001 4.142945e-001 -2.380568e-001 -1.734141e+000
<VARIANCE> 25
 1.340140e+001 3.285553e+001 2.350443e+001 2.361933e+001 2.105832e+001 4.181958e+001 4.249259e+001 2.224465e+001 2.889330e+001 3.229471e+001 2.922077e+001 2.080339e+001 1.102874e+000 1.966934e+000 2.109818e+000 1.946374e+000 2.644564e+000 2.816320e+000 2.864291e+000 4.174369e+000 3.509512e+000 3.205227e+000 3.327907e+000 2.526129e+000 1.073963e+000
<GCONST> 9.653110e+001
<TRANSP> 5
 0.000000e+000 1.000000e+000 0.000000e+000 0.000000e+000 0.000000e+000
 0.000000e+000 4.217559e-001 5.782441e-001 0.000000e+000 0.000000e+000
 0.000000e+000 0.000000e+000 7.090698e-001 2.909301e-001 0.000000e+000
 0.000000e+000 0.000000e+000 0.000000e+000 5.978822e-001 4.021179e-001
 0.000000e+000 0.000000e+000 0.000000e+000 0.000000e+000 0.000000e+000
<ENDHMM>
~h "p"
<BEGINHMM>
<NUMSTATES> 5
<STATE> 2
<MEAN> 25
 1.275101e+000 5.629277e+000 -4.244477e-001 4.220840e+000 2.986437e+000 3.810611e+000 2.567862e+000 3.559165e-001 4.760625e-001 6.398249e-001 1.530826e+000 1.238824e+000 -1.116378e+000 1.751091e-001 5.349351e-001 1.046371e+000 1.014911e+000 1.003554e+000 7.911471e-001 8.320704e-001 2.412726e-001 1.723486e-001 7.237078e-001 8.310953e-001 -1.312505e+000
<VARIANCE> 25
 1.895860e+001 2.879154e+001 2.503081e+001 2.255339e+001 3.376606e+001 2.887885e+001 4.237536e+001 3.392109e+001 2.973200e+001 2.703537e+001 4.156791e+001 3.019281e+001 1.593006e+000 2.448097e+000 1.326054e+000 1.856509e+000 2.452466e+000 2.598384e+000 2.486283e+000 2.362043e+000 2.328358e+000 2.409650e+000 3.427067e+000 2.308750e+000 2.957198e+000
<GCONST> 9.732417e+001
<STATE> 3
<MEAN> 25
 -3.188206e+000 3.679233e+000 1.177930e+000 7.196484e+000 6.802350e+000 6.888531e+000 6.199743e+000 2.861764e+000 2.266525e+000 2.153003e+000 5.104128e+000 3.022671e+000 -2.203126e-001 -1.346460e+000 -1.193716e-001 -3.337910e-001 -4.414916e-001 -1.116376e+000 -3.938697e-001 1.799126e-001 3.407165e-001 -9.134292e-003 -4.294716e-002 -2.957463e-001 1.671324e+000
<VARIANCE> 25
 1.294184e+001 3.659823e+001 2.128500e+001 2.485437e+001 3.255439e+001 3.280390e+001 4.408829e+001 2.719537e+001 3.069234e+001 2.788771e+001 4.078101e+001 2.386092e+001 1.523688e+000 2.556265e+000 1.936357e+000 2.612678e+000 3.434741e+000 5.329247e+000 3.494219e+000 2.848819e+000 2.798470e+000 2.497360e+000 2.783779e+000 2.892935e+000 4.359080e+000
<GCONST> 9.976247e+001
<STATE> 4
<MEAN> 25
 8.379503e-001 -2.952486e+000 -2.505111e+000 1.845167e-001 1.090931e+000 -1.507766e+000 -1.853091e-001 9.496185e-001 2.515291e+000 1.747954e+000 1.388971e+000 -1.426921e+000 1.930534e+000 -2.625373e+000 -1.590399e+000 -3.035552e+000 -1.949592e+000 -1.897483e+000 -1.569440e+000 -6.714091e-001 -2.583559e-001 -1.980544e-001 -2.123260e+000 -1.839661e+000 4.497257e+000
<VARIANCE> 25
 3.249874e+001 3.870080e+001 4.244334e+001 5.976867e+001 3.631781e+001 4.751659e+001 4.827434e+001 3.821518e+001 3.254911e+001 2.687617e+001 4.872259e+001 3.423845e+001 2.143561e+000 4.775370e+000 6.751003e+000 4.053356e+000 6.298506e+000 8.202707e+000 7.468956e+000 5.014077e+000 6.225120e+000 3.564669e+000 8.169287e+000 4.486456e+000 5.065225e+000
<GCONST> 1.116161e+002
<TRANSP> 5
 0.000000e+000 1.000000e+000 0.000000e+000 0.000000e+000 0.000000e+000
 0.000000e+000 6.879665e-001 3.120334e-001 0.000000e+000 0.000000e+000
 0.000000e+000 0.000000e+000 5.464653e-001 4.535346e-001 0.000000e+000
 0.000000e+000 0.000000e+000 0.000000e+000 5.808058e-001 4.191942e-001
 0.000000e+000 0.000000e+000 0.000000e+000 0.000000e+000 0.000000e+000
<ENDHMM>
~h "q"
<BEGINHMM>
<NUMSTATES> 5
<STATE> 2
<MEAN> 25
 -3.811334e+000 1.061966e+000 -8.824115e-001 3.313434e+000 5.726296e+000 2.635214e+000 1.734499e+000 3.794284e+000 1.134929e+000 -6.924040e-001 2.656718e+000 1.757191e+000 -1.462628e+000 -1.208329e-001 1.996567e-002 1.472572e-001 1.131435e+000 3.431632e-001 4.183138e-001 9.323708e-001 2.605621e-001 2.844351e-001 3.328484e-001 1.362573e-001 2.159149e-002
<VARIANCE> 25
 2.169132e+001 2.708388e+001 3.513535e+001 4.403339e+001 4.464636e+001 6.646609e+001 5.947300e+001 4.014361e+001 3.497559e+001 3.407852e+001 4.155103e+001 2.960594e+001 3.400948e+000 2.794685e+000 3.703163e+000 5.989408e+000 4.630191e+000 4.364599e+000 5.680171e+000 4.238778e+000 4.196929e+000 3.595373e+000 2.832055e+000 2.763822e+000 3.977846e+000
<GCONST> 1.073293e+002
<STATE> 3
<MEAN> 25
 -6.141449e+000 -2.861768e-001 -1.030247e+000 2.938416e+000 7.195279e+000 1.744750e+000 1.158390e+000 5.156838e+000 1.640727e+000 -8.567804e-001 1.805535e+000 1.043318e+000 -8.321227e-001 4.592616e-002 2.504931e-001 2.258385e-001 4.303497e-001 8.847645e-002 1.683170e-001 4.066438e-001 3.972707e-001 3.744339e-001 2.434371e-001 -6.063628e-002 1.526446e-002
<VARIANCE> 25
 3.086368e+001 2.373555e+001 3.906638e+001 4.675397e+001 5.422075e+001 6.414288e+001 6.002367e+001 4.488100e+001 3.964192e+001 3.701228e+001 3.827628e+001 3.124169e+001 3.768061e+000 2.112201e+000 2.478132e+000 5.780233e+000 4.788390e+000 3.460169e+000 5.140518e+000 4.855262e+000 4.082699e+000 3.337333e+000 2.767087e+000 2.367149e+000 3.199441e+000
<GCONST> 1.068997e+002
<STATE> 4
<MEAN> 25
 -7.673255e+000 9.486914e-002 6.978194e-002 4.796005e+000 8.671035e+000 2.418448e+000 3.062617e+000 5.933823e+000 3.409379e+000 2.794018e-001 2.821317e+000 1.508798e+000 9.774865e-001 4.792193e-001 4.461461e-001 -5.404452e-001 -1.187311e+000 -1.210786e-001 -2.312614e-001 -9.524827e-001 -3.553551e-001 9.027937e-003 -1.272172e-001 -1.042141e-001 -9.607936e-002
<VARIANCE> 25
 3.344424e+001 2.090154e+001 3.283210e+001 4.655844e+001 5.473926e+001 5.310342e+001 5.546053e+001 4.952209e+001 3.759853e+001 3.211628e+001 3.292582e+001 2.822172e+001 3.981136e+000 2.113904e+000 2.301736e+000 4.573385e+000 6.362806e+000 4.897820e+000 5.589007e+000 5.825062e+000 3.681382e+000 3.575862e+000 3.391349e+000 2.840859e+000 3.814365e+000
<GCONST> 1.072402e+002
<TRANSP> 5
 0.000000e+000 1.000000e+000 0.000000e+000 0.000000e+000 0.000000e+000
 0.000000e+000 3.688071e-001 6.311929e-001 0.000000e+000 0.000000e+000
 0.000000e+000 0.000000e+000 1.496135e-001 8.503864e-001 0.000000e+000
 0.000000e+000 0.000000e+000 0.000000e+000 6.726915e-001 3.273086e-001
 0.000000e+000 0.000000e+000 0.000000e+000 0.000000e+000 0.000000e+000
<ENDHMM>
~h "r"
<BEGINHMM>
<NUMSTATES> 5
<STATE> 2
<MEAN> 25
 2.773679e+000 -2.316180e+000 2.515489e+000 2.615218e+000 -6.051298e+000 -5.175493e+000 -4.191360e+000 1.500858e+000 3.028272e+000 -1.205351e+000 3.461165e-001 3.648105e-001 3.723468e-001 2.500075e-001 4.376513e-001 2.071426e-002 -5.926423e-001 -1.910135e-001 -4.274213e-001 -8.086896e-001 1.607793e-001 -1.901274e-001 4.714001e-001 1.705966e-001 -6.986018e-002
<VARIANCE> 25
 1.328086e+001 2.959138e+001 2.789983e+001 3.958289e+001 5.459597e+001 3.462663e+001 8.274732e+001 5.283117e+001 4.604368e+001 4.394717e+001 3.533426e+001 3.181566e+001 1.752835e+000 3.304550e+000 3.258256e+000 3.798135e+000 5.579127e+000 4.397746e+000 4.413890e+000 5.511923e+000 3.653269e+000 5.138155e+000 3.527902e+000 3.602009e+000 2.381160e+000
<GCONST> 1.064987e+002
<STATE> 3
<MEAN> 25
 4.013872e+000 -4.380731e-001 2.414882e+000 2.359083e+000 -6.511932e+000 -4.204300e+000 -3.913872e+000 -1.436695e+000 2.269671e+000 -1.215073e+000 1.553824e+000 1.609199e-002 -2.073290e-001 6.482137e-001 2.162427e-002 -6.086521e-001 4.888799e-001 6.097892e-001 6.079259e-001 -6.829183e-001 -4.243552e-001 3.246234e-001 2.434924e-001 -3.864373e-001 -2.138590e-001
<VARIANCE> 25
 1.413898e+001 3.302355e+001 2.915741e+001 2.512835e+001 3.537003e+001 3.942128e+001 7.459818e+001 4.035908e+001 4.458637e+001 3.734586e+001 3.999403e+001 2.759712e+001 1.818625e+000 4.578097e+000 2.103558e+000 4.743626e+000 5.246576e+000 4.119322e+000 4.029553e+000 9.251303e+000 3.920023e+000 4.389460e+000 3.127639e+000 3.081027e+000 2.692766e+000
<GCONST> 1.055769e+002
<STATE> 4
<MEAN> 25
 2.672341e+000 -3.236593e-001 2.061852e+000 6.914870e-001 -4.506520e+000 -3.273821e+000 -2.783953e+000 -9.994094e-001 1.585501e+000 -2.409848e-001 1.652631e+000 -1.184150e+000 -6.581185e-001 -4.125987e-002 -1.391300e-001 -1.374848e+000 2.038959e-001 7.693818e-001 9.213182e-001 -1.217588e-001 -5.780585e-001 6.357430e-001 4.825996e-003 -2.941626e-001 6.131864e-001
<VARIANCE> 25
 1.345098e+001 5.184983e+001 2.737660e+001 3.147139e+001 4.167320e+001 4.741401e+001 6.023686e+001 7.793535e+001 3.345517e+001 3.785784e+001 4.020538e+001 3.051290e+001 1.811375e+000 3.150181e+000 2.079321e+000 3.251983e+000 3.557173e+000 3.780968e+000 5.530191e+000 8.566555e+000 5.506127e+000 3.085396e+000 3.346653e+000 2.401585e+000 2.189960e+000
<GCONST> 1.053626e+002
<TRANSP> 5
 0.000000e+000 1.000000e+000 0.000000e+000 0.000000e+000 0.000000e+000
 0.000000e+000 4.423947e-001 5.576053e-001 0.000000e+000 0.000000e+000
 0.000000e+000 0.000000e+000 2.306464e-001 7.693536e-001 0.000000e+000
 0.000000e+000 0.000000e+000 0.000000e+000 2.234789e-001 7.765211e-001
 0.000000e+000 0.000000e+000 0.000000e+000 0.000000e+000 0.000000e+000
<ENDHMM>
~h "s"
<BEGINHMM>
<NUMSTATES> 5
<STATE> 2
<MEAN> 25
 -9.611078e+000 7.422378e+000 -5.937600e-001 6.658298e+000 1.778661e+000 5.494335e-001 1.784768e+000 1.015388e+000 6.153345e-001 -1.111065e+000 3.577363e+000 -2.098732e-001 -2.164463e+000 7.498660e-002 -1.553746e-001 1.324099e+000 9.102015e-001 1.477273e+000 1.172929e+000 6.856214e-001 2.966698e-001 8.576825e-001 9.136320e-001 2.263720e-001 -7.013925e-001
<VARIANCE> 25
 2.731508e+001 1.740375e+001 2.354862e+001 3.540673e+001 4.123516e+001 3.607348e+001 4.805693e+001 4.212108e+001 2.849488e+001 3.162556e+001 2.767049e+001 2.874592e+001 2.886429e+000 2.287364e+000 1.972587e+000 2.407927e+000 2.726112e+000 2.482838e+000 3.542765e+000 3.312450e+000 3.038963e+000 3.830251e+000 2.749081e+000 2.353366e+000 7.432027e-001
<GCONST> 9.908253e+001
<STATE> 3
<MEAN> 25
 -1.219905e+001 3.281165e+000 -1.633098e+000 7.725744e+000 6.966245e+000 5.512038e+000 6.215592e+000 5.713663e+000 3.996869e+000 2.437728e+000 6.511823e+000 2.483648e+000 5.744070e-001 -7.516909e-001 3.106528e-002 -5.773422e-001 2.503334e-001 6.372653e-002 1.752463e-001 3.472450e-001 5.084010e-001 3.858821e-001 2.982845e-001 3.068551e-001 -3.639859e-001
<VARIANCE> 25
 2.717765e+001 2.407305e+001 2.493737e+001 4.311964e+001 4.740714e+001 3.501259e+001 4.167944e+001 3.565825e+001 3.542432e+001 3.014450e+001 3.078488e+001 2.366648e+001 1.972101e+000 1.850885e+000 1.834662e+000 2.669374e+000 2.915064e+000 3.423322e+000 2.873712e+000 2.998159e+000 3.491891e+000 2.580365e+000 2.329885e+000 2.114263e+000 1.981115e+000
<GCONST> 9.950785e+001
<STATE> 4
<MEAN> 25
 -5.943429e+000 1.815870e+000 1.638090e-001 2.955182e+000 2.657857e+000 8.260195e-001 2.109103e+000 3.328894e+000 3.391996e+000 6.425020e-001 4.723851e+000 2.090853e+000 3.673460e+000 -4.036571e-001 2.862261e-001 -1.857231e+000 -1.611292e+000 -2.054177e+000 -2.282150e+000 -1.755470e+000 -9.018310e-001 -8.937113e-001 -1.865222e+000 -7.823350e-001 7.740586e-001
<VARIANCE> 25
 5.723082e+001 3.023703e+001 3.446250e+001 3.414101e+001 5.937335e+001 5.815925e+001 7.192065e+001 6.494823e+001 3.812093e+001 5.054306e+001 4.948566e+001 2.596489e+001 5.025874e+000 2.892578e+000 4.358552e+000 5.387084e+000 7.677877e+000 6.280959e+000 7.250225e+000 7.090634e+000 4.625530e+000 5.261280e+000 5.139053e+000 3.743691e+000 3.661310e+000
<GCONST> 1.128870e+002
<TRANSP> 5
 0.000000e+000 1.000000e+000 0.000000e+000 0.000000e+000 0.000000e+000
 0.000000e+000 7.556038e-001 2.443962e-001 0.000000e+000 0.000000e+000
 0.000000e+000 0.000000e+000 7.616919e-001 2.383082e-001 0.000000e+000
 0.000000e+000 0.000000e+000 0.000000e+000 5.087190e-001 4.912810e-001
 0.000000e+000 0.000000e+000 0.000000e+000 0.000000e+000 0.000000e+000
<ENDHMM>
~h "t"
<BEGINHMM>
<NUMSTATES> 5
<STATE> 2
<MEAN> 25
 7.890024e-001 7.912383e+000 2.167614e+000 5.707764e+000 1.810941e+000 2.950840e+000 2.198469e+000 5.191638e-001 9.634681e-001 4.757898e-001 2.742733e+000 1.460129e+000 -1.340820e+000 -3.545447e-001 1.212422e-001 8.671425e-001 1.527027e+000 1.456905e+000 1.010522e+000 5.912422e-001 3.109016e-001 7.455903e-001 1.272943e+000 5.687928e-001 -9.614866e-001
<VARIANCE> 25
 1.220755e+001 1.943491e+001 1.930528e+001 1.641112e+001 4.324837e+001 3.173879e+001 4.659017e+001 3.871988e+001 2.764995e+001 2.965596e+001 3.214051e+001 2.324030e+001 9.827626e-001 1.669996e+000 1.205389e+000 1.323400e+000 2.383929e+000 2.018404e+000 2.414336e+000 2.217400e+000 2.386420e+000 2.944663e+000 2.882779e+000 2.002060e+000 1.945362e+000
<GCONST> 9.380135e+001
<STATE> 3
<MEAN> 25
 -3.330118e+000 4.900513e+000 2.034238e+000 7.464077e+000 6.125175e+000 6.874927e+000 5.190182e+000 2.370914e+000 2.225563e+000 2.133371e+000 5.235183e+000 3.032466e+000 -9.815648e-001 -2.272076e+000 -7.934351e-001 -1.229515e+000 -4.263454e-001 -1.238582e+000 4.248090e-002 2.425038e-001 5.445647e-001 2.171794e-002 4.541563e-001 -2.786920e-001 3.074665e+000
<VARIANCE> 25
 1.051015e+001 2.391861e+001 1.867484e+001 2.026393e+001 3.613332e+001 3.144307e+001 5.121221e+001 3.195718e+001 3.099905e+001 2.953483e+001 2.797190e+001 2.289639e+001 1.376766e+000 2.334499e+000 2.461317e+000 2.167324e+000 4.055179e+000 4.462628e+000 4.484491e+000 3.874892e+000 3.153862e+000 3.455777e+000 3.086670e+000 2.513695e+000 4.214969e+000
<GCONST> 9.959618e+001
<STATE> 4
<MEAN> 25
 -2.545832e+000 -2.393799e+000 -2.058521e+000 2.302510e-002 -4.181666e-001 -3.136941e+000 1.525512e+000 3.235105e+000 3.180930e+000 -9.238971e-001 3.207976e+000 7.682126e-001 1.406714e+000 -2.253983e+000 -1.870883e+000 -2.892802e+000 -2.249794e+000 -2.900843e+000 -1.174520e+000 9.408042e-001 -1.460957e-001 -1.800048e+000 -2.198902e+000 -8.862402e-001 4.867693e+000
<VARIANCE> 25
 2.453313e+001 1.688509e+001 3.145778e+001 2.943868e+001 4.565324e+001 4.829094e+001 4.928328e+001 3.527730e+001 2.824128e+001 4.198305e+001 4.940347e+001 2.707539e+001 1.385397e+000 3.099800e+000 3.741849e+000 2.469404e+000 7.961853e+000 6.048993e+000 6.908816e+000 6.573555e+000 5.966216e+000 6.227758e+000 4.580831e+000 4.756279e+000 4.327983e+000
<GCONST> 1.077730e+002
<TRANSP> 5
 0.000000e+000 1.000000e+000 0.000000e+000 0.000000e+000 0.000000e+000
 0.000000e+000 6.855757e-001 3.144243e-001 0.000000e+000 0.000000e+000
 0.000000e+000 0.000000e+000 4.639350e-001 5.360650e-001 0.000000e+000
 0.000000e+000 0.000000e+000 0.000000e+000 5.877852e-001 4.122148e-001
 0.000000e+000 0.000000e+000 0.000000e+000 0.000000e+000 0.000000e+000
<ENDHMM>
~h "u"
<BEGINHMM>
<NUMSTATES> 5
<STATE> 2
<MEAN> 25
 6.790465e+000 2.817619e+000 -4.546597e+000 -9.349771e+000 -3.570961e+000 1.313929e+000 -4.201190e+000 -4.186708e+000 -4.405206e+000 2.777012e+000 1.958157e-001 -1.104323e-001 8.747100e-001 -6.938650e-001 -3.734756e-001 -1.124517e+000 -1.409049e-001 3.274328e-001 -1.307773e+000 -1.399266e+000 1.311273e-001 1.305785e+000 -2.309423e-001 -4.454467e-001 1.181402e+000
<VARIANCE> 25
 9.286946e+000 2.772663e+001 2.194948e+001 5.946424e+001 3.273209e+001 5.184693e+001 4.827328e+001 3.616984e+001 4.452801e+001 4.107316e+001 4.152953e+001 3.735624e+001 2.283252e+000 2.303845e+000 2.699188e+000 6.458097e+000 5.038555e+000 4.878498e+000 4.744983e+000 4.265262e+000 5.299697e+000 3.974026e+000 3.981111e+000 3.317795e+000 1.936129e+000
<GCONST> 1.054492e+002
<STATE> 3
<MEAN> 25
 6.246842e+000 -1.320006e+000 -3.399656e+000 -7.054130e+000 -1.778468e+000 1.251440e+000 -7.239544e+000 -5.390669e+000 -1.039081e+000 3.850966e+000 -1.367505e+000 -2.339030e+000 -2.045518e-001 -3.150440e-001 7.592458e-001 1.009171e+000 -6.588608e-002 -5.795868e-001 -3.799970e-001 3.843352e-001 6.899667e-001 -6.956698e-001 -6.725150e-001 2.887157e-002 -9.695824e-002
<VARIANCE> 25
 8.280272e+000 2.382663e+001 2.113989e+001 3.314625e+001 3.626868e+001 3.958382e+001 4.763985e+001 3.803341e+001 4.412445e+001 4.308633e+001 4.414312e+001 2.866105e+001 4.846426e-001 1.351359e+000 1.859067e+000 3.302685e+000 2.351883e+000 5.019016e+000 4.061465e+000 3.159805e+000 4.429703e+000 3.601596e+000 3.070315e+000 3.110554e+000 6.807285e-001
<GCONST> 9.830219e+001
<STATE> 4
<MEAN> 25
 4.810322e+000 1.195788e+000 3.360894e-001 -9.148753e-001 -2.219949e+000 -2.526361e+000 -5.898960e+000 -3.122156e+000 2.666531e-001 -6.979904e-001 -1.342353e+000 -2.216196e-001 -8.689163e-001 8.820060e-001 1.159916e+000 1.571079e+000 -4.356475e-002 -1.788296e-001 1.093825e+000 3.244546e-001 -7.337833e-002 -8.427088e-001 2.397825e-001 5.687457e-001 -1.287146e+000
<VARIANCE> 25
 1.254168e+001 3.667725e+001 2.902635e+001 4.054046e+001 3.943727e+001 5.528627e+001 5.783836e+001 4.164033e+001 4.166665e+001 4.416254e+001 3.362281e+001 2.655503e+001 1.529707e+000 1.914960e+000 2.941745e+000 2.924819e+000 4.912020e+000 3.905048e+000 4.941582e+000 4.366990e+000 4.319998e+000 3.877708e+000 3.998952e+000 3.348437e+000 1.787998e+000
<GCONST> 1.041814e+002
<TRANSP> 5
 0.000000e+000 1.000000e+000 0.000000e+000 0.000000e+000 0.000000e+000
 0.000000e+000 6.075681e-001 3.924319e-001 0.000000e+000 0.000000e+000
 0.000000e+000 0.000000e+000 6.788066e-001 3.211934e-001 0.000000e+000
 0.000000e+000 0.000000e+000 0.000000e+000 6.336968e-001 3.663032e-001
 0.000000e+000 0.000000e+000 0.000000e+000 0.000000e+000 0.000000e+000
<ENDHMM>
~h "v"
<BEGINHMM>
<NUMSTATES> 5
<STATE> 2
<MEAN> 25
 -3.720639e-001 -3.915645e+000 5.664760e+000 -2.646552e+000 -8.987189e+000 -7.038983e+000 3.871352e+000 5.203875e+000 5.158314e+000 2.540180e+000 2.779689e+000 3.605525e+000 -1.646352e+000 -8.243176e-001 7.734170e-001 -2.564470e+000 -2.108393e+000 1.444035e+000 2.313873e+000 1.110235e+000 -8.607645e-001 2.067637e+000 2.086040e+000 -2.800904e-001 2.403979e+000
<VARIANCE> 25
 7.512756e+000 1.860020e+000 2.222648e+000 2.260954e+001 2.421749e+001 1.900252e+001 3.382261e+001 1.454657e+001 1.658241e+001 2.564522e+001 1.860751e+001 1.051683e+001 7.819206e-001 3.651443e+000 6.829972e-001 1.870443e+000 2.600342e+000 4.044924e+000 1.486431e+000 3.595394e+000 1.740089e+000 5.432904e+000 1.610619e+000 2.546374e+000 2.733449e+000
<GCONST> 8.614700e+001
<STATE> 3
<MEAN> 25
 -3.983544e+000 -5.345798e-001 4.859620e+000 -5.168635e+000 -1.113355e+001 2.397897e+000 6.580788e+000 1.767331e+000 -1.155058e+000 4.807652e+000 6.243333e+000 -7.269613e-001 2.865766e-001 8.095726e-001 -2.596349e-002 1.481343e+000 3.165722e-001 -5.549796e-001 -1.021705e+000 -8.627320e-001 -1.350539e+000 -8.747159e-001 -3.602825e-001 1.595396e-001 -8.236399e-001
<VARIANCE> 25
 3.469553e+000 1.613044e+000 2.401642e+000 1.076343e+001 9.410137e+000 2.602063e+001 6.581838e+000 1.568211e+001 2.961946e+001 1.026370e+001 5.271304e+000 6.900978e+000 7.412806e-001 1.869379e-001 2.748597e-001 6.679071e-001 2.962312e-001 4.762635e+000 1.397640e+000 1.474619e+000 3.851590e-001 1.019605e+000 1.317382e+000 3.188300e+000 3.038742e-001
<GCONST> 6.707510e+001
<STATE> 4
<MEAN> 25
 2.691095e+000 3.745756e+000 6.837517e+000 1.689962e+000 -6.149686e+000 -7.340632e+000 9.869896e-001 -5.910856e+000 6.901030e-001 2.138827e-002 -3.101181e+000 7.066625e+000 1.332868e+000 9.614301e-001 4.746066e-002 4.312465e-001 1.018019e+000 -7.000825e-001 -6.675758e-001 -1.656885e+000 1.493577e+000 -7.279938e-001 -2.144550e+000 9.528645e-001 -1.573640e+000
<VARIANCE> 25
 7.603834e+000 5.493363e+000 4.438753e+000 2.346127e+000 9.108185e+000 6.060983e+000 2.816995e+001 2.408608e+001 2.638903e+001 2.971654e+001 3.864512e+001 2.276051e+001 9.200754e-001 2.096895e-001 5.368862e-001 6.887449e-001 1.526667e+000 2.527538e+000 1.883220e+000 3.279453e+000 3.068228e+000 5.149220e-001 3.694578e+000 2.633226e+000 5.275378e-001
<GCONST> 7.862091e+001
<TRANSP> 5
 0.000000e+000 1.000000e+000 0.000000e+000 0.000000e+000 0.000000e+000
 0.000000e+000 7.422278e-001 2.577722e-001 0.000000e+000 0.000000e+000
 0.000000e+000 0.000000e+000 7.695524e-001 2.304476e-001 0.000000e+000
 0.000000e+000 0.000000e+000 0.000000e+000 8.017799e-001 1.982201e-001
 0.000000e+000 0.000000e+000 0.000000e+000 0.000000e+000 0.000000e+000
<ENDHMM>
~h "w"
<BEGINHMM>
<NUMSTATES> 5
<STATE> 2
<MEAN> 25
 7.780282e+000 3.477974e+000 -4.670086e+000 -1.231059e+001 -3.575443e+000 3.026930e+000 3.547108e-001 -3.161103e+000 -3.477649e+000 3.087380e+000 7.771378e-001 -8.719025e-001 4.230501e-001 2.451098e-001 -2.575834e-001 -8.919455e-001 -2.715038e-001 6.966839e-001 4.261379e-001 -8.420449e-002 -6.609952e-001 8.224072e-003 3.755423e-001 4.493632e-001 -8.085071e-002
<VARIANCE> 25
 8.568283e+000 3.753318e+001 2.554333e+001 3.274513e+001 4.597359e+001 2.817934e+001 3.380819e+001 2.970398e+001 2.947097e+001 2.934110e+001 3.320384e+001 2.676962e+001 7.742890e-001 3.745840e+000 2.023949e+000 3.024919e+000 4.653764e+000 3.394423e+000 2.964474e+000 2.630297e+000 3.195332e+000 2.997904e+000 3.090278e+000 2.907750e+000 2.491406e+000
<GCONST> 9.913879e+001
<STATE> 3
<MEAN> 25
 6.826290e+000 -2.809124e+000 -7.828963e+000 -1.251768e+001 2.264725e+000 6.304296e+000 1.087996e+000 -4.212842e+000 -2.804300e+000 5.257112e+000 8.599777e-001 -2.496638e+000 -1.088647e+000 -2.270652e+000 -4.817942e-001 1.775831e+000 2.159986e+000 -3.354965e-001 -6.914147e-001 2.206584e-001 1.511030e+000 2.625626e-001 -1.434937e+000 -1.643484e+000 1.409611e+000
<VARIANCE> 25
 8.465119e+000 3.598496e+001 2.058278e+001 3.513105e+001 3.955991e+001 2.659441e+001 3.789093e+001 2.666173e+001 3.773508e+001 3.758074e+001 4.619669e+001 3.456405e+001 5.888028e-001 2.129111e+000 1.437225e+000 2.783795e+000 2.367001e+000 3.032047e+000 3.288979e+000 2.688439e+000 2.881175e+000 3.117834e+000 3.933093e+000 3.024809e+000 1.591923e+000
<GCONST> 9.765831e+001
<STATE> 4
<MEAN> 25
 3.617206e+000 -6.361954e+000 -7.165432e+000 -5.285072e+000 5.459003e+000 1.608581e+000 -2.002316e+000 -6.596502e-001 2.170651e+000 2.952956e+000 -5.218449e+000 -5.347391e+000 -1.138960e+000 -5.610197e-001 1.059732e+000 2.365846e+000 -1.257096e-001 -1.817229e+000 -5.980599e-002 1.769703e+000 6.732488e-001 -1.565052e+000 -1.298976e+000 4.520690e-001 2.041642e-001
<VARIANCE> 25
 1.002272e+001 5.691235e+001 2.663760e+001 2.982590e+001 4.043349e+001 3.817130e+001 5.756939e+001 3.441373e+001 3.743650e+001 3.660359e+001 5.963664e+001 4.487922e+001 8.779936e-001 1.697974e+000 1.785639e+000 1.982553e+000 2.841447e+000 3.116583e+000 3.560189e+000 2.606299e+000 3.061379e+000 3.453552e+000 4.063814e+000 2.826258e+000 1.497317e+000
<GCONST> 1.002945e+002
<TRANSP> 5
 0.000000e+000 1.000000e+000 0.000000e+000 0.000000e+000 0.000000e+000
 0.000000e+000 8.047746e-001 1.952253e-001 0.000000e+000 0.000000e+000
 0.000000e+000 0.000000e+000 6.128907e-001 3.871093e-001 0.000000e+000
 0.000000e+000 0.000000e+000 0.000000e+000 5.176166e-001 4.823835e-001
 0.000000e+000 0.000000e+000 0.000000e+000 0.000000e+000 0.000000e+000
<ENDHMM>
~h "x"
<BEGINHMM>
<NUMSTATES> 5
<STATE> 2
<MEAN> 25
 6.391189e+000 2.698173e+000 5.789501e-002 2.771011e+000 -5.456009e+000 -2.586568e+000 -4.669954e+000 -4.774579e+000 -9.503953e-001 2.864495e+000 -2.559321e+000 -4.402763e+000 -5.807415e-002 -2.942358e-001 -8.115058e-002 -4.999264e-001 7.558496e-002 6.588189e-002 7.508273e-002 -8.448347e-002 -4.164215e-002 5.659268e-001 -6.295182e-001 -3.072421e-001 5.979183e-001
<VARIANCE> 25
 8.075571e+000 2.730459e+001 4.036392e+001 3.264081e+001 2.181790e+001 2.918267e+001 3.109574e+001 4.884076e+001 3.916177e+001 4.099485e+001 2.921812e+001 2.803312e+001 8.923597e-001 1.040346e+000 1.475455e+000 1.984011e+000 1.874212e+000 1.930832e+000 2.590466e+000 2.082569e+000 2.465178e+000 1.807921e+000 1.601723e+000 1.210577e+000 8.238971e-001
<GCONST> 9.233183e+001
<STATE> 3
<MEAN> 25
 1.543020e+000 4.547925e+000 2.705855e+000 -4.596790e+000 -2.285303e+000 -2.835294e+000 -3.427668e+000 -5.130497e+000 -1.561942e+000 5.314128e+000 -3.759623e+000 -5.525704e+000 -1.647529e+000 -2.915534e-001 9.332403e-001 -2.304087e+000 4.975390e-002 8.792239e-001 6.813419e-001 5.840260e-001 -6.946662e-001 -2.884607e-002 5.796183e-001 -1.593091e-001 1.372541e+000
<VARIANCE> 25
 1.096725e+001 2.324286e+001 4.791388e+001 2.956638e+001 2.933694e+001 2.042651e+001 3.335644e+001 5.409921e+001 4.559705e+001 2.831810e+001 2.704986e+001 2.347884e+001 5.734155e-001 2.374610e+000 1.670771e+000 2.632136e+000 3.192511e+000 2.868283e+000 4.096460e+000 4.739373e+000 3.995497e+000 2.755637e+000 2.219002e+000 1.678144e+000 4.522173e-001
<GCONST> 9.614505e+001
<STATE> 4
<MEAN> 25
 -2.238292e+000 -1.600046e+000 5.430399e+000 -7.477892e+000 -6.634781e+000 1.167235e+000 3.390032e+000 -4.039168e-001 -6.735091e+000 3.476023e-001 -1.483640e-001 -4.033443e+000 -1.285888e-001 -2.139547e+000 -9.491543e-001 6.965557e-001 -2.220134e-002 1.173761e-001 1.071288e+000 1.981486e+000 -2.306922e-001 -2.281054e+000 3.868519e-001 1.265076e+000 8.994568e-001
<VARIANCE> 25
 1.023833e+001 2.214963e+001 4.427678e+001 1.810246e+001 3.653838e+001 3.480571e+001 5.375419e+001 3.656281e+001 3.162290e+001 4.562776e+001 2.453023e+001 2.947430e+001 5.462286e-001 1.945546e+000 2.498785e+000 2.037723e+000 3.453126e+000 3.285044e+000 3.282885e+000 4.081027e+000 5.233763e+000 2.778420e+000 3.065099e+000 2.226852e+000 4.837128e-001
<GCONST> 9.723042e+001
<TRANSP> 5
 0.000000e+000 1.000000e+000 0.000000e+000 0.000000e+000 0.000000e+000
 0.000000e+000 7.485566e-001 2.514434e-001 0.000000e+000 0.000000e+000
 0.000000e+000 0.000000e+000 6.920977e-001 3.079023e-001 0.000000e+000
 0.000000e+000 0.000000e+000 0.000000e+000 6.407484e-001 3.592515e-001
 0.000000e+000 0.000000e+000 0.000000e+000 0.000000e+000 0.000000e+000
<ENDHMM>
~h "y"
<BEGINHMM>
<NUMSTATES> 5
<STATE> 2
<MEAN> 25
 -7.202460e-001 -1.591045e+000 4.216036e+000 -6.123870e+000 -1.135119e+001 -2.670156e+000 2.652352e+000 5.261251e-003 -1.571776e+000 7.526234e-001 -6.382665e-001 -2.812037e+000 -2.862816e-001 1.563657e+000 1.615706e+000 -4.810721e-001 -6.481286e-001 1.639319e-001 -1.543870e+000 -1.751674e+000 3.474710e-001 9.825917e-001 1.958168e-001 1.334163e-001 -6.231216e-001
<VARIANCE> 25
 1.066017e+001 1.806367e+001 2.983425e+001 2.575329e+001 2.698953e+001 3.745953e+001 3.865055e+001 3.723471e+001 2.809789e+001 2.539619e+001 3.414171e+001 1.870777e+001 2.467281e-001 1.203491e+000 1.284289e+000 1.150732e+000 1.870682e+000 1.882536e+000 3.809232e+000 2.226039e+000 3.295391e+000 2.136795e+000 2.095404e+000 2.052754e+000 3.135847e-001
<GCONST> 8.989584e+001
<STATE> 3
<MEAN> 25
 -1.408044e+000 5.981373e+000 8.916838e+000 -7.372252e+000 -8.685861e+000 -1.033448e+000 -6.232369e+000 -6.635825e+000 1.221035e+000 1.563832e+000 -1.778520e+000 -1.112178e+000 2.375351e-001 7.499546e-001 3.760859e-001 4.719945e-001 6.296616e-001 1.139694e-001 -6.319598e-001 -3.910492e-001 4.169683e-002 -2.965181e-001 -1.539972e-001 6.223298e-002 -8.828996e-001
<VARIANCE> 25
 1.052753e+001 2.628777e+001 2.429395e+001 2.674680e+001 3.553295e+001 2.796563e+001 3.846171e+001 2.996402e+001 3.403409e+001 3.014785e+001 3.163629e+001 2.529187e+001 4.359345e-001 1.543807e+000 1.133477e+000 1.332967e+000 1.971406e+000 1.676203e+000 2.974069e+000 1.902703e+000 1.832042e+000 1.950229e+000 1.863689e+000 1.594488e+000 6.313401e-001
<GCONST> 9.046378e+001
<STATE> 4
<MEAN> 25
 9.491557e-001 5.647644e+000 7.065414e+000 1.936525e-001 -5.960208e+000 -1.851731e+000 -2.047581e+000 -4.159401e+000 -9.823234e-001 7.331864e-001 -6.188677e-002 -1.084546e+000 4.121607e-001 -2.069456e-001 -1.097284e+000 1.788545e+000 1.344092e+000 6.312547e-002 7.767807e-001 7.711489e-001 -7.710885e-002 1.206650e-001 4.112545e-001 2.110106e-001 -1.420093e+000
<VARIANCE> 25
 1.536764e+001 3.712232e+001 2.567449e+001 4.673988e+001 5.014608e+001 3.749596e+001 4.561164e+001 4.230312e+001 3.740435e+001 3.265149e+001 3.542619e+001 2.765300e+001 1.946466e+000 2.818144e+000 1.833163e+000 3.311693e+000 4.074716e+000 4.213173e+000 4.559782e+000 3.802100e+000 3.150392e+000 3.390821e+000 3.357944e+000 2.768886e+000 3.107000e+000
<GCONST> 1.034160e+002
<TRANSP> 5
 0.000000e+000 1.000000e+000 0.000000e+000 0.000000e+000 0.000000e+000
 0.000000e+000 7.106194e-001 2.893806e-001 0.000000e+000 0.000000e+000
 0.000000e+000 0.000000e+000 7.146571e-001 2.853430e-001 0.000000e+000
 0.000000e+000 0.000000e+000 0.000000e+000 7.321615e-001 2.678385e-001
 0.000000e+000 0.000000e+000 0.000000e+000 0.000000e+000 0.000000e+000
<ENDHMM>
~h "al"
<BEGINHMM>
<NUMSTATES> 5
<STATE> 2
<MEAN> 25
 -7.969539e+000 -1.284898e+000 -1.469164e+000 7.188213e+000 1.070793e+001 -6.992769e-001 9.517890e-001 5.942265e+000 5.586168e+000 1.246627e+000 1.591264e+000 1.058063e+000 5.810344e-001 -8.465038e-001 -4.683820e-001 -3.731921e-001 -3.174774e-001 -3.583575e-001 -9.443207e-002 -1.447963e-001 -7.276884e-002 -9.236936e-001 -6.057261e-001 -2.938451e-001 1.116073e+000
<VARIANCE> 25
 1.822123e+001 3.137925e+001 2.760357e+001 2.568653e+001 4.284678e+001 5.578152e+001 4.809618e+001 3.808939e+001 3.280215e+001 3.518354e+001 3.195273e+001 2.162116e+001 6.471299e+000 2.306671e+000 2.390513e+000 4.139535e+000 7.319963e+000 4.906848e+000 4.785548e+000 5.156650e+000 4.835513e+000 4.177380e+000 3.628084e+000 2.671728e+000 3.694375e+000
<GCONST> 1.061071e+002
<STATE> 3
<MEAN> 25
 3.744482e+000 -6.267844e+000 -6.474637e+000 -1.730349e+000 7.758447e-001 -2.383521e+000 9.056285e-001 9.485610e-001 6.384832e-001 -5.165131e+000 -4.060760e+000 -2.721524e+000 1.941749e+000 -1.987299e+000 -1.103424e+000 -1.919048e+000 -1.602885e+000 1.364771e-001 8.522257e-001 -6.216367e-001 -8.458124e-001 -1.134349e+000 -1.015967e+000 -7.756067e-001 2.443329e+000
<VARIANCE> 25
 1.199241e+001 2.197290e+001 1.669761e+001 2.363320e+001 2.945449e+001 2.584090e+001 4.479149e+001 3.458097e+001 3.035235e+001 2.902550e+001 2.460289e+001 3.552544e+001 3.853056e+000 1.741947e+000 2.424184e+000 3.248869e+000 6.134968e+000 6.805986e+000 4.972050e+000 4.276108e+000 4.072510e+000 2.996254e+000 2.976568e+000 2.761723e+000 2.174411e+000
<GCONST> 1.011746e+002
<STATE> 4
<MEAN> 25
 4.123136e+000 -8.467555e+000 -6.962635e+000 -9.987494e-001 2.130099e+000 8.380171e-001 5.964071e-001 4.397237e-001 -2.026888e+000 -4.559919e+000 -4.061611e+000 -1.135137e+000 7.871197e-002 7.589635e-001 4.553651e-001 4.178573e-001 -1.832360e-001 2.148170e-001 -3.676444e-001 -8.020659e-002 -2.884818e-001 4.631706e-001 3.602025e-001 3.887392e-001 -8.247237e-001
<VARIANCE> 25
 1.239404e+001 2.241847e+001 1.616797e+001 2.614202e+001 3.278311e+001 3.015367e+001 5.562819e+001 3.726371e+001 4.006372e+001 3.134443e+001 2.674309e+001 3.405056e+001 6.025919e-001 2.051180e+000 1.248971e+000 1.755780e+000 2.021155e+000 2.074836e+000 2.605895e+000 2.254607e+000 2.013985e+000 2.001103e+000 2.075431e+000 1.977189e+000 1.680193e+000
<GCONST> 9.362917e+001
<TRANSP> 5
 0.000000e+000 1.000000e+000 0.000000e+000 0.000000e+000 0.000000e+000
 0.000000e+000 7.996280e-001 2.003721e-001 0.000000e+000 0.000000e+000
 0.000000e+000 0.000000e+000 6.466151e-001 3.533849e-001 0.000000e+000
 0.000000e+000 0.000000e+000 0.000000e+000 8.524217e-001 1.475783e-001
 0.000000e+000 0.000000e+000 0.000000e+000 0.000000e+000 0.000000e+000
<ENDHMM>
~h "ch"
<BEGINHMM>
<NUMSTATES> 5
<STATE> 2
<MEAN> 25
 -1.191511e+001 5.560761e+000 2.803502e+000 2.626570e+000 7.465794e+000 3.667102e+000 4.671708e+000 2.360496e+000 3.865621e+000 2.842510e+000 6.738643e+000 1.850755e+000 -2.500897e+000 -4.741578e-001 2.468284e-001 -9.137130e-001 -3.995525e-002 -3.415644e-001 5.787969e-001 5.773339e-001 5.765874e-001 4.992293e-001 8.341526e-001 9.574240e-003 2.018641e+000
<VARIANCE> 25
 7.004282e+001 3.345735e+001 3.165497e+001 3.461566e+001 4.560341e+001 3.971067e+001 5.190247e+001 3.478693e+001 3.270882e+001 2.963923e+001 3.126052e+001 2.321195e+001 5.454351e+000 2.257990e+000 2.129839e+000 3.300812e+000 5.892847e+000 5.108388e+000 3.549017e+000 3.579057e+000 2.994901e+000 2.610489e+000 2.321530e+000 1.879272e+000 3.767005e+000
<GCONST> 1.044328e+002
<STATE> 3
<MEAN> 25
 -1.490986e+001 2.427682e+000 4.211155e+000 8.685690e-001 3.062826e+000 5.972880e-002 6.219514e+000 4.436424e+000 4.405669e+000 2.176018e+000 8.663968e+000 1.792245e+000 4.725713e+000 -6.492023e-001 5.276121e-001 -5.070373e-001 -3.310922e+000 -2.892903e+000 -2.187575e+000 -1.235367e+000 -1.832366e+000 -2.343331e+000 -1.973888e+000 -1.196491e+000 5.792692e-001
<VARIANCE> 25
 2.987551e+001 3.299500e+001 3.048490e+001 4.560017e+001 4.100308e+001 5.112614e+001 5.054422e+001 4.075788e+001 4.308377e+001 4.317058e+001 3.646849e+001 2.840211e+001 3.144478e+000 2.347400e+000 3.253651e+000 3.589670e+000 7.453860e+000 4.523505e+000 4.385321e+000 3.787593e+000 3.959474e+000 3.494352e+000 3.872221e+000 2.253749e+000 2.047963e+000
<GCONST> 1.061225e+002
<STATE> 4
<MEAN> 25
 9.813983e-001 4.375918e-001 3.702544e+000 -2.892018e+000 -7.949054e+000 -8.198866e+000 -2.038357e+000 1.811120e-001 -1.407480e+000 -4.195069e+000 1.166892e+000 -1.821519e+000 4.264200e+000 -2.080138e+000 -1.107195e+000 -1.428814e+000 -2.506695e+000 -1.176882e+000 -1.660377e+000 -6.128366e-002 -1.091218e+000 -1.195488e+000 -2.144814e+000 -1.050147e+000 1.432046e+000
<VARIANCE> 25
 1.791493e+001 3.021615e+001 2.700167e+001 4.294786e+001 4.241708e+001 3.397677e+001 3.217448e+001 4.460633e+001 2.960649e+001 2.770532e+001 2.443537e+001 2.584636e+001 3.448628e+000 3.643182e+000 4.047007e+000 3.579137e+000 7.774525e+000 7.113908e+000 7.098232e+000 5.576135e+000 5.565428e+000 6.049646e+000 5.119553e+000 3.098452e+000 1.930624e+000
<GCONST> 1.068305e+002
<TRANSP> 5
 0.000000e+000 1.000000e+000 0.000000e+000 0.000000e+000 0.000000e+000
 0.000000e+000 8.017149e-001 1.982851e-001 0.000000e+000 0.000000e+000
 0.000000e+000 0.000000e+000 5.224443e-001 4.775557e-001 0.000000e+000
 0.000000e+000 0.000000e+000 0.000000e+000 4.492828e-001 5.507172e-001
 0.000000e+000 0.000000e+000 0.000000e+000 0.000000e+000 0.000000e+000
<ENDHMM>
~h "ll"
<BEGINHMM>
<NUMSTATES> 5
<STATE> 2
<MEAN> 25
 1.316214e+000 3.886697e+000 6.536879e+000 3.976194e+000 -9.546876e+000 -6.832780e+000 1.699850e+000 -6.352892e+000 -2.349956e+000 9.676042e-001 2.600387e-001 -2.409563e+000 -2.633600e-001 5.072631e-001 4.056321e-001 5.075220e-001 8.425688e-002 -1.660951e-001 1.303506e-001 -2.306904e-001 -2.277308e-001 3.410417e-001 6.258632e-002 -2.147784e-001 -4.616776e-001
<VARIANCE> 25
 9.264720e+000 2.072838e+001 2.754771e+001 3.388290e+001 4.621516e+001 3.694885e+001 5.249528e+001 7.110680e+001 3.604042e+001 3.839371e+001 2.751067e+001 3.223040e+001 1.027073e+000 1.543870e+000 1.641677e+000 2.841088e+000 3.340025e+000 2.946522e+000 3.973537e+000 5.956842e+000 2.969746e+000 2.581886e+000 2.515050e+000 2.201423e+000 1.379808e+000
<GCONST> 9.925329e+001
<STATE> 3
<MEAN> 25
 -6.883702e-001 4.300695e+000 5.991079e+000 1.745205e+000 -5.980859e+000 -7.116861e+000 -8.366644e-001 -1.424918e+000 -3.413874e+000 2.120829e+000 2.422098e+000 -1.930157e+000 -7.297222e-001 -8.201181e-001 -8.899519e-001 -1.717391e+000 9.326031e-001 1.790069e-001 -5.711147e-001 2.303956e+000 2.779188e-001 1.508488e-001 8.311046e-001 3.276452e-001 1.012050e+000
<VARIANCE> 25
 8.236808e+000 2.130488e+001 2.995907e+001 3.617377e+001 3.970279e+001 3.132955e+001 4.245196e+001 5.130864e+001 3.435415e+001 4.112449e+001 2.654480e+001 3.122394e+001 1.357436e+000 3.056024e+000 1.581726e+000 4.226038e+000 3.928472e+000 3.864653e+000 6.208304e+000 6.090544e+000 4.102011e+000 3.252312e+000 2.692321e+000 2.463265e+000 2.178786e+000
<GCONST> 1.018250e+002
<STATE> 4
<MEAN> 25
 -1.880662e+000 2.878180e-001 2.144501e+000 -2.989848e+000 -3.900449e+000 -4.713812e+000 -2.131463e-001 4.304193e+000 -3.903481e-001 8.682152e-001 2.393419e+000 -1.112402e+000 -6.089266e-001 -1.576766e+000 -1.428525e+000 -6.386517e-001 1.336268e+000 1.594161e+000 1.040434e+000 1.313666e+000 9.949583e-001 -1.324945e+000 -9.400268e-001 4.249867e-002 9.081546e-001
<VARIANCE> 25
 9.339526e+000 3.086845e+001 2.400874e+001 4.543650e+001 5.533760e+001 3.732499e+001 5.743294e+001 3.276722e+001 3.185128e+001 3.169816e+001 2.304000e+001 2.457284e+001 1.362816e+000 2.259549e+000 2.434088e+000 4.217832e+000 2.348072e+000 3.047120e+000 6.848724e+000 3.671916e+000 4.373402e+000 3.945454e+000 3.347265e+000 3.365744e+000 1.352920e+000
<GCONST> 1.012534e+002
<TRANSP> 5
 0.000000e+000 1.000000e+000 0.000000e+000 0.000000e+000 0.000000e+000
 0.000000e+000 7.055598e-001 2.944402e-001 0.000000e+000 0.000000e+000
 0.000000e+000 0.000000e+000 5.291158e-001 4.708842e-001 0.000000e+000
 0.000000e+000 0.000000e+000 0.000000e+000 4.235672e-001 5.764328e-001
 0.000000e+000 0.000000e+000 0.000000e+000 0.000000e+000 0.000000e+000
<ENDHMM>
~h "rr"
<BEGINHMM>
<NUMSTATES> 5
<STATE> 2
<MEAN> 25
 2.660749e-001 -4.910264e-001 6.312414e+000 9.222775e+000 -1.735994e+000 -9.393362e+000 -6.732070e+000 -3.868399e+000 5.551236e+000 -6.424066e-001 -1.135621e+000 -6.015550e+000 -5.071567e-001 -1.492087e-001 3.962742e-001 -3.715642e-001 3.071209e-001 -8.081450e-001 9.161372e-001 1.164834e+000 -1.559631e-002 -1.333220e+000 -3.926168e-001 7.650933e-002 1.052190e-001
<VARIANCE> 25
 2.782759e+001 1.762006e+001 2.182905e+001 2.155440e+001 2.006444e+001 1.915739e+001 1.670920e+001 3.038137e+001 2.344150e+001 2.857732e+001 1.953486e+001 1.408066e+001 6.001873e+000 3.401691e+000 5.196021e+000 8.943692e+000 2.868166e+000 6.504500e+000 1.947246e+000 8.860224e+000 2.248358e+000 1.355748e+000 2.011935e+000 2.502896e+000 5.227475e-001
<GCONST> 9.731315e+001
<STATE> 3
<MEAN> 25
 4.599135e+000 -1.021096e+001 5.900293e-001 -3.324052e+000 -2.386382e+000 -2.467529e+000 1.617136e+000 1.168023e+001 -6.387921e+000 -4.673143e+000 -7.626115e+000 3.022376e-001 -4.652359e-001 -1.576193e+000 -8.247299e-001 -1.248834e+000 7.206743e-001 1.407270e+000 2.868594e+000 9.900151e-001 -4.465462e+000 -2.198249e-001 -8.077565e-001 2.668683e+000 1.457686e+000
<VARIANCE> 25
 5.563941e+000 9.860276e+000 2.314627e+000 1.487141e+001 1.364525e+001 9.025140e+000 1.499658e+001 1.239562e+001 8.141759e+001 1.605906e+001 1.231830e+001 3.910852e+001 2.704455e+000 1.673388e+000 1.389890e+000 2.761434e+000 1.958669e+000 2.992718e+000 5.882397e-001 6.530368e+000 3.445680e+000 2.041999e+000 1.395786e+000 4.815615e+000 2.176394e-001
<GCONST> 8.518277e+001
<STATE> 4
<MEAN> 25
 -1.580758e+000 -8.243188e+000 3.753898e-001 -3.210791e+000 -2.199589e+000 -2.818975e+000 1.131015e+001 4.393536e+000 -1.361919e+001 -1.008506e+001 -1.730831e+000 5.419518e+000 -1.564163e+000 1.502372e+000 -2.456666e-001 4.039488e-001 -1.765430e+000 6.328890e-001 1.030512e+000 -2.321925e+000 5.801489e-001 -5.479679e-002 3.279492e+000 -6.531940e-001 6.661452e-001
<VARIANCE> 25
 4.302413e+000 1.040344e+001 7.037200e+000 3.606348e+000 1.034365e+001 1.359764e+001 3.485054e+000 1.979236e+001 2.068397e+001 6.999675e+000 2.381405e+001 1.736238e+001 2.458784e-001 2.292463e-001 1.178115e+000 2.343634e-001 5.938882e-001 1.102670e+000 2.393645e+000 1.047923e+000 4.275270e+000 2.793308e+000 1.083769e+000 1.959326e+000 1.530394e-001
<GCONST> 7.085151e+001
<TRANSP> 5
 0.000000e+000 1.000000e+000 0.000000e+000 0.000000e+000 0.000000e+000
 0.000000e+000 8.799472e-001 1.200527e-001 0.000000e+000 0.000000e+000
 0.000000e+000 0.000000e+000 7.272959e-001 2.727042e-001 0.000000e+000
 0.000000e+000 0.000000e+000 0.000000e+000 6.678588e-001 3.321412e-001
 0.000000e+000 0.000000e+000 0.000000e+000 0.000000e+000 0.000000e+000
<ENDHMM>
~h "sp"
<BEGINHMM>
<NUMSTATES> 3
<STATE> 2
~s "silst"
<TRANSP> 3
 0.000000e+000 1.545494e-001 8.454506e-001
 0.000000e+000 3.503723e-001 6.496277e-001
 0.000000e+000 0.000000e+000 0.000000e+000
<ENDHMM>
~h "ul"
<BEGINHMM>
<NUMSTATES> 5
<STATE> 2
<MEAN> 25
 3.222110e+000 -3.051469e+000 3.203243e+000 1.555516e-001 -7.228220e+000 -8.413732e+000 -6.226989e+000 2.662340e+000 -1.201678e+000 2.530993e+000 -1.578135e+000 -2.735631e+000 1.321405e+000 -1.287059e-001 -2.914159e+000 -7.242132e-001 2.408862e+000 5.148175e-001 -1.905302e+000 -3.644629e-001 2.004467e+000 1.094203e+000 -7.379020e-001 -4.843695e-001 -1.773972e-001
<VARIANCE> 25
 1.167290e+001 1.815919e+001 3.140870e+001 3.194085e+001 4.042762e+001 3.320922e+001 4.986903e+001 3.585706e+001 4.307585e+001 4.075942e+001 3.720784e+001 2.143774e+001 7.177145e-001 1.103493e+000 1.239443e+000 2.550254e+000 2.819520e+000 4.293781e+000 3.120496e+000 8.633875e+000 3.305273e+000 3.291495e+000 2.706866e+000 2.050097e+000 6.056013e-001
<GCONST> 9.736202e+001
<STATE> 3
<MEAN> 25
 7.026804e+000 6.570827e-001 -4.892052e+000 -7.821345e+000 -4.699769e-001 7.204194e-002 -5.357809e+000 -6.830660e+000 -2.791294e-001 5.511937e+000 6.307082e-001 -3.483356e+000 3.256858e-001 1.340145e+000 -1.083972e+000 -7.453807e-001 9.354375e-001 1.562812e+000 1.682298e+000 -1.158820e+000 -8.368990e-001 -5.599924e-001 1.124769e+000 9.984990e-001 -1.116951e+000
<VARIANCE> 25
 1.018052e+001 2.349962e+001 1.938462e+001 2.964097e+001 3.303108e+001 3.160582e+001 3.969643e+001 4.351339e+001 5.042188e+001 3.611187e+001 4.254976e+001 2.805269e+001 6.364728e-001 1.152256e+000 1.160410e+000 2.868239e+000 2.988521e+000 2.520714e+000 3.926191e+000 3.566996e+000 2.611355e+000 2.980672e+000 2.406291e+000 2.686255e+000 9.187193e-001
<GCONST> 9.615952e+001
<STATE> 4
<MEAN> 25
 -1.904210e-001 4.915240e+000 -5.451501e+000 -1.730873e+000 6.596334e+000 4.548031e+000 -2.722330e-001 -1.101391e+000 3.194279e-001 1.110875e+000 3.287593e+000 8.527333e-001 -1.156119e+000 -5.808648e-002 7.521846e-002 1.179828e+000 1.058320e+000 3.145602e-001 1.096927e-001 1.249455e+000 4.821311e-001 -4.775135e-001 4.810782e-003 3.055721e-001 -6.925942e-001
<VARIANCE> 25
 3.444966e+001 3.140381e+001 2.520330e+001 3.857963e+001 7.656304e+001 4.598812e+001 4.520061e+001 4.623439e+001 5.069346e+001 4.646594e+001 3.043615e+001 3.082299e+001 2.860149e+000 2.853456e+000 1.916288e+000 2.381371e+000 5.113070e+000 3.317762e+000 4.153263e+000 4.055758e+000 4.610306e+000 5.211965e+000 3.650849e+000 2.575795e+000 1.755933e+000
<GCONST> 1.054888e+002
<TRANSP> 5
 0.000000e+000 1.000000e+000 0.000000e+000 0.000000e+000 0.000000e+000
 0.000000e+000 6.508414e-001 3.491586e-001 0.000000e+000 0.000000e+000
 0.000000e+000 0.000000e+000 7.096806e-001 2.903195e-001 0.000000e+000
 0.000000e+000 0.000000e+000 0.000000e+000 8.257169e-001 1.742831e-001
 0.000000e+000 0.000000e+000 0.000000e+000 0.000000e+000 0.000000e+000
<ENDHMM>
~h "sil"
<BEGINHMM>
<NUMSTATES> 5
<STATE> 2
<MEAN> 25
 -2.176640e+000 3.191748e+000 1.289475e+000 6.151299e+000 5.511772e+000 4.824373e+000 3.851963e+000 2.705738e+000 2.253808e+000 2.065659e+000 4.299262e+000 2.675017e+000 -4.155481e-001 1.328436e-001 3.169451e-002 2.394199e-001 2.887056e-001 4.109116e-001 4.439176e-001 3.730730e-001 2.687550e-001 2.607618e-001 3.592703e-001 1.553835e-001 -4.777326e-001
<VARIANCE> 25
 2.473777e+001 3.469877e+001 3.113387e+001 3.910676e+001 4.865322e+001 4.761737e+001 6.138433e+001 5.067686e+001 4.016839e+001 3.832639e+001 4.367815e+001 2.887304e+001 1.326187e+000 2.079789e+000 1.647364e+000 2.251335e+000 3.017486e+000 3.070786e+000 3.492388e+000 3.079863e+000 2.661657e+000 2.656408e+000 2.663890e+000 2.219239e+000 2.691646e+000
<GCONST> 1.017262e+002
<STATE> 3
~s "silst"
<STATE> 4
<MEAN> 25
 -1.546124e+000 1.821410e+000 1.651137e-001 3.192204e+000 3.616354e+000 3.017558e+000 1.715722e+000 1.407302e+000 1.529563e+000 1.809993e+000 2.618668e+000 2.076278e+000 -1.576280e-001 -1.613478e-001 -8.280576e-002 -3.680976e-001 -1.696777e-001 -1.478185e-001 7.364132e-002 1.941452e-003 4.247868e-003 6.461266e-002 -4.633905e-002 -7.314525e-002 5.008928e-001
<VARIANCE> 25
 3.845106e+001 5.607147e+001 4.735540e+001 6.010996e+001 7.396237e+001 5.724337e+001 6.661044e+001 6.677932e+001 4.536591e+001 3.909222e+001 4.601687e+001 3.658784e+001 1.807740e+000 2.299290e+000 1.785426e+000 2.931654e+000 3.505682e+000 3.705856e+000 3.274614e+000 3.247978e+000 2.691629e+000 2.593686e+000 3.001540e+000 2.238213e+000 3.769284e+000
<GCONST> 1.064207e+002
<TRANSP> 5
 0.000000e+000 1.000000e+000 0.000000e+000 0.000000e+000 0.000000e+000
 0.000000e+000 5.519283e-001 9.295398e-002 3.551178e-001 0.000000e+000
 0.000000e+000 0.000000e+000 5.711528e-001 4.288472e-001 0.000000e+000
 0.000000e+000 6.718061e-002 0.000000e+000 1.803688e-001 7.524506e-001
 0.000000e+000 0.000000e+000 0.000000e+000 0.000000e+000 0.000000e+000
<ENDHMM>
