~o
<STREAMINFO> 1 25
<VECSIZE> 25<NULLD><MFCC_D_N_Z_0><DIAGC>
~s "silst"
<MEAN> 25
 -3.528835e-001 2.590263e+000 8.590503e-001 3.418361e+000 1.732861e+000 2.234721e+000 1.240319e+000 1.005738e+000 2.253046e+000 1.739013e+000 2.968138e+000 1.609663e+000 1.470822e+000 -6.947958e-001 -3.311799e-001 -1.636115e+000 -1.585757e+000 -1.967346e+000 -2.520703e+000 -2.052822e+000 -9.535094e-001 -3.336149e-001 -1.171399e+000 -7.853066e-001 2.546894e+000
<VARIANCE> 25
 3.143694e+001 6.424882e+001 4.633691e+001 5.835135e+001 6.558074e+001 6.520475e+001 8.256649e+001 7.082906e+001 5.024298e+001 4.078778e+001 4.771267e+001 3.635103e+001 3.486214e+000 8.448869e+000 4.789729e+000 7.454806e+000 7.735051e+000 7.219159e+000 9.076443e+000 7.770915e+000 5.941259e+000 5.439409e+000 5.780185e+000 4.276444e+000 1.165712e+001
<GCONST> 1.179543e+002
~h "a"
<BEGINHMM>
<NUMSTATES> 5
<STATE> 2
<MEAN> 25
 1.229543e+000 -8.659545e+000 -5.651926e+000 -3.970478e+000 -2.745566e-001 -2.521926e+000 2.837529e+000 6.017830e+000 -1.395247e+000 -4.362000e+000 -4.022017e+000 -9.113305e-001 -2.523773e-001 -1.237997e+000 -9.024241e-001 1.690179e-001 9.221822e-001 1.005145e+000 9.187505e-001 7.549630e-001 -6.165957e-001 -1.007787e+000 -4.311453e-001 1.412907e-001 8.891650e-001
<VARIANCE> 25
 1.078139e+001 1.747417e+001 2.363703e+001 2.098772e+001 4.520587e+001 4.064299e+001 4.762335e+001 3.514490e+001 5.048689e+001 3.405916e+001 3.822419e+001 3.331748e+001 8.114202e-001 1.451369e+000 1.933005e+000 1.907861e+000 3.226339e+000 3.201755e+000 3.020914e+000 3.333338e+000 2.988105e+000 2.980633e+000 3.126112e+000 2.435730e+000 8.075024e-001
<GCONST> 9.704662e+001
<STATE> 3
<MEAN> 25
 3.555846e-001 -9.620849e+000 -6.412809e+000 -1.766684e+000 2.436563e+000 1.408443e-001 2.189398e+000 4.821068e+000 -3.212669e+000 -5.400308e+000 -3.317123e+000 -2.228536e-001 1.434567e-001 4.345825e-001 2.001103e-001 5.629019e-002 -3.799774e-001 -3.154226e-002 -3.424024e-002 -3.474041e-001 3.130900e-003 1.882808e-001 7.836559e-002 -1.823716e-001 -3.721419e-001
<VARIANCE> 25
 1.038390e+001 1.674782e+001 1.620674e+001 2.080301e+001 3.435626e+001 3.275326e+001 4.639229e+001 3.165283e+001 4.743755e+001 2.763281e+001 3.372867e+001 2.938252e+001 4.274875e-001 8.701186e-001 9.522784e-001 1.358513e+000 2.280771e+000 1.873502e+000 2.607520e+000 1.850849e+000 1.929529e+000 2.080041e+000 1.762669e+000 1.757907e+000 3.931549e-001
<GCONST> 8.920286e+001
<STATE> 4
<MEAN> 25
 3.007740e+000 -3.314710e+000 -3.974898e+000 -1.203062e+000 -1.166070e+000 -2.187967e+000 8.685818e-001 2.105509e+000 -9.535379e-001 -2.843529e+000 -2.806559e+000 -9.890281e-001 1.469484e-001 2.221749e+000 1.186909e+000 8.440967e-001 -2.534252e-001 2.238793e-002 -6.363230e-001 -1.013263e+000 3.255569e-001 7.353123e-001 6.846043e-001 1.817286e-001 -2.310905e+000
<VARIANCE> 25
 1.362696e+001 3.545711e+001 2.471121e+001 2.826119e+001 4.997863e+001 3.832819e+001 5.755241e+001 4.361075e+001 4.157357e+001 4.135402e+001 3.696275e+001 3.191679e+001 1.921717e+000 1.718294e+000 1.877554e+000 2.451841e+000 4.276673e+000 4.768202e+000 5.249765e+000 4.324642e+000 3.747551e+000 3.865747e+000 3.625209e+000 3.211376e+000 1.950629e+000
<GCONST> 1.032395e+002
<TRANSP> 5
 0.000000e+000 1.000000e+000 0.000000e+000 0.000000e+000 0.000000e+000
 0.000000e+000 4.955332e-001 5.044668e-001 0.000000e+000 0.000000e+000
 0.000000e+000 0.000000e+000 7.059487e-001 2.940513e-001 0.000000e+000
 0.000000e+000 0.000000e+000 0.000000e+000 6.665848e-001 3.334152e-001
 0.000000e+000 0.000000e+000 0.000000e+000 0.000000e+000 0.000000e+000
<ENDHMM>
~h "b"
<BEGINHMM>
<NUMSTATES> 5
<STATE> 2
<MEAN> 25
 1.494804e+000 -1.108971e+001 -6.326080e+000 -3.382109e+000 6.263998e-001 1.455194e+000 -2.156634e+000 2.489414e+000 5.777627e+000 -4.957973e-001 -8.688110e+000 -3.423125e+000 -1.164885e+000 -2.633006e+000 -1.083122e+000 -1.066857e+000 1.094956e+000 8.707258e-001 1.528806e+000 2.726191e+000 -1.308423e-001 -1.935298e+000 -1.651360e+000 1.614128e+000 2.438762e+000
<VARIANCE> 25
 7.149046e+000 1.935055e+001 1.252471e+001 2.445043e+001 1.531959e+001 4.987468e+001 2.722489e+001 4.012495e+001 1.781439e+001 3.772598e+001 2.891309e+001 2.419749e+001 5.666482e-001 2.371222e+000 2.081894e+000 5.101292e+000 1.290980e+000 2.848646e+000 2.242671e+000 3.101437e+000 3.260266e+000 3.698726e+000 3.062967e+000 1.747809e+000 2.456039e+000
<GCONST> 9.426269e+001
<STATE> 3
<MEAN> 25
 -2.350916e+000 -1.441075e+001 -5.059690e+000 -1.675484e+000 4.829371e+000 2.799902e+000 2.985473e+000 6.919877e+000 -2.308062e-001 -8.319091e+000 -1.191482e+001 1.699811e+000 -1.867143e-001 2.497327e-001 8.062285e-001 1.655864e-002 6.686007e-001 -6.250407e-001 -3.886987e-002 2.431995e-002 -1.300758e+000 -2.852806e-001 -3.825557e-001 8.135074e-002 -2.662566e-001
<VARIANCE> 25
 4.336773e+000 5.296993e+000 9.796299e+000 1.453928e+001 1.150012e+001 1.822120e+001 1.590756e+001 1.569143e+001 3.272647e+001 2.169387e+001 1.496230e+001 1.586893e+001 2.621936e-001 5.637360e-001 2.765871e-001 1.264246e+000 9.059762e-001 1.836264e+000 1.428018e+000 1.757585e+000 1.585997e+000 1.886859e+000 7.993506e-001 1.598795e+000 1.956031e-001
<GCONST> 7.511639e+001
<STATE> 4
<MEAN> 25
 -5.134325e-001 -9.870823e+000 -1.006371e+000 -3.141367e+000 6.815987e+000 -2.628329e+000 1.088078e-001 4.702400e+000 -2.703593e+000 -4.303399e+000 -1.392238e+001 -2.839521e+000 7.898897e-001 1.752118e+000 1.043033e+000 -1.968640e-001 -6.307919e-001 -1.574420e+000 -3.750055e-001 -1.588991e+000 3.324490e-001 2.119989e+000 2.015384e-001 -1.167585e+000 -1.287759e+000
<VARIANCE> 25
 5.528683e+000 9.485690e+000 7.515523e+000 9.487850e+000 1.291315e+001 1.886361e+001 2.006625e+001 2.601847e+001 2.289276e+001 2.994827e+001 1.702699e+001 2.053574e+001 2.185148e-001 3.003118e-001 5.085512e-001 7.355267e-001 1.410055e+000 1.864647e+000 1.388925e+000 3.143445e+000 2.241607e+000 1.485966e+000 1.898564e+000 1.807951e+000 1.533868e-001
<GCONST> 7.760934e+001
<TRANSP> 5
 0.000000e+000 1.000000e+000 0.000000e+000 0.000000e+000 0.000000e+000
 0.000000e+000 7.146343e-001 2.853657e-001 0.000000e+000 0.000000e+000
 0.000000e+000 0.000000e+000 7.988500e-001 2.011500e-001 0.000000e+000
 0.000000e+000 0.000000e+000 0.000000e+000 6.604853e-001 3.395147e-001
 0.000000e+000 0.000000e+000 0.000000e+000 0.000000e+000 0.000000e+000
<ENDHMM>
~h "c"
<BEGINHMM>
<NUMSTATES> 5
<STATE> 2
<MEAN> 25
 -3.772989e+000 5.100492e+000 3.357749e+000 9.775136e+000 5.403193e+000 4.874175e+000 6.358625e+000 3.002838e+000 1.110413e+000 6.689577e-002 5.984108e+000 9.246152e-001 -4.467353e-001 -1.741483e+000 -2.690059e+000 -1.300146e+000 1.935155e+000 1.741139e+000 1.494414e+000 1.245896e+000 -9.705254e-001 6.850555e-001 1.115216e-001 6.141055e-001 8.810775e-001
<VARIANCE> 25
 5.840560e+000 2.152174e+001 3.105067e+001 1.809006e+001 2.626292e+001 3.236349e+001 2.451440e+001 2.487815e+001 2.225517e+001 2.655732e+001 2.244320e+001 1.391355e+001 1.984748e+000 2.745602e+000 7.563380e+000 7.018950e+000 4.743398e+000 2.729494e+000 2.810935e+000 2.272228e+000 3.782250e+000 3.119767e+000 2.476708e+000 2.040220e+000 2.909668e+000
<GCONST> 9.763464e+001
<STATE> 3
<MEAN> 25
 -1.339959e+000 -4.895402e-001 -1.214797e+001 -2.191914e+000 9.757610e+000 6.675914e+000 4.562171e+000 5.100528e+000 -5.011845e+000 5.150938e+000 6.662392e+000 3.927985e+000 1.483459e+000 7.287044e-001 -8.874099e-001 -3.103190e+000 -1.796491e+000 -1.293462e+000 -2.282164e+000 -1.436479e+000 -1.523214e+000 -1.033343e-002 -2.486322e-001 2.479933e-001 1.608209e+000
<VARIANCE> 25
 1.360697e+001 2.773798e+001 4.161898e+001 4.060462e+001 4.508614e+001 3.971609e+001 4.183692e+001 4.129339e+001 3.199893e+001 2.749641e+001 2.859129e+001 1.202155e+001 1.610517e+000 4.035019e+000 9.938255e+000 4.885261e+000 8.176109e+000 4.899590e+000 3.378785e+000 3.768844e+000 2.907161e+000 4.652484e+000 3.311148e+000 1.688239e+000 2.277076e+000
<GCONST> 1.040144e+002
<STATE> 4
<MEAN> 25
 5.846764e+000 5.202399e+000 -6.885801e+000 -1.390058e+001 -2.589584e+000 1.924522e-002 -3.475104e+000 -1.274650e+000 -8.118115e+000 3.794009e+000 3.398154e+000 2.811008e+000 1.243787e+000 -1.303867e-001 5.732424e-001 -3.223048e+000 -1.940181e+000 -1.733707e-001 -1.008212e+000 -8.228880e-002 1.390023e-001 2.194628e-001 -8.292066e-001 -1.716693e-001 1.606969e+000
<VARIANCE> 25
 6.399921e+000 1.072713e+001 2.142481e+001 3.683802e+001 2.410191e+001 2.633200e+001 2.376157e+001 1.966498e+001 2.572523e+001 2.517222e+001 3.280624e+001 1.913430e+001 1.268816e+000 1.897193e+000 2.233626e+000 3.630692e+000 5.264810e+000 4.356709e+000 3.601421e+000 3.421302e+000 2.809925e+000 3.156917e+000 3.051633e+000 3.025233e+000 8.852496e-001
<GCONST> 9.526152e+001
<TRANSP> 5
 0.000000e+000 1.000000e+000 0.000000e+000 0.000000e+000 0.000000e+000
 0.000000e+000 7.164629e-001 2.835371e-001 0.000000e+000 0.000000e+000
 0.000000e+000 0.000000e+000 6.868609e-001 3.131391e-001 0.000000e+000
 0.000000e+000 0.000000e+000 0.000000e+000 6.264934e-001 3.735066e-001
 0.000000e+000 0.000000e+000 0.000000e+000 0.000000e+000 0.000000e+000
<ENDHMM>
~h "e"
<BEGINHMM>
<NUMSTATES> 5
<STATE> 2
<MEAN> 25
 -1.005009e-001 -1.507025e+000 2.131950e+000 -4.443765e+000 -9.959569e+000 -5.506968e+000 3.563076e+000 -1.882682e+000 -7.037793e-001 1.218915e+000 9.164401e-001 1.806498e-001 -1.492519e-001 4.602847e-001 8.486987e-002 1.047359e-003 -1.282607e+000 6.603543e-001 2.105642e-001 -1.114759e-001 -5.788167e-001 5.271005e-001 6.642088e-001 -4.379772e-001 9.143436e-002
<VARIANCE> 25
 1.022369e+001 2.163025e+001 1.716504e+001 1.774066e+001 2.910510e+001 5.199692e+001 3.869426e+001 2.881889e+001 1.668792e+001 3.074229e+001 3.093483e+001 1.983461e+001 1.399625e+000 1.510799e+000 1.051370e+000 1.732642e+000 2.471977e+000 3.400772e+000 3.413932e+000 2.594366e+000 2.430311e+000 2.311625e+000 1.949668e+000 2.086953e+000 1.468296e+000
<GCONST> 9.323517e+001
<STATE> 3
<MEAN> 25
 1.310979e+000 7.367820e-001 3.356234e+000 -3.316076e-001 -1.181758e+001 -4.109025e+000 -8.552983e-002 -2.529261e+000 -1.991499e+000 1.998724e+000 3.710729e-001 1.197911e-001 6.579674e-001 1.022603e+000 -2.542967e-001 1.815660e+000 1.525762e+000 -6.369319e-001 -5.511997e-001 9.126785e-001 -3.379330e-001 -1.445740e+000 -9.631789e-002 1.729002e-001 -1.975442e+000
<VARIANCE> 25
 9.984468e+000 1.932298e+001 1.485417e+001 2.640533e+001 2.620004e+001 5.168975e+001 2.564139e+001 3.700586e+001 2.148945e+001 2.664034e+001 2.975774e+001 2.781283e+001 9.877783e-001 1.802123e+000 1.442325e+000 2.174790e+000 4.231638e+000 3.472351e+000 2.481859e+000 2.015454e+000 2.401605e+000 2.685691e+000 4.751186e+000 2.975547e+000 1.634782e+000
<GCONST> 9.533752e+001
<STATE> 4
<MEAN> 25
 2.431245e+000 6.122730e+000 1.224198e+000 3.506471e+000 -4.563282e+000 -3.817306e+000 7.292316e-002 -2.128815e+000 -2.592484e+000 -2.159455e+000 2.520092e+000 -2.703309e-001 -4.740623e-001 1.499112e+000 -2.905552e-001 1.301638e+000 2.699569e+000 1.557174e+000 3.937232e-002 -3.185977e-001 1.723888e-001 2.717050e-001 5.758553e-001 1.954495e-001 -2.313654e+000
<VARIANCE> 25
 2.024532e+001 2.309978e+001 1.368567e+001 1.549926e+001 3.207106e+001 2.901746e+001 1.929356e+001 1.761679e+001 1.978072e+001 2.252316e+001 1.948796e+001 3.624388e+001 2.103184e+000 2.605201e+000 2.187444e+000 1.877886e+000 2.248809e+000 2.810787e+000 2.808053e+000 4.517015e+000 4.915685e+000 2.978248e+000 3.269098e+000 2.269037e+000 1.646391e+000
<GCONST> 9.545988e+001
<TRANSP> 5
 0.000000e+000 1.000000e+000 0.000000e+000 0.000000e+000 0.000000e+000
 0.000000e+000 5.898638e-001 4.101361e-001 0.000000e+000 0.000000e+000
 0.000000e+000 0.000000e+000 5.641561e-001 4.358439e-001 0.000000e+000
 0.000000e+000 0.000000e+000 0.000000e+000 5.155600e-001 4.844401e-001
 0.000000e+000 0.000000e+000 0.000000e+000 0.000000e+000 0.000000e+000
<ENDHMM>
~h "h"
<BEGINHMM>
<NUMSTATES> 5
<STATE> 2
<MEAN> 25
 -8.730069e+000 -1.710502e+000 2.011442e+000 4.112843e+000 7.684651e+000 2.427702e+000 4.030881e+000 3.781116e+000 5.471530e+000 2.165520e+000 2.501463e+000 2.791218e+000 1.974025e+000 5.366933e-001 1.571519e-001 -1.273747e+000 -2.179527e+000 -7.864949e-001 -1.636973e+000 -2.445403e+000 -1.600143e+000 -1.238494e+000 -1.141016e+000 -8.327731e-001 1.107090e+000
<VARIANCE> 25
 5.569839e+001 5.602689e+001 4.028473e+001 7.628830e+001 6.654853e+001 4.551889e+001 4.468660e+001 5.863022e+001 6.080185e+001 3.830836e+001 3.739600e+001 2.671139e+001 3.676102e+000 2.336163e+000 2.356957e+000 2.737503e+000 4.832362e+000 3.720836e+000 4.524675e+000 3.870590e+000 4.993712e+000 3.764344e+000 3.064447e+000 2.244174e+000 1.439746e+000
<GCONST> 1.075636e+002
<STATE> 3
<MEAN> 25
 2.103592e+000 3.106672e+000 1.550638e+000 -3.240104e+000 -2.223708e+000 -6.679327e-001 -2.907450e+000 -6.077786e+000 -3.342418e+000 -2.696972e+000 -1.429361e+000 -8.883361e-001 2.726325e+000 3.732930e-001 -7.752970e-001 -2.357210e+000 -3.467114e+000 -8.056589e-001 -1.692080e+000 -1.921411e+000 -1.908446e+000 -9.194857e-001 -1.479755e+000 -1.162631e+000 1.996790e+000
<VARIANCE> 25
 2.112066e+001 5.891040e+001 5.332778e+001 4.822915e+001 5.483921e+001 4.423507e+001 4.301116e+001 2.774081e+001 3.312773e+001 3.554541e+001 2.606346e+001 1.849172e+001 3.761204e+000 2.530679e+000 3.673531e+000 3.808024e+000 6.105172e+000 4.697659e+000 5.616470e+000 4.581387e+000 5.514018e+000 4.414965e+000 4.656796e+000 2.889976e+000 1.308788e+000
<GCONST> 1.066093e+002
<STATE> 4
<MEAN> 25
 3.937759e+000 1.825933e+000 -3.873354e-001 -6.053394e+000 -5.891391e+000 4.894097e-001 -3.168525e+000 -5.926214e+000 -3.584423e+000 -1.421405e+000 -1.877151e+000 -1.412933e+000 1.103559e+000 -6.047307e-001 -9.714754e-001 -1.289715e+000 -1.949885e+000 9.880619e-002 -3.650501e-001 -2.286690e-001 -4.635594e-001 1.864466e-001 -5.809149e-001 -6.650183e-001 1.642768e+000
<VARIANCE> 25
 1.598653e+001 6.678416e+001 6.438560e+001 5.306565e+001 5.229557e+001 3.697979e+001 5.404155e+001 3.552073e+001 4.075204e+001 3.527962e+001 2.952712e+001 2.420700e+001 1.977394e+000 1.688101e+000 2.747518e+000 4.911024e+000 5.626572e+000 4.128320e+000 4.890660e+000 3.683036e+000 3.160803e+000 3.161799e+000 3.172666e+000 2.640540e+000 1.564066e+000
<GCONST> 1.047453e+002
<TRANSP> 5
 0.000000e+000 1.000000e+000 0.000000e+000 0.000000e+000 0.000000e+000
 0.000000e+000 5.585523e-001 4.414477e-001 0.000000e+000 0.000000e+000
 0.000000e+000 0.000000e+000 1.482885e-001 8.517115e-001 0.000000e+000
 0.000000e+000 0.000000e+000 0.000000e+000 2.343125e-002 9.765688e-001
 0.000000e+000 0.000000e+000 0.000000e+000 0.000000e+000 0.000000e+000
<ENDHMM>
~h "i"
<BEGINHMM>
<NUMSTATES> 5
<STATE> 2
<MEAN> 25
 -3.982437e-001 3.557781e+000 8.694582e+000 -4.079073e+000 -1.005435e+001 -3.806790e+000 -3.543674e+000 -4.940533e+000 -1.471410e+000 2.555651e-001 1.138658e+000 -8.997027e-001 3.962560e-001 5.584405e-002 1.103265e+000 -2.167269e+000 -1.793593e+000 1.093933e-001 -1.119492e+000 -1.101920e+000 -7.113368e-002 4.009403e-001 -7.807249e-001 -4.266730e-001 1.510282e+000
<VARIANCE> 25
 1.336318e+001 3.658836e+001 2.466532e+001 3.321605e+001 4.274861e+001 3.628383e+001 4.607591e+001 4.291855e+001 4.258092e+001 3.053480e+001 2.894400e+001 2.485384e+001 3.575288e+000 2.189183e+000 2.625738e+000 3.619035e+000 7.544033e+000 5.305859e+000 5.754343e+000 4.641188e+000 3.853922e+000 3.553484e+000 4.499961e+000 2.737464e+000 1.768890e+000
<GCONST> 1.045147e+002
<STATE> 3
<MEAN> 25
 -1.191331e+000 4.861828e+000 7.562793e+000 -8.540193e+000 -7.394448e+000 -1.949443e-001 -6.682534e+000 -5.419133e+000 1.134626e+000 1.053405e+000 -1.661940e+000 -1.199208e+000 2.582020e-001 -7.999547e-002 -2.247611e-001 1.755744e-001 3.087413e-001 1.894961e-001 1.186673e-001 -3.776715e-003 1.685348e-002 2.646245e-002 -3.074974e-001 3.078200e-002 -1.989551e-001
<VARIANCE> 25
 9.639808e+000 2.442695e+001 2.540669e+001 2.227371e+001 4.940916e+001 2.604521e+001 5.237077e+001 3.556749e+001 4.120778e+001 3.254450e+001 3.647438e+001 2.521055e+001 6.104165e-001 1.446957e+000 1.011947e+000 1.970620e+000 1.966829e+000 1.940746e+000 2.605184e+000 1.972975e+000 2.094562e+000 2.023536e+000 1.748299e+000 1.648852e+000 5.317089e-001
<GCONST> 9.187566e+001
<STATE> 4
<MEAN> 25
 1.773038e+000 4.809628e+000 5.957713e+000 -1.060001e+000 -5.620216e+000 -2.179348e+000 -2.827434e+000 -4.570461e+000 -1.044566e+000 6.370012e-001 -6.492838e-001 -6.519929e-001 3.465205e-001 2.365529e-001 -1.231846e+000 2.060617e+000 1.809243e+000 1.293826e-001 6.150504e-001 3.198162e-001 -5.754206e-002 2.714110e-002 3.760286e-001 3.158075e-001 -1.640320e+000
<VARIANCE> 25
 1.432250e+001 3.625130e+001 2.559639e+001 3.440134e+001 5.095403e+001 3.862542e+001 4.981516e+001 4.590308e+001 3.624310e+001 3.239274e+001 3.253564e+001 2.844233e+001 2.396432e+000 2.568440e+000 2.033991e+000 2.575729e+000 3.933263e+000 4.212677e+000 5.395415e+000 4.138904e+000 3.322557e+000 3.206673e+000 3.694478e+000 2.825305e+000 1.682475e+000
<GCONST> 1.028165e+002
<TRANSP> 5
 0.000000e+000 1.000000e+000 0.000000e+000 0.000000e+000 0.000000e+000
 0.000000e+000 5.216814e-001 4.783186e-001 0.000000e+000 0.000000e+000
 0.000000e+000 0.000000e+000 7.445582e-001 2.554418e-001 0.000000e+000
 0.000000e+000 0.000000e+000 0.000000e+000 6.901260e-001 3.098740e-001
 0.000000e+000 0.000000e+000 0.000000e+000 0.000000e+000 0.000000e+000
<ENDHMM>
~h "j"
<BEGINHMM>
<NUMSTATES> 5
<STATE> 2
<MEAN> 25
 -3.045676e+000 3.132624e+000 -5.209751e+000 -1.089149e+000 8.006736e-001 9.312639e+000 1.226726e+001 9.554473e+000 2.291249e+000 6.143922e+000 5.014400e+000 2.707996e+000 7.450160e-001 4.460612e-001 -4.088558e-001 -1.867905e+000 -1.119757e+000 -8.348585e-001 -5.849774e-001 -5.676609e-001 -7.458991e-001 -2.366738e-001 -8.837553e-001 -2.659061e-001 9.155781e-001
<VARIANCE> 25
 2.794560e+001 1.610626e+001 5.264307e+001 3.678620e+001 3.441933e+001 2.566167e+001 4.434252e+001 5.618676e+001 3.142233e+001 2.634148e+001 1.578878e+001 3.233316e+001 1.784880e+000 1.447544e+000 4.759839e+000 4.084820e+000 2.561354e+000 4.617695e+000 5.885715e+000 6.884710e+000 4.969187e+000 4.549370e+000 2.289973e+000 2.301008e+000 1.828001e+000
<GCONST> 1.026557e+002
<STATE> 3
<MEAN> 25
 4.109211e+000 6.787636e+000 -9.625967e-001 -9.401902e+000 -6.061203e+000 -4.310292e-001 1.161928e+000 -1.160314e+000 -8.015540e+000 -1.163907e+000 -2.727883e+000 1.649650e+000 1.628849e+000 -2.414976e-001 2.395895e-001 -3.033613e+000 -2.107341e+000 -1.517113e+000 -1.841236e+000 -1.234113e+000 -1.512507e+000 -6.141767e-001 -1.756269e+000 -4.853295e-001 2.148606e+000
<VARIANCE> 25
 3.135735e+001 1.011604e+001 4.019344e+001 6.264114e+001 4.570400e+001 1.500934e+001 1.486095e+001 2.060592e+001 2.211537e+001 2.999616e+001 2.077209e+001 1.381687e+001 1.786437e+000 3.707354e+000 2.461339e+000 2.647583e+000 3.243538e+000 3.126975e+000 5.375645e+000 4.544528e+000 7.323574e+000 3.401647e+000 4.109962e+000 4.447866e+000 1.100551e+000
<GCONST> 9.944408e+001
<STATE> 4
<MEAN> 25
 5.031103e+000 -1.210237e+000 -3.599291e+000 -1.429476e+001 -4.165913e+000 2.494352e+000 3.132974e+000 -1.496435e+000 -7.612213e+000 7.002767e-001 -6.294118e+000 -1.442831e+000 -6.767626e-001 -2.019799e+000 4.412906e-001 6.082903e-001 1.593642e+000 5.695167e-001 -2.003334e-001 -1.211208e+000 4.322469e-001 8.006935e-001 -6.340522e-002 -1.152547e+000 1.038096e+000
<VARIANCE> 25
 6.577241e+000 2.024128e+001 1.387085e+001 1.567209e+001 1.899961e+001 2.039286e+001 1.985297e+001 3.095525e+001 2.907228e+001 2.586588e+001 4.404332e+001 4.068726e+001 2.978840e-001 6.578635e-001 9.415491e-001 1.965103e+000 2.109843e+000 2.931244e+000 1.940249e+000 2.897082e+000 3.798974e+000 1.886735e+000 3.098032e+000 3.061744e+000 4.173060e-001
<GCONST> 8.859370e+001
<TRANSP> 5
 0.000000e+000 1.000000e+000 0.000000e+000 0.000000e+000 0.000000e+000
 0.000000e+000 7.704929e-001 2.295071e-001 0.000000e+000 0.000000e+000
 0.000000e+000 0.000000e+000 5.869694e-001 4.130306e-001 0.000000e+000
 0.000000e+000 0.000000e+000 0.000000e+000 7.137985e-001 2.862015e-001
 0.000000e+000 0.000000e+000 0.000000e+000 0.000000e+000 0.000000e+000
<ENDHMM>
~h "k"
<BEGINHMM>
<NUMSTATES> 5
<STATE> 2
<MEAN> 25
 -3.730673e+000 1.497091e+000 -1.470071e+000 4.974310e+000 6.689943e+000 3.245142e+000 4.513439e+000 4.930385e+000 2.701739e+000 3.520006e+000 4.214789e+000 3.789265e+000 -1.368895e-001 -1.088561e+000 -1.169139e+000 -1.268274e+000 1.022982e-001 -1.094183e+000 1.622892e-001 7.519878e-001 -1.981779e-001 2.969815e-001 -5.422902e-001 -9.606814e-002 1.811219e+000
<VARIANCE> 25
 2.081154e+001 3.885078e+001 4.040882e+001 3.587963e+001 5.166122e+001 6.920495e+001 5.553959e+001 4.105806e+001 3.395362e+001 3.184623e+001 3.587396e+001 2.470564e+001 3.324387e+000 3.862587e+000 5.116524e+000 4.920330e+000 7.356552e+000 1.118497e+001 4.408027e+000 4.439052e+000 4.388104e+000 3.678731e+000 5.414236e+000 3.711005e+000 6.237439e+000
<GCONST> 1.103831e+002
<STATE> 3
<MEAN> 25
 -1.612648e+000 -3.237564e-001 -4.830954e+000 -8.451301e-001 3.093354e+000 -2.187473e+000 3.204410e+000 5.731151e+000 9.489835e-002 2.728860e+000 4.045294e-001 2.703784e+000 1.988710e+000 2.335577e-001 2.971730e-001 -2.117370e+000 -2.496128e+000 -1.753373e+000 -5.473006e-001 -1.465148e+000 -1.551865e+000 -1.037389e+000 -1.805772e+000 -1.323510e+000 2.256834e+000
<VARIANCE> 25
 2.830219e+001 3.047329e+001 6.024191e+001 4.210211e+001 6.230217e+001 1.022361e+002 5.097356e+001 3.760379e+001 4.282881e+001 3.515108e+001 5.331169e+001 2.990586e+001 2.158484e+000 3.859398e+000 4.552640e+000 5.071007e+000 5.772287e+000 8.353725e+000 7.502536e+000 4.545113e+000 5.500129e+000 4.057008e+000 7.198942e+000 3.824550e+000 4.233611e+000
<GCONST> 1.120818e+002
<STATE> 4
<MEAN> 25
 2.461337e+000 -1.916412e-001 -2.211099e+000 -3.677029e+000 -2.569079e+000 -5.181394e+000 2.181949e+000 1.930471e+000 -2.669221e+000 4.605644e-001 -2.845638e+000 6.440636e-002 1.649038e+000 -4.327595e-001 5.445304e-001 -1.715073e+000 -2.059942e+000 -4.374131e-001 -1.328566e-001 -1.594963e+000 -9.374348e-001 -8.495804e-001 -1.288842e+000 -1.094300e+000 2.008871e+000
<VARIANCE> 25
 1.953393e+001 5.965596e+001 4.288433e+001 2.903020e+001 4.945013e+001 8.011138e+001 5.481706e+001 4.071299e+001 4.124262e+001 3.225933e+001 6.589018e+001 2.941337e+001 2.170245e+000 3.921496e+000 4.241293e+000 4.647775e+000 5.819827e+000 6.913158e+000 8.913321e+000 6.171217e+000 6.203397e+000 3.676741e+000 5.995561e+000 3.121816e+000 2.937465e+000
<GCONST> 1.108510e+002
<TRANSP> 5
 0.000000e+000 1.000000e+000 0.000000e+000 0.000000e+000 0.000000e+000
 0.000000e+000 6.544217e-001 3.455783e-001 0.000000e+000 0.000000e+000
 0.000000e+000 0.000000e+000 2.841794e-001 7.158207e-001 0.000000e+000
 0.000000e+000 0.000000e+000 0.000000e+000 1.624927e-001 8.375072e-001
 0.000000e+000 0.000000e+000 0.000000e+000 0.000000e+000 0.000000e+000
<ENDHMM>
~h "l"
<BEGINHMM>
<NUMSTATES> 5
<STATE> 2
<MEAN> 25
 4.659537e+000 -3.198085e+000 5.778178e+000 -1.881512e+000 4.415176e+000 -1.110765e+001 -5.312105e+000 1.496170e+000 -4.069829e+000 -4.100372e+000 -3.049233e+000 5.989692e+000 -7.189730e-001 2.615909e-001 1.003359e+000 -1.222225e-001 -2.205916e-001 -4.646877e-001 8.853122e-001 -1.038360e+000 -2.970263e-001 8.082515e-001 -1.520073e-002 7.159553e-001 2.312310e-001
<VARIANCE> 25
 7.028646e+000 1.072850e+001 1.869562e+001 2.034890e+001 2.702309e+001 5.804316e+001 3.362774e+001 1.666468e+001 1.949908e+001 2.265417e+001 2.444019e+001 1.944254e+001 3.868954e-001 1.096592e+000 9.313056e-001 2.844612e+000 2.790046e+000 3.994555e+000 4.118756e+000 2.298788e+000 3.194788e+000 2.019022e+000 3.842169e+000 2.743208e+000 1.229492e+000
<GCONST> 9.135375e+001
<STATE> 3
<MEAN> 25
 6.556528e-001 -3.914972e+000 5.387866e+000 -6.375504e+000 -2.499405e+000 -8.446782e+000 1.032611e+000 -3.093214e+000 8.488756e-001 1.800961e+000 -1.583285e+000 2.989290e+000 -7.982618e-001 2.163170e-001 -5.238490e-001 -9.029064e-001 -3.458741e+000 1.857976e+000 8.166383e-001 -1.566735e+000 1.173233e+000 1.641977e+000 7.029253e-001 -1.427432e+000 1.207503e+000
<VARIANCE> 25
 9.090984e+000 1.048695e+001 1.722631e+001 1.622336e+001 3.070350e+001 1.636368e+001 1.720157e+001 2.912271e+001 1.625457e+001 2.531238e+001 2.781300e+001 1.660824e+001 5.621831e-001 1.600125e+000 4.394336e+000 4.118055e+000 2.193204e+000 3.216278e+000 7.281978e+000 1.803422e+000 1.972379e+000 4.367733e+000 3.129463e+000 3.704937e+000 2.307652e+000
<GCONST> 9.348703e+001
<STATE> 4
<MEAN> 25
 2.040906e+000 2.221935e+000 6.455629e+000 -4.449386e+000 -1.102115e+001 -1.749896e+000 -3.327947e+000 -5.512150e+000 -2.515739e-001 2.827114e+000 -3.817238e+000 7.528360e-001 4.848035e-002 1.242267e+000 8.016057e-002 7.883133e-001 -1.166992e+000 1.501737e+000 -3.509977e-001 -9.236712e-001 -7.712820e-001 1.386559e-001 -4.930257e-001 -9.298529e-001 -5.972877e-001
<VARIANCE> 25
 1.002982e+001 1.406055e+001 1.350849e+001 4.807288e+001 2.775517e+001 2.959909e+001 2.959259e+001 3.345685e+001 1.145202e+001 4.222960e+001 4.688602e+001 3.013174e+001 2.506599e-001 4.931084e-001 1.273883e+000 1.599817e+000 2.636678e+000 2.803360e+000 3.284481e+000 1.706068e+000 1.976677e+000 1.899115e+000 2.770615e+000 1.477395e+000 4.455828e-001
<GCONST> 8.868423e+001
<TRANSP> 5
 0.000000e+000 1.000000e+000 0.000000e+000 0.000000e+000 0.000000e+000
 0.000000e+000 7.398579e-001 2.601421e-001 0.000000e+000 0.000000e+000
 0.000000e+000 0.000000e+000 6.122881e-001 3.877119e-001 0.000000e+000
 0.000000e+000 0.000000e+000 0.000000e+000 7.482201e-001 2.517799e-001
 0.000000e+000 0.000000e+000 0.000000e+000 0.000000e+000 0.000000e+000
<ENDHMM>
~h "m"
<BEGINHMM>
<NUMSTATES> 5
<STATE> 2
<MEAN> 25
 5.362020e+000 -5.301440e-001 2.566284e+000 3.084537e+000 5.328473e-001 -1.078496e+000 -6.446057e+000 -1.095738e+001 -2.908891e+000 3.804882e+000 -1.197579e+000 -3.231123e+000 -4.176687e-002 -9.230953e-002 1.090017e-001 1.720652e-001 3.757942e-001 -1.628496e-002 -1.714528e-001 -4.064091e-001 -1.488997e-001 1.992061e-001 7.866266e-002 -1.296799e-001 8.648226e-002
<VARIANCE> 25
 9.319385e+000 1.804566e+001 1.563753e+001 2.478040e+001 3.737271e+001 3.274844e+001 6.739993e+001 4.472876e+001 3.832125e+001 3.158646e+001 3.317040e+001 3.295909e+001 2.828249e-001 1.080846e+000 1.135335e+000 1.581939e+000 1.590907e+000 1.441545e+000 2.069840e+000 2.802671e+000 1.803707e+000 1.832539e+000 1.692604e+000 1.772367e+000 7.379594e-001
<GCONST> 9.022710e+001
<STATE> 3
<MEAN> 25
 4.917889e+000 -2.334537e+000 -4.627471e-002 -1.575310e-001 1.792579e+000 -3.112415e-004 -5.393155e+000 -9.517939e+000 -2.657578e+000 3.724810e+000 -5.046340e-001 -3.972204e+000 -4.006554e-001 -1.267189e+000 -2.045478e+000 -1.859977e+000 -1.086023e-003 6.212554e-001 6.040580e-001 3.091936e+000 8.931361e-001 -1.247709e+000 -3.914625e-001 1.951162e-001 1.444718e+000
<VARIANCE> 25
 8.038930e+000 2.130013e+001 2.771086e+001 3.778997e+001 2.576913e+001 2.813571e+001 5.292262e+001 5.079996e+001 3.350907e+001 2.671606e+001 3.346418e+001 2.832483e+001 5.064038e-001 1.498192e+000 3.171736e+000 2.382288e+000 1.941524e+000 3.235356e+000 4.681579e+000 5.009615e+000 5.699593e+000 3.989743e+000 3.707805e+000 4.887047e+000 1.173906e+000
<GCONST> 9.909831e+001
<STATE> 4
<MEAN> 25
 2.904946e+000 -5.851858e+000 -4.644544e+000 -2.531508e+000 2.865836e+000 1.614698e+000 -4.568811e+000 -5.735711e-001 -4.477614e-001 -6.073399e-001 -2.302573e+000 -1.410505e+000 -1.172180e+000 -8.427930e-001 -6.945643e-001 1.745301e-002 4.767911e-001 4.923219e-001 9.269839e-001 2.613776e+000 -1.471566e-002 -1.758318e+000 -5.508589e-002 1.422289e+000 8.675117e-001
<VARIANCE> 25
 1.011718e+001 3.701005e+001 3.316823e+001 2.724678e+001 3.255795e+001 3.561550e+001 3.165731e+001 4.058652e+001 3.270117e+001 2.756558e+001 2.893420e+001 2.892424e+001 7.005267e-001 1.717368e+000 3.204431e+000 3.303669e+000 2.819105e+000 3.992764e+000 4.418876e+000 4.233304e+000 3.558224e+000 4.296408e+000 3.750976e+000 3.151055e+000 1.301300e+000
<GCONST> 9.978114e+001
<TRANSP> 5
 0.000000e+000 1.000000e+000 0.000000e+000 0.000000e+000 0.000000e+000
 0.000000e+000 7.739816e-001 2.260184e-001 0.000000e+000 0.000000e+000
 0.000000e+000 0.000000e+000 5.126391e-001 4.873609e-001 0.000000e+000
 0.000000e+000 0.000000e+000 0.000000e+000 3.270048e-001 6.729952e-001
 0.000000e+000 0.000000e+000 0.000000e+000 0.000000e+000 0.000000e+000
<ENDHMM>
~h "n"
<BEGINHMM>
<NUMSTATES> 5
<STATE> 2
<MEAN> 25
 4.839150e+000 3.922055e-001 2.437104e+000 -4.254733e-001 -4.682392e+000 -2.954958e+000 -4.690945e+000 -6.162933e+000 -1.082230e+000 -4.005599e-002 -4.504792e+000 -6.091505e-001 5.363041e-001 1.016256e+000 1.235553e+000 1.029597e+000 -7.872455e-001 -7.002606e-001 -2.045864e-001 -1.473623e+000 6.433890e-001 4.955035e-001 -6.378260e-001 4.156400e-001 -1.168479e+000
<VARIANCE> 25
 8.398569e+000 1.572992e+001 1.927596e+001 2.470525e+001 3.251960e+001 4.719236e+001 8.328190e+001 4.880354e+001 4.010501e+001 5.171542e+001 4.558136e+001 3.147753e+001 5.148515e-001 1.264783e+000 3.094743e+000 1.876464e+000 2.289267e+000 4.149572e+000 3.947649e+000 3.709462e+000 3.733629e+000 3.273558e+000 3.538216e+000 2.519705e+000 5.169232e-001
<GCONST> 9.784509e+001
<STATE> 3
<MEAN> 25
 4.866964e+000 2.399945e+000 5.040451e+000 2.177875e+000 -5.734780e+000 -3.676372e+000 -4.781641e+000 -7.410250e+000 7.843395e-001 -2.183388e-002 -4.505534e+000 2.776974e-001 -2.287373e-001 4.354461e-001 1.838764e-001 3.595839e-001 3.755923e-001 -1.496229e-001 7.743081e-002 3.060974e-001 -1.863789e-002 -1.205320e-002 1.179332e-001 9.615085e-002 -4.772221e-001
<VARIANCE> 25
 8.850320e+000 1.825114e+001 2.160853e+001 2.244179e+001 2.936957e+001 5.058864e+001 6.436776e+001 4.095399e+001 4.053757e+001 5.331672e+001 4.584931e+001 2.862403e+001 3.074068e-001 1.411726e+000 9.428473e-001 1.162795e+000 1.435418e+000 1.918290e+000 2.024698e+000 1.985386e+000 1.707622e+000 2.063316e+000 1.972937e+000 1.853457e+000 9.568947e-001
<GCONST> 9.142771e+001
<STATE> 4
<MEAN> 25
 2.692377e+000 3.390281e+000 3.412825e+000 2.190445e+000 -2.298537e+000 -4.018445e+000 -3.501423e+000 -4.128681e+000 -6.112811e-001 3.635271e-001 -3.305590e+000 5.710112e-001 -1.279479e+000 -5.794167e-001 -1.378105e+000 -4.068274e-001 1.847669e+000 6.579627e-001 8.656426e-001 2.411942e+000 -8.729084e-001 -7.157823e-001 1.388616e+000 1.123593e-001 3.230788e-001
<VARIANCE> 25
 1.124941e+001 3.510062e+001 2.357866e+001 2.415355e+001 3.212833e+001 4.567951e+001 4.790746e+001 4.835045e+001 3.648494e+001 3.627346e+001 4.578116e+001 2.799198e+001 9.361244e-001 2.927985e+000 4.458770e+000 3.912972e+000 2.909348e+000 4.739356e+000 6.157634e+000 5.581502e+000 5.794363e+000 5.539048e+000 3.535206e+000 2.967968e+000 3.757984e+000
<GCONST> 1.048248e+002
<TRANSP> 5
 0.000000e+000 1.000000e+000 0.000000e+000 0.000000e+000 0.000000e+000
 0.000000e+000 5.920697e-001 4.079303e-001 0.000000e+000 0.000000e+000
 0.000000e+000 0.000000e+000 6.748922e-001 3.251078e-001 0.000000e+000
 0.000000e+000 0.000000e+000 0.000000e+000 5.859200e-001 4.140800e-001
 0.000000e+000 0.000000e+000 0.000000e+000 0.000000e+000 0.000000e+000
<ENDHMM>
~h "o"
<BEGINHMM>
<NUMSTATES> 5
<STATE> 2
<MEAN> 25
 3.648854e+000 -5.183841e-001 -3.865865e+000 -1.162663e+001 2.953570e+000 -3.183024e+000 -7.727648e+000 -1.568898e+000 1.187665e+000 1.913176e+000 1.475977e+000 8.910848e-001 1.040575e+000 -4.437827e-001 4.787192e-002 -1.211727e+000 7.524122e-001 4.269577e-001 -1.418936e+000 -2.047112e-001 4.720844e-001 8.987379e-002 -6.009137e-001 -3.853490e-001 1.005717e-001
<VARIANCE> 25
 1.507724e+001 2.826425e+001 2.143826e+001 4.443527e+001 2.834475e+001 5.730718e+001 5.759534e+001 2.780480e+001 5.374450e+001 2.385233e+001 4.830248e+001 3.735513e+001 2.865615e+000 1.325664e+000 1.586391e+000 4.986985e+000 3.050491e+000 2.927735e+000 8.761599e+000 2.865690e+000 3.031265e+000 2.166604e+000 4.329291e+000 2.314082e+000 5.704740e-001
<GCONST> 1.007275e+002
<STATE> 3
<MEAN> 25
 6.400328e+000 1.291280e-001 -6.368467e+000 -1.374457e+001 2.406765e+000 3.187951e+000 -6.012101e+000 -1.098899e+000 -2.646112e+000 1.480585e+000 -9.409777e-002 -3.878366e-001 1.129333e-001 2.972809e-001 3.336101e-001 1.801878e+000 -1.981410e-001 -2.833198e-001 8.115176e-002 -4.798228e-001 1.803292e-001 -8.354642e-001 1.620000e-001 -3.232227e-001 -7.609169e-001
<VARIANCE> 25
 5.664350e+000 1.871201e+001 2.659836e+001 3.670502e+001 2.036410e+001 4.139680e+001 3.313642e+001 2.996071e+001 3.347639e+001 2.964387e+001 4.723508e+001 2.789818e+001 2.454452e-001 1.394522e+000 8.521411e-001 3.644277e+000 1.715865e+000 2.254016e+000 2.368158e+000 2.097294e+000 2.149347e+000 1.588478e+000 1.553483e+000 2.047580e+000 7.275368e-001
<GCONST> 9.029876e+001
<STATE> 4
<MEAN> 25
 4.572310e+000 5.366013e+000 -2.241734e+000 -1.915612e+000 -5.341804e-001 -1.932470e+000 -2.769771e+000 -3.337227e+000 -2.098516e+000 -3.472818e+000 2.336066e+000 -2.429999e+000 -1.551577e+000 1.877886e+000 1.986987e+000 3.110931e+000 -7.810540e-001 -1.125053e+000 1.525783e+000 2.266526e-001 -9.609590e-002 -7.402802e-001 3.744101e-001 -3.106068e-001 -1.771999e+000
<VARIANCE> 25
 1.279140e+001 3.373319e+001 2.444437e+001 2.354709e+001 2.242220e+001 4.014202e+001 4.224609e+001 2.305438e+001 2.975129e+001 3.210296e+001 2.988329e+001 2.166255e+001 1.087496e+000 1.772680e+000 2.075498e+000 1.932841e+000 2.597771e+000 2.856437e+000 2.843461e+000 4.192777e+000 3.364287e+000 3.049388e+000 3.241980e+000 2.548297e+000 1.065166e+000
<GCONST> 9.641920e+001
<TRANSP> 5
 0.000000e+000 1.000000e+000 0.000000e+000 0.000000e+000 0.000000e+000
 0.000000e+000 4.318892e-001 5.681108e-001 0.000000e+000 0.000000e+000
 0.000000e+000 0.000000e+000 7.191542e-001 2.808458e-001 0.000000e+000
 0.000000e+000 0.000000e+000 0.000000e+000 5.963295e-001 4.036705e-001
 0.000000e+000 0.000000e+000 0.000000e+000 0.000000e+000 0.000000e+000
<ENDHMM>
~h "p"
<BEGINHMM>
<NUMSTATES> 5
<STATE> 2
<MEAN> 25
 9.172965e-001 5.698594e+000 -2.189680e-001 4.475121e+000 3.211004e+000 3.913750e+000 2.778912e+000 5.450777e-001 5.002648e-001 6.860800e-001 1.764126e+000 1.418176e+000 -1.152578e+000 4.398571e-002 5.209647e-001 1.023371e+000 1.100803e+000 1.024118e+000 8.244331e-001 8.316215e-001 2.946256e-001 1.857946e-001 7.758896e-001 7.992579e-001 -1.195825e+000
<VARIANCE> 25
 1.750637e+001 2.937948e+001 2.493712e+001 2.212148e+001 3.375695e+001 2.898615e+001 4.246095e+001 3.312111e+001 2.965817e+001 2.698905e+001 4.161612e+001 2.973824e+001 1.527230e+000 2.053106e+000 1.277844e+000 1.729213e+000 2.263078e+000 2.502499e+000 2.338680e+000 2.266212e+000 2.250048e+000 2.418166e+000 3.183001e+000 2.195575e+000 2.456640e+000
<GCONST> 9.631793e+001
<STATE> 3
<MEAN> 25
 -3.228720e+000 3.568539e+000 1.166121e+000 7.176277e+000 6.840341e+000 6.888637e+000 6.281809e+000 2.892865e+000 2.333585e+000 2.240521e+000 5.146507e+000 3.025017e+000 -1.923130e-001 -1.349584e+000 -1.111525e-001 -3.422455e-001 -4.820431e-001 -1.171423e+000 -4.308227e-001 1.635598e-001 3.256505e-001 -4.293089e-002 -4.195504e-002 -2.988467e-001 1.694163e+000
<VARIANCE> 25
 1.293228e+001 3.788211e+001 2.135194e+001 2.492719e+001 3.208101e+001 3.296323e+001 4.395840e+001 2.748295e+001 3.089517e+001 2.811059e+001 4.178350e+001 2.376421e+001 1.488001e+000 2.546741e+000 1.919210e+000 2.571966e+000 3.395942e+000 5.382740e+000 3.514530e+000 2.821136e+000 2.798156e+000 2.510026e+000 2.662545e+000 2.867668e+000 4.393737e+000
<GCONST> 9.973700e+001
<STATE> 4
<MEAN> 25
 8.122462e-001 -2.934617e+000 -2.598513e+000 1.490693e-001 1.204711e+000 -1.385757e+000 -1.454403e-001 9.574457e-001 2.575782e+000 1.756068e+000 1.369144e+000 -1.392889e+000 1.937524e+000 -2.637229e+000 -1.641923e+000 -3.034408e+000 -1.913615e+000 -1.885856e+000 -1.571772e+000 -6.447216e-001 -2.259334e-001 -2.127962e-001 -2.119422e+000 -1.845463e+000 4.498940e+000
<VARIANCE> 25
 3.261924e+001 3.919135e+001 4.143700e+001 5.948717e+001 3.508649e+001 4.614292e+001 4.839071e+001 3.834390e+001 3.192620e+001 2.671588e+001 4.903891e+001 3.427654e+001 2.152331e+000 4.792475e+000 6.569377e+000 4.067212e+000 6.151064e+000 8.156612e+000 7.447811e+000 4.944243e+000 6.152210e+000 3.538693e+000 8.196189e+000 4.509324e+000 5.169749e+000
<GCONST> 1.114752e+002
<TRANSP> 5
 0.000000e+000 1.000000e+000 0.000000e+000 0.000000e+000 0.000000e+000
 0.000000e+000 6.869298e-001 3.130702e-001 0.000000e+000 0.000000e+000
 0.000000e+000 0.000000e+000 5.364141e-001 4.635859e-001 0.000000e+000
 0.000000e+000 0.000000e+000 0.000000e+000 5.748645e-001 4.251355e-001
 0.000000e+000 0.000000e+000 0.000000e+000 0.000000e+000 0.000000e+000
<ENDHMM>
~h "q"
<BEGINHMM>
<NUMSTATES> 5
<STATE> 2
<MEAN> 25
 -3.944001e+000 1.090302e+000 -7.383610e-001 3.222765e+000 5.891926e+000 1.839558e+000 1.155548e+000 3.551831e+000 1.196003e+000 -7.472517e-001 2.444588e+000 1.516333e+000 -1.589386e+000 -1.089798e-001 4.031607e-002 4.849858e-001 1.323831e+000 5.280885e-001 6.355467e-001 1.051450e+000 4.684114e-001 3.681676e-001 4.320026e-001 2.621714e-001 -2.760326e-001
<VARIANCE> 25
 2.108398e+001 2.567109e+001 3.371810e+001 4.253971e+001 4.242859e+001 6.521114e+001 5.545105e+001 3.726331e+001 3.323747e+001 3.280684e+001 4.219190e+001 2.883890e+001 2.754235e+000 2.454324e+000 3.212637e+000 4.577048e+000 4.001227e+000 3.735631e+000 5.083933e+000 3.737262e+000 3.643265e+000 3.391346e+000 2.636327e+000 2.539008e+000 2.996060e+000
<GCONST> 1.049272e+002
<STATE> 3
<MEAN> 25
 -6.940727e+000 -4.110674e-001 -8.950914e-001 3.812490e+000 8.099289e+000 1.865284e+000 1.599011e+000 5.855051e+000 2.347758e+000 -4.960737e-001 1.975639e+000 1.193268e+000 -7.691888e-001 -3.825453e-002 2.274357e-001 3.036884e-001 4.048541e-001 2.220612e-001 3.595002e-001 4.756836e-001 4.380765e-001 4.140495e-001 3.432798e-001 -5.853271e-003 -9.080926e-002
<VARIANCE> 25
 3.121877e+001 2.339134e+001 3.698380e+001 4.736337e+001 5.548796e+001 6.201294e+001 5.998158e+001 4.277203e+001 3.766920e+001 3.583991e+001 3.692439e+001 3.044920e+001 2.911777e+000 1.960078e+000 2.176243e+000 4.699445e+000 3.994476e+000 3.127283e+000 4.356304e+000 4.267015e+000 3.693082e+000 3.112771e+000 2.677490e+000 2.312941e+000 2.861311e+000
<GCONST> 1.050660e+002
<STATE> 4
<MEAN> 25
 -7.470260e+000 2.241961e-001 1.006599e-001 4.722003e+000 8.328096e+000 2.785948e+000 3.355351e+000 5.856520e+000 3.288961e+000 3.763414e-001 3.099020e+000 1.676939e+000 1.245823e+000 5.699190e-001 5.085066e-001 -7.896296e-001 -1.509977e+000 -2.976809e-001 -4.469884e-001 -1.248112e+000 -5.829971e-001 -1.194828e-001 -2.621076e-001 -1.789591e-001 6.580994e-002
<VARIANCE> 25
 3.523722e+001 2.182807e+001 3.387741e+001 4.686384e+001 5.589622e+001 5.343322e+001 5.751187e+001 5.227642e+001 3.918507e+001 3.332104e+001 3.216024e+001 2.896932e+001 3.933613e+000 2.309676e+000 2.557951e+000 4.939998e+000 6.300905e+000 5.430048e+000 5.938642e+000 5.814355e+000 3.791815e+000 3.748756e+000 3.487068e+000 2.964382e+000 4.569192e+000
<GCONST> 1.083112e+002
<TRANSP> 5
 0.000000e+000 1.000000e+000 0.000000e+000 0.000000e+000 0.000000e+000
 0.000000e+000 4.876572e-001 5.123428e-001 0.000000e+000 0.000000e+000
 0.000000e+000 0.000000e+000 2.306412e-001 7.693589e-001 0.000000e+000
 0.000000e+000 0.000000e+000 0.000000e+000 6.303780e-001 3.696220e-001
 0.000000e+000 0.000000e+000 0.000000e+000 0.000000e+000 0.000000e+000
<ENDHMM>
~h "r"
<BEGINHMM>
<NUMSTATES> 5
<STATE> 2
<MEAN> 25
 2.887071e+000 -2.303952e+000 2.500868e+000 2.717286e+000 -6.029140e+000 -5.158309e+000 -4.274204e+000 1.288518e+000 3.175099e+000 -1.040356e+000 2.217767e-001 4.339624e-001 3.482133e-001 3.096492e-001 4.119461e-001 1.377225e-001 -4.775971e-001 -2.150478e-001 -4.302353e-001 -8.670188e-001 2.271500e-001 -2.766514e-001 4.150645e-001 1.856307e-001 -1.230459e-001
<VARIANCE> 25
 1.358622e+001 3.002661e+001 2.827536e+001 3.977361e+001 5.508717e+001 3.433827e+001 8.094711e+001 5.254208e+001 4.685795e+001 4.192405e+001 3.578000e+001 3.199544e+001 1.650916e+000 3.121681e+000 3.216092e+000 3.662129e+000 5.522585e+000 4.223538e+000 4.416214e+000 5.149165e+000 3.544555e+000 4.945967e+000 3.626976e+000 3.542584e+000 2.261584e+000
<GCONST> 1.061227e+002
<STATE> 3
<MEAN> 25
 4.040626e+000 -1.419388e-001 2.245617e+000 2.679533e+000 -6.104426e+000 -4.285480e+000 -4.031363e+000 -1.678949e+000 2.398912e+000 -1.390397e+000 1.325645e+000 -1.047390e-001 -2.425015e-001 7.231492e-001 5.440368e-002 -6.295305e-001 4.720155e-001 5.603463e-001 5.897331e-001 -6.707001e-001 -4.788154e-001 3.281585e-001 3.382058e-001 -4.674264e-001 -2.042002e-001
<VARIANCE> 25
 1.452183e+001 3.272268e+001 2.988087e+001 2.550131e+001 3.634589e+001 3.816993e+001 7.513634e+001 3.858206e+001 4.489018e+001 3.708735e+001 4.013925e+001 2.709224e+001 1.875977e+000 4.368170e+000 2.153626e+000 4.329150e+000 5.388539e+000 3.940167e+000 3.825282e+000 9.002808e+000 3.704196e+000 4.472380e+000 3.122378e+000 3.149723e+000 2.539139e+000
<GCONST> 1.053187e+002
<STATE> 4
<MEAN> 25
 2.678961e+000 -7.047660e-001 2.110556e+000 5.449094e-001 -4.595107e+000 -3.635881e+000 -3.019729e+000 -5.060282e-001 1.641931e+000 -7.248012e-001 1.549406e+000 -1.345760e+000 -6.063194e-001 -1.827827e-001 -1.193513e-001 -1.578486e+000 -7.951139e-003 8.065453e-001 1.026772e+000 -1.190538e-002 -7.250222e-001 6.825802e-001 2.949326e-002 -2.645399e-001 7.397153e-001
<VARIANCE> 25
 1.296804e+001 5.237229e+001 2.749846e+001 3.028509e+001 4.137685e+001 4.605758e+001 6.058480e+001 8.135870e+001 3.309298e+001 4.032286e+001 3.882630e+001 3.007122e+001 2.025833e+000 3.561354e+000 2.228579e+000 3.261988e+000 3.897851e+000 4.002201e+000 5.770517e+000 9.307976e+000 5.876754e+000 3.228282e+000 3.345395e+000 2.403609e+000 2.410286e+000
<GCONST> 1.061050e+002
<TRANSP> 5
 0.000000e+000 1.000000e+000 0.000000e+000 0.000000e+000 0.000000e+000
 0.000000e+000 4.471949e-001 5.528050e-001 0.000000e+000 0.000000e+000
 0.000000e+000 0.000000e+000 2.259781e-001 7.740220e-001 0.000000e+000
 0.000000e+000 0.000000e+000 0.000000e+000 2.130069e-001 7.869931e-001
 0.000000e+000 0.000000e+000 0.000000e+000 0.000000e+000 0.000000e+000
<ENDHMM>
~h "s"
<BEGINHMM>
<NUMSTATES> 5
<STATE> 2
<MEAN> 25
 -9.253356e+000 7.502196e+000 -5.469428e-001 6.367329e+000 1.546113e+000 1.888343e-001 1.567956e+000 8.488851e-001 5.469323e-001 -1.270195e+000 3.426719e+000 -2.548598e-001 -2.276191e+000 1.571685e-001 -1.619399e-001 1.397830e+000 9.395250e-001 1.513919e+000 1.210596e+000 6.632476e-001 2.617110e-001 8.711256e-001 9.501542e-001 2.081694e-001 -7.192820e-001
<VARIANCE> 25
 2.823512e+001 1.765080e+001 2.375277e+001 3.441301e+001 4.123351e+001 3.627093e+001 4.836699e+001 4.335186e+001 2.875331e+001 3.209964e+001 2.786432e+001 2.902057e+001 2.856910e+000 2.368251e+000 2.054700e+000 2.406623e+000 2.835336e+000 2.513409e+000 3.626197e+000 3.373939e+000 3.063457e+000 3.922370e+000 2.792244e+000 2.398017e+000 7.730912e-001
<GCONST> 9.945448e+001
<STATE> 3
<MEAN> 25
 -1.258154e+001 3.543701e+000 -1.537511e+000 7.892155e+000 6.722550e+000 5.569673e+000 6.153909e+000 5.625997e+000 3.810287e+000 2.252710e+000 6.426869e+000 2.373041e+000 4.607410e-001 -7.837300e-001 1.031920e-003 -5.058523e-001 2.141854e-001 7.275645e-002 2.172789e-001 3.991817e-001 5.788817e-001 3.922595e-001 3.331944e-001 2.993354e-001 -3.111124e-001
<VARIANCE> 25
 2.392270e+001 2.317145e+001 2.446371e+001 4.375823e+001 4.612274e+001 3.256271e+001 4.171029e+001 3.592462e+001 3.520334e+001 3.016049e+001 3.038868e+001 2.397972e+001 1.885512e+000 1.786834e+000 1.753751e+000 2.593859e+000 2.784800e+000 3.230142e+000 2.866458e+000 2.987048e+000 3.328913e+000 2.560888e+000 2.336779e+000 2.108532e+000 1.758366e+000
<GCONST> 9.880190e+001
<STATE> 4
<MEAN> 25
 -6.027720e+000 1.858287e+000 5.726063e-002 2.983073e+000 2.484573e+000 6.406314e-001 2.086639e+000 3.309995e+000 3.514938e+000 6.315079e-001 4.838908e+000 2.052235e+000 3.715509e+000 -3.815736e-001 2.711836e-001 -1.893884e+000 -1.494816e+000 -1.956736e+000 -2.239211e+000 -1.746295e+000 -9.026305e-001 -8.137892e-001 -1.823228e+000 -7.251781e-001 6.257260e-001
<VARIANCE> 25
 5.758662e+001 3.120424e+001 3.399088e+001 3.653510e+001 5.564855e+001 5.824636e+001 7.314651e+001 6.449815e+001 3.832774e+001 5.032045e+001 5.008870e+001 2.600379e+001 4.714952e+000 2.861145e+000 4.349086e+000 5.340543e+000 7.732297e+000 6.496896e+000 7.263583e+000 7.052551e+000 4.648440e+000 5.346106e+000 5.142049e+000 3.774191e+000 4.019526e+000
<GCONST> 1.130145e+002
<TRANSP> 5
 0.000000e+000 1.000000e+000 0.000000e+000 0.000000e+000 0.000000e+000
 0.000000e+000 7.455784e-001 2.544216e-001 0.000000e+000 0.000000e+000
 0.000000e+000 0.000000e+000 7.639302e-001 2.360699e-001 0.000000e+000
 0.000000e+000 0.000000e+000 0.000000e+000 5.126465e-001 4.873534e-001
 0.000000e+000 0.000000e+000 0.000000e+000 0.000000e+000 0.000000e+000
<ENDHMM>
~h "t"
<BEGINHMM>
<NUMSTATES> 5
<STATE> 2
<MEAN> 25
 6.916680e-001 7.909159e+000 2.192280e+000 5.754787e+000 1.992228e+000 3.052881e+000 2.323412e+000 4.601429e-001 1.014333e+000 5.566913e-001 2.880529e+000 1.440986e+000 -1.353939e+000 -3.951803e-001 1.094356e-001 8.518651e-001 1.567834e+000 1.440923e+000 1.017428e+000 5.988042e-001 3.213772e-001 7.604306e-001 1.263474e+000 5.535410e-001 -9.127551e-001
<VARIANCE> 25
 1.211212e+001 1.957680e+001 1.933764e+001 1.654991e+001 4.342296e+001 3.188667e+001 4.714155e+001 3.907263e+001 2.768410e+001 2.942018e+001 3.163374e+001 2.316183e+001 9.219659e-001 1.548408e+000 1.183723e+000 1.318558e+000 2.249500e+000 1.972969e+000 2.332783e+000 2.191526e+000 2.356188e+000 2.879862e+000 2.829703e+000 1.960954e+000 1.757841e+000
<GCONST> 9.335050e+001
<STATE> 3
<MEAN> 25
 -3.344094e+000 4.822779e+000 2.038925e+000 7.403618e+000 6.006148e+000 6.767702e+000 5.068799e+000 2.358252e+000 2.195222e+000 2.094890e+000 5.192487e+000 3.022248e+000 -9.920439e-001 -2.336528e+000 -8.180245e-001 -1.286662e+000 -4.773140e-001 -1.312337e+000 1.677971e-002 2.241290e-001 5.369797e-001 -7.891261e-003 4.553039e-001 -2.867271e-001 3.206426e+000
<VARIANCE> 25
 1.080691e+001 2.476374e+001 1.894279e+001 2.063280e+001 3.639629e+001 3.187127e+001 5.113703e+001 3.250565e+001 3.137087e+001 2.980039e+001 2.794628e+001 2.305411e+001 1.416585e+000 2.272750e+000 2.538453e+000 2.172199e+000 4.202986e+000 4.555081e+000 4.687287e+000 3.992091e+000 3.217758e+000 3.496508e+000 3.145871e+000 2.544475e+000 4.027411e+000
<GCONST> 9.993675e+001
<STATE> 4
<MEAN> 25
 -2.500388e+000 -2.423073e+000 -2.102685e+000 -4.141209e-002 -4.978634e-001 -3.228241e+000 1.472996e+000 3.229458e+000 3.172301e+000 -9.666092e-001 3.176966e+000 7.514420e-001 1.419062e+000 -2.250853e+000 -1.879218e+000 -2.894860e+000 -2.246551e+000 -2.885274e+000 -1.162772e+000 9.548355e-001 -1.509461e-001 -1.807767e+000 -2.215826e+000 -8.824418e-001 4.857491e+000
<VARIANCE> 25
 2.457045e+001 1.681952e+001 3.141164e+001 2.912729e+001 4.549228e+001 4.759282e+001 4.909604e+001 3.538594e+001 2.813658e+001 4.194115e+001 4.939788e+001 2.705150e+001 1.369950e+000 3.105457e+000 3.717431e+000 2.475440e+000 7.971733e+000 6.072319e+000 6.901801e+000 6.551464e+000 5.977290e+000 6.231452e+000 4.576380e+000 4.773482e+000 4.374293e+000
<GCONST> 1.077370e+002
<TRANSP> 5
 0.000000e+000 1.000000e+000 0.000000e+000 0.000000e+000 0.000000e+000
 0.000000e+000 6.859428e-001 3.140572e-001 0.000000e+000 0.000000e+000
 0.000000e+000 0.000000e+000 4.551773e-001 5.448226e-001 0.000000e+000
 0.000000e+000 0.000000e+000 0.000000e+000 5.835356e-001 4.164644e-001
 0.000000e+000 0.000000e+000 0.000000e+000 0.000000e+000 0.000000e+000
<ENDHMM>
~h "u"
<BEGINHMM>
<NUMSTATES> 5
<STATE> 2
<MEAN> 25
 6.798553e+000 2.747514e+000 -4.565279e+000 -9.330110e+000 -3.537335e+000 1.232852e+000 -4.238605e+000 -4.142767e+000 -4.365273e+000 2.750166e+000 1.227498e-001 -1.564336e-001 8.711692e-001 -6.911560e-001 -4.039002e-001 -1.146845e+000 -1.160399e-001 3.899786e-001 -1.269285e+000 -1.396466e+000 1.026058e-001 1.310624e+000 -2.151995e-001 -4.186999e-001 1.161540e+000
<VARIANCE> 25
 9.325391e+000 2.773997e+001 2.226587e+001 6.001901e+001 3.261453e+001 5.193417e+001 4.883274e+001 3.651398e+001 4.491265e+001 4.113043e+001 4.137784e+001 3.812988e+001 2.232164e+000 2.308677e+000 2.676570e+000 6.248547e+000 4.972892e+000 4.858267e+000 4.757789e+000 4.237035e+000 5.263713e+000 4.009384e+000 3.945865e+000 3.323815e+000 1.927215e+000
<GCONST> 1.054305e+002
<STATE> 3
<MEAN> 25
 6.214472e+000 -1.209973e+000 -3.350665e+000 -7.093191e+000 -1.889923e+000 1.399139e+000 -7.156490e+000 -5.317461e+000 -1.150347e+000 3.709281e+000 -1.283908e+000 -2.266832e+000 -2.117843e-001 -3.417063e-001 7.446120e-001 1.008993e+000 -4.497779e-002 -5.681075e-001 -4.176240e-001 3.683590e-001 7.068130e-001 -6.420406e-001 -6.649750e-001 -1.833676e-002 -7.168471e-002
<VARIANCE> 25
 8.302932e+000 2.390927e+001 2.093626e+001 3.311245e+001 3.643778e+001 3.988331e+001 4.863712e+001 3.905358e+001 4.382001e+001 4.454741e+001 4.417554e+001 2.861641e+001 4.672508e-001 1.318847e+000 1.779736e+000 3.239539e+000 2.305961e+000 4.840171e+000 4.021530e+000 3.103673e+000 4.344799e+000 3.546033e+000 3.037719e+000 3.057211e+000 6.489940e-001
<GCONST> 9.806442e+001
<STATE> 4
<MEAN> 25
 4.901430e+000 1.153213e+000 2.435181e-001 -1.029139e+000 -2.229062e+000 -2.438243e+000 -5.981640e+000 -3.180280e+000 2.330762e-001 -5.389826e-001 -1.333900e+000 -2.595553e-001 -8.490371e-001 9.078655e-001 1.189283e+000 1.588614e+000 -7.606999e-002 -2.008081e-001 1.108270e+000 3.122663e-001 -6.883349e-002 -8.677603e-001 2.208283e-001 6.074550e-001 -1.318036e+000
<VARIANCE> 25
 1.254836e+001 3.693359e+001 2.975987e+001 4.062893e+001 3.939174e+001 5.531405e+001 5.778135e+001 4.144481e+001 4.171247e+001 4.480177e+001 3.387611e+001 2.689197e+001 1.550973e+000 1.929508e+000 2.972226e+000 2.939142e+000 4.929916e+000 4.053691e+000 4.953452e+000 4.410305e+000 4.407370e+000 3.926917e+000 4.030282e+000 3.399853e+000 1.826398e+000
<GCONST> 1.044121e+002
<TRANSP> 5
 0.000000e+000 1.000000e+000 0.000000e+000 0.000000e+000 0.000000e+000
 0.000000e+000 5.944369e-001 4.055630e-001 0.000000e+000 0.000000e+000
 0.000000e+000 0.000000e+000 6.844851e-001 3.155149e-001 0.000000e+000
 0.000000e+000 0.000000e+000 0.000000e+000 6.285775e-001 3.714225e-001
 0.000000e+000 0.000000e+000 0.000000e+000 0.000000e+000 0.000000e+000
<ENDHMM>
~h "v"
<BEGINHMM>
<NUMSTATES> 5
<STATE> 2
<MEAN> 25
 -2.975493e-001 -3.904972e+000 5.611051e+000 -2.479270e+000 -8.768508e+000 -7.263310e+000 3.562796e+000 5.083698e+000 5.290044e+000 2.603696e+000 2.635664e+000 3.594550e+000 -1.654638e+000 -8.472112e-001 8.314391e-001 -2.543679e+000 -2.148270e+000 1.323064e+000 2.268061e+000 1.132223e+000 -8.623108e-001 2.001370e+000 2.050079e+000 -2.046338e-001 2.422613e+000
<VARIANCE> 25
 7.394357e+000 1.813996e+000 2.226587e+000 2.302349e+001 2.547489e+001 2.008794e+001 3.636858e+001 1.457674e+001 1.685643e+001 2.517997e+001 1.888630e+001 1.005777e+001 7.599577e-001 3.551413e+000 7.621640e-001 1.841790e+000 2.542035e+000 4.456711e+000 1.531901e+000 3.522502e+000 1.696834e+000 5.485590e+000 1.631674e+000 2.630065e+000 2.641765e+000
<GCONST> 8.639268e+001
<STATE> 3
<MEAN> 25
 -3.981837e+000 -5.443097e-001 4.869468e+000 -5.167731e+000 -1.112116e+001 2.374608e+000 6.570316e+000 1.791830e+000 -1.123034e+000 4.795279e+000 6.231724e+000 -7.404117e-001 2.808062e-001 8.114510e-001 -2.673783e-002 1.471938e+000 3.159130e-001 -5.435213e-001 -1.007399e+000 -8.552480e-001 -1.342130e+000 -8.639680e-001 -3.537868e-001 1.451331e-001 -8.188747e-001
<VARIANCE> 25
 3.457429e+000 1.607927e+000 2.417847e+000 1.069600e+001 9.419825e+000 2.605062e+001 6.590731e+000 1.577591e+001 2.973407e+001 1.027774e+001 5.293178e+000 6.934159e+000 7.421397e-001 1.871215e-001 2.738513e-001 6.833043e-001 2.951952e-001 4.770714e+000 1.437546e+000 1.477569e+000 3.924729e-001 1.038030e+000 1.317387e+000 3.181093e+000 3.050420e-001
<GCONST> 6.718043e+001
<STATE> 4
<MEAN> 25
 2.647265e+000 3.681824e+000 6.889266e+000 1.652365e+000 -6.185764e+000 -7.352227e+000 9.617537e-001 -5.798176e+000 6.248264e-001 1.538040e-001 -3.083940e+000 7.037642e+000 1.360884e+000 9.618794e-001 6.531170e-002 4.237569e-001 1.036767e+000 -7.358937e-001 -6.859377e-001 -1.744428e+000 1.528905e+000 -7.397261e-001 -2.208792e+000 9.946180e-001 -1.591238e+000
<VARIANCE> 25
 7.783410e+000 5.472451e+000 4.446204e+000 2.344957e+000 9.193964e+000 6.187410e+000 2.856165e+001 2.446157e+001 2.684527e+001 2.939292e+001 3.942801e+001 2.327993e+001 9.126027e-001 2.133503e-001 5.373524e-001 7.028964e-001 1.550421e+000 2.542141e+000 1.902729e+000 3.063210e+000 3.086004e+000 5.210649e-001 3.627590e+000 2.650911e+000 5.291048e-001
<GCONST> 7.875237e+001
<TRANSP> 5
 0.000000e+000 1.000000e+000 0.000000e+000 0.000000e+000 0.000000e+000
 0.000000e+000 7.479362e-001 2.520638e-001 0.000000e+000 0.000000e+000
 0.000000e+000 0.000000e+000 7.704447e-001 2.295553e-001 0.000000e+000
 0.000000e+000 0.000000e+000 0.000000e+000 7.966814e-001 2.033186e-001
 0.000000e+000 0.000000e+000 0.000000e+000 0.000000e+000 0.000000e+000
<ENDHMM>
~h "w"
<BEGINHMM>
<NUMSTATES> 5
<STATE> 2
<MEAN> 25
 7.682338e+000 3.401148e+000 -4.722906e+000 -1.213538e+001 -3.498336e+000 3.068736e+000 3.852333e-001 -3.247082e+000 -3.413389e+000 2.991820e+000 7.767004e-001 -9.690245e-001 4.181788e-001 3.336675e-001 -1.768418e-001 -8.380026e-001 -3.524202e-001 6.324196e-001 4.544191e-001 -1.970082e-002 -6.378451e-001 -5.931892e-002 3.755318e-001 4.573854e-001 -1.818833e-001
<VARIANCE> 25
 8.569301e+000 3.792436e+001 2.551092e+001 3.071377e+001 4.650300e+001 2.763531e+001 3.319877e+001 2.955099e+001 2.907475e+001 2.931683e+001 3.352200e+001 2.666368e+001 6.820101e-001 3.484314e+000 1.922048e+000 2.910723e+000 4.251939e+000 3.254451e+000 2.861614e+000 2.577181e+000 3.181150e+000 2.855637e+000 3.049942e+000 2.912401e+000 2.306143e+000
<GCONST> 9.842435e+001
<STATE> 3
<MEAN> 25
 6.990143e+000 -2.417915e+000 -7.698853e+000 -1.284847e+001 1.944831e+000 6.365780e+000 1.203186e+000 -4.061899e+000 -3.146677e+000 5.233252e+000 1.014971e+000 -2.103080e+000 -1.120027e+000 -2.384880e+000 -5.621783e-001 1.748763e+000 2.320665e+000 -2.114939e-001 -7.149628e-001 1.240000e-001 1.448796e+000 3.954734e-001 -1.354387e+000 -1.598617e+000 1.490785e+000
<VARIANCE> 25
 8.655648e+000 3.665002e+001 2.070271e+001 3.792035e+001 4.006364e+001 2.617637e+001 3.747780e+001 2.772237e+001 3.766294e+001 3.835942e+001 4.502864e+001 3.511022e+001 5.870547e-001 2.087706e+000 1.616575e+000 2.797505e+000 2.405526e+000 3.451054e+000 3.343357e+000 2.804328e+000 3.029285e+000 3.255705e+000 4.085171e+000 3.225737e+000 1.647757e+000
<GCONST> 9.834882e+001
<STATE> 4
<MEAN> 25
 3.595314e+000 -6.813769e+000 -7.406538e+000 -5.558198e+000 5.847995e+000 1.668422e+000 -1.930719e+000 -7.900832e-001 2.258161e+000 3.188410e+000 -5.267982e+000 -5.659027e+000 -1.165245e+000 -7.103429e-001 9.819329e-001 2.379972e+000 -7.552309e-002 -1.843857e+000 -1.044534e-001 1.799306e+000 7.796786e-001 -1.580298e+000 -1.486094e+000 3.520145e-001 3.693264e-001
<VARIANCE> 25
 9.990164e+000 5.189256e+001 2.552800e+001 2.968675e+001 3.784116e+001 3.798637e+001 5.624707e+001 3.385721e+001 3.741088e+001 3.568928e+001 5.875945e+001 4.401496e+001 8.158227e-001 1.552936e+000 1.792437e+000 2.074118e+000 2.749484e+000 3.053004e+000 3.364240e+000 2.555236e+000 3.046554e+000 3.411073e+000 3.738611e+000 2.777486e+000 1.189750e+000
<GCONST> 9.938913e+001
<TRANSP> 5
 0.000000e+000 1.000000e+000 0.000000e+000 0.000000e+000 0.000000e+000
 0.000000e+000 8.041959e-001 1.958041e-001 0.000000e+000 0.000000e+000
 0.000000e+000 0.000000e+000 6.067727e-001 3.932273e-001 0.000000e+000
 0.000000e+000 0.000000e+000 0.000000e+000 4.963523e-001 5.036477e-001
 0.000000e+000 0.000000e+000 0.000000e+000 0.000000e+000 0.000000e+000
<ENDHMM>
~h "x"
<BEGINHMM>
<NUMSTATES> 5
<STATE> 2
<MEAN> 25
 6.368430e+000 2.642697e+000 1.043317e-001 2.729425e+000 -5.287409e+000 -2.601389e+000 -4.620570e+000 -4.730552e+000 -8.436472e-001 2.882751e+000 -2.650491e+000 -4.333413e+000 -1.234965e-001 -2.780124e-001 -7.034380e-002 -5.198518e-001 1.239968e-001 5.589283e-002 1.332371e-001 -3.989521e-002 -7.252982e-002 4.970854e-001 -5.955643e-001 -2.683458e-001 6.061057e-001
<VARIANCE> 25
 7.939916e+000 2.691451e+001 4.090954e+001 3.376717e+001 2.234138e+001 2.914034e+001 3.034935e+001 4.865827e+001 3.968273e+001 4.117000e+001 2.889875e+001 2.919739e+001 8.683641e-001 1.017200e+000 1.466996e+000 1.902990e+000 1.844417e+000 1.883529e+000 2.462837e+000 1.991269e+000 2.365236e+000 1.724186e+000 1.502120e+000 1.160103e+000 7.351781e-001
<GCONST> 9.184634e+001
<STATE> 3
<MEAN> 25
 1.408446e+000 4.562241e+000 2.652178e+000 -4.719181e+000 -2.234792e+000 -2.745145e+000 -3.366832e+000 -5.229388e+000 -1.668433e+000 5.301838e+000 -3.740819e+000 -5.510912e+000 -1.665394e+000 -3.048351e-001 9.479567e-001 -2.326428e+000 2.153771e-002 9.160722e-001 6.935576e-001 6.036173e-001 -7.248133e-001 -4.262416e-002 6.171241e-001 -1.804364e-001 1.382057e+000
<VARIANCE> 25
 1.100873e+001 2.312273e+001 4.754744e+001 2.916688e+001 2.957983e+001 2.074105e+001 3.363030e+001 5.377248e+001 4.417659e+001 2.831437e+001 2.723410e+001 2.398593e+001 5.609637e-001 2.420331e+000 1.671947e+000 2.656099e+000 3.222073e+000 2.887545e+000 4.198592e+000 4.849167e+000 4.048625e+000 2.795839e+000 2.246548e+000 1.693399e+000 4.449007e-001
<GCONST> 9.624747e+001
<STATE> 4
<MEAN> 25
 -2.199873e+000 -1.614920e+000 5.476641e+000 -7.434982e+000 -6.689022e+000 1.126249e+000 3.361775e+000 -3.867535e-001 -6.800356e+000 3.161564e-001 -1.173086e-001 -3.998771e+000 -1.251213e-001 -2.146293e+000 -9.570257e-001 7.043881e-001 -1.536604e-002 1.016531e-001 1.051666e+000 1.993708e+000 -2.112156e-001 -2.289977e+000 3.762586e-001 1.278496e+000 9.023637e-001
<VARIANCE> 25
 1.036951e+001 2.206795e+001 4.431501e+001 1.832164e+001 3.677968e+001 3.498613e+001 5.362639e+001 3.665463e+001 3.175823e+001 4.586378e+001 2.429290e+001 2.951829e+001 5.510869e-001 1.941729e+000 2.531910e+000 2.051897e+000 3.482817e+000 3.295042e+000 3.305690e+000 4.064157e+000 5.279834e+000 2.791022e+000 3.076399e+000 2.219695e+000 4.920853e-001
<GCONST> 9.733772e+001
<TRANSP> 5
 0.000000e+000 1.000000e+000 0.000000e+000 0.000000e+000 0.000000e+000
 0.000000e+000 7.511063e-001 2.488937e-001 0.000000e+000 0.000000e+000
 0.000000e+000 0.000000e+000 6.814687e-001 3.185314e-001 0.000000e+000
 0.000000e+000 0.000000e+000 0.000000e+000 6.386542e-001 3.613458e-001
 0.000000e+000 0.000000e+000 0.000000e+000 0.000000e+000 0.000000e+000
<ENDHMM>
~h "y"
<BEGINHMM>
<NUMSTATES> 5
<STATE> 2
<MEAN> 25
 -6.979125e-001 -1.697433e+000 4.143947e+000 -6.063437e+000 -1.133024e+001 -2.689816e+000 2.784202e+000 1.296844e-001 -1.655510e+000 6.818671e-001 -6.487600e-001 -2.833506e+000 -2.894612e-001 1.564832e+000 1.621298e+000 -4.943764e-001 -6.773921e-001 1.652150e-001 -1.526670e+000 -1.749350e+000 3.511363e-001 1.001099e+000 2.032778e-001 1.212640e-001 -6.188136e-001
<VARIANCE> 25
 1.065920e+001 1.817111e+001 3.050326e+001 2.573963e+001 2.690837e+001 3.764782e+001 3.871743e+001 3.725561e+001 2.819427e+001 2.549403e+001 3.428688e+001 1.869758e+001 2.454508e-001 1.206201e+000 1.289213e+000 1.160437e+000 1.868802e+000 1.889010e+000 3.813740e+000 2.227096e+000 3.314616e+000 2.134023e+000 2.115069e+000 2.058250e+000 3.117256e-001
<GCONST> 8.996254e+001
<STATE> 3
<MEAN> 25
 -1.432075e+000 6.031974e+000 8.819356e+000 -7.485096e+000 -8.615134e+000 -9.695611e-001 -6.298305e+000 -6.690880e+000 1.367378e+000 1.593675e+000 -1.833673e+000 -1.076229e+000 2.315398e-001 7.783921e-001 4.056337e-001 4.632653e-001 6.352429e-001 1.169379e-001 -6.711813e-001 -4.235946e-001 4.672027e-002 -2.937790e-001 -1.441857e-001 6.377549e-002 -8.933461e-001
<VARIANCE> 25
 1.053152e+001 2.612709e+001 2.427349e+001 2.595579e+001 3.565021e+001 2.783757e+001 3.825412e+001 2.954289e+001 3.285868e+001 3.030939e+001 3.137157e+001 2.526208e+001 4.385917e-001 1.535368e+000 1.127864e+000 1.329312e+000 1.987383e+000 1.671298e+000 3.020381e+000 1.913716e+000 1.850422e+000 1.965282e+000 1.868955e+000 1.613991e+000 6.168282e-001
<GCONST> 9.039556e+001
<STATE> 4
<MEAN> 25
 9.991867e-001 5.500840e+000 7.106557e+000 9.468442e-002 -6.226340e+000 -1.986665e+000 -2.073855e+000 -4.156887e+000 -1.085451e+000 7.261620e-001 -1.187346e-001 -1.170636e+000 4.371288e-001 -1.858478e-001 -1.104850e+000 1.778948e+000 1.319030e+000 4.751026e-002 7.503822e-001 7.519177e-001 -7.774194e-002 1.190939e-001 4.003662e-001 2.043033e-001 -1.421223e+000
<VARIANCE> 25
 1.538175e+001 3.754014e+001 2.632864e+001 4.599644e+001 4.915105e+001 3.709277e+001 4.479481e+001 4.251492e+001 3.772014e+001 3.245417e+001 3.533512e+001 2.744566e+001 1.897810e+000 2.860619e+000 1.840816e+000 3.328134e+000 4.075034e+000 4.203865e+000 4.575788e+000 3.900258e+000 3.143531e+000 3.385358e+000 3.344409e+000 2.774876e+000 3.144742e+000
<GCONST> 1.034176e+002
<TRANSP> 5
 0.000000e+000 1.000000e+000 0.000000e+000 0.000000e+000 0.000000e+000
 0.000000e+000 7.092349e-001 2.907650e-001 0.000000e+000 0.000000e+000
 0.000000e+000 0.000000e+000 7.134569e-001 2.865432e-001 0.000000e+000
 0.000000e+000 0.000000e+000 0.000000e+000 7.327819e-001 2.672181e-001
 0.000000e+000 0.000000e+000 0.000000e+000 0.000000e+000 0.000000e+000
<ENDHMM>
~h "al"
<BEGINHMM>
<NUMSTATES> 5
<STATE> 2
<MEAN> 25
 -8.078219e+000 -1.261749e+000 -1.455662e+000 7.217472e+000 1.085366e+001 -6.366512e-001 1.033029e+000 5.988269e+000 5.642919e+000 1.466513e+000 1.737812e+000 1.114998e+000 4.727989e-001 -8.165985e-001 -4.365195e-001 -2.874409e-001 -1.860563e-001 -3.456623e-001 -1.053773e-001 -7.925154e-002 -2.661555e-002 -8.767614e-001 -5.739199e-001 -2.546061e-001 1.036243e+000
<VARIANCE> 25
 1.712914e+001 3.171947e+001 2.833329e+001 2.563826e+001 4.299604e+001 5.599708e+001 4.848943e+001 3.852858e+001 3.286970e+001 3.494634e+001 3.195254e+001 2.178414e+001 6.217021e+000 2.264137e+000 2.359884e+000 4.043120e+000 7.195452e+000 4.853612e+000 4.617828e+000 5.067113e+000 4.725046e+000 4.114558e+000 3.568967e+000 2.597187e+000 3.574352e+000
<GCONST> 1.058176e+002
<STATE> 3
<MEAN> 25
 3.509143e+000 -5.731463e+000 -6.219210e+000 -1.387036e+000 9.001473e-001 -2.472308e+000 5.912539e-001 1.018062e+000 6.515135e-001 -5.055222e+000 -3.932632e+000 -2.571984e+000 2.182434e+000 -2.034096e+000 -1.186255e+000 -2.060794e+000 -1.829922e+000 2.593574e-002 8.155323e-001 -7.456402e-001 -9.206372e-001 -1.252928e+000 -1.102015e+000 -8.816279e-001 2.594294e+000
<VARIANCE> 25
 1.277463e+001 2.330530e+001 1.743070e+001 2.445960e+001 3.044306e+001 2.703715e+001 4.323439e+001 3.397390e+001 2.931033e+001 2.945259e+001 2.428754e+001 3.411905e+001 3.780404e+000 1.827452e+000 2.424717e+000 3.220603e+000 6.166460e+000 7.203657e+000 5.446353e+000 4.359356e+000 4.279758e+000 3.138185e+000 3.164187e+000 2.870138e+000 2.251419e+000
<GCONST> 1.017485e+002
<STATE> 4
<MEAN> 25
 4.123511e+000 -8.554088e+000 -7.034284e+000 -1.121846e+000 2.108039e+000 7.370584e-001 7.252342e-001 4.694383e-001 -1.918677e+000 -4.589517e+000 -4.132684e+000 -1.232326e+000 8.303317e-002 7.024966e-001 4.180473e-001 3.930614e-001 -1.784332e-001 2.313512e-001 -3.345696e-001 -7.003006e-002 -2.981733e-001 4.399568e-001 3.320651e-001 3.845564e-001 -7.708114e-001
<VARIANCE> 25
 1.248047e+001 2.184060e+001 1.592255e+001 2.586886e+001 3.234747e+001 3.017789e+001 5.584869e+001 3.744651e+001 4.035120e+001 3.125632e+001 2.682619e+001 3.479773e+001 5.886638e-001 2.142182e+000 1.254573e+000 1.785940e+000 2.037614e+000 2.112818e+000 2.621302e+000 2.291780e+000 2.018271e+000 2.017367e+000 2.081350e+000 1.975313e+000 1.771442e+000
<GCONST> 9.376466e+001
<TRANSP> 5
 0.000000e+000 1.000000e+000 0.000000e+000 0.000000e+000 0.000000e+000
 0.000000e+000 8.010564e-001 1.989436e-001 0.000000e+000 0.000000e+000
 0.000000e+000 0.000000e+000 6.347759e-001 3.652242e-001 0.000000e+000
 0.000000e+000 0.000000e+000 0.000000e+000 8.558213e-001 1.441788e-001
 0.000000e+000 0.000000e+000 0.000000e+000 0.000000e+000 0.000000e+000
<ENDHMM>
~h "ch"
<BEGINHMM>
<NUMSTATES> 5
<STATE> 2
<MEAN> 25
 -1.164843e+001 5.738970e+000 2.782542e+000 2.652453e+000 7.564904e+000 3.755561e+000 4.478372e+000 2.200311e+000 3.752185e+000 2.722985e+000 6.571686e+000 1.847739e+000 -2.669177e+000 -4.626379e-001 2.457162e-001 -9.453491e-001 2.919523e-002 -2.952692e-001 6.246166e-001 5.972739e-001 6.094347e-001 5.334585e-001 8.793986e-001 1.080991e-002 2.088117e+000
<VARIANCE> 25
 7.160699e+001 3.292858e+001 3.172041e+001 3.421460e+001 4.543832e+001 3.874354e+001 5.156514e+001 3.474512e+001 3.299968e+001 2.905311e+001 3.096702e+001 2.316712e+001 4.831845e+000 2.278189e+000 2.101265e+000 3.293424e+000 5.910817e+000 5.049231e+000 3.546847e+000 3.611265e+000 2.959713e+000 2.551903e+000 2.295148e+000 1.894760e+000 3.563250e+000
<GCONST> 1.041493e+002
<STATE> 3
<MEAN> 25
 -1.562502e+001 2.318134e+000 4.086949e+000 8.239478e-001 3.309549e+000 3.489537e-001 6.678304e+000 4.700940e+000 4.789525e+000 2.555286e+000 9.051772e+000 1.943184e+000 4.485223e+000 -6.563936e-001 5.425681e-001 -4.289953e-001 -3.180783e+000 -2.827516e+000 -2.036573e+000 -1.132608e+000 -1.715443e+000 -2.244406e+000 -1.820707e+000 -1.097724e+000 5.261447e-001
<VARIANCE> 25
 2.635438e+001 3.279437e+001 3.079060e+001 4.560846e+001 4.022032e+001 5.051665e+001 4.979165e+001 3.866151e+001 4.090396e+001 4.145631e+001 3.584051e+001 2.818639e+001 3.524781e+000 2.244339e+000 3.196820e+000 3.518930e+000 7.525156e+000 4.423766e+000 4.360616e+000 3.809207e+000 4.070572e+000 3.463058e+000 3.782576e+000 2.288158e+000 2.100769e+000
<GCONST> 1.058395e+002
<STATE> 4
<MEAN> 25
 5.870842e-001 6.817026e-001 3.860227e+000 -2.605605e+000 -7.580465e+000 -8.137124e+000 -1.922400e+000 7.652561e-002 -1.420022e+000 -4.225657e+000 1.326713e+000 -1.799334e+000 4.414066e+000 -2.020621e+000 -1.046267e+000 -1.414532e+000 -2.610757e+000 -1.272328e+000 -1.762787e+000 -1.439782e-001 -1.169705e+000 -1.271674e+000 -2.184560e+000 -1.081643e+000 1.386057e+000
<VARIANCE> 25
 2.043274e+001 3.070065e+001 2.690093e+001 4.432011e+001 4.392813e+001 3.436878e+001 3.321988e+001 4.464268e+001 2.969390e+001 2.794487e+001 2.445612e+001 2.607733e+001 3.339875e+000 3.684042e+000 4.088745e+000 3.587798e+000 7.653475e+000 7.127085e+000 7.111443e+000 5.607944e+000 5.612254e+000 6.080420e+000 5.224755e+000 3.066686e+000 2.099903e+000
<GCONST> 1.071992e+002
<TRANSP> 5
 0.000000e+000 1.000000e+000 0.000000e+000 0.000000e+000 0.000000e+000
 0.000000e+000 7.958026e-001 2.041974e-001 0.000000e+000 0.000000e+000
 0.000000e+000 0.000000e+000 5.315425e-001 4.684575e-001 0.000000e+000
 0.000000e+000 0.000000e+000 0.000000e+000 4.645302e-001 5.354698e-001
 0.000000e+000 0.000000e+000 0.000000e+000 0.000000e+000 0.000000e+000
<ENDHMM>
~h "ll"
<BEGINHMM>
<NUMSTATES> 5
<STATE> 2
<MEAN> 25
 1.353894e+000 3.874492e+000 6.552946e+000 3.938497e+000 -9.525544e+000 -6.793469e+000 1.652555e+000 -6.414795e+000 -2.330060e+000 9.474031e-001 1.898105e-001 -2.390343e+000 -2.668487e-001 5.148953e-001 3.951952e-001 5.035380e-001 8.950917e-002 -1.510213e-001 1.307455e-001 -2.262113e-001 -2.248755e-001 3.226582e-001 5.363456e-002 -2.268901e-001 -4.565470e-001
<VARIANCE> 25
 9.298456e+000 2.098446e+001 2.749759e+001 3.422051e+001 4.598369e+001 3.713846e+001 5.290272e+001 7.064410e+001 3.611714e+001 3.858777e+001 2.762729e+001 3.227997e+001 1.000821e+000 1.513794e+000 1.618563e+000 2.744254e+000 3.294445e+000 2.883464e+000 3.887741e+000 5.822712e+000 2.937855e+000 2.570663e+000 2.482453e+000 2.191436e+000 1.333187e+000
<GCONST> 9.905002e+001
<STATE> 3
<MEAN> 25
 -6.389561e-001 4.391076e+000 6.046032e+000 1.901063e+000 -5.998248e+000 -7.108572e+000 -8.051938e-001 -1.625310e+000 -3.476674e+000 1.992758e+000 2.350254e+000 -2.015317e+000 -7.391664e-001 -7.628570e-001 -8.541530e-001 -1.716099e+000 9.478779e-001 1.235222e-001 -6.628182e-001 2.281459e+000 2.312840e-001 1.830014e-001 8.607209e-001 3.328747e-001 1.000105e+000
<VARIANCE> 25
 8.367833e+000 2.091105e+001 2.998640e+001 3.488231e+001 3.934040e+001 3.142986e+001 4.295781e+001 5.156483e+001 3.408967e+001 4.151687e+001 2.615796e+001 3.093975e+001 1.360753e+000 3.053747e+000 1.578444e+000 4.211991e+000 3.969630e+000 3.871918e+000 6.173612e+000 6.069384e+000 4.043529e+000 3.270442e+000 2.667401e+000 2.481673e+000 2.129215e+000
<GCONST> 1.017413e+002
<STATE> 4
<MEAN> 25
 -1.717130e+000 3.204719e-001 2.362352e+000 -3.177680e+000 -4.233549e+000 -5.003769e+000 -3.972612e-001 4.215244e+000 -4.719140e-001 9.267769e-001 2.425972e+000 -1.147864e+000 -5.830352e-001 -1.594745e+000 -1.462821e+000 -7.256387e-001 1.279522e+000 1.550322e+000 1.041947e+000 1.386736e+000 1.037529e+000 -1.287941e+000 -9.032755e-001 9.096413e-003 9.528635e-001
<VARIANCE> 25
 9.043108e+000 3.043524e+001 2.396264e+001 4.309858e+001 5.318140e+001 3.653345e+001 5.662897e+001 3.327144e+001 3.188062e+001 3.222633e+001 2.308445e+001 2.467936e+001 1.349188e+000 2.284091e+000 2.407816e+000 4.342956e+000 2.394424e+000 3.097329e+000 6.768003e+000 3.895604e+000 4.413925e+000 3.998622e+000 3.466163e+000 3.320625e+000 1.383894e+000
<GCONST> 1.012849e+002
<TRANSP> 5
 0.000000e+000 1.000000e+000 0.000000e+000 0.000000e+000 0.000000e+000
 0.000000e+000 7.020132e-001 2.979868e-001 0.000000e+000 0.000000e+000
 0.000000e+000 0.000000e+000 5.246251e-001 4.753749e-001 0.000000e+000
 0.000000e+000 0.000000e+000 0.000000e+000 4.206945e-001 5.793055e-001
 0.000000e+000 0.000000e+000 0.000000e+000 0.000000e+000 0.000000e+000
<ENDHMM>
~h "rr"
<BEGINHMM>
<NUMSTATES> 5
<STATE> 2
<MEAN> 25
 -3.785863e-001 -2.609925e-001 6.872550e+000 9.540909e+000 -1.018268e+000 -9.771466e+000 -6.731720e+000 -4.226531e+000 5.675086e+000 -9.777197e-001 -1.180326e+000 -6.210056e+000 -5.037886e-001 -2.103584e-001 2.987064e-001 -7.201198e-001 2.637935e-001 -4.178600e-001 8.262219e-001 1.338707e+000 -1.503356e-001 -1.331235e+000 -5.032914e-001 1.382672e-001 2.028383e-001
<VARIANCE> 25
 2.409386e+001 1.787098e+001 1.901154e+001 2.098186e+001 1.062895e+001 1.520577e+001 1.659749e+001 2.722871e+001 2.414980e+001 2.802413e+001 2.022791e+001 1.271313e+001 6.436392e+000 3.518514e+000 5.369882e+000 7.927110e+000 2.868386e+000 4.683765e+000 1.817923e+000 8.858473e+000 2.140454e+000 1.457691e+000 1.919996e+000 2.598117e+000 3.792320e-001
<GCONST> 9.528999e+001
<STATE> 3
<MEAN> 25
 4.598719e+000 -1.021071e+001 5.903229e-001 -3.323649e+000 -2.386549e+000 -2.468300e+000 1.616961e+000 1.167981e+001 -6.386842e+000 -4.673420e+000 -7.625735e+000 3.012979e-001 -4.648854e-001 -1.576266e+000 -8.248911e-001 -1.249191e+000 7.203609e-001 1.407335e+000 2.868460e+000 9.902997e-001 -4.465345e+000 -2.197303e-001 -8.078675e-001 2.668485e+000 1.457617e+000
<VARIANCE> 25
 5.565521e+000 9.860517e+000 2.315421e+000 1.487260e+001 1.364446e+001 9.031240e+000 1.499611e+001 1.239652e+001 8.142694e+001 1.605893e+001 1.231860e+001 3.911535e+001 2.705577e+000 1.673319e+000 1.390118e+000 2.762814e+000 1.959703e+000 2.992546e+000 5.883746e-001 6.530670e+000 3.445604e+000 2.041980e+000 1.395818e+000 4.815833e+000 2.176723e-001
<GCONST> 8.518644e+001
<STATE> 4
<MEAN> 25
 -1.563977e+000 -8.250502e+000 3.940027e-001 -3.217445e+000 -2.177296e+000 -2.833551e+000 1.131756e+001 4.401718e+000 -1.365817e+001 -1.008722e+001 -1.727371e+000 5.442347e+000 -1.570181e+000 1.503438e+000 -2.491415e-001 4.074117e-001 -1.764005e+000 6.354480e-001 1.036319e+000 -2.331354e+000 5.745372e-001 -6.211504e-002 3.292131e+000 -6.491483e-001 6.684255e-001
<VARIANCE> 25
 4.261660e+000 1.043919e+001 6.994135e+000 3.610010e+000 1.028149e+001 1.361462e+001 3.489589e+000 1.986185e+001 2.045137e+001 7.028852e+000 2.391746e+001 1.732605e+001 2.392065e-001 2.298917e-001 1.180992e+000 2.322260e-001 5.960464e-001 1.106442e+000 2.397512e+000 1.033828e+000 4.287981e+000 2.794437e+000 1.053339e+000 1.965027e+000 1.525935e-001
<GCONST> 7.077399e+001
<TRANSP> 5
 0.000000e+000 1.000000e+000 0.000000e+000 0.000000e+000 0.000000e+000
 0.000000e+000 8.706531e-001 1.293470e-001 0.000000e+000 0.000000e+000
 0.000000e+000 0.000000e+000 7.273202e-001 2.726798e-001 0.000000e+000
 0.000000e+000 0.000000e+000 0.000000e+000 6.662959e-001 3.337041e-001
 0.000000e+000 0.000000e+000 0.000000e+000 0.000000e+000 0.000000e+000
<ENDHMM>
~h "sp"
<BEGINHMM>
<NUMSTATES> 3
<STATE> 2
~s "silst"
<TRANSP> 3
 0.000000e+000 1.144995e-001 8.855005e-001
 0.000000e+000 2.836063e-001 7.163937e-001
 0.000000e+000 0.000000e+000 0.000000e+000
<ENDHMM>
~h "ul"
<BEGINHMM>
<NUMSTATES> 5
<STATE> 2
<MEAN> 25
 3.242471e+000 -3.050087e+000 3.188358e+000 1.638287e-001 -7.218582e+000 -8.442355e+000 -6.196093e+000 2.738858e+000 -1.222330e+000 2.443885e+000 -1.538158e+000 -2.670752e+000 1.316158e+000 -1.158141e-001 -2.914548e+000 -7.229099e-001 2.420695e+000 5.367875e-001 -1.930468e+000 -3.692564e-001 2.038120e+000 1.096878e+000 -7.622409e-001 -4.812083e-001 -1.931817e-001
<VARIANCE> 25
 1.156258e+001 1.829167e+001 3.157752e+001 3.218290e+001 3.989668e+001 3.345519e+001 4.903555e+001 3.601909e+001 4.288467e+001 4.072085e+001 3.775743e+001 2.160359e+001 6.984175e-001 1.090984e+000 1.249451e+000 2.478835e+000 2.835869e+000 4.178038e+000 3.061201e+000 8.386822e+000 3.218511e+000 3.266856e+000 2.636278e+000 2.069564e+000 5.937089e-001
<GCONST> 9.717180e+001
<STATE> 3
<MEAN> 25
 7.024314e+000 7.427625e-001 -4.882566e+000 -7.854402e+000 -5.549535e-001 7.826762e-002 -5.215472e+000 -6.821888e+000 -3.411137e-001 5.468758e+000 6.257082e-001 -3.435818e+000 3.101909e-001 1.334999e+000 -1.076552e+000 -7.135640e-001 9.417143e-001 1.558065e+000 1.658654e+000 -1.122525e+000 -8.199422e-001 -5.552151e-001 1.106966e+000 9.759771e-001 -1.123438e+000
<VARIANCE> 25
 1.021087e+001 2.403164e+001 1.945419e+001 2.992690e+001 3.351576e+001 3.174804e+001 4.005820e+001 4.364741e+001 5.045132e+001 3.622959e+001 4.271444e+001 2.827703e+001 6.518333e-001 1.166550e+000 1.181092e+000 2.920966e+000 2.983117e+000 2.552696e+000 3.915335e+000 3.675811e+000 2.622221e+000 3.001680e+000 2.420776e+000 2.685700e+000 9.266607e-001
<GCONST> 9.638065e+001
<STATE> 4
<MEAN> 25
 -2.049771e-001 4.836644e+000 -5.407454e+000 -1.659286e+000 6.587658e+000 4.432622e+000 -3.727141e-001 -1.042772e+000 2.642108e-001 1.067918e+000 3.188103e+000 8.607293e-001 -1.140739e+000 -7.507745e-002 8.042622e-002 1.174026e+000 1.024644e+000 3.027003e-001 9.619105e-002 1.234299e+000 4.833035e-001 -4.768065e-001 -2.652799e-003 3.155412e-001 -6.898938e-001
<VARIANCE> 25
 3.352826e+001 3.152142e+001 2.568314e+001 3.768752e+001 7.517284e+001 4.530206e+001 4.529473e+001 4.552079e+001 5.061398e+001 4.700607e+001 3.055936e+001 3.100799e+001 2.944505e+000 2.860798e+000 1.974082e+000 2.423783e+000 5.288135e+000 3.343824e+000 4.218022e+000 4.143844e+000 4.654736e+000 5.246733e+000 3.669684e+000 2.574332e+000 1.813574e+000
<GCONST> 1.056446e+002
<TRANSP> 5
 0.000000e+000 1.000000e+000 0.000000e+000 0.000000e+000 0.000000e+000
 0.000000e+000 6.454561e-001 3.545440e-001 0.000000e+000 0.000000e+000
 0.000000e+000 0.000000e+000 7.138030e-001 2.861970e-001 0.000000e+000
 0.000000e+000 0.000000e+000 0.000000e+000 8.245630e-001 1.754370e-001
 0.000000e+000 0.000000e+000 0.000000e+000 0.000000e+000 0.000000e+000
<ENDHMM>
~h "sil"
<BEGINHMM>
<NUMSTATES> 5
<STATE> 2
<MEAN> 25
 -2.116674e+000 3.132390e+000 1.261205e+000 6.103758e+000 5.497254e+000 4.664441e+000 3.633650e+000 2.585900e+000 2.178794e+000 1.986650e+000 4.189249e+000 2.619332e+000 -4.352846e-001 1.494618e-001 3.466561e-002 2.660499e-001 3.157652e-001 4.361399e-001 4.699005e-001 3.872229e-001 2.761485e-001 2.615910e-001 3.795280e-001 1.636117e-001 -5.235054e-001
<VARIANCE> 25
 2.538018e+001 3.505144e+001 3.128702e+001 3.853443e+001 4.864791e+001 4.755459e+001 6.134330e+001 5.074207e+001 4.018831e+001 3.861424e+001 4.353343e+001 2.902235e+001 1.334029e+000 2.110667e+000 1.674869e+000 2.276978e+000 3.041653e+000 3.071767e+000 3.561114e+000 3.098350e+000 2.710908e+000 2.708412e+000 2.707028e+000 2.248733e+000 2.702566e+000
<GCONST> 1.019144e+002
<STATE> 3
~s "silst"
<STATE> 4
<MEAN> 25
 -1.220668e+000 1.868368e+000 7.254969e-002 2.745964e+000 3.236139e+000 2.906898e+000 1.481925e+000 1.156473e+000 1.420829e+000 1.797324e+000 2.382614e+000 2.011363e+000 -1.574964e-001 -1.648942e-001 -8.003275e-002 -3.645536e-001 -1.542512e-001 -1.610253e-001 6.605329e-002 -2.797939e-003 8.439478e-003 7.206086e-002 -5.409081e-002 -6.885108e-002 5.230988e-001
<VARIANCE> 25
 3.864016e+001 5.714135e+001 4.904042e+001 6.343002e+001 7.604684e+001 5.823701e+001 6.806625e+001 6.811859e+001 4.579980e+001 3.927510e+001 4.674392e+001 3.732254e+001 1.825489e+000 2.431513e+000 1.834990e+000 2.968359e+000 3.498713e+000 3.744730e+000 3.241602e+000 3.278122e+000 2.730829e+000 2.641614e+000 3.049395e+000 2.260774e+000 3.904219e+000
<GCONST> 1.068763e+002
<TRANSP> 5
 0.000000e+000 1.000000e+000 0.000000e+000 0.000000e+000 0.000000e+000
 0.000000e+000 5.949602e-001 7.195740e-002 3.330825e-001 0.000000e+000
 0.000000e+000 0.000000e+000 6.210498e-001 3.789502e-001 0.000000e+000
 0.000000e+000 4.355485e-002 0.000000e+000 1.698544e-001 7.865908e-001
 0.000000e+000 0.000000e+000 0.000000e+000 0.000000e+000 0.000000e+000
<ENDHMM>
