~o
<STREAMINFO> 1 25
<VECSIZE> 25<NULLD><MFCC_D_N_Z_0><DIAGC>
~h "a"
<BEGINHMM>
<NUMSTATES> 5
<STATE> 2
<MEAN> 25
 1.032685e+000 -8.746881e+000 -5.846441e+000 -2.944169e+000 5.595311e-001 -1.856965e+000 2.535393e+000 5.359269e+000 -1.651485e+000 -4.686390e+000 -3.754447e+000 -6.244752e-001 -3.002740e-002 -5.912542e-001 -5.488275e-001 2.616618e-002 2.990078e-001 4.482963e-001 5.147935e-001 4.827689e-001 -4.666844e-001 -7.161414e-001 -2.304223e-001 3.441468e-002 4.893632e-001
<VARIANCE> 25
 1.177392e+001 2.314050e+001 2.266714e+001 2.287642e+001 4.449640e+001 3.930478e+001 4.516019e+001 3.683293e+001 4.950043e+001 3.394441e+001 3.619097e+001 3.154337e+001 1.057112e+000 2.635067e+000 2.283411e+000 2.133944e+000 3.717811e+000 3.375656e+000 3.691927e+000 3.667296e+000 3.145918e+000 3.426764e+000 3.378332e+000 2.506870e+000 1.956643e+000
<GCONST> 1.000844e+002
<STATE> 3
<MEAN> 25
 1.106567e+000 -8.411872e+000 -5.972970e+000 -2.259448e+000 8.037870e-001 -1.169083e+000 2.759410e+000 4.938435e+000 -2.250212e+000 -5.132151e+000 -3.597379e+000 -6.672344e-001 1.304353e-001 7.103954e-001 3.137094e-001 2.548001e-001 -1.864106e-001 9.847006e-002 -1.841307e-001 -4.527251e-001 -1.311118e-002 1.939586e-001 1.976194e-001 -6.231550e-002 -6.896340e-001
<VARIANCE> 25
 1.244473e+001 2.583339e+001 2.001985e+001 2.144171e+001 4.436922e+001 3.638575e+001 4.562270e+001 3.642034e+001 4.840824e+001 3.361385e+001 3.390636e+001 2.947665e+001 8.497453e-001 2.322707e+000 1.685194e+000 1.722205e+000 3.261604e+000 2.902161e+000 3.500533e+000 2.741474e+000 2.577448e+000 2.936645e+000 2.588644e+000 2.271381e+000 1.776812e+000
<GCONST> 9.751092e+001
<STATE> 4
<MEAN> 25
 1.758838e+000 -4.336133e+000 -4.162321e+000 -8.087493e-001 2.691313e-001 -1.061442e+000 1.243951e+000 2.716542e+000 -1.567453e+000 -3.629473e+000 -2.377630e+000 -6.040478e-001 -4.188901e-002 1.509943e+000 8.958685e-001 5.243179e-001 -1.449382e-001 1.297971e-001 -3.934230e-001 -7.720175e-001 3.514912e-001 7.406192e-001 4.815966e-001 6.451283e-002 -1.578278e+000
<VARIANCE> 25
 1.507061e+001 4.189861e+001 2.489140e+001 2.885698e+001 5.046528e+001 3.588713e+001 5.063591e+001 3.974854e+001 4.292346e+001 3.804605e+001 3.447756e+001 2.974921e+001 1.649539e+000 2.054184e+000 1.814657e+000 2.238807e+000 3.656888e+000 3.580447e+000 4.054394e+000 3.467660e+000 3.053497e+000 3.123163e+000 2.901117e+000 2.566339e+000 2.005509e+000
<GCONST> 1.012082e+002
<TRANSP> 5
 0.000000e+000 1.000000e+000 0.000000e+000 0.000000e+000 0.000000e+000
 0.000000e+000 5.199750e-001 4.800249e-001 0.000000e+000 0.000000e+000
 0.000000e+000 0.000000e+000 5.576268e-001 4.423732e-001 0.000000e+000
 0.000000e+000 0.000000e+000 0.000000e+000 6.799632e-001 3.200368e-001
 0.000000e+000 0.000000e+000 0.000000e+000 0.000000e+000 0.000000e+000
<ENDHMM>
~h "b"
<BEGINHMM>
<NUMSTATES> 5
<STATE> 2
<MEAN> 25
 2.644695e-001 -1.232009e+001 -6.926254e+000 -2.969559e+000 2.134280e+000 2.426506e+000 8.777224e-002 4.385286e+000 4.998331e+000 -3.527801e+000 -1.022508e+001 -2.005637e+000 -9.433094e-001 -2.023258e+000 -5.602713e-001 -3.057929e-001 1.090788e+000 8.152454e-001 1.460073e+000 1.887501e+000 -8.651090e-001 -2.148904e+000 -1.287419e+000 1.536977e+000 1.686278e+000
<VARIANCE> 25
 8.553822e+000 1.886265e+001 1.129345e+001 2.402362e+001 1.267249e+001 4.225594e+001 2.804420e+001 2.935211e+001 2.338638e+001 4.048883e+001 1.694028e+001 2.360344e+001 7.130483e-001 3.322404e+000 2.183021e+000 3.658721e+000 1.183589e+000 2.390602e+000 2.065771e+000 3.532167e+000 3.070456e+000 2.645121e+000 2.690604e+000 1.746696e+000 2.642266e+000
<GCONST> 9.305583e+001
<STATE> 3
<MEAN> 25
 -2.276824e+000 -1.404318e+001 -4.670933e+000 -1.818760e+000 5.172454e+000 2.462545e+000 2.920679e+000 6.984530e+000 -8.908446e-001 -8.667506e+000 -1.224569e+001 1.310430e+000 -6.767938e-002 4.713734e-001 8.638063e-001 -1.154827e-001 5.281374e-001 -8.637216e-001 -1.383554e-001 -5.298920e-003 -1.146579e+000 1.420732e-001 -4.647756e-001 -1.399119e-001 -3.939574e-001
<VARIANCE> 25
 4.933424e+000 6.723468e+000 8.335516e+000 1.291124e+001 1.091827e+001 1.806017e+001 1.572500e+001 1.733237e+001 2.979613e+001 2.163280e+001 1.363991e+001 1.596621e+001 3.079559e-001 8.084289e-001 3.034619e-001 1.146147e+000 9.808568e-001 1.689483e+000 1.188289e+000 1.734731e+000 1.683529e+000 1.998141e+000 9.184294e-001 1.587354e+000 2.723532e-001
<GCONST> 7.594256e+001
<STATE> 4
<MEAN> 25
 2.588396e-001 -9.014488e+000 3.833210e-001 -1.530698e+000 5.417521e+000 -3.831441e+000 -1.058544e+000 2.129118e+000 -2.812793e+000 -1.925870e+000 -1.278987e+001 -2.326953e+000 7.231681e-001 1.605814e+000 9.923164e-001 6.301280e-002 -8.947128e-001 -1.081682e+000 -7.193575e-001 -1.931012e+000 9.465793e-001 1.627474e+000 3.321450e-001 -6.946680e-001 -1.180897e+000
<VARIANCE> 25
 5.501207e+000 2.437847e+001 1.264135e+001 3.637678e+001 1.659657e+001 2.643417e+001 2.731664e+001 3.839437e+001 4.444485e+001 3.624501e+001 2.467151e+001 2.586879e+001 3.169900e-001 7.213183e-001 7.882592e-001 1.306591e+000 1.910777e+000 2.409547e+000 1.810496e+000 3.701174e+000 3.934795e+000 2.728657e+000 2.232434e+000 1.808640e+000 3.517475e-001
<GCONST> 8.856662e+001
<TRANSP> 5
 0.000000e+000 1.000000e+000 0.000000e+000 0.000000e+000 0.000000e+000
 0.000000e+000 7.341648e-001 2.658351e-001 0.000000e+000 0.000000e+000
 0.000000e+000 0.000000e+000 7.529793e-001 2.470208e-001 0.000000e+000
 0.000000e+000 0.000000e+000 0.000000e+000 8.311417e-001 1.688583e-001
 0.000000e+000 0.000000e+000 0.000000e+000 0.000000e+000 0.000000e+000
<ENDHMM>
~h "c"
<BEGINHMM>
<NUMSTATES> 5
<STATE> 2
<MEAN> 25
 -3.461830e+000 3.824152e+000 4.820715e-002 7.205542e+000 6.157376e+000 5.080177e+000 6.833440e+000 4.228048e+000 4.091943e-001 1.456435e+000 5.983065e+000 1.476657e+000 1.382227e-001 -1.616122e+000 -3.178446e+000 -2.213596e+000 1.588375e+000 1.278118e+000 7.421761e-001 1.007298e+000 -1.357294e+000 9.290722e-001 3.403063e-001 7.548285e-001 1.225706e+000
<VARIANCE> 25
 9.585084e+000 3.192541e+001 7.214532e+001 4.872598e+001 4.384181e+001 4.623290e+001 3.232212e+001 3.030811e+001 2.931271e+001 3.010991e+001 2.616289e+001 1.462485e+001 2.020249e+000 3.187495e+000 8.018113e+000 6.450546e+000 7.290544e+000 4.907166e+000 4.827364e+000 3.187567e+000 3.407147e+000 3.906886e+000 2.587585e+000 1.780746e+000 2.532739e+000
<GCONST> 1.042317e+002
<STATE> 3
<MEAN> 25
 -3.534119e-001 3.152643e-001 -1.048776e+001 -2.889481e+000 7.937230e+000 5.556824e+000 3.632267e+000 4.261446e+000 -5.165158e+000 4.480913e+000 6.327281e+000 3.768745e+000 1.529196e+000 3.677903e-001 -1.248094e+000 -3.272030e+000 -1.447508e+000 -8.394202e-001 -1.910409e+000 -1.006591e+000 -1.442107e+000 -8.002894e-002 -1.800547e-001 2.802189e-001 1.617648e+000
<VARIANCE> 25
 1.648485e+001 2.902684e+001 5.813919e+001 5.195562e+001 6.277520e+001 5.202520e+001 4.061402e+001 3.863208e+001 3.147445e+001 2.833241e+001 2.866260e+001 1.220603e+001 1.718426e+000 4.308780e+000 9.218405e+000 5.200264e+000 8.395827e+000 4.564848e+000 4.742301e+000 4.282978e+000 3.306198e+000 4.486247e+000 3.110462e+000 1.867829e+000 1.911209e+000
<GCONST> 1.058644e+002
<STATE> 4
<MEAN> 25
 5.199121e+000 3.583771e+000 -9.069172e+000 -1.382411e+001 3.961096e-001 2.553405e+000 -2.619897e+000 7.145905e-001 -7.556084e+000 2.926547e+000 3.806095e+000 2.778274e+000 9.066100e-001 1.306097e-001 4.567251e-001 -1.784363e+000 -1.242146e+000 -2.435150e-001 -8.106757e-001 -6.330252e-001 1.120436e-001 -2.558837e-001 -5.105019e-001 -1.665176e-001 9.325445e-001
<VARIANCE> 25
 1.163797e+001 1.489787e+001 2.539122e+001 5.031579e+001 3.797879e+001 3.575428e+001 2.644802e+001 2.773664e+001 2.579865e+001 2.637401e+001 3.466835e+001 2.058517e+001 1.185972e+000 2.155652e+000 2.351946e+000 6.071093e+000 5.065303e+000 3.426763e+000 3.387706e+000 3.465667e+000 2.388729e+000 2.839321e+000 2.474602e+000 2.204376e+000 1.283610e+000
<GCONST> 9.793493e+001
<TRANSP> 5
 0.000000e+000 1.000000e+000 0.000000e+000 0.000000e+000 0.000000e+000
 0.000000e+000 6.833449e-001 3.166551e-001 0.000000e+000 0.000000e+000
 0.000000e+000 0.000000e+000 5.627272e-001 4.372728e-001 0.000000e+000
 0.000000e+000 0.000000e+000 0.000000e+000 7.598859e-001 2.401141e-001
 0.000000e+000 0.000000e+000 0.000000e+000 0.000000e+000 0.000000e+000
<ENDHMM>
~h "e"
<BEGINHMM>
<NUMSTATES> 5
<STATE> 2
<MEAN> 25
 5.013489e-001 5.359280e-002 2.854649e+000 -1.163510e+000 -9.151525e+000 -5.069143e+000 1.533064e-002 -2.543432e+000 -9.839855e-001 2.034369e+000 6.905230e-001 1.405228e+000 2.548751e-001 5.492666e-001 9.180851e-002 2.443305e-001 -6.065456e-001 -1.034996e-001 -5.303283e-002 3.015732e-002 -3.611017e-001 1.696305e-001 1.542191e-001 -1.527137e-001 -2.713535e-001
<VARIANCE> 25
 1.397030e+001 2.645694e+001 1.698070e+001 3.171872e+001 4.416334e+001 5.418747e+001 3.445026e+001 2.668453e+001 1.936208e+001 3.754901e+001 2.892292e+001 1.674230e+001 2.212932e+000 1.892689e+000 1.529713e+000 2.538627e+000 7.324374e+000 5.746026e+000 3.764113e+000 3.184889e+000 3.026492e+000 3.188110e+000 3.915283e+000 2.762878e+000 3.541237e+000
<GCONST> 1.004490e+002
<STATE> 3
<MEAN> 25
 4.268055e-001 2.294796e+000 2.992087e+000 -7.171730e-001 -8.740116e+000 -3.868752e+000 1.054187e+000 -2.375641e+000 -1.827266e+000 1.677348e+000 6.778478e-001 2.612851e-001 3.129996e-001 7.915634e-001 -1.349753e-001 6.873792e-001 5.515251e-001 -1.066320e-001 2.204910e-001 3.155414e-001 -4.182231e-001 -3.341977e-001 2.679652e-001 -2.349842e-001 -1.149144e+000
<VARIANCE> 25
 1.585871e+001 2.824385e+001 1.520405e+001 3.221322e+001 3.684211e+001 3.960826e+001 2.579942e+001 2.649973e+001 2.236416e+001 3.855199e+001 2.857482e+001 2.334605e+001 1.861281e+000 2.653746e+000 1.539201e+000 2.566294e+000 6.457505e+000 5.629750e+000 3.136643e+000 3.002446e+000 3.211167e+000 3.564701e+000 2.848235e+000 2.531831e+000 4.194141e+000
<GCONST> 9.997495e+001
<STATE> 4
<MEAN> 25
 1.079442e+000 4.255617e+000 2.507832e+000 1.724331e+000 -6.618280e+000 -3.372243e+000 1.255403e+000 -1.981075e+000 -2.366842e+000 5.364935e-002 1.313516e+000 -1.736479e-001 5.278237e-002 5.486966e-001 -1.759021e-001 1.170298e+000 1.794351e+000 5.914920e-001 -1.914312e-001 2.548351e-001 3.552096e-001 -1.671148e-001 2.735859e-001 1.794286e-001 -1.617082e+000
<VARIANCE> 25
 1.678938e+001 3.623756e+001 1.530157e+001 2.945154e+001 4.164405e+001 3.700949e+001 2.340121e+001 2.478773e+001 2.703449e+001 3.270238e+001 2.417442e+001 2.573139e+001 2.485722e+000 3.633840e+000 2.248632e+000 2.788548e+000 4.355150e+000 4.883771e+000 3.109705e+000 3.178048e+000 4.390127e+000 3.980855e+000 3.005134e+000 2.901536e+000 3.505472e+000
<GCONST> 1.010550e+002
<TRANSP> 5
 0.000000e+000 1.000000e+000 0.000000e+000 0.000000e+000 0.000000e+000
 0.000000e+000 5.557687e-001 4.442312e-001 0.000000e+000 0.000000e+000
 0.000000e+000 0.000000e+000 4.870094e-001 5.129906e-001 0.000000e+000
 0.000000e+000 0.000000e+000 0.000000e+000 5.876937e-001 4.123063e-001
 0.000000e+000 0.000000e+000 0.000000e+000 0.000000e+000 0.000000e+000
<ENDHMM>
~h "h"
<BEGINHMM>
<NUMSTATES> 5
<STATE> 2
<MEAN> 25
 -6.289983e+000 -9.537365e-002 1.991108e+000 1.575071e+000 4.794830e+000 2.390854e+000 2.372267e+000 9.547027e-001 4.081931e+000 1.937062e+000 2.421447e+000 1.590758e+000 1.773188e+000 3.590441e-001 6.769619e-002 -1.174326e+000 -2.051235e+000 -7.001810e-001 -1.529328e+000 -2.126934e+000 -1.424271e+000 -9.499828e-001 -9.760889e-001 -7.565796e-001 1.007774e+000
<VARIANCE> 25
 6.739977e+001 6.098153e+001 4.431358e+001 8.536452e+001 8.433553e+001 4.042527e+001 5.339571e+001 6.387125e+001 7.003259e+001 3.910329e+001 3.541753e+001 3.027047e+001 3.932851e+000 2.509137e+000 2.413467e+000 3.410395e+000 5.879531e+000 3.712235e+000 4.892877e+000 5.012815e+000 5.308975e+000 4.072944e+000 3.417789e+000 2.613953e+000 1.389056e+000
<GCONST> 1.099401e+002
<STATE> 3
<MEAN> 25
 6.198922e-001 2.039368e+000 1.486519e+000 -2.975850e+000 -1.722048e+000 4.886146e-001 -1.983474e+000 -4.933933e+000 -1.678922e+000 -8.975396e-001 -3.838508e-001 -8.048637e-001 2.052547e+000 2.396138e-001 -4.790530e-001 -1.454119e+000 -2.549357e+000 -6.538535e-001 -1.407525e+000 -1.541327e+000 -1.528808e+000 -8.220141e-001 -1.201233e+000 -8.424575e-001 1.344809e+000
<VARIANCE> 25
 3.897530e+001 5.504183e+001 4.974548e+001 7.035721e+001 7.188797e+001 4.315108e+001 5.031852e+001 4.339150e+001 4.676097e+001 4.086652e+001 3.155669e+001 2.741465e+001 4.746439e+000 2.408803e+000 3.280171e+000 5.938073e+000 6.829423e+000 3.826845e+000 5.588897e+000 5.029074e+000 5.751617e+000 4.377927e+000 4.231634e+000 2.866056e+000 1.725613e+000
<GCONST> 1.100974e+002
<STATE> 4
<MEAN> 25
 3.604774e+000 1.816122e+000 -2.496902e-001 -5.759952e+000 -5.597289e+000 8.072408e-002 -2.992417e+000 -5.549396e+000 -3.403736e+000 -1.475479e+000 -1.850290e+000 -1.761060e+000 9.948534e-001 -2.755007e-001 -6.018366e-001 -6.126453e-001 -1.485234e+000 1.601763e-002 -3.064041e-001 -1.407467e-001 -6.339498e-001 -1.030676e-001 -6.689080e-001 -4.143285e-001 9.069549e-001
<VARIANCE> 25
 1.862349e+001 5.210589e+001 5.330465e+001 6.241839e+001 4.929469e+001 3.433009e+001 4.985060e+001 4.095226e+001 3.955317e+001 4.163124e+001 3.409959e+001 2.845391e+001 2.977355e+000 1.966782e+000 2.913350e+000 5.379303e+000 5.682291e+000 3.351902e+000 4.920669e+000 3.558415e+000 3.880807e+000 3.562530e+000 3.463371e+000 2.772998e+000 2.122276e+000
<GCONST> 1.062440e+002
<TRANSP> 5
 0.000000e+000 1.000000e+000 0.000000e+000 0.000000e+000 0.000000e+000
 0.000000e+000 4.495244e-001 5.504757e-001 0.000000e+000 0.000000e+000
 0.000000e+000 0.000000e+000 2.322268e-001 7.677732e-001 0.000000e+000
 0.000000e+000 0.000000e+000 0.000000e+000 2.831492e-001 7.168508e-001
 0.000000e+000 0.000000e+000 0.000000e+000 0.000000e+000 0.000000e+000
<ENDHMM>
~h "i"
<BEGINHMM>
<NUMSTATES> 5
<STATE> 2
<MEAN> 25
 -8.967121e-001 4.960624e+000 8.397122e+000 -5.071417e+000 -9.128917e+000 -2.206777e+000 -4.947496e+000 -5.595468e+000 -2.239132e-001 9.445226e-001 1.549256e-001 -1.046498e+000 1.879057e-001 2.008321e-001 5.158442e-001 -1.068802e+000 -6.145647e-001 1.277496e-001 -7.214389e-001 -5.516471e-001 -5.786427e-002 1.666433e-001 -5.675652e-001 -1.987014e-001 6.391355e-001
<VARIANCE> 25
 1.747174e+001 2.954530e+001 2.410371e+001 4.158434e+001 5.125816e+001 3.293724e+001 5.166353e+001 3.924618e+001 4.277396e+001 2.927407e+001 3.241489e+001 2.426543e+001 2.304423e+000 1.806356e+000 2.255548e+000 4.463675e+000 6.601688e+000 3.701583e+000 5.050795e+000 3.765081e+000 2.971895e+000 2.748487e+000 3.421793e+000 2.391041e+000 2.049700e+000
<GCONST> 1.027467e+002
<STATE> 3
<MEAN> 25
 -4.175698e-001 5.129654e+000 8.050521e+000 -5.863793e+000 -8.145030e+000 -1.437642e+000 -5.271908e+000 -5.767107e+000 -8.532714e-002 1.274301e+000 -9.840270e-001 -1.123136e+000 2.424469e-001 5.695429e-003 -4.573976e-001 5.018739e-001 7.019048e-001 1.410118e-001 2.788368e-001 7.344105e-002 -3.870706e-002 4.616368e-002 -1.192403e-001 6.042914e-002 -4.666552e-001
<VARIANCE> 25
 1.422738e+001 2.669814e+001 2.267592e+001 3.678850e+001 4.623137e+001 3.148226e+001 5.155640e+001 3.885451e+001 4.034351e+001 3.061625e+001 3.342776e+001 2.474538e+001 1.486200e+000 1.885880e+000 1.698849e+000 3.765505e+000 3.959038e+000 2.915137e+000 3.890836e+000 2.888749e+000 2.571571e+000 2.521657e+000 2.676898e+000 2.146123e+000 1.573242e+000
<GCONST> 9.915845e+001
<STATE> 4
<MEAN> 25
 5.075052e-001 5.186063e+000 5.450645e+000 -1.552786e+000 -3.885096e+000 -9.707454e-001 -3.041338e+000 -4.433776e+000 -4.964132e-001 8.868527e-001 -3.317724e-001 -6.110233e-001 1.941218e-002 -2.111642e-001 -9.720110e-001 1.403044e+000 1.482130e+000 3.380045e-001 6.609476e-001 5.329556e-001 -2.260662e-003 2.733924e-002 2.912159e-001 2.631628e-001 -1.039090e+000
<VARIANCE> 25
 2.068097e+001 3.075633e+001 2.278674e+001 5.083149e+001 5.853756e+001 3.659943e+001 5.646392e+001 4.284817e+001 3.626247e+001 3.244754e+001 3.483291e+001 2.779511e+001 2.400291e+000 2.133983e+000 1.863691e+000 3.087772e+000 3.848374e+000 3.304291e+000 4.343129e+000 3.560643e+000 2.892268e+000 2.834034e+000 3.038422e+000 2.393677e+000 1.865700e+000
<GCONST> 1.022403e+002
<TRANSP> 5
 0.000000e+000 1.000000e+000 0.000000e+000 0.000000e+000 0.000000e+000
 0.000000e+000 6.627331e-001 3.372670e-001 0.000000e+000 0.000000e+000
 0.000000e+000 0.000000e+000 6.360682e-001 3.639318e-001 0.000000e+000
 0.000000e+000 0.000000e+000 0.000000e+000 6.980053e-001 3.019947e-001
 0.000000e+000 0.000000e+000 0.000000e+000 0.000000e+000 0.000000e+000
<ENDHMM>
~h "j"
<BEGINHMM>
<NUMSTATES> 5
<STATE> 2
<MEAN> 25
 -1.246518e+000 3.283264e+000 -6.403159e+000 -3.306014e+000 1.832255e-002 8.165509e+000 1.092307e+001 8.839020e+000 8.349714e-001 5.249181e+000 4.249371e+000 2.586951e+000 7.981424e-001 2.607361e-001 -2.362077e-001 -2.008537e+000 -9.628972e-001 -7.515158e-001 -8.409358e-001 -7.318209e-001 -7.577158e-001 -1.680909e-001 -9.078113e-001 -3.926539e-001 1.095575e+000
<VARIANCE> 25
 3.149551e+001 1.963476e+001 3.958865e+001 3.779109e+001 3.551062e+001 3.506239e+001 6.092944e+001 6.527339e+001 3.544806e+001 2.902284e+001 2.323680e+001 3.500561e+001 2.012300e+000 2.339365e+000 3.820885e+000 3.889480e+000 3.351867e+000 4.387166e+000 5.422390e+000 6.437831e+000 5.710115e+000 4.447069e+000 2.672827e+000 2.801955e+000 1.790684e+000
<GCONST> 1.050567e+002
<STATE> 3
<MEAN> 25
 3.862797e+000 3.796759e+000 -3.349041e+000 -1.044036e+001 -3.843020e+000 2.219473e+000 2.909482e+000 1.319939e-001 -5.801968e+000 2.062047e+000 -1.553472e+000 9.784021e-001 8.427148e-001 -4.610159e-001 9.386292e-001 -1.782164e+000 -7.390317e-001 -1.091338e+000 -1.723250e+000 -1.570691e+000 -1.347194e+000 -4.316789e-001 -1.971680e+000 -5.382522e-001 1.328986e+000
<VARIANCE> 25
 3.745486e+001 2.136568e+001 3.159044e+001 4.848518e+001 4.521546e+001 3.003661e+001 3.710021e+001 4.712555e+001 4.231965e+001 4.078260e+001 4.193797e+001 3.117035e+001 2.505645e+000 3.952107e+000 2.125930e+000 5.184077e+000 5.828505e+000 5.242115e+000 5.211856e+000 4.011668e+000 7.219281e+000 3.874716e+000 2.502916e+000 4.306442e+000 2.190981e+000
<GCONST> 1.069208e+002
<STATE> 4
<MEAN> 25
 4.181079e+000 -2.154957e+000 -1.038941e+000 -1.245033e+001 -1.747967e+000 6.493863e-001 8.816364e-001 -4.061696e+000 -6.290479e+000 1.374835e+000 -8.365753e+000 -1.613387e+000 -1.805835e-001 -7.798102e-001 1.043373e+000 8.079647e-001 4.266928e-001 -8.504720e-001 -1.005491e+000 -1.174348e+000 8.511509e-001 1.214149e-001 -8.596469e-001 -3.070752e-001 5.023847e-001
<VARIANCE> 25
 9.678501e+000 2.320584e+001 2.520824e+001 2.387141e+001 2.755280e+001 2.515883e+001 3.112620e+001 3.587016e+001 3.932499e+001 2.442028e+001 4.412966e+001 2.728798e+001 7.747863e-001 2.316622e+000 1.552264e+000 3.176589e+000 3.572341e+000 4.450937e+000 3.568999e+000 2.690303e+000 5.634842e+000 2.272814e+000 3.810365e+000 3.668967e+000 1.278412e+000
<GCONST> 9.792319e+001
<TRANSP> 5
 0.000000e+000 1.000000e+000 0.000000e+000 0.000000e+000 0.000000e+000
 0.000000e+000 7.349957e-001 2.650044e-001 0.000000e+000 0.000000e+000
 0.000000e+000 0.000000e+000 5.019294e-001 4.980705e-001 0.000000e+000
 0.000000e+000 0.000000e+000 0.000000e+000 8.095476e-001 1.904524e-001
 0.000000e+000 0.000000e+000 0.000000e+000 0.000000e+000 0.000000e+000
<ENDHMM>
~h "k"
<BEGINHMM>
<NUMSTATES> 5
<STATE> 2
<MEAN> 25
 -1.143791e+000 3.397429e-001 -2.378481e+000 1.755991e+000 3.025476e+000 -9.963644e-001 4.074266e+000 4.558331e+000 8.348197e-001 2.523252e+000 7.185265e-001 2.698025e+000 6.105841e-001 -1.162491e+000 -1.133288e+000 -1.731076e+000 -5.729421e-001 -1.101610e+000 3.139717e-001 2.497998e-001 -6.049796e-001 -1.310849e-001 -1.245817e+000 -5.474025e-001 2.196380e+000
<VARIANCE> 25
 2.366825e+001 4.869768e+001 4.357838e+001 5.376260e+001 6.872335e+001 9.749980e+001 6.262128e+001 4.055669e+001 4.110122e+001 3.472005e+001 6.455012e+001 3.082693e+001 3.781613e+000 3.878739e+000 5.129362e+000 5.498986e+000 9.736499e+000 1.127414e+001 6.090821e+000 5.720006e+000 5.652607e+000 4.296178e+000 7.132697e+000 4.198986e+000 5.060794e+000
<GCONST> 1.147500e+002
<STATE> 3
<MEAN> 25
 8.469735e-001 -1.885762e+000 -4.588220e+000 -3.174804e+000 5.099009e-001 -2.409295e+000 4.409026e+000 4.070873e+000 -1.190200e+000 1.661217e+000 -2.279693e+000 1.114753e+000 6.866869e-001 -4.825904e-001 -2.552483e-001 -1.171336e+000 -6.514021e-001 3.701693e-002 -4.212208e-002 -7.787980e-001 -6.167908e-001 -3.693456e-001 -6.900730e-001 -6.737039e-001 1.491007e+000
<VARIANCE> 25
 2.671174e+001 5.046596e+001 4.981601e+001 4.381530e+001 6.412343e+001 9.098905e+001 6.288325e+001 3.925290e+001 4.383778e+001 3.656158e+001 7.114485e+001 3.448951e+001 2.660507e+000 3.364527e+000 4.096681e+000 4.819423e+000 6.243284e+000 6.920823e+000 5.837218e+000 4.737595e+000 5.211836e+000 3.659277e+000 5.445453e+000 3.173706e+000 3.662327e+000
<GCONST> 1.118658e+002
<STATE> 4
<MEAN> 25
 1.763939e+000 -1.614405e+000 -3.923149e+000 -4.063869e+000 -4.453123e-001 -1.578504e+000 3.564043e+000 1.937320e+000 -2.070248e+000 9.725195e-001 -2.657670e+000 1.362868e-001 5.064384e-001 -1.167175e-001 3.764409e-001 -3.910914e-001 -5.297925e-001 3.047374e-001 -6.600174e-001 -1.162934e+000 -2.625358e-001 -3.630093e-001 -1.514488e-001 -5.550401e-001 8.587113e-001
<VARIANCE> 25
 2.739060e+001 6.346508e+001 4.211823e+001 3.977505e+001 5.375789e+001 7.232320e+001 6.428239e+001 4.586969e+001 4.539970e+001 3.852166e+001 6.569223e+001 3.435011e+001 2.168914e+000 3.235466e+000 3.388270e+000 4.207091e+000 5.608862e+000 5.153615e+000 5.957522e+000 4.913026e+000 4.406375e+000 3.588994e+000 4.524308e+000 2.841756e+000 2.908303e+000
<GCONST> 1.100028e+002
<TRANSP> 5
 0.000000e+000 1.000000e+000 0.000000e+000 0.000000e+000 0.000000e+000
 0.000000e+000 5.848484e-001 4.151516e-001 0.000000e+000 0.000000e+000
 0.000000e+000 0.000000e+000 3.489450e-001 6.510550e-001 0.000000e+000
 0.000000e+000 0.000000e+000 0.000000e+000 3.385454e-001 6.614546e-001
 0.000000e+000 0.000000e+000 0.000000e+000 0.000000e+000 0.000000e+000
<ENDHMM>
~h "l"
<BEGINHMM>
<NUMSTATES> 5
<STATE> 2
<MEAN> 25
 3.570567e+000 -4.055170e+000 4.004302e+000 -3.369822e+000 4.000744e+000 -9.790063e+000 -1.962478e+000 1.166826e+000 -2.959867e+000 -3.516754e+000 -3.141515e+000 3.871959e+000 -6.466772e-001 2.061212e-001 7.368481e-001 -3.587366e-001 -1.091093e+000 -5.144121e-001 1.023080e+000 -7.259527e-001 1.544189e-001 1.078691e+000 1.608116e-001 4.822080e-001 4.138896e-001
<VARIANCE> 25
 9.733911e+000 1.025152e+001 4.290073e+001 2.009259e+001 2.851464e+001 4.725323e+001 6.054023e+001 2.176490e+001 2.287418e+001 2.437615e+001 2.087829e+001 3.463013e+001 4.732965e-001 1.201960e+000 1.872610e+000 3.313987e+000 4.001292e+000 4.544077e+000 3.797426e+000 2.683963e+000 2.685714e+000 2.185393e+000 3.231046e+000 4.138802e+000 1.733780e+000
<GCONST> 9.600253e+001
<STATE> 3
<MEAN> 25
 1.426897e+000 -3.523299e+000 4.207930e+000 -6.479441e+000 -3.395819e+000 -8.168667e+000 1.275990e+000 -1.687006e+000 4.877685e-001 1.119039e+000 -1.757807e+000 2.296484e+000 -4.587610e-001 7.893869e-001 1.210901e-001 -2.586377e-001 -2.636285e+000 1.455244e+000 -1.174415e-001 -1.411014e+000 7.529346e-001 1.347689e+000 2.047936e-001 -6.678040e-001 4.002651e-001
<VARIANCE> 25
 1.063202e+001 1.127001e+001 2.824977e+001 2.090781e+001 3.525219e+001 3.343116e+001 3.112731e+001 4.298179e+001 2.056797e+001 3.080645e+001 2.801634e+001 2.675696e+001 6.076951e-001 1.453677e+000 3.821439e+000 3.808946e+000 3.539888e+000 4.006311e+000 7.196165e+000 1.933835e+000 2.273318e+000 3.197598e+000 3.704694e+000 4.139038e+000 2.192548e+000
<GCONST> 9.779385e+001
<STATE> 4
<MEAN> 25
 1.613913e+000 2.499094e+000 5.639601e+000 -3.734456e+000 -1.147073e+001 -1.826714e+000 -2.663876e+000 -5.650865e+000 -5.404783e-001 2.251568e+000 -2.972281e+000 -1.325677e-001 -7.356504e-002 1.153405e+000 8.955185e-002 7.289420e-001 -1.124072e+000 1.082378e+000 -4.355349e-001 -8.823549e-001 -5.377985e-001 2.024546e-001 -8.895676e-002 -7.120827e-001 -4.680637e-001
<VARIANCE> 25
 9.451676e+000 1.791113e+001 1.553296e+001 4.131632e+001 3.116099e+001 3.895152e+001 3.489926e+001 3.119617e+001 1.540243e+001 3.432158e+001 4.252552e+001 2.966346e+001 4.340412e-001 6.775974e-001 1.418353e+000 2.711576e+000 2.672487e+000 3.453742e+000 3.617124e+000 2.150079e+000 2.405852e+000 2.163805e+000 3.467245e+000 1.899070e+000 7.942988e-001
<GCONST> 9.274839e+001
<TRANSP> 5
 0.000000e+000 1.000000e+000 0.000000e+000 0.000000e+000 0.000000e+000
 0.000000e+000 7.784292e-001 2.215708e-001 0.000000e+000 0.000000e+000
 0.000000e+000 0.000000e+000 5.554737e-001 4.445262e-001 0.000000e+000
 0.000000e+000 0.000000e+000 0.000000e+000 8.243642e-001 1.756358e-001
 0.000000e+000 0.000000e+000 0.000000e+000 0.000000e+000 0.000000e+000
<ENDHMM>
~h "m"
<BEGINHMM>
<NUMSTATES> 5
<STATE> 2
<MEAN> 25
 5.203102e+000 -1.307782e+000 1.874686e+000 2.308794e+000 8.376899e-001 -2.390086e-002 -6.501874e+000 -1.061675e+001 -2.987345e+000 3.920335e+000 -5.062208e-001 -3.039479e+000 1.198289e-001 -3.300696e-001 -1.975807e-001 -2.924554e-002 3.907419e-001 -6.409759e-002 -3.311301e-001 -4.344445e-001 -1.371738e-001 2.722291e-001 -1.334650e-001 -2.606565e-001 3.284861e-001
<VARIANCE> 25
 1.005384e+001 1.983131e+001 2.003421e+001 3.169891e+001 3.007761e+001 3.195700e+001 7.267646e+001 5.615831e+001 3.937416e+001 3.154958e+001 3.230806e+001 3.071850e+001 6.563650e-001 1.692683e+000 2.891981e+000 3.336307e+000 2.018780e+000 2.354802e+000 4.059860e+000 6.948180e+000 3.200916e+000 2.863106e+000 2.364440e+000 2.683820e+000 1.585435e+000
<GCONST> 9.869773e+001
<STATE> 3
<MEAN> 25
 4.687121e+000 -2.957602e+000 -4.711970e-001 3.146467e-002 1.769173e+000 -1.939257e-001 -5.412924e+000 -7.821330e+000 -2.475072e+000 2.937654e+000 -1.762164e+000 -3.595895e+000 -3.127718e-001 -6.301051e-001 -9.242786e-001 -5.616344e-001 2.059887e-001 2.168000e-001 3.725325e-001 1.485751e+000 3.035295e-001 -7.772057e-001 -2.397934e-001 2.838631e-001 6.968641e-001
<VARIANCE> 25
 9.734937e+000 2.231078e+001 2.920360e+001 3.376444e+001 2.987993e+001 3.111045e+001 5.045441e+001 6.078098e+001 3.374653e+001 3.074209e+001 3.058052e+001 3.050777e+001 5.460222e-001 1.635349e+000 3.111159e+000 2.877504e+000 1.790589e+000 2.700269e+000 3.356763e+000 6.701436e+000 3.800139e+000 3.531621e+000 2.630888e+000 3.420832e+000 1.347014e+000
<GCONST> 9.872711e+001
<STATE> 4
<MEAN> 25
 2.923574e+000 -3.949396e+000 -2.498781e+000 -7.441369e-001 2.283055e+000 2.397401e-001 -3.769738e+000 -2.031067e+000 -1.741382e+000 -7.828624e-001 -2.271864e+000 -1.337191e+000 -5.906367e-001 -1.100961e-001 -2.412194e-001 1.053265e-001 -4.420981e-002 7.209332e-002 7.283349e-001 1.422551e+000 3.962991e-002 -9.814296e-001 1.262552e-001 7.733684e-001 2.261274e-001
<VARIANCE> 25
 1.294286e+001 3.919070e+001 3.693884e+001 2.570955e+001 3.336771e+001 3.633579e+001 3.601939e+001 6.157930e+001 3.647006e+001 3.376438e+001 3.008376e+001 3.256288e+001 6.775965e-001 1.803004e+000 2.436728e+000 2.473061e+000 2.205440e+000 2.778069e+000 3.157091e+000 4.360776e+000 2.951476e+000 3.465043e+000 2.614466e+000 2.647222e+000 1.292476e+000
<GCONST> 9.878738e+001
<TRANSP> 5
 0.000000e+000 1.000000e+000 0.000000e+000 0.000000e+000 0.000000e+000
 0.000000e+000 7.249874e-001 2.750126e-001 0.000000e+000 0.000000e+000
 0.000000e+000 0.000000e+000 6.563933e-001 3.436068e-001 0.000000e+000
 0.000000e+000 0.000000e+000 0.000000e+000 6.781014e-001 3.218986e-001
 0.000000e+000 0.000000e+000 0.000000e+000 0.000000e+000 0.000000e+000
<ENDHMM>
~h "n"
<BEGINHMM>
<NUMSTATES> 5
<STATE> 2
<MEAN> 25
 4.183450e+000 6.451704e-002 2.593577e+000 -7.676227e-001 -4.184120e+000 -2.697758e+000 -4.602535e+000 -5.698522e+000 -6.127150e-001 -2.794679e-001 -4.869205e+000 -6.577356e-001 2.737382e-001 5.710628e-001 8.196817e-001 6.471362e-001 -3.243999e-001 -5.377497e-001 -1.678592e-001 -6.611055e-001 2.574364e-001 1.227234e-001 -2.997107e-001 2.099467e-001 -7.262914e-001
<VARIANCE> 25
 9.535949e+000 1.978728e+001 2.579308e+001 2.907732e+001 3.169959e+001 4.928491e+001 6.681847e+001 4.938523e+001 4.334376e+001 5.018838e+001 4.036204e+001 3.047496e+001 6.066251e-001 1.385472e+000 2.649729e+000 1.745437e+000 2.235858e+000 3.250711e+000 3.371571e+000 4.342350e+000 3.290692e+000 3.209069e+000 2.978116e+000 2.252034e+000 8.392769e-001
<GCONST> 9.817233e+001
<STATE> 3
<MEAN> 25
 4.306340e+000 1.675651e+000 3.906282e+000 1.180183e+000 -4.394483e+000 -3.679348e+000 -4.731369e+000 -6.056390e+000 -1.779241e-001 -3.599876e-001 -4.454667e+000 1.748617e-002 -2.397555e-001 3.902867e-001 -8.771599e-002 3.023571e-001 4.292262e-001 -4.027215e-002 1.363315e-001 4.901356e-001 -1.768658e-001 -1.138294e-001 3.837230e-001 1.039753e-001 -4.356211e-001
<VARIANCE> 25
 1.006914e+001 2.264113e+001 2.338768e+001 2.560289e+001 3.241808e+001 5.044509e+001 6.976685e+001 4.704815e+001 4.312270e+001 4.829879e+001 4.447658e+001 2.974890e+001 7.140433e-001 1.929314e+000 2.600405e+000 2.036622e+000 2.453939e+000 3.029354e+000 3.215844e+000 4.503129e+000 3.194476e+000 3.173617e+000 2.813945e+000 2.166698e+000 1.714319e+000
<GCONST> 9.942555e+001
<STATE> 4
<MEAN> 25
 2.488362e+000 2.649677e+000 2.504440e+000 2.025262e+000 -1.506109e+000 -2.597178e+000 -3.486998e+000 -3.089318e+000 -1.465979e+000 -8.293699e-001 -1.833006e+000 5.556589e-001 -8.737693e-001 -1.737361e-001 -7.659042e-001 3.773967e-002 1.259211e+000 6.137706e-001 7.721249e-001 1.431296e+000 -4.426551e-001 -2.432706e-001 9.355659e-001 1.656301e-001 -1.603407e-001
<VARIANCE> 25
 1.398695e+001 4.131549e+001 2.693285e+001 2.701873e+001 3.949875e+001 4.365835e+001 5.953477e+001 5.144664e+001 4.307469e+001 3.887090e+001 4.373489e+001 2.742471e+001 1.002197e+000 2.609496e+000 3.368085e+000 2.869537e+000 2.778737e+000 3.648439e+000 4.390589e+000 4.990527e+000 4.397293e+000 4.069176e+000 3.163428e+000 2.385953e+000 2.722506e+000
<GCONST> 1.034291e+002
<TRANSP> 5
 0.000000e+000 1.000000e+000 0.000000e+000 0.000000e+000 0.000000e+000
 0.000000e+000 6.843056e-001 3.156944e-001 0.000000e+000 0.000000e+000
 0.000000e+000 0.000000e+000 6.031734e-001 3.968266e-001 0.000000e+000
 0.000000e+000 0.000000e+000 0.000000e+000 6.584538e-001 3.415462e-001
 0.000000e+000 0.000000e+000 0.000000e+000 0.000000e+000 0.000000e+000
<ENDHMM>
~h "o"
<BEGINHMM>
<NUMSTATES> 5
<STATE> 2
<MEAN> 25
 4.072417e+000 6.369804e-001 -4.737025e+000 -1.144211e+001 2.300421e+000 -8.488038e-001 -6.106806e+000 -1.726295e+000 -1.344412e+000 1.904978e+000 1.549449e+000 8.725514e-001 9.795519e-001 -3.355022e-002 5.143410e-002 -5.391492e-001 3.332352e-001 -9.669255e-002 -1.318360e+000 -5.842866e-001 4.024813e-001 -2.107047e-001 -3.891458e-001 -3.815388e-001 -9.331219e-002
<VARIANCE> 25
 2.528962e+001 2.416975e+001 2.759413e+001 5.431757e+001 2.630039e+001 6.491070e+001 4.707740e+001 2.809739e+001 4.144013e+001 2.557683e+001 5.126398e+001 2.693542e+001 2.796543e+000 1.679495e+000 2.305302e+000 8.291099e+000 3.110477e+000 3.358107e+000 8.993354e+000 2.592927e+000 2.748285e+000 2.322857e+000 3.702925e+000 2.337969e+000 1.449489e+000
<GCONST> 1.028774e+002
<STATE> 3
<MEAN> 25
 5.603003e+000 4.356957e-001 -4.500941e+000 -1.096395e+001 2.593294e+000 3.179551e-001 -6.370279e+000 -2.193752e+000 -1.020487e+000 9.180348e-001 1.041879e+000 -2.011444e-001 -6.435870e-002 5.286969e-001 7.939078e-001 1.618825e+000 -1.316926e-001 -2.854513e-001 2.062982e-001 -2.881327e-001 1.395696e-001 -7.373561e-001 -5.804582e-002 -5.564587e-001 -8.850366e-001
<VARIANCE> 25
 8.064002e+000 2.606422e+001 2.627040e+001 4.508648e+001 2.244915e+001 5.384703e+001 4.753421e+001 2.523683e+001 3.764630e+001 2.767990e+001 4.676888e+001 2.874253e+001 1.230429e+000 1.823529e+000 1.740821e+000 5.262245e+000 2.131837e+000 2.361817e+000 3.764434e+000 2.700994e+000 2.429935e+000 2.322143e+000 2.643476e+000 2.381803e+000 1.163071e+000
<GCONST> 9.739167e+001
<STATE> 4
<MEAN> 25
 3.546636e+000 3.783325e+000 -1.454701e+000 -3.241214e+000 6.874172e-001 -1.480270e+000 -3.708397e+000 -2.401714e+000 -1.036303e+000 -2.169761e+000 2.152248e+000 -1.722969e+000 -1.286701e+000 9.662693e-001 1.307266e+000 2.658090e+000 -3.764249e-001 -5.533500e-001 1.097554e+000 2.772502e-001 4.670063e-002 -4.842676e-001 4.042407e-001 -1.463695e-001 -1.214543e+000
<VARIANCE> 25
 1.681022e+001 3.814125e+001 2.606660e+001 5.631468e+001 2.327968e+001 4.730268e+001 5.179948e+001 2.732478e+001 3.186807e+001 3.359928e+001 3.691697e+001 2.712586e+001 1.541789e+000 2.735252e+000 1.966639e+000 2.793170e+000 3.082419e+000 3.165791e+000 3.599059e+000 3.917271e+000 3.552175e+000 2.720822e+000 2.654565e+000 2.450720e+000 1.111986e+000
<GCONST> 1.001606e+002
<TRANSP> 5
 0.000000e+000 1.000000e+000 0.000000e+000 0.000000e+000 0.000000e+000
 0.000000e+000 5.085697e-001 4.914304e-001 0.000000e+000 0.000000e+000
 0.000000e+000 0.000000e+000 5.483241e-001 4.516759e-001 0.000000e+000
 0.000000e+000 0.000000e+000 0.000000e+000 6.810139e-001 3.189861e-001
 0.000000e+000 0.000000e+000 0.000000e+000 0.000000e+000 0.000000e+000
<ENDHMM>
~h "p"
<BEGINHMM>
<NUMSTATES> 5
<STATE> 2
<MEAN> 25
 2.124833e+000 3.128374e+000 -1.581696e+000 2.769046e+000 2.656632e+000 3.624632e+000 2.141271e+000 -4.818817e-002 5.827325e-001 6.398724e-001 8.141683e-001 3.421037e-002 -4.200090e-001 3.743517e-001 2.780009e-001 6.601622e-001 1.370941e-001 3.906090e-001 3.185987e-001 4.360824e-001 1.381981e-001 5.913093e-002 2.531727e-001 4.799637e-001 -9.436328e-001
<VARIANCE> 25
 2.424358e+001 4.955923e+001 3.034523e+001 3.766541e+001 3.815010e+001 3.501641e+001 4.529815e+001 3.504390e+001 3.182473e+001 2.754236e+001 5.039375e+001 3.587368e+001 2.677370e+000 5.718014e+000 2.376930e+000 3.977965e+000 3.803824e+000 4.460628e+000 4.036703e+000 3.318160e+000 2.844920e+000 2.693282e+000 4.839396e+000 4.020842e+000 8.680254e+000
<GCONST> 1.064895e+002
<STATE> 3
<MEAN> 25
 -2.776161e-001 2.867074e+000 -5.245719e-001 4.412591e+000 3.644739e+000 4.087662e+000 3.133509e+000 1.591694e+000 1.312548e+000 9.761150e-001 2.189482e+000 1.430068e+000 -2.906332e-001 -1.097002e+000 -1.146251e-001 -3.482834e-001 -2.756057e-001 -6.857203e-001 -1.956758e-001 2.568111e-001 2.485711e-001 3.061907e-002 -8.695272e-002 -1.912046e-001 1.317824e+000
<VARIANCE> 25
 2.312462e+001 4.971979e+001 3.068869e+001 3.667421e+001 4.332903e+001 4.114728e+001 5.026364e+001 3.347420e+001 3.263525e+001 2.630472e+001 4.616897e+001 3.166416e+001 2.985113e+000 4.738680e+000 3.429382e+000 5.249715e+000 4.635633e+000 6.191676e+000 4.589757e+000 3.381090e+000 3.263336e+000 2.809680e+000 5.442014e+000 4.461870e+000 9.121744e+000
<GCONST> 1.082320e+002
<STATE> 4
<MEAN> 25
 5.130510e-001 -2.070673e+000 -1.914600e+000 1.086594e+000 1.449546e+000 -9.007868e-002 7.839292e-001 1.343668e+000 1.916595e+000 1.327188e+000 1.129782e+000 -9.157477e-001 9.336286e-001 -2.068055e+000 -8.079681e-001 -1.986994e+000 -1.322833e+000 -1.426968e+000 -9.469886e-001 -3.829497e-001 -2.334392e-001 -1.054393e-001 -1.348360e+000 -1.139025e+000 3.395287e+000
<VARIANCE> 25
 3.050634e+001 5.062629e+001 4.588090e+001 6.251075e+001 4.547306e+001 5.566396e+001 5.342913e+001 3.630851e+001 3.428836e+001 2.641965e+001 5.153041e+001 3.729362e+001 3.116155e+000 5.008277e+000 6.345059e+000 5.524192e+000 6.672402e+000 7.919007e+000 6.682815e+000 4.719098e+000 5.271496e+000 3.276791e+000 7.935132e+000 4.756711e+000 7.045401e+000
<GCONST> 1.131828e+002
<TRANSP> 5
 0.000000e+000 1.000000e+000 0.000000e+000 0.000000e+000 0.000000e+000
 0.000000e+000 5.711524e-001 4.288476e-001 0.000000e+000 0.000000e+000
 0.000000e+000 0.000000e+000 5.068824e-001 4.931176e-001 0.000000e+000
 0.000000e+000 0.000000e+000 0.000000e+000 6.190309e-001 3.809691e-001
 0.000000e+000 0.000000e+000 0.000000e+000 0.000000e+000 0.000000e+000
<ENDHMM>
~h "q"
<BEGINHMM>
<NUMSTATES> 5
<STATE> 2
<MEAN> 25
 -3.222519e+000 4.417016e-001 -5.899701e-001 1.499024e+000 3.955747e+000 1.974932e+000 1.445625e+000 3.786649e+000 3.884405e-001 -1.618914e+000 2.280543e+000 1.450920e+000 5.548903e-002 -7.522258e-003 5.522538e-001 -6.448081e-001 -3.233431e-001 -4.534550e-001 -6.666534e-001 -3.975704e-001 -7.390742e-003 1.063535e-001 2.176119e-002 -9.687489e-002 6.111395e-001
<VARIANCE> 25
 4.651101e+001 2.882693e+001 4.588984e+001 6.179950e+001 6.257581e+001 5.844034e+001 5.979844e+001 4.896674e+001 4.006552e+001 3.624537e+001 3.944397e+001 2.860875e+001 7.181549e+000 3.244898e+000 3.589524e+000 8.337115e+000 8.518774e+000 5.682859e+000 7.372045e+000 7.036075e+000 4.367500e+000 4.065672e+000 3.162633e+000 3.061481e+000 5.339760e+000
<GCONST> 1.127921e+002
<STATE> 3
<MEAN> 25
 -2.999514e+000 -2.963471e-001 1.792979e-001 5.381517e-001 3.843170e+000 5.521019e-001 -3.010463e-001 2.729741e+000 1.017785e+000 -1.006263e+000 1.791674e+000 8.542784e-001 -1.389074e-001 -6.623797e-003 5.028806e-001 -2.783582e-002 -1.070531e-001 -1.627232e-001 -3.082498e-001 -3.707609e-001 3.410527e-001 5.908189e-001 2.752858e-002 -6.275354e-002 1.734812e-001
<VARIANCE> 25
 4.834764e+001 2.569359e+001 4.658877e+001 6.839227e+001 8.948624e+001 6.058388e+001 5.545346e+001 5.032162e+001 3.804353e+001 3.699796e+001 3.853848e+001 2.693308e+001 5.212905e+000 2.688948e+000 2.642496e+000 5.707718e+000 6.886001e+000 4.597804e+000 5.342064e+000 6.102105e+000 3.756466e+000 3.923792e+000 3.258972e+000 2.734468e+000 3.931965e+000
<GCONST> 1.104051e+002
<STATE> 4
<MEAN> 25
 -4.301400e+000 2.060478e-001 6.543616e-001 2.413346e+000 5.880706e+000 9.382108e-001 3.525876e-001 3.097245e+000 2.559527e+000 4.734093e-001 2.263746e+000 8.221284e-001 2.585614e-001 2.545622e-001 3.120153e-001 3.041671e-002 -4.128543e-001 1.438400e-001 -4.142627e-002 -5.142063e-001 8.570737e-002 5.196855e-001 -4.328888e-002 -3.629692e-002 -2.478425e-001
<VARIANCE> 25
 4.770238e+001 2.463926e+001 3.890358e+001 6.506775e+001 9.785342e+001 6.175867e+001 5.823812e+001 5.447040e+001 3.696819e+001 3.557926e+001 3.573550e+001 2.652569e+001 3.500598e+000 2.214702e+000 1.997907e+000 4.028541e+000 6.144879e+000 4.030166e+000 4.414865e+000 5.129811e+000 3.451635e+000 3.668422e+000 3.350255e+000 2.494340e+000 2.990146e+000
<GCONST> 1.078778e+002
<TRANSP> 5
 0.000000e+000 1.000000e+000 0.000000e+000 0.000000e+000 0.000000e+000
 0.000000e+000 4.774143e-001 5.225857e-001 0.000000e+000 0.000000e+000
 0.000000e+000 0.000000e+000 3.739709e-001 6.260291e-001 0.000000e+000
 0.000000e+000 0.000000e+000 0.000000e+000 5.450608e-001 4.549392e-001
 0.000000e+000 0.000000e+000 0.000000e+000 0.000000e+000 0.000000e+000
<ENDHMM>
~h "r"
<BEGINHMM>
<NUMSTATES> 5
<STATE> 2
<MEAN> 25
 3.148620e+000 -2.263239e+000 1.346316e+000 5.580535e-001 -6.380671e+000 -3.936198e+000 -3.266664e+000 5.526923e-001 1.744866e+000 1.359800e-002 7.913439e-001 -5.849391e-001 1.436426e-001 2.192473e-001 5.463665e-001 -3.953233e-001 -6.247431e-001 -1.010623e-002 -1.423665e-001 -7.672383e-001 2.108526e-001 1.531415e-001 1.686602e-001 1.913775e-002 -2.713977e-002
<VARIANCE> 25
 1.315070e+001 3.520266e+001 3.069545e+001 3.336266e+001 4.299128e+001 4.598477e+001 8.367780e+001 6.315094e+001 4.678360e+001 4.089901e+001 3.626295e+001 3.041136e+001 1.548823e+000 2.841750e+000 2.575661e+000 4.194374e+000 5.379600e+000 4.369512e+000 4.621891e+000 6.115769e+000 3.655504e+000 4.155565e+000 2.960551e+000 2.959695e+000 2.121741e+000
<GCONST> 1.057442e+002
<STATE> 3
<MEAN> 25
 3.159113e+000 -1.199972e+000 2.262532e+000 -5.146661e-001 -6.850410e+000 -3.197044e+000 -3.251709e+000 -1.468640e+000 1.749626e+000 5.704985e-001 8.964097e-001 -6.571574e-001 -1.665898e-001 4.619037e-001 2.579980e-001 -5.309440e-001 7.746474e-002 4.317005e-001 1.989894e-001 -5.818615e-001 -1.935062e-002 1.368412e-001 -1.981547e-001 -7.666229e-002 -8.594259e-002
<VARIANCE> 25
 1.324056e+001 3.730679e+001 2.919716e+001 3.484972e+001 3.765318e+001 4.501611e+001 6.795299e+001 6.789855e+001 4.453949e+001 3.863456e+001 3.888252e+001 2.794876e+001 1.333144e+000 2.614212e+000 2.182682e+000 3.882411e+000 4.064485e+000 3.790140e+000 4.908415e+000 6.164054e+000 3.956484e+000 3.472074e+000 3.315089e+000 2.554188e+000 1.822596e+000
<GCONST> 1.042747e+002
<STATE> 4
<MEAN> 25
 2.064779e+000 1.028555e+000 2.729727e+000 -2.484277e+000 -5.898841e+000 -1.866159e+000 -3.125685e+000 -2.862983e+000 1.725192e+000 6.496955e-001 -4.387953e-001 -9.651554e-001 -4.266672e-001 4.137858e-001 1.641286e-002 -3.782491e-001 5.579875e-001 3.895261e-001 2.841662e-001 -7.719872e-002 -5.889213e-002 -8.903796e-003 -3.589927e-001 -2.752859e-002 9.296875e-003
<VARIANCE> 25
 1.468403e+001 4.430951e+001 2.704738e+001 4.423643e+001 3.455291e+001 3.936200e+001 6.003528e+001 7.324281e+001 3.948114e+001 3.697632e+001 4.186701e+001 2.685162e+001 1.103625e+000 2.154077e+000 1.712781e+000 2.951711e+000 2.758092e+000 3.187773e+000 4.731488e+000 4.945928e+000 3.409427e+000 2.857683e+000 3.280010e+000 2.312582e+000 1.422998e+000
<GCONST> 1.018956e+002
<TRANSP> 5
 0.000000e+000 1.000000e+000 0.000000e+000 0.000000e+000 0.000000e+000
 0.000000e+000 4.464439e-001 5.535561e-001 0.000000e+000 0.000000e+000
 0.000000e+000 0.000000e+000 4.390289e-001 5.609711e-001 0.000000e+000
 0.000000e+000 0.000000e+000 0.000000e+000 5.668509e-001 4.331491e-001
 0.000000e+000 0.000000e+000 0.000000e+000 0.000000e+000 0.000000e+000
<ENDHMM>
~h "s"
<BEGINHMM>
<NUMSTATES> 5
<STATE> 2
<MEAN> 25
 -1.057583e+001 6.321621e+000 -8.760603e-001 7.233421e+000 3.354019e+000 2.270505e+000 3.341598e+000 2.699804e+000 1.880207e+000 6.030944e-002 4.581800e+000 8.512298e-001 -1.356391e+000 -1.183423e-001 -3.881670e-002 7.688522e-001 6.371159e-001 1.037725e+000 8.398163e-001 5.595739e-001 4.230820e-001 7.040883e-001 7.616062e-001 2.989063e-001 -6.272941e-001
<VARIANCE> 25
 3.144839e+001 2.112631e+001 2.261877e+001 3.720225e+001 4.507555e+001 4.054153e+001 5.113841e+001 4.281438e+001 3.030789e+001 3.496638e+001 3.111476e+001 2.796483e+001 4.128539e+000 2.382265e+000 1.761719e+000 3.035188e+000 2.746911e+000 3.212643e+000 3.501818e+000 3.198016e+000 3.096066e+000 3.579779e+000 2.764590e+000 2.310834e+000 1.154777e+000
<GCONST> 1.010772e+002
<STATE> 3
<MEAN> 25
 -1.099828e+001 3.475080e+000 -1.068823e+000 7.153062e+000 6.007873e+000 4.637403e+000 5.372158e+000 4.959783e+000 3.847058e+000 2.277528e+000 6.331123e+000 2.489620e+000 8.451213e-001 -7.099705e-001 7.131623e-002 -5.476796e-001 2.549453e-001 -6.760337e-002 3.890789e-002 1.683152e-001 3.238411e-001 2.508838e-001 5.835230e-002 1.425838e-001 -3.671952e-001
<VARIANCE> 25
 3.261401e+001 2.687521e+001 2.591785e+001 4.083529e+001 4.783213e+001 4.243755e+001 4.599385e+001 4.186263e+001 3.699970e+001 3.326678e+001 3.412082e+001 2.486765e+001 3.872793e+000 2.070887e+000 2.326824e+000 3.513775e+000 3.867494e+000 4.834430e+000 4.149499e+000 3.923604e+000 3.734410e+000 3.137075e+000 3.047278e+000 2.525079e+000 2.460733e+000
<GCONST> 1.040283e+002
<STATE> 4
<MEAN> 25
 -6.416497e+000 1.454589e+000 -7.872249e-001 4.565057e+000 6.551963e+000 2.720875e+000 3.567748e+000 4.385749e+000 3.930146e+000 1.925648e+000 4.988876e+000 2.062045e+000 2.431461e+000 -5.930708e-001 1.506995e-001 -1.392002e+000 -1.129994e+000 -1.370146e+000 -1.369491e+000 -9.341519e-001 -5.289727e-001 -6.433071e-001 -1.213162e+000 -5.792885e-001 7.314513e-001
<VARIANCE> 25
 4.396180e+001 2.848339e+001 3.358311e+001 3.603871e+001 7.641560e+001 5.979731e+001 5.454533e+001 5.237657e+001 3.974236e+001 4.264020e+001 4.124038e+001 2.455667e+001 6.526750e+000 2.744980e+000 3.510797e+000 4.748586e+000 7.751119e+000 7.380829e+000 7.148751e+000 6.586320e+000 4.771758e+000 4.874062e+000 4.888736e+000 3.374250e+000 4.376801e+000
<GCONST> 1.119425e+002
<TRANSP> 5
 0.000000e+000 1.000000e+000 0.000000e+000 0.000000e+000 0.000000e+000
 0.000000e+000 8.046715e-001 1.953284e-001 0.000000e+000 0.000000e+000
 0.000000e+000 0.000000e+000 6.544496e-001 3.455505e-001 0.000000e+000
 0.000000e+000 0.000000e+000 0.000000e+000 6.394806e-001 3.605193e-001
 0.000000e+000 0.000000e+000 0.000000e+000 0.000000e+000 0.000000e+000
<ENDHMM>
~h "t"
<BEGINHMM>
<NUMSTATES> 5
<STATE> 2
<MEAN> 25
 9.609734e-001 6.440120e+000 1.505728e+000 4.913447e+000 1.342657e+000 1.912265e+000 1.688458e+000 1.280084e+000 1.148114e+000 -9.691951e-002 1.653352e+000 1.483362e+000 -8.045249e-001 4.958416e-002 -5.016507e-003 6.748025e-001 6.625114e-001 1.110409e+000 6.906837e-001 4.969074e-001 2.525221e-001 4.003231e-001 1.028643e+000 5.223439e-001 -1.025052e+000
<VARIANCE> 25
 1.750136e+001 2.921571e+001 2.197809e+001 2.239370e+001 4.855460e+001 4.415173e+001 5.202577e+001 3.715709e+001 2.984416e+001 3.561103e+001 4.307255e+001 2.423160e+001 1.869936e+000 4.411976e+000 2.127981e+000 2.455676e+000 4.211474e+000 4.233407e+000 4.008955e+000 2.958997e+000 2.940641e+000 4.042374e+000 3.716248e+000 2.677526e+000 6.956432e+000
<GCONST> 1.033699e+002
<STATE> 3
<MEAN> 25
 -2.012067e+000 4.487642e+000 1.205806e+000 5.778737e+000 3.319778e+000 3.995901e+000 3.490466e+000 2.327845e+000 2.168532e+000 9.186821e-001 4.302355e+000 2.524277e+000 -7.011049e-001 -1.674054e+000 -7.023433e-001 -8.271907e-001 -2.328167e-001 -6.467357e-001 1.792258e-001 5.063545e-001 3.844645e-001 -1.736473e-001 2.523392e-001 -6.628232e-002 2.113510e+000
<VARIANCE> 25
 1.690228e+001 3.336615e+001 2.174341e+001 2.516418e+001 4.497768e+001 4.312152e+001 5.274685e+001 3.355362e+001 2.982656e+001 3.262019e+001 3.704456e+001 2.489150e+001 2.136804e+000 3.478694e+000 2.885764e+000 3.861049e+000 6.232773e+000 7.466106e+000 4.759804e+000 3.705015e+000 3.405901e+000 4.806215e+000 4.495463e+000 3.051883e+000 9.572046e+000
<GCONST> 1.061423e+002
<STATE> 4
<MEAN> 25
 -2.175743e+000 -1.244780e+000 -1.853241e+000 1.047607e+000 2.734238e-001 -1.188142e+000 2.343256e+000 3.982088e+000 2.698090e+000 -1.257159e+000 2.617522e+000 1.309419e+000 6.962920e-001 -2.143414e+000 -1.398089e+000 -2.196602e+000 -1.376517e+000 -1.893477e+000 -6.995655e-001 7.874025e-001 -1.985741e-001 -1.278971e+000 -1.574003e+000 -6.692766e-001 3.978860e+000
<VARIANCE> 25
 2.052432e+001 3.337445e+001 3.290361e+001 3.851783e+001 5.084425e+001 5.847861e+001 4.844028e+001 3.747982e+001 3.028950e+001 4.294475e+001 4.554848e+001 2.616813e+001 2.366890e+000 2.889440e+000 3.745840e+000 3.622804e+000 8.209900e+000 8.035582e+000 6.140052e+000 5.667356e+000 5.037272e+000 5.964742e+000 5.436963e+000 4.131475e+000 6.355208e+000
<GCONST> 1.100098e+002
<TRANSP> 5
 0.000000e+000 1.000000e+000 0.000000e+000 0.000000e+000 0.000000e+000
 0.000000e+000 5.782104e-001 4.217896e-001 0.000000e+000 0.000000e+000
 0.000000e+000 0.000000e+000 5.274071e-001 4.725930e-001 0.000000e+000
 0.000000e+000 0.000000e+000 0.000000e+000 6.317024e-001 3.682976e-001
 0.000000e+000 0.000000e+000 0.000000e+000 0.000000e+000 0.000000e+000
<ENDHMM>
~h "u"
<BEGINHMM>
<NUMSTATES> 5
<STATE> 2
<MEAN> 25
 6.000759e+000 1.398106e+000 -3.602819e+000 -7.688832e+000 -1.971605e+000 7.895101e-001 -5.571574e+000 -4.464469e+000 -2.705732e+000 3.369689e+000 2.531769e-001 -7.912153e-001 7.041478e-001 -3.845804e-001 5.067101e-002 -3.710964e-001 -3.213122e-001 -2.366857e-001 -1.214902e+000 -9.027936e-001 2.029604e-001 4.166894e-001 -6.365530e-001 -4.129041e-001 7.059045e-001
<VARIANCE> 25
 1.533283e+001 2.737585e+001 2.792744e+001 6.284324e+001 3.800244e+001 5.381699e+001 5.285940e+001 3.900602e+001 4.901957e+001 4.499187e+001 4.234819e+001 3.647701e+001 2.917037e+000 2.134144e+000 3.223866e+000 7.337047e+000 4.719941e+000 6.121762e+000 5.369694e+000 5.192944e+000 6.035972e+000 4.954226e+000 4.171819e+000 3.702549e+000 1.915288e+000
<GCONST> 1.082218e+002
<STATE> 3
<MEAN> 25
 5.998072e+000 -2.763141e-002 -2.317544e+000 -5.579661e+000 -2.238154e+000 -2.848605e-001 -7.409892e+000 -5.046522e+000 -7.456784e-001 2.922520e+000 -1.314034e+000 -1.633318e+000 -1.984765e-001 -6.101479e-002 7.326663e-001 9.346825e-001 -1.307516e-001 -4.171724e-001 -1.184435e-001 1.016527e-001 4.426954e-001 -5.715897e-001 -5.031685e-001 1.103493e-001 -2.123257e-001
<VARIANCE> 25
 1.123873e+001 2.799906e+001 2.828558e+001 4.704775e+001 3.499773e+001 4.906984e+001 5.305009e+001 4.020416e+001 4.861501e+001 4.641856e+001 4.401862e+001 3.215091e+001 1.359134e+000 1.898371e+000 2.920166e+000 4.317155e+000 3.577849e+000 5.490971e+000 5.255860e+000 4.333166e+000 4.929479e+000 4.648967e+000 3.750212e+000 3.535396e+000 1.505865e+000
<GCONST> 1.046939e+002
<STATE> 4
<MEAN> 25
 4.766793e+000 9.100644e-001 6.099360e-002 -1.971333e+000 -2.231455e+000 -1.586667e+000 -6.210905e+000 -4.083735e+000 -2.084107e-002 1.728367e-001 -1.836093e+000 -7.569957e-001 -7.436494e-001 4.302004e-001 8.624158e-001 1.219056e+000 6.586841e-002 -1.753139e-001 7.650507e-001 3.477225e-001 4.446302e-002 -6.537549e-001 7.896384e-002 4.041146e-001 -8.075546e-001
<VARIANCE> 25
 1.492211e+001 3.275895e+001 3.202357e+001 4.549665e+001 4.065059e+001 5.444365e+001 5.839595e+001 4.579296e+001 4.583292e+001 4.629054e+001 3.947825e+001 2.858580e+001 1.633979e+000 1.941163e+000 2.765072e+000 3.180367e+000 4.085440e+000 3.907952e+000 4.826569e+000 4.218747e+000 4.306152e+000 3.912743e+000 3.860072e+000 3.148507e+000 1.600151e+000
<GCONST> 1.046097e+002
<TRANSP> 5
 0.000000e+000 1.000000e+000 0.000000e+000 0.000000e+000 0.000000e+000
 0.000000e+000 5.839971e-001 4.160029e-001 0.000000e+000 0.000000e+000
 0.000000e+000 0.000000e+000 5.191868e-001 4.808132e-001 0.000000e+000
 0.000000e+000 0.000000e+000 0.000000e+000 6.105627e-001 3.894373e-001
 0.000000e+000 0.000000e+000 0.000000e+000 0.000000e+000 0.000000e+000
<ENDHMM>
~h "v"
<BEGINHMM>
<NUMSTATES> 5
<STATE> 2
<MEAN> 25
 -1.450629e+000 -3.038016e+000 5.926007e+000 -4.373740e+000 -1.016013e+001 -3.532378e+000 6.326815e+000 4.443296e+000 3.757802e+000 4.100409e+000 4.091647e+000 2.379744e+000 -1.473903e+000 -1.372091e-001 2.736748e-001 -1.704156e+000 -1.154758e+000 2.177929e+000 1.598463e+000 1.417304e-001 -1.212945e+000 1.368617e+000 1.536728e+000 -7.614088e-001 1.531950e+000
<VARIANCE> 25
 8.934712e+000 6.192310e+000 2.060339e+000 2.370845e+001 1.933410e+001 3.135800e+001 1.838128e+001 1.917348e+001 2.018804e+001 2.418100e+001 1.925018e+001 1.504821e+001 9.744728e-001 3.301296e+000 3.928788e-001 2.995657e+000 1.964403e+000 1.579274e+000 3.309384e+000 3.464281e+000 1.175056e+000 3.535630e+000 1.599097e+000 2.462684e+000 3.316959e+000
<GCONST> 8.687725e+001
<STATE> 3
<MEAN> 25
 -3.889521e+000 -2.472297e-001 4.796897e+000 -4.539905e+000 -1.113986e+001 1.978415e+000 5.933288e+000 1.551655e+000 -1.588044e+000 4.673269e+000 6.102742e+000 -8.848931e-001 4.475042e-001 7.457036e-001 -2.757183e-002 1.551885e+000 3.661692e-001 -9.988858e-001 -1.060159e+000 -6.757585e-001 -1.223675e+000 -9.060161e-001 -5.666094e-001 5.058743e-001 -8.991449e-001
<VARIANCE> 25
 3.724967e+000 2.107663e+000 2.398994e+000 1.135685e+001 1.059794e+001 2.889558e+001 6.647248e+000 1.605003e+001 2.415267e+001 7.384866e+000 5.491674e+000 5.903562e+000 7.336450e-001 1.764435e-001 2.192488e-001 5.538656e-001 5.420850e-001 3.443771e+000 1.526534e+000 1.400822e+000 6.430787e-001 1.042366e+000 2.042211e+000 3.103160e+000 3.463848e-001
<GCONST> 6.798700e+001
<STATE> 4
<MEAN> 25
 2.502686e+000 4.235171e+000 6.551693e+000 1.686513e+000 -6.371308e+000 -6.337280e+000 1.756798e+000 -5.606199e+000 8.578230e-001 -1.144131e+000 -2.521344e+000 7.125325e+000 1.108343e+000 9.590788e-001 -6.330220e-002 5.844133e-001 9.744411e-001 -4.387335e-001 -6.125905e-001 -9.346849e-001 1.028058e+000 -7.855765e-001 -1.572863e+000 6.007865e-001 -1.467579e+000
<VARIANCE> 25
 9.880569e+000 8.866424e+000 4.613089e+000 4.110171e+000 8.840380e+000 1.140280e+001 2.504952e+001 2.337771e+001 2.666422e+001 3.007656e+001 3.551654e+001 2.271227e+001 9.283413e-001 1.850476e-001 6.150126e-001 8.453593e-001 1.218887e+000 3.086215e+000 1.514480e+000 4.819167e+000 3.327490e+000 5.018767e-001 3.892856e+000 2.773105e+000 4.517009e-001
<GCONST> 8.072208e+001
<TRANSP> 5
 0.000000e+000 1.000000e+000 0.000000e+000 0.000000e+000 0.000000e+000
 0.000000e+000 7.513311e-001 2.486690e-001 0.000000e+000 0.000000e+000
 0.000000e+000 0.000000e+000 6.778837e-001 3.221163e-001 0.000000e+000
 0.000000e+000 0.000000e+000 0.000000e+000 8.455974e-001 1.544026e-001
 0.000000e+000 0.000000e+000 0.000000e+000 0.000000e+000 0.000000e+000
<ENDHMM>
~h "w"
<BEGINHMM>
<NUMSTATES> 5
<STATE> 2
<MEAN> 25
 7.468035e+000 1.744685e+000 -5.437979e+000 -1.232084e+001 -1.763478e+000 3.089340e+000 1.520703e-001 -3.106867e+000 -2.437075e+000 3.967836e+000 4.747073e-001 -1.800370e+000 2.970008e-001 -5.141764e-001 -6.418620e-001 -9.456553e-001 3.840469e-001 5.999408e-001 2.402210e-002 -1.852685e-001 -2.897053e-001 4.469381e-001 -9.654579e-002 -1.884447e-001 6.357001e-001
<VARIANCE> 25
 1.140253e+001 5.301743e+001 2.991650e+001 4.521793e+001 5.644384e+001 3.669693e+001 3.764315e+001 3.114395e+001 3.844297e+001 3.340357e+001 4.310040e+001 3.164063e+001 2.008099e+000 4.903176e+000 2.162408e+000 6.258444e+000 6.662988e+000 4.336328e+000 3.361531e+000 3.054157e+000 4.382689e+000 3.222427e+000 4.713837e+000 4.127569e+000 2.926602e+000
<GCONST> 1.059144e+002
<STATE> 3
<MEAN> 25
 6.517744e+000 -1.955859e+000 -7.371780e+000 -1.150224e+001 1.352909e+000 4.554200e+000 -6.454737e-003 -2.995358e+000 -2.001900e+000 4.389658e+000 -1.185790e+000 -3.083571e+000 -5.034727e-001 -8.154669e-001 2.660750e-002 1.075789e+000 5.503768e-001 -3.953879e-001 -1.748759e-001 5.399731e-001 5.197084e-001 -3.664399e-001 -8.814405e-001 -4.214034e-001 4.613451e-001
<VARIANCE> 25
 1.097570e+001 5.043493e+001 2.506442e+001 3.266538e+001 5.678954e+001 3.069244e+001 3.851908e+001 2.874892e+001 4.349533e+001 3.415350e+001 4.921918e+001 3.661286e+001 1.072806e+000 4.039303e+000 1.749696e+000 3.894931e+000 4.536293e+000 3.677817e+000 2.956435e+000 2.970148e+000 3.730681e+000 3.335294e+000 4.375933e+000 3.680016e+000 2.124826e+000
<GCONST> 1.026708e+002
<STATE> 4
<MEAN> 25
 4.595777e+000 -3.622356e+000 -6.347760e+000 -6.776175e+000 2.522465e+000 2.369987e+000 -8.055902e-001 -6.296074e-001 -1.821064e-001 1.984971e+000 -3.618079e+000 -3.284330e+000 -8.641104e-001 -2.604467e-001 8.673844e-001 1.870935e+000 5.091849e-003 -1.106400e+000 1.157060e-002 1.064851e+000 4.225595e-001 -1.043635e+000 -4.884300e-001 3.564946e-001 -1.420716e-001
<VARIANCE> 25
 1.341965e+001 6.373952e+001 2.453988e+001 4.008292e+001 5.255802e+001 3.922117e+001 5.027235e+001 3.569780e+001 3.965368e+001 3.389614e+001 5.816130e+001 4.031797e+001 1.167138e+000 2.836574e+000 1.954673e+000 2.410062e+000 4.027694e+000 3.466768e+000 3.513645e+000 2.936485e+000 3.180873e+000 3.564867e+000 4.344940e+000 3.165303e+000 2.069457e+000
<GCONST> 1.031710e+002
<TRANSP> 5
 0.000000e+000 1.000000e+000 0.000000e+000 0.000000e+000 0.000000e+000
 0.000000e+000 7.507501e-001 2.492499e-001 0.000000e+000 0.000000e+000
 0.000000e+000 0.000000e+000 6.569976e-001 3.430023e-001 0.000000e+000
 0.000000e+000 0.000000e+000 0.000000e+000 6.457483e-001 3.542517e-001
 0.000000e+000 0.000000e+000 0.000000e+000 0.000000e+000 0.000000e+000
<ENDHMM>
~h "x"
<BEGINHMM>
<NUMSTATES> 5
<STATE> 2
<MEAN> 25
 5.424387e+000 4.065753e+000 2.127780e+000 1.374701e+000 -5.960505e+000 -3.178142e+000 -4.289498e+000 -5.348004e+000 -1.662191e+000 3.377637e+000 -2.279171e+000 -4.402637e+000 -1.190405e-002 -3.206457e-001 6.641659e-002 -7.879335e-001 -3.827392e-001 6.965745e-002 -1.368814e-001 -2.576937e-001 -1.930437e-001 7.168275e-001 -6.419635e-001 -4.562546e-001 8.610634e-001
<VARIANCE> 25
 1.301724e+001 2.835007e+001 4.964894e+001 3.772416e+001 2.541217e+001 2.887303e+001 3.877206e+001 5.069227e+001 4.598328e+001 4.127853e+001 3.264545e+001 2.779470e+001 1.907001e+000 1.736479e+000 1.877120e+000 2.919901e+000 2.951425e+000 2.893047e+000 4.447457e+000 4.326558e+000 3.582118e+000 2.946516e+000 2.659093e+000 1.716813e+000 1.478289e+000
<GCONST> 1.002002e+002
<STATE> 3
<MEAN> 25
 2.758871e+000 2.517380e+000 2.539186e+000 -2.815021e+000 -4.742259e+000 -2.120752e+000 -3.060831e+000 -3.992159e+000 -2.690056e+000 4.063550e+000 -3.228667e+000 -5.283829e+000 -9.633577e-001 -4.981176e-001 2.802934e-001 -1.322889e+000 3.117073e-001 3.563899e-001 5.170904e-001 6.566422e-001 -3.629468e-001 -2.553174e-001 9.189068e-002 -2.171831e-002 9.790684e-001
<VARIANCE> 25
 1.652702e+001 2.671035e+001 5.441930e+001 4.025097e+001 3.441857e+001 2.485747e+001 3.745554e+001 4.978936e+001 4.625500e+001 3.664150e+001 2.803695e+001 2.499792e+001 1.167599e+000 2.620352e+000 2.439780e+000 3.587317e+000 3.304873e+000 2.820011e+000 3.750331e+000 4.623528e+000 4.306877e+000 3.503304e+000 2.517751e+000 1.855747e+000 7.612085e-001
<GCONST> 1.003546e+002
<STATE> 4
<MEAN> 25
 -5.402151e-001 -1.720776e-001 1.886997e+000 -6.738380e+000 -3.367671e+000 9.274337e-001 3.050041e-001 -1.639310e+000 -4.090950e+000 9.853823e-001 -2.265822e+000 -4.280615e+000 -4.040332e-001 -8.103445e-001 -3.346325e-001 -1.782386e-001 2.703914e-001 4.517477e-001 5.853311e-001 5.177348e-001 7.955752e-002 -1.014466e+000 3.505037e-001 6.726502e-001 5.034829e-001
<VARIANCE> 25
 1.431604e+001 3.171379e+001 2.900266e+001 2.059676e+001 3.329922e+001 3.094914e+001 6.055668e+001 3.971519e+001 4.199269e+001 3.923251e+001 2.669415e+001 2.308311e+001 9.698353e-001 3.075378e+000 2.950220e+000 3.188537e+000 3.820502e+000 2.702889e+000 3.606560e+000 5.158297e+000 4.626680e+000 3.940906e+000 2.682047e+000 2.308983e+000 7.423653e-001
<GCONST> 1.000323e+002
<TRANSP> 5
 0.000000e+000 1.000000e+000 0.000000e+000 0.000000e+000 0.000000e+000
 0.000000e+000 7.365590e-001 2.634409e-001 0.000000e+000 0.000000e+000
 0.000000e+000 0.000000e+000 7.065044e-001 2.934956e-001 0.000000e+000
 0.000000e+000 0.000000e+000 0.000000e+000 7.693122e-001 2.306879e-001
 0.000000e+000 0.000000e+000 0.000000e+000 0.000000e+000 0.000000e+000
<ENDHMM>
~h "y"
<BEGINHMM>
<NUMSTATES> 5
<STATE> 2
<MEAN> 25
 -7.637343e-001 -1.347672e-001 5.295143e+000 -6.243596e+000 -1.095424e+001 -2.568030e+000 6.340972e-001 -1.317638e+000 -1.199441e+000 7.696336e-001 -8.004359e-001 -2.472516e+000 -1.671053e-001 1.278858e+000 1.333373e+000 -2.397719e-001 -4.903793e-001 7.941195e-002 -1.173253e+000 -1.320718e+000 1.684574e-001 6.586176e-001 1.015427e-001 7.136579e-002 -6.030104e-001
<VARIANCE> 25
 1.075030e+001 2.730334e+001 3.366785e+001 2.943456e+001 3.048606e+001 3.555966e+001 4.793056e+001 4.096579e+001 3.134876e+001 2.703636e+001 3.376346e+001 2.027265e+001 4.165258e-001 1.710790e+000 1.759827e+000 1.550933e+000 2.547250e+000 1.965822e+000 4.331426e+000 2.780838e+000 3.166691e+000 2.472929e+000 2.114371e+000 1.977965e+000 5.952807e-001
<GCONST> 9.410455e+001
<STATE> 3
<MEAN> 25
 -6.235743e-001 3.704483e+000 8.107019e+000 -5.595070e+000 -9.837849e+000 -2.157997e+000 -3.560623e+000 -4.803144e+000 -6.215834e-001 1.466752e+000 -1.158123e+000 -1.800521e+000 2.626394e-001 7.082309e-001 2.390489e-001 6.079095e-001 5.829813e-001 5.707356e-002 -6.166743e-001 -4.355213e-001 8.409394e-002 -4.684332e-002 -9.856278e-002 1.489536e-001 -9.317868e-001
<VARIANCE> 25
 1.105374e+001 3.038900e+001 2.749084e+001 3.728289e+001 3.466702e+001 3.230777e+001 4.538225e+001 3.867812e+001 3.677922e+001 2.828381e+001 3.355624e+001 2.317634e+001 7.194697e-001 2.027692e+000 2.019422e+000 2.127620e+000 2.376281e+000 2.307869e+000 3.963475e+000 2.937734e+000 2.392355e+000 2.389094e+000 2.189111e+000 1.877387e+000 1.223981e+000
<GCONST> 9.614201e+001
<STATE> 4
<MEAN> 25
 7.612132e-001 5.908247e+000 6.802199e+000 -6.765246e-001 -5.338611e+000 -1.495540e+000 -3.153337e+000 -4.601224e+000 -1.583157e-001 1.068015e+000 -4.328880e-001 -8.659734e-001 2.708893e-001 -5.934157e-002 -8.289168e-001 1.320450e+000 1.356766e+000 2.403545e-001 5.173912e-001 4.505423e-001 5.153056e-002 5.890223e-002 2.544428e-001 1.985992e-001 -1.241942e+000
<VARIANCE> 25
 1.472765e+001 3.745837e+001 2.760822e+001 5.370181e+001 4.858177e+001 3.581379e+001 5.221782e+001 4.288977e+001 3.633739e+001 3.368163e+001 3.635602e+001 2.758286e+001 1.530404e+000 2.284532e+000 1.909727e+000 3.209868e+000 3.283447e+000 3.350137e+000 4.106124e+000 3.433901e+000 2.865952e+000 3.142609e+000 3.039465e+000 2.383057e+000 2.201694e+000
<GCONST> 1.018336e+002
<TRANSP> 5
 0.000000e+000 1.000000e+000 0.000000e+000 0.000000e+000 0.000000e+000
 0.000000e+000 7.067640e-001 2.932361e-001 0.000000e+000 0.000000e+000
 0.000000e+000 0.000000e+000 6.776816e-001 3.223185e-001 0.000000e+000
 0.000000e+000 0.000000e+000 0.000000e+000 7.669573e-001 2.330427e-001
 0.000000e+000 0.000000e+000 0.000000e+000 0.000000e+000 0.000000e+000
<ENDHMM>
~h "al"
<BEGINHMM>
<NUMSTATES> 5
<STATE> 2
<MEAN> 25
 -4.954885e+000 -2.663918e+000 -3.019149e+000 4.961214e+000 8.214673e+000 -1.211436e+000 1.081785e+000 4.719684e+000 4.430593e+000 -6.209230e-001 7.277529e-002 -1.668266e-001 1.137390e+000 -1.188158e+000 -6.697625e-001 -9.117302e-001 -7.275136e-001 -3.411524e-001 2.360172e-001 -4.803459e-001 -2.366393e-001 -1.042418e+000 -7.286948e-001 -4.620915e-001 1.535475e+000
<VARIANCE> 25
 4.155072e+001 3.206673e+001 2.950021e+001 3.973086e+001 5.391442e+001 4.936377e+001 4.344587e+001 3.877852e+001 3.447986e+001 3.658148e+001 3.198010e+001 3.076676e+001 6.544753e+000 2.635109e+000 2.407701e+000 4.683190e+000 7.693939e+000 5.256620e+000 5.304702e+000 4.811042e+000 4.941743e+000 3.954830e+000 3.473061e+000 2.943475e+000 4.005596e+000
<GCONST> 1.084503e+002
<STATE> 3
<MEAN> 25
 2.670691e+000 -7.750304e+000 -6.350373e+000 -1.593909e+000 2.458593e+000 -1.579252e+000 1.919481e+000 1.108726e+000 7.998725e-001 -5.401762e+000 -4.128495e+000 -2.441566e+000 1.028829e+000 -1.039853e+000 -5.331682e-001 -9.556062e-001 -9.220110e-001 4.009290e-001 2.901996e-001 -3.706827e-001 -8.285546e-001 -5.593472e-001 -6.561782e-001 -9.136564e-002 1.264637e+000
<VARIANCE> 25
 2.059122e+001 2.164911e+001 2.013918e+001 2.984554e+001 3.807090e+001 2.920972e+001 4.688427e+001 3.803218e+001 3.687103e+001 2.740456e+001 2.519476e+001 3.697116e+001 3.121209e+000 2.207984e+000 2.250826e+000 3.150798e+000 4.887875e+000 3.899976e+000 3.770299e+000 3.397507e+000 3.092504e+000 2.779144e+000 2.693466e+000 2.201713e+000 2.305106e+000
<GCONST> 1.008539e+002
<STATE> 4
<MEAN> 25
 3.903102e+000 -7.744693e+000 -6.380050e+000 -2.192469e-001 1.990737e+000 8.969106e-001 -1.535338e-001 5.169677e-001 -2.435227e+000 -4.651276e+000 -3.873335e+000 -5.429376e-001 6.610947e-002 8.008379e-001 4.793234e-001 3.832653e-001 -2.135150e-001 2.526485e-001 -3.466799e-001 -8.608396e-002 -2.147915e-001 4.912769e-001 3.865450e-001 3.080381e-001 -8.829612e-001
<VARIANCE> 25
 1.352212e+001 2.707640e+001 2.091213e+001 2.677887e+001 3.696954e+001 3.031601e+001 5.342416e+001 3.578984e+001 3.779987e+001 3.137943e+001 2.787672e+001 2.994102e+001 9.039267e-001 2.310610e+000 1.635078e+000 1.914471e+000 2.381273e+000 2.298618e+000 2.858413e+000 2.430103e+000 2.244635e+000 2.197250e+000 2.240696e+000 2.041767e+000 1.850003e+000
<GCONST> 9.580836e+001
<TRANSP> 5
 0.000000e+000 1.000000e+000 0.000000e+000 0.000000e+000 0.000000e+000
 0.000000e+000 7.905927e-001 2.094074e-001 0.000000e+000 0.000000e+000
 0.000000e+000 0.000000e+000 5.943416e-001 4.056584e-001 0.000000e+000
 0.000000e+000 0.000000e+000 0.000000e+000 8.511995e-001 1.488005e-001
 0.000000e+000 0.000000e+000 0.000000e+000 0.000000e+000 0.000000e+000
<ENDHMM>
~h "ch"
<BEGINHMM>
<NUMSTATES> 5
<STATE> 2
<MEAN> 25
 -1.286862e+001 5.012925e+000 3.263726e+000 2.004835e+000 6.187316e+000 2.525940e+000 5.148572e+000 2.810905e+000 4.077318e+000 2.787338e+000 7.349637e+000 1.825806e+000 -1.031323e+000 -5.679208e-001 3.397523e-001 -8.343611e-001 -6.742057e-001 -8.808419e-001 1.711655e-002 3.299035e-001 9.869765e-002 -1.204432e-001 3.111204e-001 -2.119706e-001 1.698140e+000
<VARIANCE> 25
 6.758334e+001 3.646599e+001 2.907292e+001 3.570572e+001 5.181957e+001 4.462958e+001 5.274155e+001 3.534935e+001 3.448728e+001 3.250819e+001 3.447252e+001 2.384335e+001 1.378983e+001 2.412414e+000 2.407056e+000 3.509955e+000 8.568699e+000 6.605090e+000 4.835733e+000 3.930560e+000 4.208951e+000 4.279996e+000 3.807354e+000 2.206291e+000 3.758789e+000
<GCONST> 1.086752e+002
<STATE> 3
<MEAN> 25
 -8.556561e+000 2.157129e+000 4.373607e+000 -5.583636e-001 -7.598960e-001 -3.335091e+000 2.555773e+000 2.441229e+000 1.759269e+000 -4.824276e-001 5.329536e+000 2.220794e-001 4.107999e+000 -1.218287e+000 -4.258977e-002 -9.871271e-001 -2.944712e+000 -2.078203e+000 -1.772538e+000 -6.640991e-001 -1.392151e+000 -1.749009e+000 -1.887678e+000 -1.137331e+000 1.058502e+000
<VARIANCE> 25
 6.966679e+001 3.289368e+001 2.753332e+001 4.548694e+001 6.975491e+001 6.106639e+001 4.967752e+001 4.611669e+001 4.100284e+001 4.354063e+001 3.409024e+001 2.787183e+001 8.522776e+000 3.431479e+000 3.578514e+000 3.622542e+000 7.745481e+000 6.275081e+000 6.820998e+000 4.902698e+000 5.083286e+000 5.393534e+000 5.503984e+000 2.745362e+000 2.376331e+000
<GCONST> 1.114778e+002
<STATE> 4
<MEAN> 25
 4.130737e-001 -8.701314e-001 3.159194e+000 -3.380299e+000 -7.124825e+000 -6.659255e+000 -1.232860e+000 1.304105e+000 -6.742929e-001 -3.309246e+000 1.243667e+000 -1.938827e+000 3.191677e+000 -1.691426e+000 -1.095342e+000 -1.089103e+000 -1.601673e+000 -3.553756e-001 -1.208160e+000 -9.535491e-002 -8.495228e-001 -6.811943e-001 -1.807488e+000 -7.815824e-001 1.137938e+000
<VARIANCE> 25
 3.373061e+001 3.519378e+001 3.225959e+001 4.247878e+001 5.435013e+001 4.014712e+001 4.380331e+001 4.782499e+001 3.685760e+001 3.532322e+001 2.966552e+001 2.743432e+001 5.286868e+000 3.474365e+000 3.669097e+000 3.595222e+000 8.459801e+000 6.494648e+000 7.312016e+000 5.381427e+000 4.913688e+000 5.993060e+000 4.853118e+000 3.190845e+000 1.947466e+000
<GCONST> 1.094157e+002
<TRANSP> 5
 0.000000e+000 1.000000e+000 0.000000e+000 0.000000e+000 0.000000e+000
 0.000000e+000 8.079385e-001 1.920616e-001 0.000000e+000 0.000000e+000
 0.000000e+000 0.000000e+000 4.611407e-001 5.388594e-001 0.000000e+000
 0.000000e+000 0.000000e+000 0.000000e+000 2.924026e-001 7.075974e-001
 0.000000e+000 0.000000e+000 0.000000e+000 0.000000e+000 0.000000e+000
<ENDHMM>
~h "ll"
<BEGINHMM>
<NUMSTATES> 5
<STATE> 2
<MEAN> 25
 6.830009e-001 2.706696e+000 5.649099e+000 2.660069e+000 -8.019813e+000 -7.314980e+000 6.900965e-001 -4.133869e+000 -2.373856e+000 1.205475e+000 1.080468e+000 -1.973706e+000 -2.809473e-001 2.631169e-001 2.631386e-001 2.214263e-001 1.371818e-002 -3.626698e-001 1.425466e-001 1.387542e-001 -1.109297e-001 3.044609e-001 2.732804e-001 -1.443652e-001 -2.234977e-001
<VARIANCE> 25
 1.142497e+001 2.651601e+001 3.497271e+001 3.663578e+001 6.002725e+001 3.935430e+001 6.067674e+001 7.883545e+001 3.712973e+001 3.864960e+001 2.667041e+001 3.138540e+001 1.224694e+000 2.757086e+000 2.455584e+000 4.684937e+000 3.734273e+000 3.502075e+000 4.804502e+000 8.557310e+000 3.534966e+000 2.997888e+000 2.764202e+000 2.506476e+000 2.325526e+000
<GCONST> 1.041423e+002
<STATE> 3
<MEAN> 25
 -5.340218e-001 2.234423e+000 4.678686e+000 1.326665e+000 -5.907697e+000 -6.661257e+000 5.030231e-001 -6.485845e-001 -2.120625e+000 1.321567e+000 1.774567e+000 -2.001683e+000 -5.173221e-001 -4.348562e-001 -5.895457e-001 -5.934174e-001 6.191903e-001 5.834335e-001 3.739739e-001 1.307347e+000 4.026239e-001 -2.396632e-001 1.269657e-001 -3.056605e-002 3.437905e-001
<VARIANCE> 25
 1.240218e+001 2.688425e+001 3.353425e+001 4.735044e+001 5.624078e+001 3.800631e+001 5.560302e+001 6.490853e+001 3.740077e+001 3.705987e+001 2.706278e+001 2.931588e+001 1.117236e+000 3.425288e+000 2.385576e+000 4.682892e+000 3.185544e+000 3.392085e+000 5.562327e+000 6.366725e+000 3.861377e+000 3.425054e+000 2.997407e+000 2.741995e+000 2.673857e+000
<GCONST> 1.042703e+002
<STATE> 4
<MEAN> 25
 -1.545640e+000 7.507648e-001 2.511290e+000 -6.434811e-001 -4.001845e+000 -4.148186e+000 1.552521e+000 2.505753e+000 -4.385268e-001 -1.920537e-002 1.341987e+000 -1.982868e+000 -4.473544e-001 -7.920618e-001 -8.827823e-001 -3.649992e-001 1.008473e+000 1.176060e+000 6.075760e-001 8.759047e-001 5.436969e-001 -7.137354e-001 -3.926357e-001 1.611532e-001 4.234386e-001
<VARIANCE> 25
 1.319631e+001 3.668325e+001 3.256135e+001 5.798596e+001 5.519296e+001 3.920897e+001 5.331398e+001 5.258767e+001 3.736311e+001 3.653329e+001 2.687196e+001 2.658783e+001 1.216040e+000 3.305647e+000 2.504897e+000 3.870038e+000 3.074387e+000 3.238459e+000 6.491093e+000 4.451909e+000 3.789166e+000 4.022598e+000 3.430242e+000 3.042641e+000 2.222647e+000
<GCONST> 1.042742e+002
<TRANSP> 5
 0.000000e+000 1.000000e+000 0.000000e+000 0.000000e+000 0.000000e+000
 0.000000e+000 6.562866e-001 3.437135e-001 0.000000e+000 0.000000e+000
 0.000000e+000 0.000000e+000 5.397968e-001 4.602033e-001 0.000000e+000
 0.000000e+000 0.000000e+000 0.000000e+000 5.458514e-001 4.541486e-001
 0.000000e+000 0.000000e+000 0.000000e+000 0.000000e+000 0.000000e+000
<ENDHMM>
~h "rr"
<BEGINHMM>
<NUMSTATES> 5
<STATE> 2
<MEAN> 25
 1.711082e+000 -2.111633e+000 4.782735e+000 6.280511e+000 -2.885846e+000 -6.772617e+000 -6.119506e+000 -9.530252e-001 3.799719e+000 -6.819835e-001 -2.202042e+000 -5.213487e+000 -2.364557e-001 -6.336021e-001 1.000567e-001 -2.734862e-001 1.249659e-001 -6.547486e-001 1.189352e+000 1.219875e+000 -6.843155e-001 -9.928128e-001 -4.669427e-001 4.261303e-001 2.651673e-001
<VARIANCE> 25
 2.861584e+001 2.572389e+001 2.440731e+001 4.334381e+001 2.677794e+001 4.156329e+001 2.571830e+001 5.743953e+001 4.196980e+001 3.107935e+001 1.919051e+001 2.285952e+001 4.919119e+000 3.487418e+000 4.475876e+000 9.209464e+000 3.009698e+000 8.687700e+000 2.269371e+000 7.703547e+000 6.123267e+000 1.628126e+000 1.931030e+000 3.321764e+000 7.517828e-001
<GCONST> 1.036413e+002
<STATE> 3
<MEAN> 25
 2.939622e+000 -9.384744e+000 1.049624e+000 -2.749451e+000 -1.255049e+000 -3.738243e+000 3.518810e+000 9.828938e+000 -8.608497e+000 -5.310257e+000 -7.096756e+000 1.857561e+000 -1.108290e+000 -6.180498e-001 -3.583162e-001 -4.719878e-001 4.055099e-001 4.095643e-001 2.564495e+000 -3.885589e-001 -2.678178e+000 -9.402817e-001 3.016636e-001 2.162193e+000 1.231860e+000
<VARIANCE> 25
 9.844995e+000 2.276882e+001 8.048374e+000 2.539304e+001 1.448572e+001 2.133415e+001 2.753710e+001 3.156293e+001 8.285978e+001 1.916108e+001 1.779087e+001 3.890226e+001 2.210938e+000 2.227605e+000 1.757153e+000 3.318176e+000 2.879190e+000 3.453056e+000 1.479594e+000 8.329752e+000 8.064316e+000 1.993903e+000 4.003517e+000 6.437685e+000 4.778953e-001
<GCONST> 9.654433e+001
<STATE> 4
<MEAN> 25
 -1.410654e+000 -8.892189e+000 1.118050e-002 -3.287615e+000 -2.938277e+000 -2.689248e+000 1.018931e+001 5.386748e+000 -1.198762e+001 -8.859910e+000 -2.081663e+000 5.720159e+000 -1.455651e+000 1.340278e+000 -4.518585e-001 4.153534e-002 -1.613740e+000 8.358278e-001 1.204319e+000 -2.119503e+000 4.741393e-001 2.833362e-001 2.623004e+000 -6.264390e-001 6.813855e-001
<VARIANCE> 25
 7.385978e+000 1.029072e+001 7.516761e+000 3.870176e+000 1.455119e+001 1.303343e+001 1.085678e+001 2.581722e+001 3.007117e+001 1.598027e+001 3.050056e+001 1.766769e+001 4.541150e-001 8.010028e-001 1.889907e+000 8.017892e-001 1.998016e+000 1.736889e+000 2.513072e+000 1.767306e+000 6.281294e+000 4.572889e+000 3.052309e+000 4.362039e+000 3.531911e-001
<GCONST> 8.403896e+001
<TRANSP> 5
 0.000000e+000 1.000000e+000 0.000000e+000 0.000000e+000 0.000000e+000
 0.000000e+000 9.037548e-001 9.624521e-002 0.000000e+000 0.000000e+000
 0.000000e+000 0.000000e+000 5.842665e-001 4.157335e-001 0.000000e+000
 0.000000e+000 0.000000e+000 0.000000e+000 5.659349e-001 4.340651e-001
 0.000000e+000 0.000000e+000 0.000000e+000 0.000000e+000 0.000000e+000
<ENDHMM>
~h "ul"
<BEGINHMM>
<NUMSTATES> 5
<STATE> 2
<MEAN> 25
 3.914127e+000 -1.214930e+000 1.451765e+000 -2.719476e+000 -5.508743e+000 -5.070582e+000 -6.518855e+000 -2.295157e+000 -4.998468e-001 4.236797e+000 -5.699992e-001 -3.521792e+000 1.063253e+000 5.824330e-002 -2.193622e+000 -6.821610e-001 1.497277e+000 4.812505e-001 -5.380661e-001 -6.423097e-001 8.009354e-001 6.969482e-001 2.131310e-001 -5.599612e-002 -1.403891e-001
<VARIANCE> 25
 1.778166e+001 2.306319e+001 4.267238e+001 4.280138e+001 5.401530e+001 4.392017e+001 5.496566e+001 5.985282e+001 4.349773e+001 3.330462e+001 3.447212e+001 2.336734e+001 1.444885e+000 1.786130e+000 2.354139e+000 3.605458e+000 4.009712e+000 5.022644e+000 6.056795e+000 9.890574e+000 5.540780e+000 3.931837e+000 3.562890e+000 2.496423e+000 1.008568e+000
<GCONST> 1.047709e+002
<STATE> 3
<MEAN> 25
 5.570820e+000 5.310588e-001 -4.040812e+000 -5.473185e+000 -4.339128e-001 -1.067494e+000 -5.165983e+000 -5.058663e+000 1.905985e-001 4.969062e+000 7.765895e-001 -2.735465e+000 1.661941e-001 9.012656e-001 -1.281584e+000 -4.019633e-001 1.386118e+000 1.269340e+000 8.012499e-001 -5.330626e-001 2.101009e-002 -1.251121e-001 5.811492e-001 6.874005e-001 -9.487665e-001
<VARIANCE> 25
 1.701559e+001 2.905635e+001 2.376004e+001 3.454105e+001 4.806211e+001 4.259919e+001 4.452536e+001 5.928555e+001 4.805039e+001 4.367013e+001 4.096632e+001 2.897121e+001 1.996122e+000 1.847213e+000 2.098929e+000 3.842535e+000 3.873439e+000 3.617485e+000 5.857883e+000 5.833235e+000 4.349973e+000 3.931488e+000 3.132529e+000 2.963242e+000 1.122559e+000
<GCONST> 1.038378e+002
<STATE> 4
<MEAN> 25
 1.621414e+000 4.299989e+000 -6.111361e+000 -3.406324e+000 5.666234e+000 3.881511e+000 -1.143342e+000 -1.718483e+000 6.517810e-001 2.198124e+000 2.981665e+000 5.847492e-001 -9.928923e-001 2.943742e-001 -1.455826e-001 9.274451e-001 1.101321e+000 6.305407e-001 4.230283e-001 1.101783e+000 2.730699e-001 -6.288209e-001 2.106295e-001 5.274680e-001 -9.308952e-001
<VARIANCE> 25
 3.805400e+001 3.429811e+001 2.251186e+001 4.244170e+001 7.449288e+001 4.331565e+001 4.518254e+001 4.968257e+001 4.475155e+001 4.896673e+001 3.065276e+001 3.258116e+001 2.587085e+000 3.009834e+000 1.897200e+000 2.728412e+000 4.889288e+000 3.364099e+000 4.233275e+000 4.353355e+000 4.162504e+000 4.641265e+000 3.398344e+000 2.773469e+000 1.539842e+000
<GCONST> 1.054243e+002
<TRANSP> 5
 0.000000e+000 1.000000e+000 0.000000e+000 0.000000e+000 0.000000e+000
 0.000000e+000 6.440809e-001 3.559190e-001 0.000000e+000 0.000000e+000
 0.000000e+000 0.000000e+000 5.914702e-001 4.085297e-001 0.000000e+000
 0.000000e+000 0.000000e+000 0.000000e+000 7.989206e-001 2.010793e-001
 0.000000e+000 0.000000e+000 0.000000e+000 0.000000e+000 0.000000e+000
<ENDHMM>
~h "sil"
<BEGINHMM>
<NUMSTATES> 5
<STATE> 2
<MEAN> 25
 -2.119323e+000 2.694395e+000 8.249557e-001 5.506707e+000 5.094351e+000 4.703266e+000 3.797338e+000 2.967587e+000 2.412239e+000 2.015678e+000 3.915580e+000 2.794194e+000 -1.696166e-001 1.049546e-001 -4.858672e-002 5.856560e-002 4.458096e-002 -2.670624e-003 1.757342e-002 5.051999e-002 1.490442e-001 2.152392e-001 1.995427e-001 1.021091e-001 -9.212641e-002
<VARIANCE> 25
 2.897723e+001 4.057543e+001 3.642859e+001 4.744590e+001 5.742285e+001 5.757231e+001 6.976557e+001 5.836846e+001 4.397176e+001 3.866716e+001 4.671376e+001 3.163411e+001 1.836865e+000 3.154026e+000 2.088026e+000 3.054747e+000 3.896683e+000 4.087094e+000 4.413591e+000 3.812697e+000 2.993622e+000 2.880967e+000 3.036168e+000 2.468616e+000 4.802504e+000
<GCONST> 1.065624e+002
<STATE> 3
<MEAN> 25
 -1.615780e+000 2.470662e+000 3.429047e-001 3.995257e+000 3.713431e+000 3.053773e+000 1.937495e+000 1.690104e+000 1.918409e+000 1.779872e+000 3.091823e+000 2.435796e+000 6.102926e-003 -9.564837e-002 -8.586152e-002 -4.257665e-001 -3.470012e-001 -4.065895e-001 -3.287446e-001 -2.751245e-001 -6.989800e-002 6.614152e-002 -4.388077e-002 -1.328888e-001 5.987571e-001
<VARIANCE> 25
 3.643361e+001 4.960709e+001 4.406215e+001 5.394892e+001 6.765158e+001 5.649576e+001 6.574393e+001 6.338612e+001 4.405226e+001 3.877771e+001 4.411779e+001 3.362852e+001 3.133898e+000 4.283043e+000 2.847789e+000 4.858973e+000 5.640267e+000 6.401462e+000 7.108962e+000 5.847192e+000 4.177381e+000 3.629755e+000 4.380521e+000 3.236043e+000 8.239243e+000
<GCONST> 1.125666e+002
<STATE> 4
<MEAN> 25
 -2.200727e+000 2.466155e+000 4.596933e-001 4.105537e+000 4.066953e+000 3.503731e+000 2.817251e+000 1.983924e+000 2.008570e+000 2.143071e+000 3.715721e+000 2.333016e+000 -1.115433e-001 -7.981259e-002 -1.969762e-002 -2.708624e-001 -1.465604e-001 9.764738e-003 1.726656e-001 3.291727e-002 -1.832367e-002 8.746962e-003 1.760803e-003 -1.077246e-001 2.767102e-001
<VARIANCE> 25
 3.800460e+001 4.795160e+001 4.050406e+001 5.546721e+001 6.481788e+001 5.196555e+001 6.355909e+001 5.897718e+001 4.218338e+001 3.728238e+001 4.463795e+001 3.233125e+001 1.917377e+000 2.187499e+000 1.771797e+000 3.081983e+000 3.602736e+000 3.912091e+000 3.925750e+000 3.628552e+000 2.993873e+000 2.729709e+000 3.191659e+000 2.388082e+000 3.809657e+000
<GCONST> 1.060612e+002
<TRANSP> 5
 0.000000e+000 1.000000e+000 0.000000e+000 0.000000e+000 0.000000e+000
 0.000000e+000 4.121915e-001 5.878084e-001 0.000000e+000 0.000000e+000
 0.000000e+000 0.000000e+000 3.149874e-001 6.850126e-001 0.000000e+000
 0.000000e+000 0.000000e+000 0.000000e+000 4.535384e-001 5.464617e-001
 0.000000e+000 0.000000e+000 0.000000e+000 0.000000e+000 0.000000e+000
<ENDHMM>
