~o
<STREAMINFO> 1 25
<VECSIZE> 25<NULLD><MFCC_D_N_Z_0><DIAGC>
~h "a"
<BEGINHMM>
<NUMSTATES> 5
<STATE> 2
<MEAN> 25
 5.298874e-001 -2.884074e+000 -1.877242e+000 -8.253273e-001 2.670679e-002 -1.065500e+000 7.576365e-001 1.202192e+000 -5.800821e-001 -1.413466e+000 -1.303097e+000 -5.974671e-001 -3.546151e-003 1.065522e-002 -3.438289e-002 -3.478053e-002 -2.040368e-002 1.080226e-002 -4.620070e-002 2.428295e-002 -4.163520e-002 -8.452266e-002 -4.501137e-002 -1.186543e-002 4.855129e-002
<VARIANCE> 25
 2.842968e+001 5.528721e+001 4.236039e+001 4.280778e+001 5.886222e+001 4.631453e+001 5.805852e+001 5.969318e+001 4.430285e+001 4.474326e+001 4.550035e+001 3.132788e+001 2.378329e+000 3.653516e+000 2.982725e+000 3.281556e+000 4.176343e+000 4.185905e+000 4.439504e+000 4.647738e+000 3.633450e+000 3.910943e+000 3.762102e+000 2.781654e+000 4.428962e+000
<GCONST> 1.085469e+002
<STATE> 3
<MEAN> 25
 4.789835e-001 -2.688199e+000 -1.844545e+000 -7.912317e-001 1.219311e-002 -9.860843e-001 6.142873e-001 1.176041e+000 -6.228361e-001 -1.507632e+000 -1.352617e+000 -5.790412e-001 -2.416686e-002 1.667262e-001 6.269529e-002 4.991231e-002 -1.279618e-002 6.392632e-002 -8.539705e-002 -4.880597e-002 -1.034001e-002 -4.269148e-003 4.565217e-003 2.768442e-002 -1.439974e-001
<VARIANCE> 25
 2.879333e+001 5.518456e+001 4.187120e+001 4.241531e+001 5.887053e+001 4.473880e+001 5.797474e+001 5.879214e+001 4.419133e+001 4.401151e+001 4.441294e+001 3.084081e+001 2.333248e+000 3.478708e+000 2.909732e+000 3.222872e+000 4.120331e+000 4.056568e+000 4.360900e+000 4.502760e+000 3.533504e+000 3.839918e+000 3.653919e+000 2.752233e+000 4.166768e+000
<GCONST> 1.080744e+002
<STATE> 4
<MEAN> 25
 3.729197e-001 -2.100455e+000 -1.561072e+000 -5.559003e-001 7.608583e-003 -7.901098e-001 3.379339e-001 9.399255e-001 -5.916273e-001 -1.407159e+000 -1.270652e+000 -4.496367e-001 -3.694569e-002 3.034067e-001 1.474394e-001 1.234743e-001 1.263347e-002 9.710406e-002 -1.066112e-001 -1.044352e-001 3.512608e-002 7.871033e-002 7.059982e-002 6.585335e-002 -3.304343e-001
<VARIANCE> 25
 3.023012e+001 5.637820e+001 4.259566e+001 4.406291e+001 6.022293e+001 4.382185e+001 5.917191e+001 5.811539e+001 4.426643e+001 4.395505e+001 4.461861e+001 3.083427e+001 2.342410e+000 3.263998e+000 2.814409e+000 3.219302e+000 4.089795e+000 3.948277e+000 4.327837e+000 4.347424e+000 3.452323e+000 3.736542e+000 3.541227e+000 2.701401e+000 3.889570e+000
<GCONST> 1.078747e+002
<TRANSP> 5
 0.000000e+000 1.000000e+000 0.000000e+000 0.000000e+000 0.000000e+000
 0.000000e+000 5.563640e-001 4.436361e-001 0.000000e+000 0.000000e+000
 0.000000e+000 0.000000e+000 5.563716e-001 4.436285e-001 0.000000e+000
 0.000000e+000 0.000000e+000 0.000000e+000 6.536312e-001 3.463688e-001
 0.000000e+000 0.000000e+000 0.000000e+000 0.000000e+000 0.000000e+000
<ENDHMM>
~h "b"
<BEGINHMM>
<NUMSTATES> 5
<STATE> 2
<MEAN> 25
 -5.463269e-001 -9.097805e+000 -3.423494e+000 -2.814486e-001 3.543372e+000 1.098025e+000 4.205533e-001 3.889729e+000 1.537931e+000 -5.111151e+000 -1.003692e+001 -1.551779e+000 -1.420631e-001 -5.055893e-001 1.153346e-001 -2.303413e-001 4.469183e-001 -2.227888e-001 2.580548e-001 3.176168e-001 -5.264885e-001 -5.616696e-001 -7.929100e-001 2.284555e-001 5.669953e-001
<VARIANCE> 25
 1.022494e+001 7.896986e+001 2.919481e+001 3.192683e+001 1.840424e+001 3.335453e+001 2.660205e+001 4.478062e+001 3.570840e+001 3.925271e+001 3.492125e+001 2.724253e+001 1.238794e+000 4.076951e+000 1.892689e+000 2.608274e+000 1.845605e+000 3.132985e+000 2.930817e+000 5.101304e+000 3.211893e+000 4.401645e+000 3.003227e+000 2.773730e+000 3.331045e+000
<GCONST> 1.007318e+002
<STATE> 3
<MEAN> 25
 -6.206589e-001 -9.311095e+000 -2.640157e+000 -5.787994e-001 4.238693e+000 1.972212e-001 6.122304e-001 3.899111e+000 5.980942e-001 -5.358371e+000 -1.108035e+001 -1.328768e+000 3.023176e-002 1.587241e-001 4.666641e-001 -1.123945e-001 1.774068e-001 -4.739821e-001 -3.096038e-003 -1.830339e-001 -3.026942e-001 8.332268e-002 -3.376486e-001 -1.567086e-003 -9.695670e-002
<VARIANCE> 25
 9.154192e+000 6.840845e+001 2.573841e+001 2.555814e+001 1.822563e+001 3.259761e+001 2.423776e+001 4.460886e+001 3.827592e+001 3.892948e+001 2.981781e+001 2.584696e+001 8.725612e-001 3.756717e+000 1.627020e+000 1.959346e+000 1.959868e+000 2.780806e+000 2.352091e+000 4.555079e+000 3.478041e+000 4.238034e+000 2.457503e+000 2.389917e+000 2.514155e+000
<GCONST> 9.799902e+001
<STATE> 4
<MEAN> 25
 -6.699300e-002 -7.782054e+000 -9.760252e-001 -4.368006e-001 4.082394e+000 -1.406039e+000 -1.944687e-001 2.291646e+000 2.877930e-001 -3.936570e+000 -1.074957e+001 -1.742562e+000 2.322432e-001 7.253864e-001 6.343250e-001 2.719157e-002 -2.037514e-001 -5.504407e-001 -3.124197e-001 -6.930830e-001 4.065176e-002 5.756571e-001 2.245935e-001 -1.970496e-001 -6.190639e-001
<VARIANCE> 25
 9.439693e+000 6.918204e+001 2.571932e+001 2.832398e+001 2.330637e+001 3.296413e+001 2.805980e+001 5.247599e+001 4.453257e+001 4.274010e+001 3.657488e+001 2.631098e+001 7.553793e-001 3.109838e+000 1.569647e+000 1.718990e+000 2.404796e+000 2.684077e+000 2.598789e+000 4.614207e+000 4.016914e+000 3.901662e+000 2.571925e+000 2.202934e+000 1.810202e+000
<GCONST> 9.865450e+001
<TRANSP> 5
 0.000000e+000 1.000000e+000 0.000000e+000 0.000000e+000 0.000000e+000
 0.000000e+000 5.654315e-001 4.345685e-001 0.000000e+000 0.000000e+000
 0.000000e+000 0.000000e+000 5.654318e-001 4.345681e-001 0.000000e+000
 0.000000e+000 0.000000e+000 0.000000e+000 6.628095e-001 3.371905e-001
 0.000000e+000 0.000000e+000 0.000000e+000 0.000000e+000 0.000000e+000
<ENDHMM>
~h "c"
<BEGINHMM>
<NUMSTATES> 5
<STATE> 2
<MEAN> 25
 8.606638e-001 2.382305e+000 -2.429953e+000 -1.184806e+000 1.861616e+000 1.015787e+000 1.099938e+000 1.242440e+000 -1.542540e+000 1.929549e+000 3.126959e+000 1.382465e+000 2.640149e-001 -3.390917e-002 -6.651080e-001 -1.021774e+000 -2.747585e-002 1.498638e-001 -7.796924e-002 1.422701e-001 -5.651298e-001 -3.652927e-002 3.001065e-001 2.731360e-001 3.768216e-001
<VARIANCE> 25
 2.369304e+001 3.766285e+001 7.162261e+001 1.049613e+002 5.821296e+001 6.195686e+001 4.928901e+001 4.543353e+001 4.671607e+001 2.945665e+001 4.477626e+001 2.262210e+001 2.346009e+000 3.732511e+000 6.544470e+000 7.815619e+000 6.742965e+000 5.125357e+000 5.276803e+000 4.533181e+000 3.713164e+000 3.549501e+000 3.330888e+000 2.359076e+000 3.548931e+000
<GCONST> 1.104467e+002
<STATE> 3
<MEAN> 25
 1.578633e+000 2.341915e+000 -3.786460e+000 -3.530515e+000 1.705698e+000 1.277290e+000 6.242496e-001 1.347084e+000 -2.696898e+000 1.803820e+000 3.568124e+000 1.839093e+000 3.459365e-001 9.215650e-004 -4.892634e-001 -9.845330e-001 -1.298464e-001 7.179176e-002 -2.766421e-001 -6.617614e-002 -4.698583e-001 -8.733165e-002 1.434537e-001 1.745529e-001 4.040758e-001
<VARIANCE> 25
 2.382606e+001 3.309316e+001 6.928183e+001 1.094748e+002 5.870818e+001 6.112325e+001 4.614425e+001 4.227370e+001 4.635759e+001 2.977112e+001 4.096051e+001 2.178813e+001 2.175687e+000 3.509715e+000 6.514038e+000 7.982308e+000 6.490319e+000 4.587212e+000 4.895532e+000 4.313820e+000 3.655917e+000 3.538739e+000 3.124276e+000 2.343371e+000 3.190749e+000
<GCONST> 1.094752e+002
<STATE> 4
<MEAN> 25
 2.421074e+000 2.473443e+000 -4.679620e+000 -5.737500e+000 1.294783e+000 1.549939e+000 -2.279987e-001 1.009267e+000 -3.643345e+000 1.469972e+000 3.554401e+000 1.920354e+000 2.789037e-001 6.398455e-002 -1.613029e-001 -6.213060e-001 -2.145672e-001 4.662799e-002 -2.910655e-001 -2.338312e-001 -2.723037e-001 -1.454075e-001 1.048682e-002 2.651395e-002 2.596986e-001
<VARIANCE> 25
 2.346518e+001 2.826651e+001 6.289171e+001 1.101318e+002 5.473925e+001 5.646991e+001 4.278883e+001 4.066871e+001 4.325478e+001 3.103315e+001 3.998693e+001 2.269941e+001 1.971964e+000 3.209533e+000 5.730019e+000 8.133172e+000 5.984088e+000 3.984391e+000 4.385241e+000 4.027697e+000 3.631907e+000 3.377491e+000 2.935286e+000 2.288272e+000 3.083472e+000
<GCONST> 1.080656e+002
<TRANSP> 5
 0.000000e+000 1.000000e+000 0.000000e+000 0.000000e+000 0.000000e+000
 0.000000e+000 5.561994e-001 4.438007e-001 0.000000e+000 0.000000e+000
 0.000000e+000 0.000000e+000 5.561991e-001 4.438009e-001 0.000000e+000
 0.000000e+000 0.000000e+000 0.000000e+000 6.517202e-001 3.482798e-001
 0.000000e+000 0.000000e+000 0.000000e+000 0.000000e+000 0.000000e+000
<ENDHMM>
~h "e"
<BEGINHMM>
<NUMSTATES> 5
<STATE> 2
<MEAN> 25
 -2.840635e-001 5.422507e-001 2.627049e+000 -7.038319e-001 -4.776182e+000 -2.057596e+000 9.146243e-001 -1.785709e+000 3.741305e-001 1.342924e+000 -4.874489e-002 1.340880e+000 6.779667e-003 1.776518e-001 -4.878995e-002 2.203652e-002 -1.097040e-001 7.748976e-002 1.818117e-001 -1.772524e-001 -2.386972e-003 -1.290405e-001 -8.529979e-002 -2.319877e-001 -6.649186e-002
<VARIANCE> 25
 2.373934e+001 3.774312e+001 2.398369e+001 3.806950e+001 6.093129e+001 5.699995e+001 3.494744e+001 3.540790e+001 3.202801e+001 3.780626e+001 2.935973e+001 2.474832e+001 2.352037e+000 3.165863e+000 2.001682e+000 3.305163e+000 6.949376e+000 5.976551e+000 3.760353e+000 3.272844e+000 4.330291e+000 3.536026e+000 3.556836e+000 2.547190e+000 5.264072e+000
<GCONST> 1.052499e+002
<STATE> 3
<MEAN> 25
 -1.372442e-001 7.899042e-001 2.507412e+000 -6.261621e-001 -4.878335e+000 -2.011660e+000 1.235365e+000 -2.028571e+000 3.924978e-001 9.777182e-001 -1.529654e-001 7.606767e-001 1.092043e-001 1.459797e-001 -1.217112e-001 1.344336e-001 -9.956262e-002 1.227984e-002 1.784281e-001 -7.276006e-002 -6.085446e-002 -1.977579e-001 5.801225e-002 -3.201016e-001 -1.115171e-001
<VARIANCE> 25
 2.139055e+001 4.178111e+001 2.520214e+001 3.837381e+001 5.398351e+001 5.375186e+001 3.406200e+001 3.553749e+001 3.268822e+001 3.968149e+001 2.790578e+001 2.668839e+001 2.347948e+000 3.357429e+000 2.183896e+000 3.662763e+000 6.755943e+000 6.385872e+000 3.502591e+000 3.325661e+000 4.350803e+000 3.553636e+000 3.337607e+000 2.448938e+000 5.346085e+000
<GCONST> 1.053487e+002
<STATE> 4
<MEAN> 25
 2.488901e-001 9.169514e-001 2.123196e+000 -3.238202e-001 -4.920094e+000 -2.059186e+000 1.455849e+000 -1.937118e+000 4.498080e-001 4.361588e-001 7.767150e-002 8.486620e-002 1.619451e-001 7.769692e-002 -2.599644e-001 2.116902e-001 1.545028e-003 2.856198e-002 4.382682e-002 9.966810e-002 -2.464875e-002 -2.391896e-001 1.680199e-001 -2.603584e-001 -1.239440e-001
<VARIANCE> 25
 1.912015e+001 4.485101e+001 2.662286e+001 3.993952e+001 5.103668e+001 5.170715e+001 3.547298e+001 3.506443e+001 3.361408e+001 3.840704e+001 2.719997e+001 2.717618e+001 2.288800e+000 3.490839e+000 2.476347e+000 3.968361e+000 6.480263e+000 6.232313e+000 3.475626e+000 3.533232e+000 4.018531e+000 3.668536e+000 3.033336e+000 2.469003e+000 5.274473e+000
<GCONST> 1.053799e+002
<TRANSP> 5
 0.000000e+000 1.000000e+000 0.000000e+000 0.000000e+000 0.000000e+000
 0.000000e+000 4.701333e-001 5.298666e-001 0.000000e+000 0.000000e+000
 0.000000e+000 0.000000e+000 4.701337e-001 5.298664e-001 0.000000e+000
 0.000000e+000 0.000000e+000 0.000000e+000 5.505584e-001 4.494416e-001
 0.000000e+000 0.000000e+000 0.000000e+000 0.000000e+000 0.000000e+000
<ENDHMM>
~h "h"
<BEGINHMM>
<NUMSTATES> 5
<STATE> 2
<MEAN> 25
 -1.224900e+000 6.693059e-001 1.297420e+000 -4.449741e-001 -6.340503e-001 1.214013e+000 -1.569708e-001 -1.783476e+000 9.080427e-001 1.115383e+000 6.734039e-001 7.404374e-002 5.510579e-001 -1.064638e-001 -8.529177e-002 -2.196145e-001 -7.266095e-001 -3.441605e-001 -4.337677e-001 -4.491520e-001 -2.548931e-001 -3.324546e-001 -3.903304e-001 -1.666557e-001 5.357392e-001
<VARIANCE> 25
 5.669356e+001 4.986624e+001 4.808908e+001 7.502718e+001 9.402648e+001 4.264160e+001 7.074607e+001 7.362693e+001 5.975252e+001 4.522337e+001 4.122204e+001 3.418430e+001 3.374241e+000 2.504300e+000 2.635277e+000 4.787947e+000 5.650286e+000 3.667876e+000 5.221235e+000 4.833132e+000 4.236779e+000 3.471152e+000 3.176965e+000 2.910925e+000 2.660795e+000
<GCONST> 1.109120e+002
<STATE> 3
<MEAN> 25
 -1.299186e-001 5.127342e-001 1.172805e+000 -7.512318e-001 -1.928989e+000 5.770649e-001 -8.270979e-001 -2.378069e+000 3.062563e-001 4.083830e-001 -1.710781e-001 -8.062276e-002 4.738465e-001 -5.674208e-002 -6.853059e-002 -1.546275e-001 -5.500365e-001 -2.961176e-001 -2.868108e-001 -1.900119e-001 -2.896025e-001 -3.241331e-001 -3.813369e-001 -4.275259e-002 2.965378e-001
<VARIANCE> 25
 5.115344e+001 4.762165e+001 4.705753e+001 6.964133e+001 8.521040e+001 4.157961e+001 7.091331e+001 6.520670e+001 5.599177e+001 4.439923e+001 4.141487e+001 3.257122e+001 3.485574e+000 2.597944e+000 2.615342e+000 4.844216e+000 5.514553e+000 3.648854e+000 5.150098e+000 4.818947e+000 4.176374e+000 3.580111e+000 3.183628e+000 2.982482e+000 2.725630e+000
<GCONST> 1.103912e+002
<STATE> 4
<MEAN> 25
 7.586769e-001 4.570218e-001 1.026661e+000 -1.018232e+000 -2.925677e+000 -1.144553e-001 -1.165470e+000 -2.380058e+000 -3.671378e-001 -2.575746e-001 -9.681102e-001 -2.985163e-002 2.992281e-001 -2.449078e-002 -8.231927e-002 -1.187581e-001 -3.161611e-001 -2.375247e-001 -9.675848e-002 6.479239e-002 -2.712169e-001 -2.359283e-001 -2.696561e-001 3.053068e-002 1.321944e-001
<VARIANCE> 25
 4.594078e+001 4.630267e+001 4.611999e+001 6.533176e+001 7.692915e+001 4.193304e+001 6.993076e+001 5.845082e+001 5.298054e+001 4.311928e+001 4.204981e+001 3.137671e+001 3.607451e+000 2.691559e+000 2.584390e+000 4.512199e+000 5.464557e+000 3.731191e+000 4.841004e+000 4.689876e+000 4.132489e+000 3.709082e+000 3.288666e+000 2.825583e+000 2.851118e+000
<GCONST> 1.098072e+002
<TRANSP> 5
 0.000000e+000 1.000000e+000 0.000000e+000 0.000000e+000 0.000000e+000
 0.000000e+000 5.244634e-001 4.755366e-001 0.000000e+000 0.000000e+000
 0.000000e+000 0.000000e+000 5.244638e-001 4.755363e-001 0.000000e+000
 0.000000e+000 0.000000e+000 0.000000e+000 6.174446e-001 3.825555e-001
 0.000000e+000 0.000000e+000 0.000000e+000 0.000000e+000 0.000000e+000
<ENDHMM>
~h "i"
<BEGINHMM>
<NUMSTATES> 5
<STATE> 2
<MEAN> 25
 -8.906919e-001 3.559039e+000 4.630729e+000 -1.544416e+000 -4.025647e+000 -1.043004e+000 -2.202129e+000 -2.938591e+000 -1.517634e-001 7.984062e-001 3.533170e-001 -4.697756e-001 7.445670e-002 -5.883195e-002 -4.652430e-002 -6.755862e-002 7.139105e-002 -3.529659e-002 -1.342900e-001 -8.685455e-002 -6.836464e-002 2.105881e-002 -1.185953e-001 -4.547861e-002 1.046681e-001
<VARIANCE> 25
 3.860472e+001 3.645636e+001 3.755922e+001 5.612782e+001 7.299516e+001 4.112003e+001 6.740307e+001 5.696489e+001 4.154127e+001 3.342028e+001 3.996463e+001 2.841211e+001 2.972397e+000 2.295131e+000 2.700098e+000 4.609312e+000 6.195004e+000 4.066124e+000 5.103175e+000 4.469321e+000 3.238697e+000 3.019361e+000 3.325805e+000 2.456652e+000 2.943334e+000
<GCONST> 1.076360e+002
<STATE> 3
<MEAN> 25
 -7.464584e-001 3.317787e+000 4.307056e+000 -1.533894e+000 -3.642298e+000 -1.041430e+000 -2.322349e+000 -2.972993e+000 -2.686096e-001 8.336549e-001 1.743425e-001 -5.008646e-001 7.207932e-002 -1.250060e-001 -2.109114e-001 6.210455e-002 2.423461e-001 3.021494e-002 -1.937531e-003 2.282244e-002 -4.044009e-002 1.186999e-002 -6.245221e-002 8.411553e-003 -4.403533e-003
<VARIANCE> 25
 3.767505e+001 3.713834e+001 3.783899e+001 5.465623e+001 7.217775e+001 4.055835e+001 6.606203e+001 5.664882e+001 4.152116e+001 3.358788e+001 3.931589e+001 2.848785e+001 2.955162e+000 2.346278e+000 2.668690e+000 4.457933e+000 6.045593e+000 3.941447e+000 4.962877e+000 4.440538e+000 3.264353e+000 3.060213e+000 3.264020e+000 2.466823e+000 2.852340e+000
<GCONST> 1.074077e+002
<STATE> 4
<MEAN> 25
 -6.282366e-001 2.853997e+000 3.513705e+000 -1.272014e+000 -2.755330e+000 -9.170572e-001 -2.093133e+000 -2.651455e+000 -2.855203e-001 7.789948e-001 1.035108e-001 -4.578084e-001 5.956133e-002 -1.978242e-001 -3.492075e-001 1.900847e-001 4.098807e-001 8.671726e-002 1.475142e-001 1.636952e-001 -5.636607e-003 -2.800548e-002 -9.328336e-003 4.804758e-002 -1.087490e-001
<VARIANCE> 25
 3.802325e+001 4.025037e+001 4.040050e+001 5.471865e+001 7.412022e+001 4.120214e+001 6.667648e+001 5.908124e+001 4.156763e+001 3.540432e+001 3.967747e+001 2.952386e+001 2.961207e+000 2.450054e+000 2.540764e+000 4.223186e+000 5.704262e+000 3.856649e+000 4.796179e+000 4.407006e+000 3.331280e+000 3.138995e+000 3.233253e+000 2.528093e+000 2.908446e+000
<GCONST> 1.076570e+002
<TRANSP> 5
 0.000000e+000 1.000000e+000 0.000000e+000 0.000000e+000 0.000000e+000
 0.000000e+000 5.575155e-001 4.424845e-001 0.000000e+000 0.000000e+000
 0.000000e+000 0.000000e+000 5.575135e-001 4.424864e-001 0.000000e+000
 0.000000e+000 0.000000e+000 0.000000e+000 6.536352e-001 3.463648e-001
 0.000000e+000 0.000000e+000 0.000000e+000 0.000000e+000 0.000000e+000
<ENDHMM>
~h "j"
<BEGINHMM>
<NUMSTATES> 5
<STATE> 2
<MEAN> 25
 1.015473e+000 1.291300e+000 -3.022951e+000 -5.063034e+000 -1.199897e+000 3.745984e+000 4.562356e+000 2.758056e+000 -1.307388e+000 3.312281e+000 3.914881e-001 1.214614e+000 3.688374e-001 -1.822801e-001 2.857123e-001 -9.271466e-001 -4.959269e-001 -5.133899e-001 -7.770315e-001 -5.379620e-001 -7.511307e-002 1.411650e-001 -9.350525e-001 -2.530920e-001 7.250812e-001
<VARIANCE> 25
 2.876712e+001 3.464002e+001 4.350820e+001 6.674934e+001 4.204305e+001 4.635149e+001 8.439058e+001 7.594973e+001 4.361980e+001 3.492428e+001 5.362132e+001 3.495898e+001 1.806534e+000 2.620513e+000 2.947950e+000 4.818248e+000 3.956362e+000 4.706684e+000 6.028805e+000 5.011837e+000 5.990306e+000 3.640518e+000 3.389393e+000 2.855046e+000 1.988559e+000
<GCONST> 1.086107e+002
<STATE> 3
<MEAN> 25
 1.776246e+000 1.017463e+000 -1.945465e+000 -6.445940e+000 -2.220717e+000 2.409095e+000 2.662682e+000 1.223735e+000 -1.574661e+000 3.205707e+000 -1.739900e+000 8.857481e-001 3.197741e-001 -1.227211e-001 5.752743e-001 -4.447708e-001 -4.456596e-001 -6.608652e-001 -8.781852e-001 -7.382128e-001 -7.016258e-002 -1.114614e-001 -1.026736e+000 -1.175862e-001 4.862295e-001
<VARIANCE> 25
 2.581820e+001 3.296899e+001 4.543354e+001 5.891808e+001 4.151300e+001 4.259450e+001 8.406277e+001 7.854629e+001 4.915237e+001 3.380373e+001 6.400763e+001 3.163991e+001 1.679134e+000 2.676224e+000 2.485061e+000 5.121267e+000 3.689101e+000 4.707106e+000 5.675487e+000 4.650746e+000 6.572994e+000 3.299768e+000 4.036625e+000 2.787612e+000 2.126770e+000
<GCONST> 1.083139e+002
<STATE> 4
<MEAN> 25
 2.461892e+000 7.846748e-001 -3.957122e-001 -6.874202e+000 -2.993853e+000 7.980016e-001 6.866881e-001 -8.052576e-001 -1.716899e+000 2.529446e+000 -4.070948e+000 6.296930e-001 2.388732e-001 -7.307425e-002 6.291838e-001 2.307698e-002 -2.673081e-001 -6.018406e-001 -7.106500e-001 -7.650075e-001 4.006067e-002 -3.114874e-001 -8.171748e-001 -1.150016e-001 2.050589e-001
<VARIANCE> 25
 2.192995e+001 3.256194e+001 4.431768e+001 5.845869e+001 4.096473e+001 3.950138e+001 6.995023e+001 6.902006e+001 5.735102e+001 3.247979e+001 6.711786e+001 2.669339e+001 1.556466e+000 2.823718e+000 2.167484e+000 5.083677e+000 3.714221e+000 4.647996e+000 5.351191e+000 4.164379e+000 6.897462e+000 3.139359e+000 4.933225e+000 2.867169e+000 2.353885e+000
<GCONST> 1.076827e+002
<TRANSP> 5
 0.000000e+000 1.000000e+000 0.000000e+000 0.000000e+000 0.000000e+000
 0.000000e+000 5.229542e-001 4.770457e-001 0.000000e+000 0.000000e+000
 0.000000e+000 0.000000e+000 5.229543e-001 4.770456e-001 0.000000e+000
 0.000000e+000 0.000000e+000 0.000000e+000 6.104857e-001 3.895143e-001
 0.000000e+000 0.000000e+000 0.000000e+000 0.000000e+000 0.000000e+000
<ENDHMM>
~h "k"
<BEGINHMM>
<NUMSTATES> 5
<STATE> 2
<MEAN> 25
 6.410900e-001 -4.266831e-001 -1.423785e+000 -1.155354e+000 -3.195776e-001 -6.418857e-001 1.510729e+000 1.170063e+000 -6.972054e-002 4.809553e-001 -7.896219e-001 1.513961e-001 2.586798e-001 -2.315057e-001 -9.202144e-002 -2.117790e-001 -8.583630e-003 -3.483247e-002 -9.545569e-002 -2.868857e-001 -6.745948e-002 -6.256807e-002 -1.843633e-001 -2.092708e-001 3.441015e-001
<VARIANCE> 25
 3.245440e+001 5.765045e+001 4.756191e+001 5.647407e+001 6.289565e+001 6.457738e+001 7.460329e+001 5.579515e+001 4.302355e+001 4.272171e+001 5.862570e+001 3.315573e+001 2.689157e+000 3.238075e+000 3.245052e+000 4.587790e+000 5.475823e+000 5.883378e+000 5.571333e+000 4.633075e+000 4.042871e+000 3.832599e+000 4.524483e+000 3.126539e+000 4.576693e+000
<GCONST> 1.116080e+002
<STATE> 3
<MEAN> 25
 1.019762e+000 -6.979001e-001 -1.499878e+000 -1.353299e+000 -2.080860e-001 -5.423840e-001 1.067734e+000 4.949254e-001 -1.892628e-001 4.843301e-001 -9.899637e-001 -1.201154e-001 1.585089e-001 -9.430644e-002 2.221359e-002 -6.266042e-002 3.323200e-003 -1.251870e-003 -2.032524e-001 -3.389460e-001 -4.647828e-002 2.033835e-002 -9.134068e-002 -1.202428e-001 1.730116e-001
<VARIANCE> 25
 3.044658e+001 5.607409e+001 4.686082e+001 5.573311e+001 6.152642e+001 6.104713e+001 7.360075e+001 5.771071e+001 4.220293e+001 4.298706e+001 5.497807e+001 3.293026e+001 2.434513e+000 3.175487e+000 3.188920e+000 4.408154e+000 4.997266e+000 5.378158e+000 5.616248e+000 4.635334e+000 3.901933e+000 3.705391e+000 4.395318e+000 3.003869e+000 4.192971e+000
<GCONST> 1.107713e+002
<STATE> 4
<MEAN> 25
 1.286035e+000 -5.685148e-001 -1.196350e+000 -1.301710e+000 -3.135867e-001 -5.322822e-001 3.056171e-001 -4.171533e-001 -3.841809e-001 6.293756e-001 -1.090521e+000 -2.759979e-001 8.266061e-002 2.965878e-002 1.547127e-001 4.889570e-002 -7.474592e-002 -4.457732e-002 -2.548268e-001 -3.297002e-001 -6.312588e-002 4.551749e-002 -4.438306e-002 -5.707707e-002 6.666491e-002
<VARIANCE> 25
 3.089911e+001 5.275285e+001 4.612506e+001 5.566236e+001 6.057161e+001 5.733637e+001 7.463923e+001 6.162166e+001 4.225002e+001 4.309135e+001 5.167090e+001 3.186857e+001 2.365130e+000 3.126828e+000 3.135054e+000 4.294566e+000 4.748893e+000 5.075501e+000 5.643038e+000 4.729117e+000 3.919088e+000 3.667231e+000 4.319685e+000 2.925378e+000 3.987417e+000
<GCONST> 1.103462e+002
<TRANSP> 5
 0.000000e+000 1.000000e+000 0.000000e+000 0.000000e+000 0.000000e+000
 0.000000e+000 5.446508e-001 4.553492e-001 0.000000e+000 0.000000e+000
 0.000000e+000 0.000000e+000 5.446536e-001 4.553464e-001 0.000000e+000
 0.000000e+000 0.000000e+000 0.000000e+000 6.404726e-001 3.595273e-001
 0.000000e+000 0.000000e+000 0.000000e+000 0.000000e+000 0.000000e+000
<ENDHMM>
~h "l"
<BEGINHMM>
<NUMSTATES> 5
<STATE> 2
<MEAN> 25
 2.325709e+000 -2.778280e+000 1.571296e+000 -4.829039e+000 -1.739098e+000 -5.437471e+000 2.403576e-001 -1.497276e+000 -8.535105e-001 -7.789462e-001 -2.206023e+000 4.198895e-001 -3.251257e-001 5.902991e-001 4.108864e-001 -1.250799e-001 -1.271921e+000 8.538763e-002 2.561155e-001 -4.075008e-001 2.159966e-001 4.170794e-001 2.148202e-002 1.535392e-001 2.048376e-001
<VARIANCE> 25
 1.650194e+001 2.926660e+001 6.086545e+001 3.229736e+001 8.007146e+001 5.438114e+001 6.061196e+001 3.987372e+001 2.349718e+001 3.793217e+001 2.589464e+001 4.422540e+001 1.255719e+000 1.674434e+000 2.426465e+000 4.010838e+000 4.417507e+000 5.534934e+000 5.254689e+000 3.128027e+000 2.346754e+000 3.113023e+000 3.141748e+000 4.162961e+000 2.077742e+000
<GCONST> 1.040214e+002
<STATE> 3
<MEAN> 25
 1.735929e+000 -1.390480e+000 2.581626e+000 -4.734536e+000 -4.117517e+000 -5.127962e+000 2.307969e-001 -2.199667e+000 -4.514776e-001 -1.345596e-001 -2.216181e+000 6.957777e-001 -3.439897e-001 7.592515e-001 3.861097e-001 1.530900e-001 -1.149995e+000 4.469446e-001 -1.388060e-002 -5.119753e-001 1.599268e-001 4.115700e-001 5.842133e-003 -6.687006e-002 -6.171788e-002
<VARIANCE> 25
 1.610180e+001 3.586736e+001 4.714495e+001 3.311198e+001 7.683649e+001 5.704889e+001 5.525523e+001 4.581199e+001 2.217243e+001 3.799568e+001 2.969423e+001 3.803513e+001 9.206015e-001 1.665418e+000 2.508395e+000 3.895786e+000 4.302131e+000 5.375501e+000 5.582996e+000 2.802917e+000 2.508825e+000 2.796281e+000 2.927062e+000 3.661655e+000 2.117163e+000
<GCONST> 1.033150e+002
<STATE> 4
<MEAN> 25
 1.346717e+000 3.755312e-001 3.421298e+000 -3.907888e+000 -6.269099e+000 -4.182113e+000 -4.074247e-001 -3.201557e+000 -4.513202e-001 3.662057e-001 -2.302842e+000 4.142021e-001 -2.747827e-001 8.559244e-001 2.742576e-001 4.980227e-001 -8.738629e-001 7.283257e-001 -1.845047e-001 -6.085761e-001 -7.627655e-002 3.805154e-001 5.128489e-002 -3.304009e-001 -3.638719e-001
<VARIANCE> 25
 1.739098e+001 4.133114e+001 3.208445e+001 4.092863e+001 6.399406e+001 6.165622e+001 4.958069e+001 4.795689e+001 2.136708e+001 3.692295e+001 3.510695e+001 3.607174e+001 8.663001e-001 1.556032e+000 2.403577e+000 3.759950e+000 4.206347e+000 4.931121e+000 5.544579e+000 2.661792e+000 2.834506e+000 2.516035e+000 2.857328e+000 3.061373e+000 1.918935e+000
<GCONST> 1.025826e+002
<TRANSP> 5
 0.000000e+000 1.000000e+000 0.000000e+000 0.000000e+000 0.000000e+000
 0.000000e+000 4.733431e-001 5.266569e-001 0.000000e+000 0.000000e+000
 0.000000e+000 0.000000e+000 4.733428e-001 5.266572e-001 0.000000e+000
 0.000000e+000 0.000000e+000 0.000000e+000 5.583082e-001 4.416918e-001
 0.000000e+000 0.000000e+000 0.000000e+000 0.000000e+000 0.000000e+000
<ENDHMM>
~h "m"
<BEGINHMM>
<NUMSTATES> 5
<STATE> 2
<MEAN> 25
 2.501461e+000 -1.470031e+000 3.070535e-001 4.353224e-002 4.171695e-001 1.348452e-001 -3.063827e+000 -4.190976e+000 -1.465772e+000 1.073963e+000 -8.943025e-001 -1.460690e+000 7.529651e-002 -2.719285e-001 -2.512220e-001 -8.092742e-002 9.014043e-002 -1.482788e-001 -2.112657e-002 1.460645e-001 -1.238108e-001 -1.815565e-001 -1.696671e-001 -4.190978e-002 3.190770e-001
<VARIANCE> 25
 2.179078e+001 3.964292e+001 3.919507e+001 3.929342e+001 4.561408e+001 4.022734e+001 6.434068e+001 8.126414e+001 4.345480e+001 4.251051e+001 3.880185e+001 3.265421e+001 1.589136e+000 2.376635e+000 2.968568e+000 3.297150e+000 3.163511e+000 3.631527e+000 4.886932e+000 6.888639e+000 3.572603e+000 3.642974e+000 3.019068e+000 2.917163e+000 2.257572e+000
<GCONST> 1.059142e+002
<STATE> 3
<MEAN> 25
 2.468956e+000 -1.886196e+000 -1.853807e-001 -1.112521e-001 5.803226e-001 -1.385068e-001 -2.910241e+000 -3.612800e+000 -1.616847e+000 5.985904e-001 -1.155368e+000 -1.429636e+000 -7.018739e-002 -1.363937e-001 -1.914157e-001 -6.709025e-002 5.392709e-002 -1.154783e-001 1.191780e-001 3.177259e-001 -2.769089e-002 -2.372798e-001 -9.248459e-002 5.315113e-002 2.022829e-001
<VARIANCE> 25
 2.085407e+001 3.945438e+001 4.025172e+001 3.649152e+001 4.515944e+001 4.021986e+001 6.136750e+001 7.968742e+001 4.114938e+001 4.323288e+001 3.739064e+001 3.299892e+001 1.545248e+000 2.446265e+000 3.087321e+000 3.179146e+000 3.171853e+000 3.564769e+000 4.456509e+000 6.585800e+000 3.583714e+000 3.712704e+000 3.014310e+000 2.946890e+000 2.192026e+000
<GCONST> 1.055286e+002
<STATE> 4
<MEAN> 25
 2.077995e+000 -1.938517e+000 -4.733888e-001 -2.235254e-001 6.153684e-001 -4.279582e-001 -2.484978e+000 -2.639609e+000 -1.568266e+000 -7.391086e-002 -1.283491e+000 -1.138575e+000 -1.846565e-001 4.351713e-002 -6.051574e-002 -1.590699e-002 -4.210800e-003 -7.851071e-002 2.001003e-001 3.773231e-001 5.247381e-002 -2.503211e-001 -9.348545e-003 1.503973e-001 2.775950e-002
<VARIANCE> 25
 2.222214e+001 4.244136e+001 4.245710e+001 3.472374e+001 4.654838e+001 4.195975e+001 6.008827e+001 7.793169e+001 4.122739e+001 4.361266e+001 3.817389e+001 3.363229e+001 1.531041e+000 2.473185e+000 3.187002e+000 3.022756e+000 3.240603e+000 3.569795e+000 4.125067e+000 6.076669e+000 3.521683e+000 3.691284e+000 3.018058e+000 2.857718e+000 2.173828e+000
<GCONST> 1.055355e+002
<TRANSP> 5
 0.000000e+000 1.000000e+000 0.000000e+000 0.000000e+000 0.000000e+000
 0.000000e+000 5.508509e-001 4.491492e-001 0.000000e+000 0.000000e+000
 0.000000e+000 0.000000e+000 5.508480e-001 4.491520e-001 0.000000e+000
 0.000000e+000 0.000000e+000 0.000000e+000 6.457857e-001 3.542143e-001
 0.000000e+000 0.000000e+000 0.000000e+000 0.000000e+000 0.000000e+000
<ENDHMM>
~h "n"
<BEGINHMM>
<NUMSTATES> 5
<STATE> 2
<MEAN> 25
 1.865569e+000 -5.501137e-001 5.250694e-001 -8.427854e-001 -1.459118e+000 -1.401673e+000 -2.628114e+000 -2.255914e+000 -1.271780e+000 -1.039613e+000 -2.329621e+000 -3.672494e-001 -1.765308e-002 1.314645e-001 5.827482e-002 1.878845e-001 5.858159e-002 -7.090761e-002 1.743672e-003 8.160012e-002 -1.355288e-002 -9.336851e-002 2.869007e-002 6.125403e-002 -2.070935e-001
<VARIANCE> 25
 2.074967e+001 4.213396e+001 3.875811e+001 3.857662e+001 4.852594e+001 4.662617e+001 6.520052e+001 6.316161e+001 4.764100e+001 4.558740e+001 4.231898e+001 3.044899e+001 1.589123e+000 2.422612e+000 3.101324e+000 2.929679e+000 3.542921e+000 3.783666e+000 4.218405e+000 5.163854e+000 3.805931e+000 3.590790e+000 3.404755e+000 2.482931e+000 2.226903e+000
<GCONST> 1.057040e+002
<STATE> 3
<MEAN> 25
 1.745263e+000 -2.836993e-001 5.712435e-001 -4.189921e-001 -1.226279e+000 -1.483177e+000 -2.520439e+000 -1.986255e+000 -1.277851e+000 -1.223430e+000 -2.145554e+000 -2.461502e-001 -8.650499e-002 1.261299e-001 -1.889013e-002 1.863593e-001 1.559998e-001 6.311702e-004 9.553164e-002 1.766999e-001 -1.449796e-004 -6.669881e-002 1.280946e-001 5.365580e-002 -2.350163e-001
<VARIANCE> 25
 2.141272e+001 4.371006e+001 3.829812e+001 3.819801e+001 4.903509e+001 4.681116e+001 6.609923e+001 6.269180e+001 4.729080e+001 4.472783e+001 4.301862e+001 3.028421e+001 1.634172e+000 2.588694e+000 3.119372e+000 2.939134e+000 3.577785e+000 3.828496e+000 4.207121e+000 5.079763e+000 3.811456e+000 3.549875e+000 3.404169e+000 2.448117e+000 2.405978e+000
<GCONST> 1.059144e+002
<STATE> 4
<MEAN> 25
 1.422412e+000 -2.367356e-002 3.992338e-001 2.112379e-003 -7.350600e-001 -1.376876e+000 -2.160577e+000 -1.465657e+000 -1.265436e+000 -1.349946e+000 -1.701631e+000 -1.509007e-001 -1.554807e-001 1.131867e-001 -9.868331e-002 1.582419e-001 2.423656e-001 8.446454e-002 2.023875e-001 2.547500e-001 1.594900e-002 -1.392544e-002 2.128831e-001 4.382451e-002 -2.471551e-001
<VARIANCE> 25
 2.326815e+001 4.688002e+001 3.834106e+001 3.865294e+001 5.037475e+001 4.672389e+001 6.649553e+001 6.263309e+001 4.699289e+001 4.390578e+001 4.403216e+001 3.012624e+001 1.743119e+000 2.773805e+000 3.053717e+000 2.998832e+000 3.610275e+000 3.880806e+000 4.172283e+000 4.880157e+000 3.764561e+000 3.494211e+000 3.385220e+000 2.443624e+000 2.658991e+000
<GCONST> 1.062748e+002
<TRANSP> 5
 0.000000e+000 1.000000e+000 0.000000e+000 0.000000e+000 0.000000e+000
 0.000000e+000 5.488452e-001 4.511548e-001 0.000000e+000 0.000000e+000
 0.000000e+000 0.000000e+000 5.488446e-001 4.511554e-001 0.000000e+000
 0.000000e+000 0.000000e+000 0.000000e+000 6.433958e-001 3.566042e-001
 0.000000e+000 0.000000e+000 0.000000e+000 0.000000e+000 0.000000e+000
<ENDHMM>
~h "o"
<BEGINHMM>
<NUMSTATES> 5
<STATE> 2
<MEAN> 25
 2.641820e+000 1.536500e+000 -2.074745e+000 -5.157283e+000 1.773592e+000 -3.272917e-001 -2.904250e+000 -1.081202e+000 -2.216110e+000 1.025427e+000 1.830750e+000 5.651030e-001 4.293335e-002 -6.464515e-003 1.366510e-001 -1.018584e-001 -1.957131e-001 -1.157162e-001 -1.917022e-001 -2.647360e-001 -5.319790e-002 -1.015490e-001 -6.931613e-003 -1.245236e-001 1.615295e-001
<VARIANCE> 25
 2.854661e+001 3.435780e+001 5.685974e+001 9.751414e+001 4.076000e+001 5.415301e+001 5.852319e+001 4.287973e+001 4.103614e+001 3.415861e+001 4.907313e+001 3.024115e+001 2.793960e+000 3.045683e+000 3.715629e+000 7.731391e+000 4.484808e+000 4.156423e+000 6.012974e+000 4.118765e+000 3.416188e+000 3.156836e+000 3.711577e+000 2.601681e+000 2.702801e+000
<GCONST> 1.088050e+002
<STATE> 3
<MEAN> 25
 2.604113e+000 1.455296e+000 -1.694756e+000 -5.072411e+000 1.267699e+000 -5.002560e-001 -3.170084e+000 -1.609677e+000 -2.170294e+000 7.095389e-001 1.741149e+000 2.021515e-001 -1.324852e-001 -1.645223e-002 2.601878e-001 2.542618e-001 -2.790495e-001 -4.081728e-002 6.771461e-003 -2.405392e-001 6.954068e-002 -1.178709e-001 -2.214612e-002 -1.715902e-001 7.458641e-002
<VARIANCE> 25
 2.758112e+001 3.425285e+001 5.416987e+001 9.396944e+001 4.045414e+001 5.208380e+001 5.633844e+001 4.315234e+001 4.074584e+001 3.453918e+001 4.609483e+001 3.202169e+001 2.721439e+000 2.947995e+000 3.154302e+000 7.432337e+000 4.444134e+000 3.933457e+000 5.606008e+000 4.256006e+000 3.413239e+000 3.183549e+000 3.546181e+000 2.708961e+000 2.564923e+000
<GCONST> 1.081888e+002
<STATE> 4
<MEAN> 25
 2.096051e+000 1.354274e+000 -1.127926e+000 -4.109950e+000 5.379938e-001 -4.059122e-001 -2.874462e+000 -1.907627e+000 -1.893373e+000 1.999940e-001 1.645340e+000 -2.865526e-001 -3.413798e-001 -3.914002e-002 3.595793e-001 6.154597e-001 -3.265562e-001 1.666985e-002 2.330643e-001 -1.224897e-001 1.722364e-001 -1.365553e-001 6.745120e-003 -1.597891e-001 -2.470159e-002
<VARIANCE> 25
 2.855777e+001 3.725524e+001 5.139136e+001 9.296587e+001 4.343915e+001 5.091284e+001 5.728584e+001 4.559024e+001 4.143167e+001 3.515341e+001 4.574370e+001 3.191230e+001 2.545340e+000 3.038514e+000 2.861715e+000 6.806984e+000 4.541666e+000 3.942842e+000 4.980753e+000 4.464543e+000 3.554675e+000 3.295335e+000 3.402581e+000 2.777332e+000 2.559632e+000
<GCONST> 1.081760e+002
<TRANSP> 5
 0.000000e+000 1.000000e+000 0.000000e+000 0.000000e+000 0.000000e+000
 0.000000e+000 5.352163e-001 4.647836e-001 0.000000e+000 0.000000e+000
 0.000000e+000 0.000000e+000 5.352167e-001 4.647833e-001 0.000000e+000
 0.000000e+000 0.000000e+000 0.000000e+000 6.286820e-001 3.713180e-001
 0.000000e+000 0.000000e+000 0.000000e+000 0.000000e+000 0.000000e+000
<ENDHMM>
~h "p"
<BEGINHMM>
<NUMSTATES> 5
<STATE> 2
<MEAN> 25
 7.827703e-001 -3.136854e-001 -1.647442e+000 6.756498e-001 8.229862e-001 1.245678e+000 1.048412e+000 3.916115e-002 4.552030e-002 3.084275e-002 -2.271960e-001 -3.108242e-001 -3.354830e-002 -1.010639e-003 1.193502e-001 5.556332e-002 -6.741149e-002 -5.907464e-002 2.409229e-002 3.920871e-002 4.109955e-002 -5.164577e-002 6.272140e-003 4.961341e-002 -4.569622e-002
<VARIANCE> 25
 3.104542e+001 7.269011e+001 5.012963e+001 5.234885e+001 5.661973e+001 4.643508e+001 5.627342e+001 4.906244e+001 3.751916e+001 3.642854e+001 5.563448e+001 3.413484e+001 2.681401e+000 4.757153e+000 3.046423e+000 4.633784e+000 4.779132e+000 4.972338e+000 4.417161e+000 3.878280e+000 3.252059e+000 3.199424e+000 4.480389e+000 3.499105e+000 7.382902e+000
<GCONST> 1.104042e+002
<STATE> 3
<MEAN> 25
 6.647785e-001 -3.523547e-001 -1.320653e+000 7.246885e-001 6.931894e-001 1.018952e+000 1.029101e+000 1.597181e-001 1.310519e-001 -6.538583e-002 -1.521123e-001 -2.499517e-001 -4.264147e-002 -5.489649e-002 1.372680e-001 -4.733703e-002 -1.089778e-001 -1.600003e-001 -3.119016e-002 3.587564e-002 2.895377e-002 -4.996606e-002 1.405256e-002 -1.185217e-002 9.610350e-002
<VARIANCE> 25
 3.036819e+001 6.932357e+001 5.094808e+001 5.125019e+001 5.829989e+001 4.730749e+001 5.709853e+001 4.871140e+001 3.712946e+001 3.593297e+001 5.356968e+001 3.362624e+001 2.720224e+000 4.792344e+000 3.175659e+000 4.698894e+000 4.931765e+000 5.101108e+000 4.543419e+000 3.861220e+000 3.357910e+000 3.162344e+000 4.590728e+000 3.463341e+000 7.535208e+000
<GCONST> 1.105208e+002
<STATE> 4
<MEAN> 25
 5.444292e-001 -6.123781e-001 -9.824464e-001 4.515522e-001 4.789944e-001 5.970935e-001 7.765642e-001 2.635231e-001 1.749540e-001 -1.458050e-001 -1.418823e-001 -3.619674e-001 -2.199064e-002 -1.228524e-001 1.126773e-001 -1.689604e-001 -1.267266e-001 -1.977146e-001 -1.130346e-001 -7.763972e-003 -3.243864e-004 -2.315391e-002 -3.230794e-002 -6.286159e-002 2.597935e-001
<VARIANCE> 25
 3.160473e+001 6.511353e+001 5.298460e+001 5.118929e+001 6.102052e+001 4.744246e+001 5.886221e+001 4.921877e+001 3.770179e+001 3.599299e+001 5.265659e+001 3.331927e+001 2.806914e+000 4.762575e+000 3.339638e+000 4.756297e+000 5.103199e+000 5.149515e+000 4.737210e+000 3.915802e+000 3.481922e+000 3.203691e+000 4.736186e+000 3.437772e+000 7.452896e+000
<GCONST> 1.108651e+002
<TRANSP> 5
 0.000000e+000 1.000000e+000 0.000000e+000 0.000000e+000 0.000000e+000
 0.000000e+000 5.526312e-001 4.473688e-001 0.000000e+000 0.000000e+000
 0.000000e+000 0.000000e+000 5.526304e-001 4.473696e-001 0.000000e+000
 0.000000e+000 0.000000e+000 0.000000e+000 6.477019e-001 3.522981e-001
 0.000000e+000 0.000000e+000 0.000000e+000 0.000000e+000 0.000000e+000
<ENDHMM>
~h "q"
<BEGINHMM>
<NUMSTATES> 5
<STATE> 2
<MEAN> 25
 -8.576218e-001 -4.839875e-001 1.807288e-001 -6.177533e-001 5.164720e-001 1.099807e-001 -5.844626e-001 9.248870e-001 4.856997e-001 -4.634556e-001 7.578945e-001 1.554036e-001 7.000364e-002 2.060490e-002 2.258797e-001 -6.175711e-003 -1.516131e-002 -1.693906e-001 -2.408468e-001 -2.353817e-001 6.890470e-002 1.200414e-001 -5.756654e-002 -5.150588e-002 9.819008e-002
<VARIANCE> 25
 4.422046e+001 4.361921e+001 5.952223e+001 6.324225e+001 8.637153e+001 5.538573e+001 6.660571e+001 6.088234e+001 4.075109e+001 4.218061e+001 4.378863e+001 3.169171e+001 3.719692e+000 2.950216e+000 2.906824e+000 5.152592e+000 5.988848e+000 4.541137e+000 5.251001e+000 5.147252e+000 3.687988e+000 3.882242e+000 3.336506e+000 2.763902e+000 4.045601e+000
<GCONST> 1.111933e+002
<STATE> 3
<MEAN> 25
 -8.279355e-001 -3.971348e-001 6.162023e-001 -4.242617e-001 6.495837e-001 -2.326477e-001 -1.043905e+000 5.142094e-001 7.344725e-001 -1.695481e-001 6.010350e-001 6.628867e-002 -1.693228e-002 6.061562e-002 1.937609e-001 1.264650e-001 8.364640e-002 -1.214441e-001 -1.924384e-001 -1.411291e-001 1.200150e-001 1.715069e-001 -7.120835e-002 -2.209915e-002 -7.995063e-002
<VARIANCE> 25
 4.355182e+001 4.105606e+001 5.733272e+001 6.216813e+001 9.046062e+001 5.525214e+001 6.586797e+001 5.964458e+001 4.046978e+001 4.253505e+001 4.281265e+001 3.030857e+001 3.386045e+000 2.720325e+000 2.733508e+000 4.756659e+000 5.800184e+000 4.542457e+000 4.986159e+000 4.877476e+000 3.634811e+000 3.864913e+000 3.276876e+000 2.705524e+000 3.666823e+000
<GCONST> 1.103988e+002
<STATE> 4
<MEAN> 25
 -9.861031e-001 -1.167838e-001 9.690912e-001 5.126949e-002 9.237198e-001 -5.223268e-001 -1.345594e+000 3.218710e-001 1.048786e+000 2.333058e-001 4.203228e-001 2.573759e-002 -6.890604e-002 1.131813e-001 1.088593e-001 2.038672e-001 1.209426e-001 -4.785546e-002 -7.603665e-002 -2.965354e-002 1.132543e-001 1.774716e-001 -5.623978e-002 8.244416e-003 -2.434680e-001
<VARIANCE> 25
 4.314915e+001 3.914882e+001 5.059742e+001 6.040804e+001 9.209747e+001 5.585059e+001 6.642520e+001 5.990666e+001 4.053048e+001 4.181945e+001 4.185012e+001 2.946765e+001 3.128756e+000 2.537482e+000 2.600740e+000 4.376323e+000 5.723777e+000 4.511246e+000 4.712674e+000 4.615636e+000 3.586665e+000 3.804067e+000 3.263887e+000 2.664381e+000 3.353277e+000
<GCONST> 1.096120e+002
<TRANSP> 5
 0.000000e+000 1.000000e+000 0.000000e+000 0.000000e+000 0.000000e+000
 0.000000e+000 5.465865e-001 4.534135e-001 0.000000e+000 0.000000e+000
 0.000000e+000 0.000000e+000 5.465873e-001 4.534127e-001 0.000000e+000
 0.000000e+000 0.000000e+000 0.000000e+000 6.399126e-001 3.600875e-001
 0.000000e+000 0.000000e+000 0.000000e+000 0.000000e+000 0.000000e+000
<ENDHMM>
~h "r"
<BEGINHMM>
<NUMSTATES> 5
<STATE> 2
<MEAN> 25
 1.462345e+000 -1.332619e+000 4.116924e-001 -9.106941e-001 -3.856572e+000 -1.417210e+000 -1.115469e+000 -5.639421e-001 6.452766e-001 2.934998e-001 1.717475e-001 -6.661881e-001 8.524577e-003 1.760065e-001 1.445298e-001 -1.982428e-001 -5.748292e-002 2.551305e-002 -5.657292e-002 -2.748309e-001 -1.806059e-002 1.022760e-002 -1.015916e-001 -1.620642e-002 1.587531e-003
<VARIANCE> 25
 2.065977e+001 5.453978e+001 4.784998e+001 4.361890e+001 5.721497e+001 4.691006e+001 7.756760e+001 7.626150e+001 4.658955e+001 4.328317e+001 4.367779e+001 2.901815e+001 1.714478e+000 2.658603e+000 2.448482e+000 3.870511e+000 4.661527e+000 3.923740e+000 4.897703e+000 4.657918e+000 3.535246e+000 3.332863e+000 3.189485e+000 2.575765e+000 2.177816e+000
<GCONST> 1.071023e+002
<STATE> 3
<MEAN> 25
 1.394230e+000 -8.184562e-001 7.907817e-001 -1.326586e+000 -3.922561e+000 -1.285260e+000 -1.294113e+000 -1.157974e+000 5.795106e-001 3.409704e-001 -1.016211e-001 -7.008045e-001 -2.772976e-002 1.959260e-001 1.412222e-001 -1.731161e-001 1.220402e-002 6.475694e-002 -6.502184e-002 -2.477561e-001 -4.856091e-002 3.704699e-002 -1.451502e-001 -1.464457e-002 -4.719838e-002
<VARIANCE> 25
 2.023266e+001 5.330160e+001 4.552952e+001 4.518925e+001 5.344733e+001 4.494440e+001 7.385803e+001 7.866884e+001 4.598523e+001 4.301589e+001 4.387601e+001 2.809286e+001 1.635821e+000 2.600922e+000 2.444624e+000 3.742917e+000 4.483765e+000 3.801840e+000 4.968267e+000 4.658475e+000 3.638984e+000 3.265001e+000 3.170705e+000 2.431458e+000 2.103636e+000
<GCONST> 1.066182e+002
<STATE> 4
<MEAN> 25
 1.203796e+000 -1.872989e-001 1.155339e+000 -1.853417e+000 -3.792561e+000 -1.098356e+000 -1.582813e+000 -1.673431e+000 4.553474e-001 3.844351e-001 -5.362545e-001 -7.653196e-001 -6.825634e-002 1.979122e-001 9.983859e-002 -1.249735e-001 1.216738e-001 5.926642e-002 -6.254450e-002 -1.633669e-001 -5.964547e-002 4.206229e-002 -1.552463e-001 -2.277668e-002 -7.837047e-002
<VARIANCE> 25
 2.010147e+001 5.295603e+001 4.349996e+001 4.827655e+001 5.081941e+001 4.209844e+001 7.163078e+001 7.918948e+001 4.421201e+001 4.257949e+001 4.330700e+001 2.751325e+001 1.575058e+000 2.554798e+000 2.485513e+000 3.616441e+000 4.108772e+000 3.603407e+000 4.946693e+000 4.807681e+000 3.599200e+000 3.260153e+000 3.149843e+000 2.367873e+000 2.050276e+000
<GCONST> 1.061439e+002
<TRANSP> 5
 0.000000e+000 1.000000e+000 0.000000e+000 0.000000e+000 0.000000e+000
 0.000000e+000 5.514729e-001 4.485271e-001 0.000000e+000 0.000000e+000
 0.000000e+000 0.000000e+000 5.514726e-001 4.485274e-001 0.000000e+000
 0.000000e+000 0.000000e+000 0.000000e+000 6.462932e-001 3.537068e-001
 0.000000e+000 0.000000e+000 0.000000e+000 0.000000e+000 0.000000e+000
<ENDHMM>
~h "s"
<BEGINHMM>
<NUMSTATES> 5
<STATE> 2
<MEAN> 25
 -5.852719e+000 2.465582e+000 -9.595784e-001 3.242983e+000 2.123394e+000 1.266059e+000 1.556336e+000 2.269928e+000 1.475727e+000 -2.660220e-001 2.630450e+000 8.433419e-001 -2.799394e-002 -1.266643e-001 3.346927e-002 3.823996e-002 5.463260e-002 3.669531e-002 9.043227e-002 1.082339e-001 8.912142e-002 8.338664e-002 8.377100e-002 -2.180238e-002 -1.110915e-001
<VARIANCE> 25
 6.984681e+001 4.435223e+001 3.420747e+001 5.653091e+001 6.710844e+001 5.120880e+001 6.525910e+001 5.736128e+001 3.848702e+001 4.330826e+001 4.950830e+001 2.945079e+001 5.731495e+000 3.292421e+000 2.515851e+000 4.227944e+000 4.639154e+000 4.938941e+000 5.114369e+000 4.520290e+000 3.618701e+000 3.924779e+000 4.110107e+000 2.780833e+000 2.878547e+000
<GCONST> 1.103473e+002
<STATE> 3
<MEAN> 25
 -5.449625e+000 2.026478e+000 -8.784773e-001 3.078844e+000 2.162555e+000 1.170646e+000 1.606339e+000 2.361371e+000 1.591149e+000 -9.728576e-002 2.608213e+000 7.421213e-001 3.105116e-001 -2.460673e-001 4.381380e-002 -1.205642e-001 -2.774951e-002 -8.891854e-002 -9.200603e-003 -9.108389e-003 2.185913e-002 5.012805e-002 -7.153928e-002 -7.458942e-002 -4.590822e-002
<VARIANCE> 25
 6.865183e+001 4.392068e+001 3.547515e+001 5.703353e+001 7.147442e+001 5.272525e+001 6.400564e+001 5.697421e+001 3.979132e+001 4.354741e+001 4.985701e+001 2.904234e+001 5.877332e+000 3.221358e+000 2.641809e+000 4.318373e+000 5.035229e+000 5.226692e+000 5.349267e+000 4.799242e+000 3.801451e+000 3.985910e+000 4.238759e+000 2.841164e+000 3.196509e+000
<GCONST> 1.110018e+002
<STATE> 4
<MEAN> 25
 -4.151076e+000 1.281633e+000 -8.035442e-001 2.493070e+000 1.915421e+000 8.004934e-001 1.395821e+000 2.072837e+000 1.493973e+000 2.501170e-003 2.161027e+000 4.576547e-001 5.607506e-001 -3.122676e-001 4.515311e-002 -2.387646e-001 -1.340131e-001 -1.622514e-001 -9.948549e-002 -1.389285e-001 -6.832550e-002 3.324764e-003 -2.107430e-001 -1.216327e-001 4.210851e-002
<VARIANCE> 25
 6.805075e+001 4.563860e+001 3.784919e+001 5.908754e+001 7.908022e+001 5.398960e+001 6.379101e+001 5.724985e+001 4.169017e+001 4.383150e+001 5.136673e+001 2.881373e+001 5.492332e+000 3.165575e+000 2.753037e+000 4.360568e+000 5.436507e+000 5.357963e+000 5.550039e+000 4.852387e+000 3.900733e+000 3.948343e+000 4.278708e+000 2.840283e+000 3.631796e+000
<GCONST> 1.116011e+002
<TRANSP> 5
 0.000000e+000 1.000000e+000 0.000000e+000 0.000000e+000 0.000000e+000
 0.000000e+000 5.553513e-001 4.446487e-001 0.000000e+000 0.000000e+000
 0.000000e+000 0.000000e+000 5.553511e-001 4.446489e-001 0.000000e+000
 0.000000e+000 0.000000e+000 0.000000e+000 6.513081e-001 3.486919e-001
 0.000000e+000 0.000000e+000 0.000000e+000 0.000000e+000 0.000000e+000
<ENDHMM>
~h "t"
<BEGINHMM>
<NUMSTATES> 5
<STATE> 2
<MEAN> 25
 3.052002e-001 1.131966e+000 -4.639028e-001 8.966146e-001 -3.039203e-002 -2.179193e-001 6.180562e-001 9.728332e-001 6.440126e-001 -1.193992e+000 -1.214254e-001 3.641219e-001 -4.242853e-002 -9.076338e-002 -1.132430e-001 8.467456e-003 8.444153e-002 4.659411e-002 4.768750e-002 1.107599e-001 4.895250e-002 -5.530428e-003 1.353203e-001 -8.412313e-003 9.812566e-003
<VARIANCE> 25
 2.246519e+001 5.804725e+001 4.128942e+001 4.348099e+001 6.195913e+001 5.060262e+001 6.005640e+001 5.582096e+001 4.042207e+001 4.355238e+001 5.044715e+001 2.883207e+001 2.135048e+000 4.084882e+000 2.912878e+000 3.774066e+000 5.253573e+000 5.601809e+000 4.861295e+000 4.261230e+000 3.539846e+000 4.309719e+000 4.232969e+000 2.944601e+000 8.016559e+000
<GCONST> 1.098420e+002
<STATE> 3
<MEAN> 25
 2.040247e-001 8.150810e-001 -6.923897e-001 8.314977e-001 1.128949e-001 -1.522911e-001 6.656779e-001 1.215656e+000 7.023736e-001 -1.237420e+000 8.432163e-002 3.304883e-001 -3.004829e-002 -2.289622e-001 -1.466746e-001 -1.045364e-001 4.689633e-002 3.708281e-004 6.373100e-003 1.112336e-001 1.342284e-002 -4.241151e-002 6.272987e-002 -5.016784e-002 2.244026e-001
<VARIANCE> 25
 2.210568e+001 5.773002e+001 4.234160e+001 4.407534e+001 6.248072e+001 4.956831e+001 5.770663e+001 5.457262e+001 3.965700e+001 4.366168e+001 4.925572e+001 2.952472e+001 2.157697e+000 4.099692e+000 2.900551e+000 3.928854e+000 5.416648e+000 5.618588e+000 4.891034e+000 4.250622e+000 3.555607e+000 4.318162e+000 4.350070e+000 2.941014e+000 8.313960e+000
<GCONST> 1.099238e+002
<STATE> 4
<MEAN> 25
 1.557591e-001 1.145217e-001 -1.017463e+000 4.985999e-001 1.720518e-001 -2.167447e-001 5.569447e-001 1.475968e+000 5.975125e-001 -1.404873e+000 4.503994e-002 1.713999e-001 7.512355e-003 -3.417554e-001 -1.735078e-001 -1.787715e-001 3.553981e-002 -3.808237e-002 -7.263988e-002 9.565264e-002 -4.791891e-002 -8.092229e-002 -4.801288e-002 -8.902406e-002 4.013103e-001
<VARIANCE> 25
 2.188406e+001 5.811106e+001 4.373286e+001 4.539959e+001 6.334200e+001 4.754973e+001 5.674992e+001 5.442303e+001 3.949718e+001 4.487184e+001 4.764573e+001 2.977105e+001 2.166052e+000 3.993287e+000 2.922974e+000 4.023881e+000 5.459774e+000 5.541502e+000 4.827273e+000 4.292012e+000 3.539392e+000 4.330105e+000 4.355827e+000 2.903761e+000 8.146395e+000
<GCONST> 1.098995e+002
<TRANSP> 5
 0.000000e+000 1.000000e+000 0.000000e+000 0.000000e+000 0.000000e+000
 0.000000e+000 5.411060e-001 4.588939e-001 0.000000e+000 0.000000e+000
 0.000000e+000 0.000000e+000 5.411066e-001 4.588933e-001 0.000000e+000
 0.000000e+000 0.000000e+000 0.000000e+000 6.349571e-001 3.650428e-001
 0.000000e+000 0.000000e+000 0.000000e+000 0.000000e+000 0.000000e+000
<ENDHMM>
~h "u"
<BEGINHMM>
<NUMSTATES> 5
<STATE> 2
<MEAN> 25
 2.207291e+000 7.644827e-001 -3.941758e-001 -2.100169e+000 -1.269631e+000 -8.067942e-002 -2.931830e+000 -1.940427e+000 -4.535559e-001 9.765050e-001 -9.359476e-002 -2.551524e-001 6.167298e-002 -8.233688e-002 1.418472e-001 3.590392e-002 -1.348410e-001 -2.344182e-001 -1.721843e-001 -7.866038e-002 -3.246510e-002 -1.637167e-001 -2.506277e-001 -9.730801e-002 1.605100e-001
<VARIANCE> 25
 4.087207e+001 3.324116e+001 4.353583e+001 6.308718e+001 5.855764e+001 5.728923e+001 6.995692e+001 6.092388e+001 4.965108e+001 4.522316e+001 4.971157e+001 3.196054e+001 3.685144e+000 2.324896e+000 3.285091e+000 5.070590e+000 4.624825e+000 5.183003e+000 5.781656e+000 5.328985e+000 4.541028e+000 4.163366e+000 4.004144e+000 3.151764e+000 2.678916e+000
<GCONST> 1.106680e+002
<STATE> 3
<MEAN> 25
 2.170309e+000 5.935341e-001 -7.478933e-002 -1.833364e+000 -1.507484e+000 -5.497989e-001 -3.145334e+000 -1.976693e+000 -5.092375e-001 5.484638e-001 -5.406364e-001 -4.214301e-001 -5.593350e-002 -6.052043e-002 1.541430e-001 1.530744e-001 -7.239258e-002 -1.827446e-001 -1.740975e-002 1.836308e-002 -2.712331e-002 -1.892244e-001 -1.816234e-001 -4.216418e-002 7.611829e-002
<VARIANCE> 25
 4.003333e+001 3.464186e+001 4.318728e+001 5.923584e+001 5.753378e+001 5.610149e+001 7.030764e+001 6.134706e+001 4.879321e+001 4.586418e+001 4.944371e+001 3.156569e+001 3.502627e+000 2.339981e+000 3.235239e+000 4.687721e+000 4.567449e+000 4.942285e+000 5.697478e+000 5.252069e+000 4.407776e+000 4.094697e+000 3.948910e+000 3.086360e+000 2.640768e+000
<GCONST> 1.102466e+002
<STATE> 4
<MEAN> 25
 1.873086e+000 4.657949e-001 2.477164e-001 -1.307052e+000 -1.582516e+000 -9.273483e-001 -2.968508e+000 -1.792237e+000 -5.905159e-001 5.797748e-002 -7.885771e-001 -4.746704e-001 -1.478475e-001 -3.549648e-002 1.333759e-001 2.256060e-001 1.800071e-002 -9.017636e-002 1.462452e-001 9.423048e-002 -2.552615e-002 -1.654198e-001 -6.386446e-002 1.538878e-002 -2.193101e-002
<VARIANCE> 25
 4.100055e+001 3.721073e+001 4.448648e+001 5.706427e+001 6.006730e+001 5.464635e+001 7.230779e+001 6.249964e+001 4.839964e+001 4.622073e+001 4.896259e+001 3.138169e+001 3.230979e+000 2.406969e+000 3.186097e+000 4.349834e+000 4.475572e+000 4.656767e+000 5.501521e+000 5.095170e+000 4.270123e+000 3.978971e+000 3.858468e+000 2.979592e+000 2.714736e+000
<GCONST> 1.100029e+002
<TRANSP> 5
 0.000000e+000 1.000000e+000 0.000000e+000 0.000000e+000 0.000000e+000
 0.000000e+000 5.499503e-001 4.500497e-001 0.000000e+000 0.000000e+000
 0.000000e+000 0.000000e+000 5.499495e-001 4.500505e-001 0.000000e+000
 0.000000e+000 0.000000e+000 0.000000e+000 6.458664e-001 3.541336e-001
 0.000000e+000 0.000000e+000 0.000000e+000 0.000000e+000 0.000000e+000
<ENDHMM>
~h "v"
<BEGINHMM>
<NUMSTATES> 5
<STATE> 2
<MEAN> 25
 -9.564409e-001 -3.028166e-002 5.496149e+000 -2.539033e+000 -9.073134e+000 -2.693046e+000 4.474550e+000 1.122017e+000 1.681702e+000 3.078369e+000 2.474043e+000 1.417962e+000 -3.689286e-001 1.319428e-001 1.130212e-001 -2.561862e-001 -2.234661e-001 6.163265e-001 3.430753e-001 -5.240948e-001 -7.895600e-001 2.365058e-001 1.317602e-001 9.795985e-002 2.475139e-001
<VARIANCE> 25
 1.510285e+001 1.617063e+001 3.698653e+000 2.668124e+001 2.000009e+001 3.408476e+001 2.417446e+001 3.015722e+001 2.156961e+001 2.297370e+001 3.462869e+001 2.053721e+001 2.360821e+000 3.013498e+000 3.297751e-001 3.777782e+000 2.187931e+000 4.494019e+000 4.236515e+000 3.184693e+000 2.230179e+000 2.675543e+000 4.295065e+000 3.677301e+000 3.924092e+000
<GCONST> 9.490852e+001
<STATE> 3
<MEAN> 25
 -9.617632e-001 9.732100e-001 5.564698e+000 -2.014591e+000 -8.691099e+000 -2.404293e+000 4.120650e+000 -4.918575e-001 1.214456e-001 2.708529e+000 1.800376e+000 2.252952e+000 1.561002e-001 5.466557e-001 2.809620e-002 3.635939e-001 2.611449e-001 -1.843527e-002 -2.135634e-001 -7.615839e-001 -5.742078e-001 -3.069291e-001 -4.318474e-001 4.781494e-001 -4.973947e-001
<VARIANCE> 25
 1.611381e+001 1.632436e+001 4.200807e+000 2.185738e+001 1.934247e+001 3.569105e+001 2.184613e+001 3.175399e+001 2.359446e+001 2.316792e+001 3.738272e+001 2.517392e+001 2.274126e+000 1.690865e+000 3.606320e-001 2.948986e+000 1.948925e+000 4.469884e+000 3.025323e+000 3.190761e+000 2.806780e+000 2.131179e+000 4.620964e+000 3.541421e+000 2.897094e+000
<GCONST> 9.375699e+001
<STATE> 4
<MEAN> 25
 3.345876e-001 2.914661e+000 5.517693e+000 -2.735597e-001 -7.302317e+000 -3.299315e+000 3.103627e+000 -2.452046e+000 -3.194769e-001 1.019665e+000 -3.593117e-002 3.724129e+000 5.148020e-001 7.476107e-001 -3.694382e-002 6.834862e-001 5.747954e-001 -2.968587e-001 -3.175966e-001 -6.668406e-001 -1.724019e-002 -7.253234e-001 -6.470431e-001 5.158609e-001 -9.764944e-001
<VARIANCE> 25
 1.854192e+001 2.043674e+001 5.974418e+000 1.901457e+001 2.020150e+001 3.496845e+001 2.362362e+001 3.095764e+001 2.558923e+001 2.985625e+001 4.528050e+001 2.646369e+001 1.750889e+000 1.062408e+000 5.794636e-001 1.813885e+000 1.760166e+000 3.800612e+000 2.295810e+000 3.588790e+000 3.378276e+000 1.720057e+000 5.012278e+000 3.027419e+000 1.777910e+000
<GCONST> 9.323399e+001
<TRANSP> 5
 0.000000e+000 1.000000e+000 0.000000e+000 0.000000e+000 0.000000e+000
 0.000000e+000 5.420754e-001 4.579246e-001 0.000000e+000 0.000000e+000
 0.000000e+000 0.000000e+000 5.420755e-001 4.579245e-001 0.000000e+000
 0.000000e+000 0.000000e+000 0.000000e+000 6.301686e-001 3.698314e-001
 0.000000e+000 0.000000e+000 0.000000e+000 0.000000e+000 0.000000e+000
<ENDHMM>
~h "w"
<BEGINHMM>
<NUMSTATES> 5
<STATE> 2
<MEAN> 25
 3.341263e+000 -6.150365e-001 -3.955443e+000 -5.838715e+000 1.575943e-001 1.273771e+000 -2.793135e-001 -8.685308e-001 -4.114788e-001 1.610947e+000 -7.646925e-001 -1.449889e+000 -3.698518e-002 -1.596647e-001 -1.294927e-001 7.627142e-002 1.146493e-001 -1.021943e-001 -2.098201e-002 1.535381e-001 -7.244597e-002 -2.668305e-002 -2.127798e-001 -1.144677e-001 1.921402e-001
<VARIANCE> 25
 4.114266e+001 6.549396e+001 4.243096e+001 7.607244e+001 5.977643e+001 4.896447e+001 5.151200e+001 4.709031e+001 4.390083e+001 4.461050e+001 5.707250e+001 3.700097e+001 3.274264e+000 4.068896e+000 3.043187e+000 5.986230e+000 5.722650e+000 4.978118e+000 4.134142e+000 4.134379e+000 4.044016e+000 4.034422e+000 4.630287e+000 3.846568e+000 2.583292e+000
<GCONST> 1.112372e+002
<STATE> 3
<MEAN> 25
 3.007994e+000 -8.864923e-001 -4.021070e+000 -5.351904e+000 3.880652e-001 1.094592e+000 -2.568253e-001 -3.872870e-001 -5.436786e-001 1.441790e+000 -1.106229e+000 -1.536323e+000 -2.238301e-001 -9.244894e-002 3.806935e-002 3.278213e-001 1.105690e-001 -1.099679e-001 4.803402e-002 2.482387e-001 -2.476617e-002 -1.007960e-001 -1.333155e-001 -2.049113e-002 5.475032e-002
<VARIANCE> 25
 4.088847e+001 6.429887e+001 4.227370e+001 7.510102e+001 5.996765e+001 4.917451e+001 5.196355e+001 4.857942e+001 4.283540e+001 4.483182e+001 5.578202e+001 3.629609e+001 2.967503e+000 4.169588e+000 2.926909e+000 5.423141e+000 5.422274e+000 4.871003e+000 4.133367e+000 4.003811e+000 3.884089e+000 4.079640e+000 4.570751e+000 3.725675e+000 2.639872e+000
<GCONST> 1.108095e+002
<STATE> 4
<MEAN> 25
 2.208980e+000 -1.052628e+000 -3.597626e+000 -4.225195e+000 4.698568e-001 8.675673e-001 -1.235460e-001 2.609084e-001 -5.113653e-001 1.087385e+000 -1.296295e+000 -1.430494e+000 -3.365514e-001 -2.671943e-002 1.953599e-001 4.949502e-001 4.311032e-002 -1.065147e-001 9.186109e-002 2.226959e-001 4.369398e-002 -1.540533e-001 -2.484579e-002 4.805965e-002 -6.919046e-002
<VARIANCE> 25
 4.325266e+001 6.149695e+001 4.366410e+001 7.883462e+001 6.049078e+001 4.959516e+001 5.419506e+001 5.090849e+001 4.151078e+001 4.436721e+001 5.436118e+001 3.462440e+001 2.722632e+000 4.048126e+000 2.743245e+000 4.825230e+000 5.124128e+000 4.743450e+000 4.307460e+000 3.901196e+000 3.696380e+000 4.048280e+000 4.440682e+000 3.437730e+000 2.804390e+000
<GCONST> 1.104222e+002
<TRANSP> 5
 0.000000e+000 1.000000e+000 0.000000e+000 0.000000e+000 0.000000e+000
 0.000000e+000 5.634329e-001 4.365671e-001 0.000000e+000 0.000000e+000
 0.000000e+000 0.000000e+000 5.634339e-001 4.365661e-001 0.000000e+000
 0.000000e+000 0.000000e+000 0.000000e+000 6.633376e-001 3.366624e-001
 0.000000e+000 0.000000e+000 0.000000e+000 0.000000e+000 0.000000e+000
<ENDHMM>
~h "x"
<BEGINHMM>
<NUMSTATES> 5
<STATE> 2
<MEAN> 25
 2.367555e+000 1.404022e+000 1.837030e+000 -5.769860e-001 -3.370930e+000 -8.430877e-001 -1.173737e+000 -2.094265e+000 -2.706340e+000 1.586478e+000 -1.198177e+000 -2.680880e+000 -9.538068e-002 -2.043124e-001 -1.205553e-001 -6.215847e-001 -4.713634e-002 1.081034e-001 -4.744095e-002 -1.477153e-001 -2.101376e-001 1.395757e-002 -2.153263e-001 -2.199677e-001 6.423993e-001
<VARIANCE> 25
 2.577331e+001 3.829316e+001 5.029358e+001 5.133242e+001 4.231771e+001 4.139581e+001 6.323888e+001 5.201805e+001 4.922356e+001 4.369970e+001 3.765365e+001 3.408487e+001 2.111576e+000 2.655169e+000 2.631476e+000 3.422407e+000 4.348660e+000 3.955011e+000 5.028332e+000 5.399364e+000 3.996447e+000 3.840430e+000 3.099810e+000 2.394691e+000 1.546570e+000
<GCONST> 1.063353e+002
<STATE> 3
<MEAN> 25
 1.843353e+000 7.634771e-001 1.436493e+000 -1.888075e+000 -3.009843e+000 -5.027231e-001 -1.121746e+000 -2.174863e+000 -3.002547e+000 1.425681e+000 -1.592936e+000 -2.964276e+000 -2.982254e-001 -2.446822e-001 -1.141194e-001 -5.843949e-001 2.039111e-001 1.363268e-001 5.840304e-002 2.069079e-002 -2.213809e-002 -8.092124e-002 -1.092188e-001 -7.423584e-002 5.276321e-001
<VARIANCE> 25
 2.447430e+001 3.811721e+001 4.621659e+001 4.755211e+001 4.486066e+001 3.844618e+001 6.004269e+001 5.040157e+001 4.647925e+001 4.261258e+001 3.518436e+001 3.182552e+001 1.821140e+000 2.758131e+000 2.756064e+000 3.702304e+000 4.264515e+000 3.499318e+000 4.515681e+000 5.354437e+000 4.211557e+000 4.024033e+000 2.995741e+000 2.429592e+000 1.476395e+000
<GCONST> 1.055901e+002
<STATE> 4
<MEAN> 25
 9.220644e-001 1.255167e-001 9.090369e-001 -2.985481e+000 -1.993834e+000 -2.541497e-002 -9.374257e-001 -2.066075e+000 -2.713564e+000 9.043696e-001 -1.834753e+000 -2.778365e+000 -3.410089e-001 -1.961807e-001 -1.490730e-001 -3.430308e-001 3.384542e-001 1.481106e-001 7.068703e-002 8.760093e-002 1.900914e-001 -2.266734e-001 5.037328e-003 1.275213e-001 3.226905e-001
<VARIANCE> 25
 2.301942e+001 4.027655e+001 3.862112e+001 4.118276e+001 5.207896e+001 3.786879e+001 5.880485e+001 5.069813e+001 4.493587e+001 4.458057e+001 3.367527e+001 3.006205e+001 1.655064e+000 2.838639e+000 2.792027e+000 3.725560e+000 4.380640e+000 3.288349e+000 4.266124e+000 5.167826e+000 4.283199e+000 4.098508e+000 2.937704e+000 2.435062e+000 1.477873e+000
<GCONST> 1.051338e+002
<TRANSP> 5
 0.000000e+000 1.000000e+000 0.000000e+000 0.000000e+000 0.000000e+000
 0.000000e+000 5.839714e-001 4.160287e-001 0.000000e+000 0.000000e+000
 0.000000e+000 0.000000e+000 5.839712e-001 4.160288e-001 0.000000e+000
 0.000000e+000 0.000000e+000 0.000000e+000 6.883302e-001 3.116698e-001
 0.000000e+000 0.000000e+000 0.000000e+000 0.000000e+000 0.000000e+000
<ENDHMM>
~h "y"
<BEGINHMM>
<NUMSTATES> 5
<STATE> 2
<MEAN> 25
 2.673352e-001 6.165214e-001 3.031043e+000 -2.501306e+000 -5.157909e+000 -1.789878e+000 -9.085226e-001 -1.485189e+000 -1.013425e+000 2.289500e-001 -8.588483e-001 -1.235379e+000 9.187113e-002 2.792772e-001 1.381386e-001 1.713424e-001 1.570070e-002 2.670912e-002 -1.690592e-001 -2.516907e-001 -2.415381e-002 1.120558e-001 -2.664522e-002 -8.009449e-003 -3.100626e-001
<VARIANCE> 25
 2.019398e+001 5.234332e+001 5.020869e+001 4.951612e+001 6.373392e+001 4.245923e+001 6.174635e+001 5.585020e+001 4.080490e+001 3.877644e+001 4.059706e+001 2.641129e+001 1.634951e+000 2.716209e+000 3.015708e+000 3.420886e+000 4.442662e+000 3.540766e+000 4.782400e+000 4.071953e+000 3.404072e+000 3.415598e+000 3.185120e+000 2.385378e+000 2.592752e+000
<GCONST> 1.061048e+002
<STATE> 3
<MEAN> 25
 4.368318e-001 1.177526e+000 3.194607e+000 -2.024728e+000 -4.864102e+000 -1.688632e+000 -1.200554e+000 -1.938081e+000 -9.962201e-001 4.418332e-001 -8.604903e-001 -1.181221e+000 9.426971e-002 2.266401e-001 -1.501561e-002 2.525788e-001 2.434547e-001 8.531743e-002 -1.170393e-001 -1.801658e-001 2.436011e-002 8.628660e-002 -6.323576e-003 5.507560e-002 -3.981336e-001
<VARIANCE> 25
 1.986481e+001 5.105907e+001 4.900613e+001 5.084329e+001 6.461054e+001 4.235476e+001 6.025054e+001 5.499659e+001 4.072611e+001 3.866477e+001 4.087022e+001 2.673143e+001 1.592864e+000 2.743381e+000 3.009523e+000 3.479380e+000 4.298006e+000 3.526115e+000 4.647929e+000 4.080413e+000 3.367965e+000 3.472763e+000 3.127100e+000 2.361018e+000 2.721348e+000
<GCONST> 1.060117e+002
<STATE> 4
<MEAN> 25
 5.827188e-001 1.608980e+000 2.923575e+000 -1.377677e+000 -3.939843e+000 -1.454531e+000 -1.369072e+000 -2.184838e+000 -8.323112e-001 5.147503e-001 -8.299620e-001 -9.572119e-001 8.756895e-002 1.249719e-001 -1.814217e-001 2.846756e-001 4.336800e-001 1.281071e-001 -3.015798e-002 -5.321503e-002 5.451903e-002 2.607355e-002 1.780983e-002 1.004274e-001 -4.136330e-001
<VARIANCE> 25
 2.080599e+001 5.216746e+001 5.043706e+001 5.319370e+001 6.849099e+001 4.262834e+001 6.023827e+001 5.470279e+001 4.163530e+001 3.984281e+001 4.190562e+001 2.781270e+001 1.668926e+000 2.779624e+000 2.918821e+000 3.644223e+000 4.257816e+000 3.616446e+000 4.536048e+000 4.084174e+000 3.354407e+000 3.556372e+000 3.153530e+000 2.383736e+000 3.020342e+000
<GCONST> 1.065394e+002
<TRANSP> 5
 0.000000e+000 1.000000e+000 0.000000e+000 0.000000e+000 0.000000e+000
 0.000000e+000 5.620475e-001 4.379525e-001 0.000000e+000 0.000000e+000
 0.000000e+000 0.000000e+000 5.620485e-001 4.379515e-001 0.000000e+000
 0.000000e+000 0.000000e+000 0.000000e+000 6.643176e-001 3.356824e-001
 0.000000e+000 0.000000e+000 0.000000e+000 0.000000e+000 0.000000e+000
<ENDHMM>
~h "al"
<BEGINHMM>
<NUMSTATES> 5
<STATE> 2
<MEAN> 25
 -8.448108e-001 -3.670014e+000 -3.463454e+000 1.467668e+000 4.077937e+000 -4.984784e-001 1.152132e+000 2.009293e+000 1.181598e+000 -1.857782e+000 -1.363104e+000 -7.194942e-001 4.852784e-001 -3.174326e-001 -1.159093e-001 -2.301144e-001 -2.788544e-001 -5.815542e-002 -3.907720e-003 -2.180559e-001 -2.007898e-001 -2.361636e-001 -1.744516e-001 -1.813621e-002 3.717647e-001
<VARIANCE> 25
 4.639915e+001 4.743393e+001 3.781849e+001 4.452267e+001 6.867747e+001 4.247997e+001 4.953464e+001 4.739819e+001 4.595478e+001 4.262380e+001 3.786967e+001 3.205381e+001 4.024055e+000 3.133064e+000 2.469281e+000 3.768902e+000 5.313847e+000 4.108819e+000 4.148135e+000 3.971073e+000 3.747702e+000 3.611253e+000 3.270697e+000 2.563344e+000 3.896458e+000
<GCONST> 1.082354e+002
<STATE> 3
<MEAN> 25
 3.564968e-001 -4.281312e+000 -3.646589e+000 9.142609e-001 3.218215e+000 -4.921841e-001 9.685865e-001 1.423386e+000 5.585608e-001 -2.310869e+000 -1.733339e+000 -6.625065e-001 4.700531e-001 -1.253652e-001 3.427801e-003 -1.831212e-001 -4.003922e-001 4.279256e-002 -1.193926e-001 -2.392985e-001 -2.723522e-001 -1.050307e-001 -1.115846e-001 6.620783e-002 1.842150e-001
<VARIANCE> 25
 4.195523e+001 4.602024e+001 4.005162e+001 4.243781e+001 6.710094e+001 4.038063e+001 4.967330e+001 4.801167e+001 4.483654e+001 4.053463e+001 3.768481e+001 3.170597e+001 3.547792e+000 3.203409e+000 2.494724e+000 3.626192e+000 4.902700e+000 3.839671e+000 3.970355e+000 3.826405e+000 3.509716e+000 3.551798e+000 3.226580e+000 2.485788e+000 3.865952e+000
<GCONST> 1.074693e+002
<STATE> 4
<MEAN> 25
 1.475960e+000 -4.284346e+000 -3.419420e+000 6.118603e-001 2.068186e+000 -1.769973e-001 3.861345e-001 7.835648e-001 -2.965716e-001 -2.401710e+000 -1.860480e+000 -3.226852e-001 3.258602e-001 1.892514e-001 1.666720e-001 -1.374976e-002 -3.561546e-001 1.750837e-001 -1.909869e-001 -1.930961e-001 -2.425613e-001 7.893754e-002 3.443732e-002 1.475413e-001 -2.004671e-001
<VARIANCE> 25
 3.565023e+001 4.838309e+001 4.455755e+001 4.094283e+001 6.549508e+001 4.077275e+001 5.114873e+001 4.904577e+001 4.301227e+001 3.967416e+001 3.940628e+001 3.067469e+001 2.917108e+000 3.250927e+000 2.448843e+000 3.410174e+000 4.324049e+000 3.482403e+000 3.828141e+000 3.659309e+000 3.240641e+000 3.393106e+000 3.133094e+000 2.419497e+000 3.782692e+000
<GCONST> 1.066428e+002
<TRANSP> 5
 0.000000e+000 1.000000e+000 0.000000e+000 0.000000e+000 0.000000e+000
 0.000000e+000 6.068231e-001 3.931768e-001 0.000000e+000 0.000000e+000
 0.000000e+000 0.000000e+000 6.068214e-001 3.931786e-001 0.000000e+000
 0.000000e+000 0.000000e+000 0.000000e+000 7.096517e-001 2.903484e-001
 0.000000e+000 0.000000e+000 0.000000e+000 0.000000e+000 0.000000e+000
<ENDHMM>
~h "ch"
<BEGINHMM>
<NUMSTATES> 5
<STATE> 2
<MEAN> 25
 -4.473968e+000 1.511711e+000 1.786710e+000 -4.630731e-002 -3.002408e-001 -6.774974e-001 2.413162e+000 1.416685e+000 1.176476e+000 6.561678e-002 2.987685e+000 1.055422e-001 4.920055e-001 -3.570251e-001 -1.738035e-002 -4.003967e-001 -4.391284e-001 -4.436606e-001 -3.100813e-001 -4.612326e-003 -1.525154e-001 -2.169552e-001 -2.548841e-001 -2.377003e-001 5.563776e-001
<VARIANCE> 25
 9.197491e+001 5.100131e+001 3.794091e+001 4.830608e+001 8.661167e+001 5.554990e+001 6.115444e+001 5.178342e+001 4.573522e+001 4.173092e+001 5.253910e+001 3.078550e+001 1.002763e+001 3.460023e+000 2.803343e+000 3.677924e+000 7.737010e+000 6.375597e+000 5.224562e+000 4.285343e+000 4.100133e+000 4.328061e+000 4.378762e+000 2.729754e+000 4.428108e+000
<GCONST> 1.131277e+002
<STATE> 3
<MEAN> 25
 -3.272135e+000 6.768203e-001 1.608154e+000 -9.472752e-001 -1.150770e+000 -1.321394e+000 1.670829e+000 1.381240e+000 8.072016e-001 -3.713430e-001 2.256922e+000 -3.569696e-001 5.392458e-001 -3.380939e-001 -6.930459e-002 -4.065886e-001 -3.826706e-001 -2.396693e-001 -3.207168e-001 -5.947977e-002 -1.664726e-001 -1.482241e-001 -3.226942e-001 -2.024783e-001 4.703271e-001
<VARIANCE> 25
 8.410249e+001 5.384737e+001 3.949667e+001 4.771552e+001 8.411344e+001 5.233856e+001 5.962239e+001 5.158701e+001 4.553769e+001 4.259621e+001 5.080721e+001 3.047956e+001 9.320409e+000 3.315776e+000 2.744397e+000 3.610958e+000 7.291433e+000 6.046086e+000 5.223337e+000 4.300218e+000 4.054828e+000 4.327538e+000 4.285791e+000 2.819870e+000 3.802202e+000
<GCONST> 1.125580e+002
<STATE> 4
<MEAN> 25
 -2.047950e+000 -3.246239e-002 1.316978e+000 -1.841733e+000 -1.933167e+000 -1.471342e+000 8.540551e-001 1.107602e+000 3.899338e-001 -6.219764e-001 1.279795e+000 -7.235897e-001 4.247542e-001 -2.062295e-001 -7.395814e-002 -2.856556e-001 -2.708709e-001 -3.137358e-002 -2.942860e-001 -1.182099e-001 -1.380659e-001 -6.086373e-002 -3.224142e-001 -1.090520e-001 2.705311e-001
<VARIANCE> 25
 7.503204e+001 5.552592e+001 4.290072e+001 4.683752e+001 8.124246e+001 4.863768e+001 6.090254e+001 5.214210e+001 4.481937e+001 4.402166e+001 5.097412e+001 2.930772e+001 7.620626e+000 3.068061e+000 2.573337e+000 3.425289e+000 6.604273e+000 5.202893e+000 5.064205e+000 4.123185e+000 3.857360e+000 4.146128e+000 4.004279e+000 2.784047e+000 3.199094e+000
<GCONST> 1.113792e+002
<TRANSP> 5
 0.000000e+000 1.000000e+000 0.000000e+000 0.000000e+000 0.000000e+000
 0.000000e+000 5.667943e-001 4.332058e-001 0.000000e+000 0.000000e+000
 0.000000e+000 0.000000e+000 5.667955e-001 4.332046e-001 0.000000e+000
 0.000000e+000 0.000000e+000 0.000000e+000 6.662733e-001 3.337267e-001
 0.000000e+000 0.000000e+000 0.000000e+000 0.000000e+000 0.000000e+000
<ENDHMM>
~h "ll"
<BEGINHMM>
<NUMSTATES> 5
<STATE> 2
<MEAN> 25
 -5.817090e-001 -1.302903e-001 1.774175e+000 2.628567e-001 -2.775511e+000 -3.428991e+000 1.159810e-001 -4.415590e-002 -6.618974e-001 -2.209906e-001 3.602998e-001 -1.134068e+000 -1.206736e-001 3.074437e-002 -8.767056e-002 -1.048291e-001 5.680629e-002 1.642169e-002 1.188687e-001 1.650771e-001 8.368949e-002 -7.062137e-002 -1.406951e-002 -8.814911e-002 2.609804e-002
<VARIANCE> 25
 2.382177e+001 4.985249e+001 5.179303e+001 4.877700e+001 7.258130e+001 4.855964e+001 6.988126e+001 6.859917e+001 4.313032e+001 4.202626e+001 3.350101e+001 3.057952e+001 2.110073e+000 3.171225e+000 2.779865e+000 4.263584e+000 4.649277e+000 4.319355e+000 5.481994e+000 5.622762e+000 3.611384e+000 3.744200e+000 3.138555e+000 2.823961e+000 3.079019e+000
<GCONST> 1.086504e+002
<STATE> 3
<MEAN> 25
 -7.502628e-001 -1.427525e-001 1.495902e+000 -4.881531e-002 -2.570653e+000 -3.228667e+000 4.107243e-001 2.618743e-001 -4.305673e-001 -3.931081e-001 2.389801e-001 -1.320004e+000 -4.516275e-002 -1.307162e-002 -1.325847e-001 -1.383585e-001 1.138202e-001 1.192084e-001 1.277348e-001 1.114942e-001 1.144488e-001 -7.722461e-002 -6.633051e-002 -8.280119e-002 2.459236e-002
<VARIANCE> 25
 2.437036e+001 4.867006e+001 5.202285e+001 5.014537e+001 7.095866e+001 4.643444e+001 6.627602e+001 6.534280e+001 4.245918e+001 4.140473e+001 3.390207e+001 3.055469e+001 2.248358e+000 3.238222e+000 2.709811e+000 4.265553e+000 4.566191e+000 4.272907e+000 5.495181e+000 5.410783e+000 3.540762e+000 3.722929e+000 3.160260e+000 2.851204e+000 3.347948e+000
<GCONST> 1.085620e+002
<STATE> 4
<MEAN> 25
 -6.876656e-001 -2.135119e-001 1.074293e+000 -5.251671e-001 -2.268776e+000 -2.750484e+000 6.803004e-001 3.532265e-001 -1.464631e-001 -5.731758e-001 -6.365232e-002 -1.482577e+000 4.001433e-002 -2.042739e-002 -1.565941e-001 -1.504178e-001 1.576325e-001 1.993829e-001 7.731768e-002 2.992977e-002 1.123772e-001 -6.193906e-002 -1.054321e-001 -4.104796e-002 -1.666581e-002
<VARIANCE> 25
 2.521204e+001 4.926125e+001 5.331834e+001 5.155729e+001 6.930218e+001 4.520536e+001 6.320400e+001 6.219189e+001 4.222995e+001 4.134434e+001 3.541607e+001 3.091209e+001 2.298563e+000 3.247564e+000 2.620176e+000 4.201841e+000 4.438940e+000 4.207392e+000 5.341583e+000 5.077713e+000 3.468997e+000 3.723643e+000 3.203057e+000 2.852851e+000 3.679538e+000
<GCONST> 1.084904e+002
<TRANSP> 5
 0.000000e+000 1.000000e+000 0.000000e+000 0.000000e+000 0.000000e+000
 0.000000e+000 5.602942e-001 4.397058e-001 0.000000e+000 0.000000e+000
 0.000000e+000 0.000000e+000 5.602934e-001 4.397066e-001 0.000000e+000
 0.000000e+000 0.000000e+000 0.000000e+000 6.549888e-001 3.450111e-001
 0.000000e+000 0.000000e+000 0.000000e+000 0.000000e+000 0.000000e+000
<ENDHMM>
~h "rr"
<BEGINHMM>
<NUMSTATES> 5
<STATE> 2
<MEAN> 25
 1.557931e+000 -3.331699e+000 1.414466e+000 -5.166404e-001 -3.747741e+000 -2.299018e+000 -1.107773e+000 2.515034e+000 -1.522864e+000 -4.909146e-001 -2.242718e+000 -1.356067e+000 -3.073427e-001 -1.375189e-001 6.750304e-002 -6.344488e-002 -6.219249e-001 3.091376e-002 6.417040e-001 3.767560e-001 -3.652526e-001 -4.211598e-001 9.545489e-002 2.349044e-001 2.774946e-001
<VARIANCE> 25
 3.011708e+001 4.291525e+001 2.964988e+001 6.930991e+001 3.829512e+001 4.727620e+001 5.975946e+001 5.384978e+001 6.724021e+001 3.617173e+001 1.939826e+001 4.136670e+001 2.935730e+000 3.343689e+000 3.089689e+000 5.901336e+000 4.274701e+000 6.501095e+000 3.714580e+000 6.460988e+000 6.464056e+000 2.830126e+000 2.202903e+000 5.078747e+000 9.267766e-001
<GCONST> 1.077367e+002
<STATE> 3
<MEAN> 25
 7.878724e-001 -3.334330e+000 1.572329e+000 -8.516305e-001 -5.243060e+000 -2.226112e+000 4.227461e-001 2.971115e+000 -2.334988e+000 -1.376896e+000 -1.894687e+000 -8.341065e-001 -3.398123e-001 1.622739e-001 1.531649e-001 -1.041104e-001 -5.845236e-001 -5.748719e-002 5.450275e-001 5.632995e-003 -2.521929e-001 -3.588064e-001 1.870070e-001 1.602650e-001 1.625575e-001
<VARIANCE> 25
 2.797032e+001 4.642026e+001 2.675089e+001 5.802887e+001 4.443350e+001 4.700327e+001 6.258343e+001 5.594634e+001 6.397783e+001 3.570127e+001 2.054182e+001 4.196450e+001 2.510424e+000 3.598237e+000 3.276833e+000 5.491621e+000 4.788660e+000 6.491695e+000 4.030597e+000 7.408399e+000 6.268576e+000 3.382454e+000 2.375893e+000 5.294865e+000 1.148640e+000
<GCONST> 1.084106e+002
<STATE> 4
<MEAN> 25
 -2.315350e-001 -2.361081e+000 2.092129e+000 -1.382358e+000 -6.801890e+000 -2.393646e+000 1.781839e+000 2.459716e+000 -2.916241e+000 -2.201568e+000 -1.189008e+000 -4.895231e-001 -3.252898e-001 5.321293e-001 2.667634e-001 -1.575214e-001 -4.670748e-001 -1.455738e-001 3.507246e-001 -2.943241e-001 -1.462365e-001 -2.780575e-001 2.849966e-001 8.310030e-002 -6.512733e-002
<VARIANCE> 25
 2.472846e+001 5.409613e+001 2.535891e+001 4.998627e+001 4.947444e+001 4.364783e+001 6.014457e+001 6.202232e+001 5.472688e+001 3.452220e+001 2.303905e+001 4.193657e+001 2.083909e+000 3.635690e+000 3.394989e+000 4.868103e+000 5.003130e+000 5.818086e+000 4.312166e+000 7.945708e+000 5.525097e+000 3.861372e+000 2.580882e+000 5.154305e+000 1.407069e+000
<GCONST> 1.083346e+002
<TRANSP> 5
 0.000000e+000 1.000000e+000 0.000000e+000 0.000000e+000 0.000000e+000
 0.000000e+000 5.845198e-001 4.154802e-001 0.000000e+000 0.000000e+000
 0.000000e+000 0.000000e+000 5.845198e-001 4.154802e-001 0.000000e+000
 0.000000e+000 0.000000e+000 0.000000e+000 6.786849e-001 3.213151e-001
 0.000000e+000 0.000000e+000 0.000000e+000 0.000000e+000 0.000000e+000
<ENDHMM>
~h "ul"
<BEGINHMM>
<NUMSTATES> 5
<STATE> 2
<MEAN> 25
 1.596715e+000 9.586923e-001 5.574738e-002 -2.950520e+000 -1.664866e+000 -2.949438e-001 -2.956707e+000 -2.513361e+000 -5.478485e-001 2.182287e+000 2.373340e-001 -1.505724e+000 1.033805e-001 2.022208e-002 -6.162744e-001 2.435740e-002 5.346363e-001 3.035263e-001 -5.292609e-002 1.201289e-001 1.242823e-001 -2.070136e-002 9.545129e-002 2.103850e-001 -1.827234e-001
<VARIANCE> 25
 2.986740e+001 3.482878e+001 6.094472e+001 4.617633e+001 8.569177e+001 5.257575e+001 5.417165e+001 6.151874e+001 4.708118e+001 4.469262e+001 3.786632e+001 2.827111e+001 2.608116e+000 2.712844e+000 3.515887e+000 3.852766e+000 4.827428e+000 4.306206e+000 5.642950e+000 6.730911e+000 4.597809e+000 4.031377e+000 3.143781e+000 2.640446e+000 2.246891e+000
<GCONST> 1.090685e+002
<STATE> 3
<MEAN> 25
 1.729279e+000 9.296025e-001 -1.343377e+000 -2.846728e+000 -4.833227e-001 3.725932e-001 -2.956214e+000 -2.082961e+000 -2.500609e-001 2.018118e+000 4.380235e-001 -9.859698e-001 2.488498e-002 8.255369e-002 -6.285436e-001 1.127455e-001 5.597477e-001 3.322591e-001 4.686768e-002 2.594971e-001 1.441522e-001 -8.137606e-002 9.145878e-002 2.585662e-001 -3.154834e-001
<VARIANCE> 25
 2.920561e+001 3.793919e+001 5.643336e+001 4.631697e+001 8.749726e+001 5.522544e+001 5.127714e+001 5.933014e+001 4.589540e+001 4.821616e+001 3.784037e+001 2.959046e+001 2.697819e+000 2.782036e+000 3.324740e+000 3.709736e+000 4.990757e+000 4.346567e+000 5.361095e+000 6.300900e+000 4.440179e+000 4.171581e+000 3.138520e+000 2.651619e+000 2.179274e+000
<GCONST> 1.089938e+002
<STATE> 4
<MEAN> 25
 1.591043e+000 8.597690e-001 -2.728030e+000 -2.476891e+000 7.328656e-001 1.019073e+000 -2.600466e+000 -1.273221e+000 -3.961307e-003 1.495998e+000 5.054114e-001 -3.251708e-001 -9.365886e-002 1.087163e-001 -4.981268e-001 2.227100e-001 5.300089e-001 2.920374e-001 1.760739e-001 3.532564e-001 1.324829e-001 -1.571849e-001 1.238813e-001 2.813309e-001 -4.284338e-001
<VARIANCE> 25
 3.025569e+001 4.440424e+001 5.035150e+001 4.780988e+001 8.791443e+001 5.692218e+001 4.849205e+001 5.501625e+001 4.427907e+001 5.308792e+001 3.784647e+001 3.053309e+001 2.736242e+000 2.874075e+000 3.023551e+000 3.515549e+000 5.277858e+000 4.106505e+000 4.875557e+000 5.527498e+000 4.084320e+000 4.240461e+000 3.167341e+000 2.597135e+000 2.169150e+000
<GCONST> 1.086876e+002
<TRANSP> 5
 0.000000e+000 1.000000e+000 0.000000e+000 0.000000e+000 0.000000e+000
 0.000000e+000 5.728449e-001 4.271551e-001 0.000000e+000 0.000000e+000
 0.000000e+000 0.000000e+000 5.728446e-001 4.271555e-001 0.000000e+000
 0.000000e+000 0.000000e+000 0.000000e+000 6.761091e-001 3.238908e-001
 0.000000e+000 0.000000e+000 0.000000e+000 0.000000e+000 0.000000e+000
<ENDHMM>
~h "sil"
<BEGINHMM>
<NUMSTATES> 5
<STATE> 2
<MEAN> 25
 -1.044056e+000 1.242777e+000 2.640225e-001 2.425338e+000 2.613380e+000 2.432926e+000 1.725235e+000 1.396004e+000 1.101862e+000 1.026101e+000 1.744933e+000 1.578282e+000 4.441993e-002 5.081153e-002 -3.799489e-002 -1.511322e-001 -1.857274e-001 -1.926239e-001 -1.371671e-001 -1.300036e-001 -1.347654e-002 8.141306e-002 -3.956851e-002 -2.399414e-002 2.239731e-001
<VARIANCE> 25
 3.677224e+001 5.376365e+001 4.673298e+001 5.939720e+001 7.269218e+001 5.967598e+001 7.295118e+001 6.459100e+001 4.626024e+001 4.166947e+001 5.117086e+001 3.465427e+001 2.353204e+000 3.290446e+000 2.395926e+000 3.798810e+000 4.681310e+000 4.562510e+000 4.633481e+000 4.201796e+000 3.282018e+000 3.125066e+000 3.456024e+000 2.717094e+000 5.126997e+000
<GCONST> 1.098303e+002
<STATE> 3
<MEAN> 25
 -8.533362e-001 1.251336e+000 1.759546e-001 1.905101e+000 2.055119e+000 1.878226e+000 1.380304e+000 1.016190e+000 9.818967e-001 1.125330e+000 1.577370e+000 1.388428e+000 4.602042e-002 4.385234e-002 -1.878218e-002 -1.451563e-001 -1.534527e-001 -1.160733e-001 -4.408073e-002 -9.722876e-002 -2.004519e-002 3.564019e-002 -1.414175e-003 -7.175812e-002 1.708969e-001
<VARIANCE> 25
 4.204528e+001 5.500592e+001 4.932595e+001 6.105390e+001 7.402071e+001 5.675482e+001 7.051460e+001 6.598309e+001 4.604336e+001 4.177423e+001 5.113573e+001 3.437830e+001 2.702798e+000 3.430633e+000 2.533322e+000 4.239463e+000 4.990913e+000 4.982448e+000 5.122077e+000 4.585449e+000 3.607646e+000 3.396100e+000 3.868489e+000 2.950472e+000 5.723228e+000
<GCONST> 1.111814e+002
<STATE> 4
<MEAN> 25
 -6.818470e-001 1.304340e+000 1.826942e-001 1.715255e+000 1.867926e+000 1.862641e+000 1.434772e+000 8.808417e-001 9.173367e-001 1.108825e+000 1.622759e+000 1.175833e+000 3.303866e-002 1.325958e-002 -5.691658e-003 -5.107565e-002 -4.580031e-002 4.149624e-002 5.225330e-002 -9.879181e-003 7.103345e-003 -1.030493e-002 2.942435e-002 -6.706477e-002 8.904777e-003
<VARIANCE> 25
 4.097978e+001 5.670201e+001 4.821995e+001 6.345578e+001 7.342249e+001 5.609128e+001 6.885891e+001 6.328213e+001 4.535524e+001 4.179529e+001 5.211937e+001 3.473186e+001 2.465959e+000 2.815104e+000 2.231081e+000 3.693531e+000 4.278112e+000 4.217771e+000 4.606828e+000 4.148620e+000 3.378613e+000 3.268987e+000 3.549265e+000 2.669175e+000 4.195881e+000
<GCONST> 1.094496e+002
<TRANSP> 5
 0.000000e+000 1.000000e+000 0.000000e+000 0.000000e+000 0.000000e+000
 0.000000e+000 5.537686e-001 4.462315e-001 0.000000e+000 0.000000e+000
 0.000000e+000 0.000000e+000 5.537623e-001 4.462377e-001 0.000000e+000
 0.000000e+000 0.000000e+000 0.000000e+000 6.514655e-001 3.485344e-001
 0.000000e+000 0.000000e+000 0.000000e+000 0.000000e+000 0.000000e+000
<ENDHMM>
