~o
<STREAMINFO> 1 25
<VECSIZE> 25<NULLD><MFCC_D_N_Z_0><DIAGC>
~s "silst"
<MEAN> 25
 -5.224016e-001 2.594940e+000 6.117145e-001 3.671220e+000 2.578956e+000 2.306494e+000 1.058886e+000 1.067412e+000 1.959319e+000 1.608185e+000 2.686697e+000 1.913866e+000 6.025488e-001 -3.104108e-001 -1.901187e-001 -7.037244e-001 -7.272048e-001 -1.031227e+000 -1.374985e+000 -1.073999e+000 -4.429560e-001 -1.451891e-001 -4.190883e-001 -3.411251e-001 1.213805e+000
<VARIANCE> 25
 3.173314e+001 5.674541e+001 4.585743e+001 5.378591e+001 6.557413e+001 6.050672e+001 7.315900e+001 6.582050e+001 4.693032e+001 4.115653e+001 4.621339e+001 3.616725e+001 4.074287e+000 7.135476e+000 4.038469e+000 6.301025e+000 7.313529e+000 7.828053e+000 1.006054e+001 8.295080e+000 5.806851e+000 5.113364e+000 5.758889e+000 4.045230e+000 1.205278e+001
<GCONST> 1.171129e+002
~h "a"
<BEGINHMM>
<NUMSTATES> 5
<STATE> 2
<MEAN> 25
 1.115108e+000 -8.793844e+000 -5.787047e+000 -3.786261e+000 9.813896e-002 -2.305150e+000 2.724094e+000 6.049434e+000 -1.470129e+000 -4.604030e+000 -3.976969e+000 -7.699935e-001 -2.508793e-001 -1.142886e+000 -8.406837e-001 1.833654e-001 8.536946e-001 9.474227e-001 8.937957e-001 7.187243e-001 -6.430048e-001 -1.004794e+000 -3.880751e-001 1.528998e-001 8.254796e-001
<VARIANCE> 25
 1.074845e+001 1.766981e+001 2.274499e+001 2.114168e+001 4.461255e+001 3.918353e+001 4.593348e+001 3.485978e+001 5.082891e+001 3.295500e+001 3.683739e+001 3.320684e+001 7.873077e-001 1.470854e+000 1.904574e+000 1.843007e+000 3.253528e+000 3.108707e+000 2.988491e+000 3.250098e+000 2.884004e+000 2.891690e+000 3.060226e+000 2.344930e+000 8.416013e-001
<GCONST> 9.665589e+001
<STATE> 3
<MEAN> 25
 4.234307e-001 -9.646004e+000 -6.455035e+000 -1.777093e+000 2.260999e+000 7.396458e-002 2.371431e+000 4.880555e+000 -3.260143e+000 -5.440804e+000 -3.448849e+000 -2.723190e-001 1.806434e-001 5.152583e-001 2.308812e-001 4.252594e-002 -4.196308e-001 -5.882986e-002 -1.064497e-001 -4.059799e-001 4.626313e-002 2.499072e-001 1.069434e-001 -2.096008e-001 -4.377299e-001
<VARIANCE> 25
 1.046436e+001 1.685853e+001 1.616451e+001 2.058278e+001 3.518961e+001 3.268184e+001 4.719846e+001 3.150386e+001 4.738901e+001 2.786472e+001 3.387443e+001 2.935564e+001 4.446204e-001 9.599802e-001 9.859325e-001 1.385251e+000 2.347768e+000 1.931458e+000 2.649102e+000 1.849560e+000 1.948265e+000 2.105059e+000 1.809499e+000 1.792788e+000 4.479578e-001
<GCONST> 8.971326e+001
<STATE> 4
<MEAN> 25
 2.899401e+000 -3.032087e+000 -3.835186e+000 -1.002253e+000 -1.056145e+000 -2.184802e+000 8.745084e-001 2.094515e+000 -8.888857e-001 -2.859282e+000 -2.604026e+000 -9.044418e-001 8.934715e-002 2.185221e+000 1.212606e+000 8.317040e-001 -1.843960e-001 6.804081e-002 -5.960977e-001 -1.016889e+000 3.708628e-001 7.858734e-001 6.958513e-001 1.673213e-001 -2.281702e+000
<VARIANCE> 25
 1.352848e+001 3.454434e+001 2.420604e+001 2.960100e+001 5.112875e+001 3.845910e+001 5.653009e+001 4.155753e+001 4.111338e+001 4.068842e+001 3.671354e+001 3.187395e+001 2.037920e+000 1.782206e+000 1.874664e+000 2.424425e+000 4.353326e+000 4.811902e+000 5.213720e+000 4.268844e+000 3.738766e+000 3.786690e+000 3.599696e+000 3.151858e+000 1.942275e+000
<GCONST> 1.031928e+002
<TRANSP> 5
 0.000000e+000 1.000000e+000 0.000000e+000 0.000000e+000 0.000000e+000
 0.000000e+000 5.138020e-001 4.861980e-001 0.000000e+000 0.000000e+000
 0.000000e+000 0.000000e+000 7.007127e-001 2.992873e-001 0.000000e+000
 0.000000e+000 0.000000e+000 0.000000e+000 6.562809e-001 3.437191e-001
 0.000000e+000 0.000000e+000 0.000000e+000 0.000000e+000 0.000000e+000
<ENDHMM>
~h "b"
<BEGINHMM>
<NUMSTATES> 5
<STATE> 2
<MEAN> 25
 1.089594e+000 -1.182962e+001 -6.853863e+000 -3.623778e+000 1.186065e+000 1.763125e+000 -1.333166e+000 3.347616e+000 5.686756e+000 -1.598376e+000 -9.436411e+000 -3.041373e+000 -1.101659e+000 -2.437220e+000 -8.579903e-001 -6.863986e-001 1.131810e+000 9.619986e-001 1.575896e+000 2.378501e+000 -5.242687e-001 -2.168809e+000 -1.501709e+000 1.658249e+000 2.147738e+000
<VARIANCE> 25
 7.458829e+000 1.522165e+001 1.084335e+001 2.307920e+001 1.512099e+001 4.764171e+001 2.963682e+001 3.638053e+001 1.942523e+001 4.048690e+001 2.184682e+001 2.479239e+001 6.478736e-001 2.763838e+000 2.145127e+000 4.633183e+000 1.243429e+000 2.344356e+000 2.030062e+000 3.622306e+000 3.163869e+000 2.839864e+000 3.018277e+000 1.656795e+000 2.525840e+000
<GCONST> 9.340228e+001
<STATE> 3
<MEAN> 25
 -2.388352e+000 -1.429093e+001 -4.697036e+000 -1.658432e+000 5.047656e+000 2.534579e+000 2.852378e+000 6.943098e+000 -8.577461e-001 -8.605682e+000 -1.207308e+001 1.539045e+000 -9.823558e-002 4.096037e-001 8.431495e-001 -1.042983e-001 6.192378e-001 -8.323110e-001 -1.506590e-001 1.190494e-002 -1.190753e+000 -9.097392e-003 -4.117318e-001 -8.016122e-002 -3.622595e-001
<VARIANCE> 25
 4.210408e+000 5.547075e+000 8.605475e+000 1.277849e+001 1.153018e+001 1.782423e+001 1.582407e+001 1.593613e+001 3.071555e+001 2.005090e+001 1.446849e+001 1.567539e+001 2.589934e-001 6.463104e-001 2.812417e-001 1.167416e+000 9.068593e-001 1.631531e+000 1.235946e+000 1.756588e+000 1.612294e+000 1.729068e+000 8.534604e-001 1.590230e+000 2.125122e-001
<GCONST> 7.454837e+001
<STATE> 4
<MEAN> 25
 -1.696812e-001 -9.059653e+000 -7.127645e-001 -3.159200e+000 6.479429e+000 -3.670662e+000 -1.091919e-001 4.098295e+000 -2.495478e+000 -2.945700e+000 -1.398696e+001 -3.040674e+000 8.467209e-001 1.785841e+000 1.084624e+000 -4.047529e-002 -8.686007e-001 -1.440474e+000 -4.436508e-001 -1.929910e+000 7.166135e-001 2.207691e+000 3.436716e-001 -1.046049e+000 -1.348749e+000
<VARIANCE> 25
 5.476217e+000 1.080720e+001 7.896786e+000 1.210854e+001 1.393793e+001 2.088983e+001 1.875310e+001 2.627459e+001 2.342657e+001 3.121939e+001 1.922336e+001 2.566257e+001 2.273157e-001 2.870237e-001 5.509213e-001 8.732058e-001 1.453135e+000 1.978862e+000 1.385059e+000 3.178547e+000 2.632774e+000 1.584223e+000 1.948868e+000 1.924077e+000 1.565474e-001
<GCONST> 7.923032e+001
<TRANSP> 5
 0.000000e+000 1.000000e+000 0.000000e+000 0.000000e+000 0.000000e+000
 0.000000e+000 7.284402e-001 2.715598e-001 0.000000e+000 0.000000e+000
 0.000000e+000 0.000000e+000 8.007626e-001 1.992374e-001 0.000000e+000
 0.000000e+000 0.000000e+000 0.000000e+000 6.738965e-001 3.261035e-001
 0.000000e+000 0.000000e+000 0.000000e+000 0.000000e+000 0.000000e+000
<ENDHMM>
~h "c"
<BEGINHMM>
<NUMSTATES> 5
<STATE> 2
<MEAN> 25
 -3.929037e+000 4.570079e+000 2.381692e+000 9.344865e+000 6.227553e+000 5.638029e+000 6.839557e+000 3.515891e+000 8.798991e-001 3.870192e-001 5.806042e+000 1.042352e+000 -3.459471e-001 -1.787991e+000 -2.875525e+000 -1.510356e+000 1.882825e+000 1.673699e+000 1.314017e+000 1.225019e+000 -9.812668e-001 8.127556e-001 8.242580e-002 5.999538e-001 1.046801e+000
<VARIANCE> 25
 6.224512e+000 2.255286e+001 4.200944e+001 2.383437e+001 2.663067e+001 3.561808e+001 2.596413e+001 2.672172e+001 2.524462e+001 2.845098e+001 2.247145e+001 1.358015e+001 1.899421e+000 2.828948e+000 7.609694e+000 6.881042e+000 5.104618e+000 3.079767e+000 2.695262e+000 2.357180e+000 3.858597e+000 3.097091e+000 2.388499e+000 1.984823e+000 2.743193e+000
<GCONST> 9.878476e+001
<STATE> 3
<MEAN> 25
 -1.217440e+000 -4.402338e-001 -1.216151e+001 -2.328622e+000 9.541459e+000 6.381617e+000 4.295330e+000 4.906870e+000 -5.038840e+000 5.288733e+000 6.799667e+000 3.994081e+000 1.592886e+000 8.341575e-001 -7.700204e-001 -3.187774e+000 -1.997843e+000 -1.448868e+000 -2.435897e+000 -1.567083e+000 -1.515575e+000 -1.046374e-001 -3.095042e-001 1.980770e-001 1.644294e+000
<VARIANCE> 25
 1.335611e+001 2.880113e+001 4.235907e+001 4.078985e+001 4.672316e+001 3.825293e+001 3.966785e+001 4.168205e+001 3.177519e+001 2.656597e+001 2.876308e+001 1.198692e+001 1.437696e+000 3.854553e+000 9.541730e+000 4.688051e+000 7.670909e+000 4.468956e+000 3.145386e+000 3.485387e+000 2.929824e+000 4.630459e+000 3.358502e+000 1.689861e+000 2.261699e+000
<GCONST> 1.034362e+002
<STATE> 4
<MEAN> 25
 6.056677e+000 4.872697e+000 -7.425950e+000 -1.503225e+001 -2.113178e+000 8.623027e-001 -3.275981e+000 -6.403431e-001 -8.059311e+000 3.480622e+000 3.447535e+000 2.640668e+000 9.991961e-001 -2.505214e-001 3.789276e-001 -2.532070e+000 -1.415019e+000 -8.512513e-003 -7.344722e-001 -1.525802e-001 3.224244e-001 1.301875e-001 -7.246149e-001 -1.051467e-001 1.339874e+000
<VARIANCE> 25
 5.649006e+000 9.596209e+000 1.932771e+001 3.583799e+001 2.228548e+001 2.735696e+001 2.206329e+001 2.207880e+001 2.376960e+001 2.555851e+001 3.465010e+001 2.228865e+001 1.234945e+000 1.642303e+000 2.065780e+000 4.943895e+000 5.287771e+000 3.829040e+000 3.280223e+000 3.008473e+000 2.546941e+000 2.730312e+000 2.730436e+000 2.611439e+000 9.668429e-001
<GCONST> 9.433862e+001
<TRANSP> 5
 0.000000e+000 1.000000e+000 0.000000e+000 0.000000e+000 0.000000e+000
 0.000000e+000 7.134830e-001 2.865171e-001 0.000000e+000 0.000000e+000
 0.000000e+000 0.000000e+000 6.687010e-001 3.312990e-001 0.000000e+000
 0.000000e+000 0.000000e+000 0.000000e+000 7.045599e-001 2.954400e-001
 0.000000e+000 0.000000e+000 0.000000e+000 0.000000e+000 0.000000e+000
<ENDHMM>
~h "e"
<BEGINHMM>
<NUMSTATES> 5
<STATE> 2
<MEAN> 25
 2.356384e-001 -1.117062e+000 2.432191e+000 -3.712929e+000 -1.020089e+001 -5.847343e+000 2.477275e+000 -2.053562e+000 -7.532943e-001 1.454964e+000 1.436488e+000 6.757836e-001 -2.614168e-002 2.774065e-001 1.092574e-001 4.672151e-002 -1.311169e+000 3.681505e-001 5.017731e-002 -1.134098e-001 -4.032936e-001 5.925441e-001 6.586202e-001 -3.778684e-001 1.725951e-001
<VARIANCE> 25
 1.100670e+001 2.315633e+001 1.563911e+001 1.908865e+001 3.008831e+001 4.986752e+001 4.281516e+001 2.665532e+001 1.736006e+001 3.376796e+001 2.869874e+001 1.821112e+001 1.764633e+000 1.512992e+000 1.145332e+000 1.829352e+000 3.141343e+000 4.314359e+000 3.841069e+000 3.064004e+000 2.732653e+000 2.412239e+000 2.458372e+000 2.281769e+000 1.435885e+000
<GCONST> 9.493835e+001
<STATE> 3
<MEAN> 25
 1.035489e+000 8.383346e-001 2.838236e+000 -6.919714e-001 -1.133408e+001 -4.298818e+000 3.431908e-001 -2.135625e+000 -1.942339e+000 1.690236e+000 2.924404e-001 -4.461634e-002 5.691612e-001 1.033991e+000 -2.438052e-001 1.479877e+000 1.428407e+000 -6.389974e-001 -2.782083e-001 9.381267e-001 -4.542432e-001 -1.308782e+000 4.286097e-002 4.651787e-002 -1.848616e+000
<VARIANCE> 25
 1.168558e+001 1.935030e+001 1.590935e+001 2.770921e+001 2.550532e+001 4.930549e+001 2.818562e+001 3.223429e+001 1.953688e+001 2.911104e+001 3.316554e+001 3.455018e+001 9.330937e-001 1.770765e+000 1.240174e+000 1.832247e+000 4.505839e+000 3.869803e+000 2.403107e+000 1.988765e+000 1.642774e+000 2.769582e+000 4.179637e+000 2.902015e+000 1.807114e+000
<GCONST> 9.514103e+001
<STATE> 4
<MEAN> 25
 2.313287e+000 5.469020e+000 1.579818e+000 3.303219e+000 -4.888215e+000 -4.276504e+000 1.215736e-001 -1.748572e+000 -2.581177e+000 -1.887109e+000 2.337352e+000 -3.835047e-001 -3.081718e-001 1.365527e+000 -2.889218e-001 1.482242e+000 2.662900e+000 1.382578e+000 -8.225273e-002 -2.988056e-001 3.785901e-001 6.270964e-002 3.673235e-001 3.066119e-001 -2.318335e+000
<VARIANCE> 25
 1.928839e+001 2.710540e+001 1.554646e+001 1.911274e+001 3.252107e+001 3.138607e+001 1.752403e+001 1.922956e+001 2.126445e+001 2.269275e+001 1.996015e+001 2.839281e+001 2.370581e+000 2.860548e+000 2.315330e+000 2.209707e+000 2.205693e+000 3.042009e+000 2.964938e+000 4.101666e+000 5.260222e+000 3.268334e+000 3.462667e+000 2.373823e+000 1.872326e+000
<GCONST> 9.669413e+001
<TRANSP> 5
 0.000000e+000 1.000000e+000 0.000000e+000 0.000000e+000 0.000000e+000
 0.000000e+000 5.999872e-001 4.000128e-001 0.000000e+000 0.000000e+000
 0.000000e+000 0.000000e+000 5.214058e-001 4.785942e-001 0.000000e+000
 0.000000e+000 0.000000e+000 0.000000e+000 5.523411e-001 4.476589e-001
 0.000000e+000 0.000000e+000 0.000000e+000 0.000000e+000 0.000000e+000
<ENDHMM>
~h "h"
<BEGINHMM>
<NUMSTATES> 5
<STATE> 2
<MEAN> 25
 -8.564550e+000 -1.682943e+000 1.974282e+000 3.947464e+000 7.500963e+000 2.584812e+000 3.928126e+000 3.582755e+000 5.324289e+000 2.089062e+000 2.479433e+000 2.726398e+000 2.059260e+000 5.810627e-001 1.897105e-001 -1.286428e+000 -2.252990e+000 -8.164240e-001 -1.670538e+000 -2.506557e+000 -1.661625e+000 -1.245144e+000 -1.172183e+000 -8.515976e-001 1.088823e+000
<VARIANCE> 25
 5.690948e+001 5.719857e+001 4.091912e+001 7.670885e+001 6.783509e+001 4.511703e+001 4.478893e+001 5.799977e+001 6.112061e+001 3.766456e+001 3.701471e+001 2.678338e+001 3.478959e+000 2.348674e+000 2.338970e+000 2.723919e+000 4.736288e+000 3.708900e+000 4.587907e+000 3.830716e+000 4.954012e+000 3.837908e+000 3.040757e+000 2.268021e+000 1.436124e+000
<GCONST> 1.075389e+002
<STATE> 3
<MEAN> 25
 1.952502e+000 3.123335e+000 1.671420e+000 -3.106252e+000 -2.044307e+000 -6.027150e-001 -2.754015e+000 -6.001543e+000 -3.230497e+000 -2.568452e+000 -1.314536e+000 -8.888510e-001 2.721128e+000 3.962511e-001 -7.424549e-001 -2.368322e+000 -3.445772e+000 -8.391373e-001 -1.716435e+000 -1.965840e+000 -1.910458e+000 -9.334911e-001 -1.463087e+000 -1.182032e+000 1.991925e+000
<VARIANCE> 25
 2.212349e+001 5.839914e+001 5.242691e+001 4.932635e+001 5.708886e+001 4.475194e+001 4.246785e+001 2.829013e+001 3.326504e+001 3.477934e+001 2.629369e+001 1.888489e+001 3.814085e+000 2.485309e+000 3.651626e+000 3.877055e+000 6.096009e+000 4.655885e+000 5.627318e+000 4.579820e+000 5.570042e+000 4.436315e+000 4.663935e+000 2.884759e+000 1.312164e+000
<GCONST> 1.067396e+002
<STATE> 4
<MEAN> 25
 4.070159e+000 1.846808e+000 -4.532140e-001 -6.247051e+000 -5.965188e+000 3.744413e-001 -3.114711e+000 -5.817369e+000 -3.707544e+000 -1.860162e+000 -1.945726e+000 -1.746544e+000 1.101651e+000 -5.827189e-001 -9.519846e-001 -1.300144e+000 -1.923107e+000 1.234913e-001 -3.528617e-001 -1.990362e-001 -5.288895e-001 1.565087e-001 -6.066375e-001 -6.700891e-001 1.601342e+000
<VARIANCE> 25
 1.617995e+001 6.388902e+001 6.164913e+001 5.512459e+001 5.210896e+001 3.675364e+001 5.261832e+001 3.497249e+001 3.953611e+001 3.797527e+001 2.913738e+001 2.746624e+001 2.136205e+000 1.633784e+000 2.740461e+000 4.733977e+000 5.682781e+000 4.012395e+000 4.718208e+000 3.631472e+000 3.250430e+000 3.159656e+000 3.212265e+000 2.558693e+000 1.538630e+000
<GCONST> 1.047406e+002
<TRANSP> 5
 0.000000e+000 1.000000e+000 0.000000e+000 0.000000e+000 0.000000e+000
 0.000000e+000 5.376250e-001 4.623750e-001 0.000000e+000 0.000000e+000
 0.000000e+000 0.000000e+000 1.389566e-001 8.610435e-001 0.000000e+000
 0.000000e+000 0.000000e+000 0.000000e+000 8.510997e-002 9.148900e-001
 0.000000e+000 0.000000e+000 0.000000e+000 0.000000e+000 0.000000e+000
<ENDHMM>
~h "i"
<BEGINHMM>
<NUMSTATES> 5
<STATE> 2
<MEAN> 25
 -5.226114e-001 3.981579e+000 8.798092e+000 -4.586870e+000 -1.002024e+001 -3.324589e+000 -3.900523e+000 -5.294975e+000 -1.136998e+000 5.433173e-001 1.070729e+000 -9.027570e-001 2.484959e-001 1.236556e-001 1.026810e+000 -2.098765e+000 -1.510525e+000 2.390443e-001 -1.127360e+000 -1.050892e+000 5.365288e-002 3.802029e-001 -8.492499e-001 -3.875245e-001 1.406501e+000
<VARIANCE> 25
 1.346486e+001 3.647367e+001 2.474484e+001 3.209906e+001 4.387363e+001 3.377676e+001 4.669286e+001 4.042603e+001 4.549789e+001 3.071955e+001 3.004755e+001 2.497624e+001 3.115906e+000 2.061707e+000 2.401530e+000 3.580739e+000 7.179428e+000 4.852353e+000 5.477410e+000 4.331015e+000 3.571434e+000 3.362414e+000 4.262512e+000 2.654666e+000 1.761295e+000
<GCONST> 1.037352e+002
<STATE> 3
<MEAN> 25
 -1.112478e+000 4.868105e+000 7.724018e+000 -8.499825e+000 -7.628913e+000 -2.144339e-001 -6.601376e+000 -5.571005e+000 1.090704e+000 1.150574e+000 -1.786171e+000 -1.209951e+000 3.231560e-001 -8.254711e-002 -3.074224e-001 3.603780e-001 3.635044e-001 7.390769e-002 1.970939e-001 3.679162e-002 -4.289167e-002 -6.655404e-003 -2.630573e-001 3.451078e-002 -2.921318e-001
<VARIANCE> 25
 9.600178e+000 2.402194e+001 2.502507e+001 2.216377e+001 4.792736e+001 2.667011e+001 5.178893e+001 3.541438e+001 4.050351e+001 3.298030e+001 3.652255e+001 2.552147e+001 6.782287e-001 1.556395e+000 1.054222e+000 2.142226e+000 2.108264e+000 2.058022e+000 2.705242e+000 2.056619e+000 2.165172e+000 2.073649e+000 1.814104e+000 1.699913e+000 5.903755e-001
<GCONST> 9.256188e+001
<STATE> 4
<MEAN> 25
 1.569523e+000 5.180996e+000 5.658370e+000 -2.781171e-001 -4.581216e+000 -1.952839e+000 -2.474408e+000 -4.237235e+000 -1.066286e+000 3.923523e-001 -2.775071e-001 -4.547300e-001 1.665761e-001 1.729046e-001 -1.226356e+000 2.009050e+000 1.905580e+000 2.764028e-001 7.025582e-001 4.497334e-001 -9.023171e-003 1.696645e-002 4.442089e-001 3.678767e-001 -1.611163e+000
<VARIANCE> 25
 1.525891e+001 3.592067e+001 2.312201e+001 3.519964e+001 5.448430e+001 3.984709e+001 4.985585e+001 4.532546e+001 3.522126e+001 3.154317e+001 3.235998e+001 2.799635e+001 2.626812e+000 2.482341e+000 2.031255e+000 2.577165e+000 3.824058e+000 4.072698e+000 5.251654e+000 3.952768e+000 3.221267e+000 3.112190e+000 3.656912e+000 2.753166e+000 1.767212e+000
<GCONST> 1.026760e+002
<TRANSP> 5
 0.000000e+000 1.000000e+000 0.000000e+000 0.000000e+000 0.000000e+000
 0.000000e+000 5.520031e-001 4.479969e-001 0.000000e+000 0.000000e+000
 0.000000e+000 0.000000e+000 7.457930e-001 2.542070e-001 0.000000e+000
 0.000000e+000 0.000000e+000 0.000000e+000 6.791701e-001 3.208298e-001
 0.000000e+000 0.000000e+000 0.000000e+000 0.000000e+000 0.000000e+000
<ENDHMM>
~h "j"
<BEGINHMM>
<NUMSTATES> 5
<STATE> 2
<MEAN> 25
 -2.990606e+000 3.036525e+000 -5.383208e+000 -1.229010e+000 8.047842e-001 9.335985e+000 1.222565e+001 9.654225e+000 2.319133e+000 6.224752e+000 5.017468e+000 2.717460e+000 7.161451e-001 4.289199e-001 -3.764995e-001 -1.818702e+000 -1.105839e+000 -7.887084e-001 -5.685152e-001 -5.348568e-001 -7.496493e-001 -2.313422e-001 -8.509060e-001 -2.488278e-001 8.883949e-001
<VARIANCE> 25
 2.766933e+001 1.568318e+001 5.205940e+001 3.504494e+001 3.397151e+001 2.529616e+001 4.505148e+001 5.514773e+001 3.038007e+001 2.568717e+001 1.560121e+001 3.231686e+001 1.720004e+000 1.539694e+000 4.709229e+000 4.001956e+000 2.630271e+000 4.495106e+000 5.829541e+000 6.960139e+000 4.995203e+000 4.505419e+000 2.285347e+000 2.303638e+000 1.796283e+000
<GCONST> 1.024295e+002
<STATE> 3
<MEAN> 25
 4.622952e+000 6.582680e+000 -1.532626e+000 -1.001465e+001 -5.885110e+000 -3.962902e-001 1.539660e+000 -9.259295e-001 -8.092673e+000 -1.262897e+000 -2.897634e+000 1.740157e+000 1.537450e+000 -2.811861e-001 3.420901e-001 -3.018943e+000 -1.958744e+000 -1.340727e+000 -1.776095e+000 -1.354693e+000 -1.690872e+000 -7.195260e-001 -1.894250e+000 -5.292383e-001 2.145840e+000
<VARIANCE> 25
 2.893767e+001 1.156047e+001 3.771781e+001 6.416900e+001 4.616591e+001 1.586324e+001 1.494773e+001 2.004128e+001 2.122912e+001 2.729348e+001 2.287790e+001 1.600204e+001 2.073752e+000 3.919836e+000 2.356226e+000 2.736050e+000 3.519498e+000 3.910693e+000 5.626615e+000 4.327076e+000 6.830220e+000 3.199080e+000 3.540698e+000 4.468622e+000 1.188032e+000
<GCONST> 9.990617e+001
<STATE> 4
<MEAN> 25
 4.653312e+000 -2.104142e+000 -3.239894e+000 -1.376534e+001 -3.278646e+000 2.731795e+000 2.694144e+000 -2.294423e+000 -7.759569e+000 5.680965e-001 -6.552358e+000 -2.210239e+000 -6.224990e-001 -1.822459e+000 5.452039e-001 7.780381e-001 1.533942e+000 1.456179e-001 -4.416210e-001 -1.228975e+000 6.077766e-001 8.026727e-001 -2.101893e-001 -1.076774e+000 9.178501e-001
<VARIANCE> 25
 7.392441e+000 2.187086e+001 1.371881e+001 1.528751e+001 2.056982e+001 1.997479e+001 2.044149e+001 3.240689e+001 2.835509e+001 2.350655e+001 3.872108e+001 3.977394e+001 3.361408e-001 8.566397e-001 1.045309e+000 1.836825e+000 2.209439e+000 3.457094e+000 2.087325e+000 2.403942e+000 3.460987e+000 1.845762e+000 3.443922e+000 3.145197e+000 3.956289e-001
<GCONST> 8.909747e+001
<TRANSP> 5
 0.000000e+000 1.000000e+000 0.000000e+000 0.000000e+000 0.000000e+000
 0.000000e+000 7.695797e-001 2.304203e-001 0.000000e+000 0.000000e+000
 0.000000e+000 0.000000e+000 5.843198e-001 4.156802e-001 0.000000e+000
 0.000000e+000 0.000000e+000 0.000000e+000 7.421689e-001 2.578312e-001
 0.000000e+000 0.000000e+000 0.000000e+000 0.000000e+000 0.000000e+000
<ENDHMM>
~h "k"
<BEGINHMM>
<NUMSTATES> 5
<STATE> 2
<MEAN> 25
 -3.790752e+000 9.388230e-001 -1.738994e+000 4.833008e+000 6.253330e+000 1.855608e+000 4.167687e+000 5.395372e+000 2.692962e+000 3.356201e+000 3.623476e+000 3.774633e+000 1.591531e-001 -1.247116e+000 -1.325918e+000 -1.714651e+000 -3.548165e-001 -1.678371e+000 8.733283e-002 6.721820e-001 -3.518043e-001 1.541877e-001 -9.466265e-001 -3.091249e-001 2.405759e+000
<VARIANCE> 25
 2.108327e+001 4.117268e+001 3.954607e+001 3.531811e+001 5.381897e+001 8.208284e+001 5.961820e+001 4.096353e+001 3.566861e+001 3.274106e+001 4.015821e+001 2.640956e+001 3.894845e+000 3.977576e+000 5.344638e+000 5.051451e+000 9.076962e+000 1.202474e+001 5.238004e+000 4.874256e+000 4.928949e+000 4.112701e+000 6.694827e+000 4.317896e+000 5.602225e+000
<GCONST> 1.122437e+002
<STATE> 3
<MEAN> 25
 -1.441389e-001 -8.769498e-001 -4.806828e+000 -2.518267e+000 1.256547e+000 -3.443966e+000 3.295631e+000 5.166234e+000 -7.470867e-001 2.399574e+000 -9.441063e-001 2.188761e+000 1.795850e+000 2.267690e-002 7.955218e-002 -2.112171e+000 -2.117473e+000 -9.838812e-001 -9.947485e-002 -1.313086e+000 -1.500934e+000 -8.964431e-001 -1.634839e+000 -1.201762e+000 2.080811e+000
<VARIANCE> 25
 2.854228e+001 2.884536e+001 6.393270e+001 3.640274e+001 7.046201e+001 1.081950e+002 5.149464e+001 3.606944e+001 3.863401e+001 3.485029e+001 6.378798e+001 3.086112e+001 2.300479e+000 3.657799e+000 4.078766e+000 4.552727e+000 6.016942e+000 7.099646e+000 7.371994e+000 4.380261e+000 6.202259e+000 3.915627e+000 6.741297e+000 3.681044e+000 3.612850e+000
<GCONST> 1.116357e+002
<STATE> 4
<MEAN> 25
 1.589189e+000 -4.577129e-001 -3.297551e+000 -3.763661e+000 -1.085923e+000 -3.300541e+000 3.480528e+000 2.823559e+000 -2.390793e+000 8.327480e-001 -2.269452e+000 4.797337e-001 1.350448e+000 -2.031389e-001 6.325804e-001 -1.200563e+000 -1.645688e+000 -1.505845e-001 -2.696618e-001 -1.656568e+000 -8.741292e-001 -8.495577e-001 -1.001644e+000 -1.004012e+000 1.606732e+000
<VARIANCE> 25
 2.366749e+001 5.848445e+001 4.502016e+001 3.072077e+001 5.634892e+001 8.787683e+001 5.817826e+001 4.096910e+001 4.397788e+001 3.366455e+001 7.051625e+001 3.266215e+001 2.238029e+000 4.321602e+000 4.414568e+000 4.489507e+000 5.839041e+000 6.218303e+000 7.849057e+000 5.967169e+000 5.259474e+000 3.493879e+000 4.869483e+000 2.771385e+000 2.834583e+000
<GCONST> 1.109877e+002
<TRANSP> 5
 0.000000e+000 1.000000e+000 0.000000e+000 0.000000e+000 0.000000e+000
 0.000000e+000 6.175314e-001 3.824686e-001 0.000000e+000 0.000000e+000
 0.000000e+000 0.000000e+000 1.954221e-001 8.045779e-001 0.000000e+000
 0.000000e+000 0.000000e+000 0.000000e+000 1.666239e-001 8.333760e-001
 0.000000e+000 0.000000e+000 0.000000e+000 0.000000e+000 0.000000e+000
<ENDHMM>
~h "l"
<BEGINHMM>
<NUMSTATES> 5
<STATE> 2
<MEAN> 25
 4.391398e+000 -3.302620e+000 5.894512e+000 -2.032980e+000 4.726298e+000 -1.079857e+001 -4.983530e+000 1.207191e+000 -4.145093e+000 -4.095591e+000 -3.111024e+000 5.933624e+000 -7.645923e-001 1.436040e-001 9.034281e-001 -2.831087e-001 -3.926729e-001 -4.836543e-001 1.082241e+000 -9.996071e-001 -1.316201e-001 9.093692e-001 5.810555e-002 6.037226e-001 3.864268e-001
<VARIANCE> 25
 8.000009e+000 1.010084e+001 2.040225e+001 1.811764e+001 2.452318e+001 5.557050e+001 3.814138e+001 1.712829e+001 1.877275e+001 2.282930e+001 2.438810e+001 2.001320e+001 3.540337e-001 9.920552e-001 9.823560e-001 2.787423e+000 3.158226e+000 3.964551e+000 3.237122e+000 2.379275e+000 3.258407e+000 2.016285e+000 3.756130e+000 2.820414e+000 1.207718e+000
<GCONST> 9.116312e+001
<STATE> 3
<MEAN> 25
 6.566930e-001 -4.028293e+000 4.513771e+000 -6.895661e+000 -3.053704e+000 -8.868707e+000 1.858871e+000 -2.378692e+000 1.580526e+000 1.688387e+000 -1.456232e+000 2.606300e+000 -6.312841e-001 4.667936e-001 -3.455583e-001 -7.401484e-001 -3.357545e+000 1.861303e+000 3.719757e-001 -1.552494e+000 1.054257e+000 1.538075e+000 4.474596e-001 -1.180002e+000 9.332387e-001
<VARIANCE> 25
 9.266163e+000 9.574401e+000 2.118316e+001 1.602243e+001 2.489856e+001 2.058978e+001 2.004101e+001 3.763292e+001 1.538882e+001 2.667841e+001 2.516813e+001 1.776202e+001 7.635501e-001 1.803428e+000 4.864045e+000 4.110619e+000 2.347010e+000 3.404796e+000 8.769230e+000 1.674550e+000 2.036655e+000 4.353214e+000 3.343672e+000 4.770936e+000 2.763210e+000
<GCONST> 9.529369e+001
<STATE> 4
<MEAN> 25
 1.964456e+000 2.548737e+000 6.487736e+000 -4.104847e+000 -1.164022e+001 -1.602541e+000 -2.765049e+000 -5.953040e+000 -6.085501e-001 3.017436e+000 -3.534960e+000 3.518942e-001 5.302357e-002 1.250217e+000 6.759955e-002 8.769188e-001 -1.205310e+000 1.257786e+000 -2.544509e-001 -8.972801e-001 -9.013586e-001 1.312739e-001 -2.218821e-001 -8.538639e-001 -6.012720e-001
<VARIANCE> 25
 9.207322e+000 1.424514e+001 1.315480e+001 4.547479e+001 2.903614e+001 3.528877e+001 3.011038e+001 3.282169e+001 1.306827e+001 4.149052e+001 4.455825e+001 2.939498e+001 3.031115e-001 4.987426e-001 1.217375e+000 1.887980e+000 2.583874e+000 3.221637e+000 3.436607e+000 1.994843e+000 2.131501e+000 2.090028e+000 3.136876e+000 1.581827e+000 5.004749e-001
<GCONST> 8.990936e+001
<TRANSP> 5
 0.000000e+000 1.000000e+000 0.000000e+000 0.000000e+000 0.000000e+000
 0.000000e+000 7.451424e-001 2.548576e-001 0.000000e+000 0.000000e+000
 0.000000e+000 0.000000e+000 6.150373e-001 3.849627e-001 0.000000e+000
 0.000000e+000 0.000000e+000 0.000000e+000 7.813991e-001 2.186009e-001
 0.000000e+000 0.000000e+000 0.000000e+000 0.000000e+000 0.000000e+000
<ENDHMM>
~h "m"
<BEGINHMM>
<NUMSTATES> 5
<STATE> 2
<MEAN> 25
 5.464673e+000 -5.389839e-001 2.510681e+000 3.226111e+000 3.546543e-001 -9.953794e-001 -6.540737e+000 -1.109962e+001 -2.987879e+000 3.867898e+000 -1.054713e+000 -3.109682e+000 6.736283e-003 -5.801278e-002 1.120063e-001 2.499466e-001 4.100668e-001 -4.930607e-002 -2.533603e-001 -5.598127e-001 -1.499569e-001 3.077222e-001 7.069786e-002 -1.700859e-001 4.666159e-002
<VARIANCE> 25
 9.119140e+000 1.815566e+001 1.560815e+001 2.412632e+001 3.666236e+001 3.311193e+001 6.848181e+001 4.427678e+001 3.880120e+001 3.063235e+001 3.234103e+001 3.293859e+001 3.370839e-001 1.197373e+000 1.375669e+000 1.865668e+000 1.697097e+000 1.559933e+000 2.446901e+000 3.309941e+000 1.968971e+000 1.931016e+000 1.770675e+000 1.916200e+000 8.667280e-001
<GCONST> 9.167236e+001
<STATE> 3
<MEAN> 25
 4.863236e+000 -2.683397e+000 -3.378894e-001 -6.709126e-001 1.939555e+000 -8.934261e-002 -5.373713e+000 -8.954258e+000 -2.328051e+000 3.731083e+000 -9.392079e-001 -4.217571e+000 -4.356304e-001 -1.278136e+000 -1.990012e+000 -1.722845e+000 7.038654e-002 6.461905e-001 5.987992e-001 3.040722e+000 8.207451e-001 -1.345904e+000 -4.569238e-001 2.773076e-001 1.432150e+000
<VARIANCE> 25
 8.127565e+000 2.119726e+001 2.922419e+001 3.772387e+001 2.578198e+001 2.846475e+001 4.764563e+001 5.012310e+001 3.242149e+001 2.584807e+001 3.497112e+001 2.692496e+001 4.877855e-001 1.482673e+000 3.084465e+000 2.413641e+000 1.900568e+000 3.294013e+000 4.563320e+000 5.063956e+000 5.538032e+000 3.792376e+000 3.592083e+000 4.844875e+000 1.153035e+000
<GCONST> 9.875822e+001
<STATE> 4
<MEAN> 25
 2.540316e+000 -5.585814e+000 -4.450130e+000 -1.945012e+000 3.133228e+000 1.616083e+000 -4.433944e+000 -5.520587e-002 -3.911105e-001 -1.095791e+000 -2.122677e+000 -1.025488e+000 -1.077522e+000 -5.996585e-001 -4.043570e-001 2.537873e-001 3.070759e-001 2.698702e-001 9.431111e-001 2.241917e+000 -6.211241e-002 -1.571216e+000 3.158603e-002 1.321465e+000 6.425675e-001
<VARIANCE> 25
 1.091227e+001 3.897763e+001 3.356314e+001 2.504280e+001 3.294328e+001 3.725177e+001 3.235720e+001 4.249221e+001 3.375068e+001 2.815884e+001 2.910277e+001 2.938649e+001 6.641978e-001 1.610554e+000 2.670018e+000 2.960562e+000 2.743417e+000 3.477506e+000 3.808704e+000 3.877467e+000 3.055409e+000 3.971762e+000 3.297739e+000 2.699653e+000 1.219370e+000
<GCONST> 9.864437e+001
<TRANSP> 5
 0.000000e+000 1.000000e+000 0.000000e+000 0.000000e+000 0.000000e+000
 0.000000e+000 7.778340e-001 2.221660e-001 0.000000e+000 0.000000e+000
 0.000000e+000 0.000000e+000 5.609682e-001 4.390319e-001 0.000000e+000
 0.000000e+000 0.000000e+000 0.000000e+000 4.047456e-001 5.952544e-001
 0.000000e+000 0.000000e+000 0.000000e+000 0.000000e+000 0.000000e+000
<ENDHMM>
~h "n"
<BEGINHMM>
<NUMSTATES> 5
<STATE> 2
<MEAN> 25
 4.843502e+000 4.781648e-001 2.622151e+000 -5.040919e-001 -4.642976e+000 -2.672257e+000 -4.872990e+000 -6.226296e+000 -8.360606e-001 -1.754947e-001 -4.385724e+000 -6.531329e-001 4.345814e-001 8.879159e-001 1.082000e+000 9.297295e-001 -6.733345e-001 -6.248018e-001 -1.172523e-001 -1.237243e+000 5.469909e-001 4.353515e-001 -5.534298e-001 3.645137e-001 -1.024147e+000
<VARIANCE> 25
 8.234917e+000 1.547398e+001 1.927727e+001 2.546964e+001 3.136594e+001 4.792702e+001 8.352248e+001 4.833732e+001 3.876464e+001 5.294115e+001 4.462329e+001 3.041999e+001 4.672917e-001 1.179594e+000 2.689945e+000 1.680937e+000 2.021190e+000 3.532970e+000 3.457054e+000 3.451703e+000 3.330565e+000 2.910906e+000 3.144139e+000 2.305961e+000 5.128692e-001
<GCONST> 9.639291e+001
<STATE> 3
<MEAN> 25
 4.851865e+000 2.666923e+000 5.230848e+000 2.429792e+000 -5.813816e+000 -3.937418e+000 -4.673117e+000 -7.481136e+000 8.256053e-001 1.582984e-001 -4.712351e+000 3.859559e-001 -2.935480e-001 4.496162e-001 1.024240e-001 3.239194e-001 4.999498e-001 -9.861803e-002 5.733823e-002 4.664036e-001 -1.050233e-001 -6.361388e-002 2.194872e-001 7.384959e-002 -4.802806e-001
<VARIANCE> 25
 9.076201e+000 1.866697e+001 2.157080e+001 2.134983e+001 2.993799e+001 5.109326e+001 6.241048e+001 4.085745e+001 4.118737e+001 5.182021e+001 4.627853e+001 2.927409e+001 3.411836e-001 1.593995e+000 1.091547e+000 1.324511e+000 1.535032e+000 2.121139e+000 2.216229e+000 2.227376e+000 1.774376e+000 2.238690e+000 2.130656e+000 1.957213e+000 1.210244e+000
<GCONST> 9.280042e+001
<STATE> 4
<MEAN> 25
 2.379762e+000 3.548150e+000 3.267007e+000 2.413656e+000 -1.655445e+000 -3.623539e+000 -3.412091e+000 -3.882498e+000 -8.217358e-001 3.091123e-001 -2.695084e+000 6.008388e-001 -1.321001e+000 -6.420441e-001 -1.363057e+000 -3.866009e-001 1.880764e+000 7.258871e-001 9.772854e-001 2.379978e+000 -8.239228e-001 -6.729566e-001 1.369913e+000 1.532784e-001 3.163819e-001
<VARIANCE> 25
 1.161295e+001 3.589674e+001 2.312559e+001 2.499002e+001 3.403679e+001 4.610450e+001 4.786135e+001 4.621490e+001 3.610439e+001 3.523248e+001 4.679554e+001 2.752012e+001 9.224237e-001 2.755329e+000 4.428916e+000 3.922336e+000 2.804366e+000 4.670917e+000 6.033339e+000 5.563580e+000 5.866126e+000 5.545300e+000 3.531013e+000 2.908608e+000 3.646234e+000
<GCONST> 1.046870e+002
<TRANSP> 5
 0.000000e+000 1.000000e+000 0.000000e+000 0.000000e+000 0.000000e+000
 0.000000e+000 6.488835e-001 3.511164e-001 0.000000e+000 0.000000e+000
 0.000000e+000 0.000000e+000 6.473204e-001 3.526796e-001 0.000000e+000
 0.000000e+000 0.000000e+000 0.000000e+000 5.855318e-001 4.144681e-001
 0.000000e+000 0.000000e+000 0.000000e+000 0.000000e+000 0.000000e+000
<ENDHMM>
~h "o"
<BEGINHMM>
<NUMSTATES> 5
<STATE> 2
<MEAN> 25
 3.676766e+000 -6.720408e-001 -3.976177e+000 -1.146885e+001 2.954081e+000 -3.026113e+000 -7.474298e+000 -1.794088e+000 1.188103e+000 1.830434e+000 1.325619e+000 1.031162e+000 1.106941e+000 -4.462383e-001 2.591451e-002 -1.053464e+000 7.749528e-001 3.300828e-001 -1.599672e+000 -3.291104e-001 5.644448e-001 -3.559158e-002 -6.309030e-001 -4.470388e-001 2.125240e-002
<VARIANCE> 25
 1.675132e+001 2.849324e+001 2.252209e+001 4.740263e+001 2.645078e+001 5.997314e+001 5.605031e+001 2.761627e+001 5.081147e+001 2.439064e+001 4.683069e+001 3.712218e+001 3.015026e+000 1.395195e+000 1.581979e+000 5.906106e+000 3.128023e+000 3.009398e+000 8.835223e+000 2.818866e+000 3.039151e+000 2.328477e+000 4.217866e+000 2.420795e+000 5.913227e-001
<GCONST> 1.012685e+002
<STATE> 3
<MEAN> 25
 6.246971e+000 -2.512138e-001 -5.965319e+000 -1.287861e+001 2.946287e+000 2.693965e+000 -6.522937e+000 -1.432278e+000 -1.921949e+000 1.286075e+000 -2.557578e-001 -6.602577e-001 9.448971e-002 5.058328e-001 4.726395e-001 1.894405e+000 -2.988629e-001 -3.092162e-001 1.540613e-001 -4.328988e-001 3.228306e-002 -8.539835e-001 2.225995e-001 -3.968953e-001 -9.004830e-001
<VARIANCE> 25
 6.295745e+000 1.910534e+001 2.772091e+001 3.455431e+001 2.005625e+001 4.540266e+001 3.565834e+001 2.927886e+001 3.409129e+001 2.970475e+001 4.828859e+001 2.641460e+001 2.924010e-001 1.385183e+000 9.054204e-001 3.884077e+000 1.668178e+000 2.099423e+000 2.599400e+000 2.287875e+000 2.154241e+000 1.722283e+000 1.688907e+000 2.179086e+000 7.708141e-001
<GCONST> 9.118171e+001
<STATE> 4
<MEAN> 25
 3.989782e+000 6.000959e+000 -1.722625e+000 -1.423023e+000 -7.396346e-001 -2.248757e+000 -2.342633e+000 -3.179884e+000 -2.001965e+000 -3.594126e+000 2.411523e+000 -2.528811e+000 -1.689810e+000 1.687574e+000 1.934184e+000 3.008498e+000 -7.230589e-001 -9.024235e-001 1.509221e+000 3.825174e-001 -4.484566e-002 -5.156726e-001 4.599237e-001 -1.495398e-001 -1.686403e+000
<VARIANCE> 25
 1.430634e+001 3.294200e+001 2.307405e+001 2.429241e+001 2.052416e+001 4.365367e+001 4.264553e+001 2.201112e+001 2.836203e+001 3.235010e+001 2.858990e+001 2.006123e+001 1.114243e+000 2.217319e+000 2.140923e+000 1.969342e+000 2.729649e+000 2.829725e+000 2.915534e+000 4.190228e+000 3.640761e+000 3.363559e+000 3.356140e+000 2.488019e+000 1.066721e+000
<GCONST> 9.682975e+001
<TRANSP> 5
 0.000000e+000 1.000000e+000 0.000000e+000 0.000000e+000 0.000000e+000
 0.000000e+000 4.083544e-001 5.916455e-001 0.000000e+000 0.000000e+000
 0.000000e+000 0.000000e+000 6.984687e-001 3.015313e-001 0.000000e+000
 0.000000e+000 0.000000e+000 0.000000e+000 6.106644e-001 3.893356e-001
 0.000000e+000 0.000000e+000 0.000000e+000 0.000000e+000 0.000000e+000
<ENDHMM>
~h "p"
<BEGINHMM>
<NUMSTATES> 5
<STATE> 2
<MEAN> 25
 1.707747e+000 5.440774e+000 -6.965165e-001 3.877445e+000 2.803978e+000 3.757102e+000 2.360806e+000 1.078897e-001 4.850092e-001 6.093352e-001 1.291021e+000 9.788454e-001 -1.032554e+000 3.390248e-001 5.290127e-001 1.063260e+000 8.659717e-001 9.499003e-001 7.250359e-001 8.126818e-001 1.667981e-001 1.735753e-001 6.497715e-001 8.524517e-001 -1.423354e+000
<VARIANCE> 25
 2.033255e+001 2.779386e+001 2.495564e+001 2.411546e+001 3.406236e+001 2.923476e+001 4.203270e+001 3.425670e+001 2.978960e+001 2.695930e+001 4.147413e+001 3.122749e+001 1.693320e+000 3.077981e+000 1.440362e+000 2.058809e+000 2.737840e+000 2.749396e+000 2.739850e+000 2.481951e+000 2.491107e+000 2.369630e+000 3.769788e+000 2.574239e+000 3.777213e+000
<GCONST> 9.876516e+001
<STATE> 3
<MEAN> 25
 -3.033141e+000 3.737679e+000 1.101365e+000 7.116745e+000 6.608462e+000 6.797142e+000 5.881376e+000 2.805523e+000 2.020662e+000 1.911156e+000 4.839533e+000 3.010850e+000 -2.804689e-001 -1.394776e+000 -1.341715e-001 -3.364376e-001 -4.023014e-001 -1.090590e+000 -3.556269e-001 2.051914e-001 3.637816e-001 4.274194e-002 -4.214425e-002 -3.036154e-001 1.723368e+000
<VARIANCE> 25
 1.371631e+001 3.590361e+001 2.195821e+001 2.597539e+001 3.449652e+001 3.327563e+001 4.502422e+001 2.777158e+001 3.112283e+001 2.692087e+001 4.012225e+001 2.504375e+001 1.638565e+000 2.661602e+000 2.028912e+000 2.718005e+000 3.469514e+000 5.184681e+000 3.532159e+000 2.922483e+000 2.881967e+000 2.511410e+000 2.957885e+000 2.957044e+000 4.310503e+000
<GCONST> 1.003262e+002
<STATE> 4
<MEAN> 25
 8.530517e-001 -2.915477e+000 -2.327382e+000 2.675176e-001 9.792241e-001 -1.598842e+000 -1.907044e-001 9.412767e-001 2.422952e+000 1.780978e+000 1.432988e+000 -1.437135e+000 1.895816e+000 -2.610121e+000 -1.508367e+000 -3.021710e+000 -1.973701e+000 -1.915861e+000 -1.545190e+000 -7.031639e-001 -2.950481e-001 -1.739277e-001 -2.109412e+000 -1.825849e+000 4.493218e+000
<VARIANCE> 25
 3.236065e+001 3.827862e+001 4.426362e+001 5.990163e+001 3.856202e+001 4.990899e+001 4.819396e+001 3.814227e+001 3.351627e+001 2.678829e+001 4.849915e+001 3.454744e+001 2.175363e+000 4.684737e+000 6.967340e+000 4.069487e+000 6.461099e+000 8.299673e+000 7.580204e+000 5.141940e+000 6.291272e+000 3.612415e+000 8.114668e+000 4.447897e+000 4.821844e+000
<GCONST> 1.118486e+002
<TRANSP> 5
 0.000000e+000 1.000000e+000 0.000000e+000 0.000000e+000 0.000000e+000
 0.000000e+000 6.879467e-001 3.120533e-001 0.000000e+000 0.000000e+000
 0.000000e+000 0.000000e+000 5.325123e-001 4.674877e-001 0.000000e+000
 0.000000e+000 0.000000e+000 0.000000e+000 5.946487e-001 4.053513e-001
 0.000000e+000 0.000000e+000 0.000000e+000 0.000000e+000 0.000000e+000
<ENDHMM>
~h "q"
<BEGINHMM>
<NUMSTATES> 5
<STATE> 2
<MEAN> 25
 -4.190263e+000 9.291067e-001 -7.552037e-001 3.626360e+000 5.664053e+000 2.813141e+000 2.437011e+000 4.131336e+000 1.140254e+000 -8.693027e-001 2.798394e+000 1.803069e+000 -1.082505e+000 -9.759264e-002 1.338452e-001 -2.801670e-001 6.522111e-001 -1.805580e-002 3.666539e-002 6.704817e-001 -1.952350e-002 7.124794e-002 2.071017e-001 -5.672816e-003 3.865486e-001
<VARIANCE> 25
 2.626366e+001 2.677389e+001 3.805857e+001 4.701660e+001 4.659891e+001 6.788012e+001 6.273246e+001 4.302970e+001 3.641415e+001 3.602476e+001 3.960383e+001 2.923727e+001 4.818713e+000 2.964863e+000 4.059830e+000 7.425241e+000 6.207057e+000 5.395685e+000 6.716349e+000 4.803402e+000 4.765545e+000 3.926461e+000 2.959964e+000 2.969470e+000 4.834455e+000
<GCONST> 1.099148e+002
<STATE> 3
<MEAN> 25
 -5.390408e+000 -2.455673e-001 -8.961730e-001 2.154972e+000 6.277612e+000 1.331625e+000 6.138202e-001 4.634109e+000 9.996421e-001 -1.333530e+000 1.678649e+000 9.786930e-001 -6.682129e-001 7.123744e-002 3.033072e-001 5.680773e-002 2.243569e-001 -9.066884e-002 -2.235550e-002 2.110163e-001 3.445041e-001 3.948807e-001 1.800263e-001 -8.323001e-002 1.326019e-001
<VARIANCE> 25
 3.247774e+001 2.361851e+001 3.996795e+001 4.729286e+001 5.889225e+001 6.710026e+001 5.782147e+001 4.770571e+001 3.988434e+001 3.655108e+001 3.835122e+001 3.107172e+001 4.863818e+000 2.296663e+000 2.726834e+000 6.557884e+000 6.081579e+000 3.914003e+000 5.630375e+000 5.838235e+000 4.288191e+000 3.501540e+000 2.855212e+000 2.454806e+000 3.416193e+000
<GCONST> 1.085503e+002
<STATE> 4
<MEAN> 25
 -7.418048e+000 -2.072575e-002 2.453428e-002 4.510913e+000 8.574112e+000 2.103193e+000 2.624135e+000 5.817198e+000 3.377645e+000 1.983233e-001 2.659231e+000 1.310969e+000 8.383829e-001 3.996599e-001 3.862128e-001 -4.094475e-001 -1.007252e+000 -1.408391e-003 -1.094048e-001 -8.101448e-001 -2.051032e-001 1.671614e-001 -5.854936e-002 -5.945348e-002 -1.698748e-001
<VARIANCE> 25
 3.392309e+001 2.071815e+001 3.240523e+001 4.767682e+001 5.954483e+001 5.400974e+001 5.418998e+001 4.895768e+001 3.752602e+001 3.173420e+001 3.316197e+001 2.753972e+001 4.029907e+000 2.016551e+000 2.152445e+000 4.321602e+000 6.437251e+000 4.448396e+000 5.207221e+000 5.826333e+000 3.574661e+000 3.463462e+000 3.377843e+000 2.705450e+000 3.300394e+000
<GCONST> 1.067187e+002
<TRANSP> 5
 0.000000e+000 1.000000e+000 0.000000e+000 0.000000e+000 0.000000e+000
 0.000000e+000 3.332522e-001 6.667478e-001 0.000000e+000 0.000000e+000
 0.000000e+000 0.000000e+000 1.346283e-001 8.653717e-001 0.000000e+000
 0.000000e+000 0.000000e+000 0.000000e+000 6.809875e-001 3.190125e-001
 0.000000e+000 0.000000e+000 0.000000e+000 0.000000e+000 0.000000e+000
<ENDHMM>
~h "r"
<BEGINHMM>
<NUMSTATES> 5
<STATE> 2
<MEAN> 25
 2.860584e+000 -2.375800e+000 2.404860e+000 2.358560e+000 -6.226620e+000 -5.198877e+000 -4.004071e+000 1.666415e+000 2.820441e+000 -1.111783e+000 5.008271e-001 2.919666e-001 3.805412e-001 2.234877e-001 4.977830e-001 -4.956140e-002 -7.142896e-001 -1.890283e-001 -4.108733e-001 -8.429247e-001 1.207377e-001 -9.051141e-002 4.908809e-001 1.643060e-001 -3.773471e-002
<VARIANCE> 25
 1.283065e+001 2.920453e+001 2.799154e+001 3.899562e+001 5.348506e+001 3.607034e+001 8.523624e+001 5.261124e+001 4.647272e+001 4.517937e+001 3.481244e+001 3.188842e+001 1.826429e+000 3.565351e+000 3.313140e+000 3.984194e+000 5.800751e+000 4.705555e+000 4.451455e+000 6.022568e+000 3.695201e+000 5.409218e+000 3.391440e+000 3.662542e+000 2.530047e+000
<GCONST> 1.069955e+002
<STATE> 3
<MEAN> 25
 3.948891e+000 -6.582626e-001 2.628431e+000 2.035488e+000 -6.926597e+000 -4.148192e+000 -3.883322e+000 -1.441356e+000 2.154215e+000 -7.444134e-001 1.753941e+000 8.524700e-003 -2.034714e-001 5.923629e-001 3.399492e-002 -5.866702e-001 4.421757e-001 6.754407e-001 5.496500e-001 -7.447780e-001 -3.151447e-001 3.213904e-001 1.355085e-001 -3.280167e-001 -1.907920e-001
<VARIANCE> 25
 1.368723e+001 3.308822e+001 2.854828e+001 2.537983e+001 3.454359e+001 4.148888e+001 7.401722e+001 4.233828e+001 4.393319e+001 3.829102e+001 3.925264e+001 2.856786e+001 1.687163e+000 4.394291e+000 2.039532e+000 5.007286e+000 5.041106e+000 4.121299e+000 4.314080e+000 9.140438e+000 4.222995e+000 4.280786e+000 3.148459e+000 2.967982e+000 2.626833e+000
<GCONST> 1.055466e+002
<STATE> 4
<MEAN> 25
 2.648148e+000 7.876313e-002 2.094301e+000 5.441551e-001 -4.641878e+000 -2.763799e+000 -2.631559e+000 -1.545663e+000 1.524035e+000 1.908605e-001 1.573231e+000 -9.386358e-001 -6.809137e-001 5.995756e-002 -1.416244e-001 -1.153801e+000 4.111376e-001 7.087722e-001 7.900558e-001 -1.721536e-001 -3.941821e-001 4.683274e-001 -1.116692e-001 -3.253621e-001 4.794814e-001
<VARIANCE> 25
 1.400414e+001 4.958842e+001 2.689142e+001 3.385497e+001 4.021005e+001 4.795234e+001 5.986783e+001 7.472299e+001 3.526802e+001 3.587460e+001 4.175560e+001 3.029595e+001 1.563301e+000 2.771129e+000 1.863099e+000 3.200847e+000 3.086389e+000 3.525605e+000 5.133076e+000 7.450183e+000 4.877617e+000 2.997558e+000 3.436632e+000 2.432808e+000 1.956750e+000
<GCONST> 1.043200e+002
<TRANSP> 5
 0.000000e+000 1.000000e+000 0.000000e+000 0.000000e+000 0.000000e+000
 0.000000e+000 4.319569e-001 5.680432e-001 0.000000e+000 0.000000e+000
 0.000000e+000 0.000000e+000 2.508411e-001 7.491590e-001 0.000000e+000
 0.000000e+000 0.000000e+000 0.000000e+000 2.698978e-001 7.301021e-001
 0.000000e+000 0.000000e+000 0.000000e+000 0.000000e+000 0.000000e+000
<ENDHMM>
~h "s"
<BEGINHMM>
<NUMSTATES> 5
<STATE> 2
<MEAN> 25
 -9.962393e+000 7.299676e+000 -6.640946e-001 6.925127e+000 2.038244e+000 9.081696e-001 2.024107e+000 1.267015e+000 7.344354e-001 -9.167271e-001 3.725924e+000 -1.282201e-001 -2.042135e+000 1.230413e-003 -1.449155e-001 1.233291e+000 8.773708e-001 1.428461e+000 1.128758e+000 7.013392e-001 3.335202e-001 8.459424e-001 8.824898e-001 2.516610e-001 -6.809091e-001
<VARIANCE> 25
 2.710153e+001 1.728501e+001 2.340538e+001 3.624822e+001 4.158640e+001 3.582821e+001 4.834465e+001 4.097268e+001 2.830725e+001 3.123083e+001 2.759718e+001 2.835989e+001 2.937487e+000 2.235314e+000 1.875042e+000 2.430095e+000 2.621881e+000 2.485225e+000 3.449486e+000 3.241046e+000 3.030025e+000 3.749443e+000 2.697178e+000 2.316900e+000 7.300754e-001
<GCONST> 9.881958e+001
<STATE> 3
<MEAN> 25
 -1.175090e+001 3.102087e+000 -1.605155e+000 7.534265e+000 7.207214e+000 5.442335e+000 6.281601e+000 5.764433e+000 4.196582e+000 2.669745e+000 6.617139e+000 2.617118e+000 6.802993e-001 -7.332030e-001 6.534952e-002 -6.252498e-001 2.905599e-001 5.212433e-002 1.371827e-001 3.092236e-001 4.575672e-001 3.664025e-001 2.557774e-001 3.032340e-001 -4.130005e-001
<VARIANCE> 25
 2.963619e+001 2.533070e+001 2.509299e+001 4.168192e+001 4.780207e+001 3.786584e+001 4.131039e+001 3.602382e+001 3.544016e+001 3.042674e+001 3.110818e+001 2.329001e+001 2.024855e+000 1.889292e+000 1.899671e+000 2.715470e+000 3.046893e+000 3.673317e+000 2.890832e+000 2.998624e+000 3.559423e+000 2.545645e+000 2.340721e+000 2.129139e+000 2.209570e+000
<GCONST> 1.000559e+002
<STATE> 4
<MEAN> 25
 -6.100841e+000 1.668352e+000 1.256267e-001 3.154301e+000 3.255112e+000 1.174283e+000 2.329956e+000 3.560270e+000 3.396515e+000 8.417619e-001 4.724480e+000 2.167246e+000 3.577230e+000 -4.272812e-001 3.075662e-001 -1.799590e+000 -1.690579e+000 -2.123874e+000 -2.289063e+000 -1.727998e+000 -9.002241e-001 -9.814446e-001 -1.863519e+000 -8.445935e-001 9.111189e-001
<VARIANCE> 25
 5.433059e+001 2.880977e+001 3.531092e+001 3.200218e+001 6.479749e+001 5.871617e+001 6.828821e+001 6.389558e+001 3.859354e+001 5.071026e+001 4.804222e+001 2.555350e+001 5.460435e+000 2.887587e+000 4.333490e+000 5.365442e+000 7.724428e+000 6.283954e+000 7.219229e+000 7.089011e+000 4.633041e+000 5.194490e+000 5.153453e+000 3.701690e+000 3.490960e+000
<GCONST> 1.127512e+002
<TRANSP> 5
 0.000000e+000 1.000000e+000 0.000000e+000 0.000000e+000 0.000000e+000
 0.000000e+000 7.676128e-001 2.323872e-001 0.000000e+000 0.000000e+000
 0.000000e+000 0.000000e+000 7.579104e-001 2.420896e-001 0.000000e+000
 0.000000e+000 0.000000e+000 0.000000e+000 5.144718e-001 4.855283e-001
 0.000000e+000 0.000000e+000 0.000000e+000 0.000000e+000 0.000000e+000
<ENDHMM>
~h "t"
<BEGINHMM>
<NUMSTATES> 5
<STATE> 2
<MEAN> 25
 8.874227e-001 7.829746e+000 2.079542e+000 5.634235e+000 1.649297e+000 2.830896e+000 2.045222e+000 7.292787e-001 9.277930e-001 3.827142e-001 2.551091e+000 1.529701e+000 -1.280594e+000 -2.440531e-001 1.406581e-001 8.964117e-001 1.406492e+000 1.489022e+000 9.880306e-001 5.711882e-001 2.922580e-001 6.929284e-001 1.256863e+000 6.160216e-001 -1.070461e+000
<VARIANCE> 25
 1.277893e+001 1.916240e+001 1.907862e+001 1.626054e+001 4.376220e+001 3.205076e+001 4.629642e+001 3.774824e+001 2.774803e+001 3.034314e+001 3.312319e+001 2.312831e+001 1.122010e+000 1.982372e+000 1.260217e+000 1.361793e+000 2.680081e+000 2.108568e+000 2.551169e+000 2.254773e+000 2.431877e+000 3.083107e+000 2.966469e+000 2.081486e+000 2.328457e+000
<GCONST> 9.477532e+001
<STATE> 3
<MEAN> 25
 -3.337741e+000 4.979048e+000 2.050904e+000 7.550279e+000 6.244767e+000 6.979073e+000 5.361593e+000 2.436035e+000 2.246303e+000 2.175529e+000 5.304618e+000 3.048157e+000 -9.735846e-001 -2.187768e+000 -7.677261e-001 -1.160761e+000 -3.455282e-001 -1.129844e+000 7.646401e-002 2.582418e-001 5.536270e-001 5.665928e-002 4.452888e-001 -2.804450e-001 2.910751e+000
<VARIANCE> 25
 1.038063e+001 2.319013e+001 1.827493e+001 1.970692e+001 3.543409e+001 3.087823e+001 5.073309e+001 3.147576e+001 3.045517e+001 2.939292e+001 2.797657e+001 2.275371e+001 1.347525e+000 2.394180e+000 2.375707e+000 2.177209e+000 3.930430e+000 4.387513e+000 4.276127e+000 3.755754e+000 3.058012e+000 3.391068e+000 3.028272e+000 2.471667e+000 4.439022e+000
<GCONST> 9.922445e+001
<STATE> 4
<MEAN> 25
 -2.623577e+000 -2.322115e+000 -2.008878e+000 1.161852e-001 -2.848106e-001 -2.982564e+000 1.604846e+000 3.258395e+000 3.173729e+000 -8.768018e-001 3.256653e+000 7.992710e-001 1.401770e+000 -2.252604e+000 -1.853951e+000 -2.891254e+000 -2.264184e+000 -2.920902e+000 -1.203680e+000 9.132407e-001 -1.494612e-001 -1.786195e+000 -2.176430e+000 -8.903747e-001 4.875565e+000
<VARIANCE> 25
 2.454144e+001 1.711445e+001 3.142699e+001 2.980108e+001 4.601754e+001 4.958774e+001 4.918803e+001 3.519152e+001 2.845228e+001 4.180692e+001 4.914412e+001 2.697158e+001 1.423100e+000 3.104188e+000 3.794123e+000 2.460503e+000 7.986335e+000 6.001989e+000 6.931864e+000 6.624541e+000 5.953871e+000 6.224709e+000 4.603001e+000 4.739615e+000 4.288769e+000
<GCONST> 1.078568e+002
<TRANSP> 5
 0.000000e+000 1.000000e+000 0.000000e+000 0.000000e+000 0.000000e+000
 0.000000e+000 6.882994e-001 3.117006e-001 0.000000e+000 0.000000e+000
 0.000000e+000 0.000000e+000 4.795685e-001 5.204315e-001 0.000000e+000
 0.000000e+000 0.000000e+000 0.000000e+000 5.929751e-001 4.070249e-001
 0.000000e+000 0.000000e+000 0.000000e+000 0.000000e+000 0.000000e+000
<ENDHMM>
~h "u"
<BEGINHMM>
<NUMSTATES> 5
<STATE> 2
<MEAN> 25
 6.737027e+000 2.786400e+000 -4.521051e+000 -9.343913e+000 -3.475309e+000 1.372712e+000 -4.218583e+000 -4.312066e+000 -4.345950e+000 2.935546e+000 2.927911e-001 -1.181912e-001 8.538781e-001 -6.998465e-001 -3.365892e-001 -1.055140e+000 -1.432240e-001 2.531298e-001 -1.355257e+000 -1.367489e+000 1.781988e-001 1.274414e+000 -2.690264e-001 -4.846042e-001 1.178972e+000
<VARIANCE> 25
 9.382813e+000 2.761106e+001 2.194683e+001 5.893996e+001 3.311157e+001 5.189904e+001 4.817554e+001 3.565646e+001 4.427477e+001 4.100199e+001 4.167231e+001 3.702293e+001 2.331727e+000 2.286397e+000 2.735736e+000 6.702033e+000 5.043884e+000 4.982956e+000 4.703274e+000 4.315986e+000 5.419713e+000 3.948255e+000 4.047971e+000 3.363017e+000 1.896543e+000
<GCONST> 1.055441e+002
<STATE> 3
<MEAN> 25
 6.319847e+000 -1.414248e+000 -3.496435e+000 -7.027769e+000 -1.661686e+000 1.074296e+000 -7.438486e+000 -5.421937e+000 -9.538963e-001 3.997037e+000 -1.434566e+000 -2.410244e+000 -1.918077e-001 -2.742163e-001 7.931519e-001 1.026836e+000 -1.044025e-001 -5.966339e-001 -3.283837e-001 4.027719e-001 6.793181e-001 -7.832893e-001 -6.800405e-001 9.205087e-002 -1.410791e-001
<VARIANCE> 25
 8.286533e+000 2.399074e+001 2.147012e+001 3.340108e+001 3.593654e+001 3.960182e+001 4.690965e+001 3.691121e+001 4.455606e+001 4.217101e+001 4.391698e+001 2.902797e+001 5.292834e-001 1.407369e+000 1.983604e+000 3.404114e+000 2.456814e+000 5.273676e+000 4.155426e+000 3.283500e+000 4.533874e+000 3.731752e+000 3.110494e+000 3.191432e+000 7.423877e-001
<GCONST> 9.883702e+001
<STATE> 4
<MEAN> 25
 4.753269e+000 1.197582e+000 3.894479e-001 -8.920425e-001 -2.177764e+000 -2.448792e+000 -5.832026e+000 -3.214892e+000 3.479936e-001 -8.257092e-001 -1.407006e+000 -2.230065e-001 -8.743532e-001 8.331879e-001 1.122167e+000 1.539947e+000 -1.219806e-002 -1.776691e-001 1.052253e+000 3.508140e-001 -6.100500e-002 -8.126467e-001 2.433988e-001 5.380873e-001 -1.236093e+000
<VARIANCE> 25
 1.242717e+001 3.656890e+001 2.763490e+001 3.999138e+001 3.985176e+001 5.481033e+001 5.766903e+001 4.244379e+001 4.146923e+001 4.361014e+001 3.366406e+001 2.623151e+001 1.486685e+000 1.888323e+000 2.866556e+000 2.897043e+000 4.812236e+000 3.714921e+000 4.892828e+000 4.275765e+000 4.222144e+000 3.785471e+000 3.933941e+000 3.261978e+000 1.737216e+000
<GCONST> 1.037984e+002
<TRANSP> 5
 0.000000e+000 1.000000e+000 0.000000e+000 0.000000e+000 0.000000e+000
 0.000000e+000 6.252002e-001 3.747998e-001 0.000000e+000 0.000000e+000
 0.000000e+000 0.000000e+000 6.574457e-001 3.425542e-001 0.000000e+000
 0.000000e+000 0.000000e+000 0.000000e+000 6.403579e-001 3.596421e-001
 0.000000e+000 0.000000e+000 0.000000e+000 0.000000e+000 0.000000e+000
<ENDHMM>
~h "v"
<BEGINHMM>
<NUMSTATES> 5
<STATE> 2
<MEAN> 25
 -5.376447e-001 -3.959851e+000 5.792711e+000 -3.032571e+000 -9.515590e+000 -6.541286e+000 4.607040e+000 5.465893e+000 4.839436e+000 2.468054e+000 3.113049e+000 3.687350e+000 -1.645046e+000 -7.647816e-001 6.471014e-001 -2.611994e+000 -2.014010e+000 1.742647e+000 2.413590e+000 1.040001e+000 -8.869303e-001 2.186560e+000 2.158088e+000 -4.398445e-001 2.365602e+000
<VARIANCE> 25
 7.645497e+000 1.955871e+000 2.132026e+000 2.180531e+001 2.133993e+001 1.642763e+001 2.766307e+001 1.452223e+001 1.607492e+001 2.665806e+001 1.811188e+001 1.113051e+001 8.279932e-001 3.799562e+000 4.835341e-001 1.879115e+000 2.633110e+000 2.955904e+000 1.392306e+000 3.719685e+000 1.807520e+000 5.226283e+000 1.517881e+000 2.334859e+000 2.882509e+000
<GCONST> 8.502950e+001
<STATE> 3
<MEAN> 25
 -3.984621e+000 -5.296241e-001 4.855747e+000 -5.167319e+000 -1.113763e+001 2.406663e+000 6.584816e+000 1.757420e+000 -1.169351e+000 4.811994e+000 6.247578e+000 -7.220361e-001 2.893954e-001 8.088108e-001 -2.556636e-002 1.485678e+000 3.168327e-001 -5.603378e-001 -1.027917e+000 -8.660555e-001 -1.354491e+000 -8.795455e-001 -3.634050e-001 1.667940e-001 -8.259919e-001
<VARIANCE> 25
 3.473718e+000 1.616415e+000 2.395284e+000 1.079826e+001 9.408327e+000 2.601857e+001 6.574342e+000 1.564347e+001 2.956018e+001 1.025422e+001 5.260808e+000 6.883125e+000 7.408330e-001 1.868555e-001 2.752616e-001 6.604116e-001 2.966525e-001 4.757062e+000 1.379884e+000 1.472915e+000 3.821825e-001 1.011286e+000 1.317286e+000 3.193814e+000 3.033346e-001
<GCONST> 6.702695e+001
<STATE> 4
<MEAN> 25
 2.735688e+000 3.916312e+000 6.773025e+000 1.794941e+000 -6.153905e+000 -7.293685e+000 1.122448e+000 -6.079519e+000 7.807034e-001 -3.144609e-001 -3.005582e+000 7.166556e+000 1.285601e+000 9.569737e-001 2.746107e-003 4.562105e-001 1.001756e+000 -6.304135e-001 -6.594062e-001 -1.476838e+000 1.448025e+000 -7.062981e-001 -2.029253e+000 8.763345e-001 -1.546236e+000
<VARIANCE> 25
 7.244389e+000 5.844418e+000 4.321671e+000 2.467860e+000 8.545972e+000 5.776165e+000 2.682949e+001 2.343777e+001 2.528337e+001 2.994173e+001 3.659639e+001 2.162651e+001 9.219851e-001 1.993804e-001 5.512933e-001 6.667981e-001 1.465779e+000 2.506239e+000 1.776958e+000 3.771955e+000 2.943066e+000 5.013400e-001 3.790235e+000 2.622756e+000 5.176826e-001
<GCONST> 7.824234e+001
<TRANSP> 5
 0.000000e+000 1.000000e+000 0.000000e+000 0.000000e+000 0.000000e+000
 0.000000e+000 7.249284e-001 2.750717e-001 0.000000e+000 0.000000e+000
 0.000000e+000 0.000000e+000 7.691920e-001 2.308080e-001 0.000000e+000
 0.000000e+000 0.000000e+000 0.000000e+000 8.110258e-001 1.889743e-001
 0.000000e+000 0.000000e+000 0.000000e+000 0.000000e+000 0.000000e+000
<ENDHMM>
~h "w"
<BEGINHMM>
<NUMSTATES> 5
<STATE> 2
<MEAN> 25
 7.895575e+000 3.578414e+000 -4.509900e+000 -1.247714e+001 -3.730138e+000 2.880011e+000 3.310971e-001 -3.079757e+000 -3.427093e+000 3.256178e+000 8.011534e-001 -7.960731e-001 4.493811e-001 1.096549e-001 -3.949292e-001 -1.037748e+000 -1.812602e-001 7.661856e-001 3.833975e-001 -1.985841e-001 -6.777644e-001 1.435649e-001 3.574606e-001 4.095175e-001 1.012426e-001
<VARIANCE> 25
 8.672676e+000 3.781909e+001 2.572361e+001 3.554848e+001 4.657634e+001 2.955815e+001 3.434626e+001 2.962439e+001 3.044666e+001 2.942580e+001 3.279546e+001 2.703476e+001 1.012206e+000 4.111063e+000 2.140910e+000 3.549559e+000 5.319336e+000 3.560277e+000 3.174875e+000 2.718632e+000 3.249802e+000 3.164432e+000 3.260739e+000 2.977916e+000 2.711329e+000
<GCONST> 1.004477e+002
<STATE> 3
<MEAN> 25
 6.726233e+000 -2.994681e+000 -7.920283e+000 -1.228194e+001 2.381684e+000 6.158928e+000 1.027199e+000 -4.340364e+000 -2.532626e+000 5.222929e+000 7.117770e-001 -2.833414e+000 -9.791794e-001 -2.009152e+000 -3.736671e-001 1.692777e+000 1.856709e+000 -4.149861e-001 -6.317278e-001 3.309093e-001 1.454627e+000 7.370979e-002 -1.435654e+000 -1.575226e+000 1.236277e+000
<VARIANCE> 25
 8.137498e+000 3.449790e+001 2.033408e+001 3.074355e+001 3.849200e+001 2.665159e+001 3.826758e+001 2.602349e+001 3.695127e+001 3.623887e+001 4.643194e+001 3.238377e+001 6.576880e-001 2.485496e+000 1.272599e+000 2.870017e+000 2.680310e+000 2.630344e+000 3.153670e+000 2.487019e+000 2.869107e+000 2.965992e+000 3.695119e+000 3.043232e+000 1.624985e+000
<GCONST> 9.722073e+001
<STATE> 4
<MEAN> 25
 3.710156e+000 -5.763039e+000 -6.976691e+000 -5.287936e+000 4.945243e+000 1.714204e+000 -1.984174e+000 -6.873263e-001 1.925379e+000 2.544724e+000 -5.042591e+000 -4.903659e+000 -1.091267e+000 -4.078464e-001 1.111530e+000 2.330666e+000 -1.718836e-001 -1.758122e+000 -2.445570e-002 1.719752e+000 5.831516e-001 -1.524889e+000 -1.102066e+000 5.090883e-001 3.320212e-002
<VARIANCE> 25
 1.009266e+001 6.404557e+001 2.703576e+001 2.923605e+001 4.606978e+001 3.876796e+001 5.717052e+001 3.464118e+001 3.840238e+001 3.712698e+001 6.231614e+001 4.524774e+001 9.362567e-001 1.851799e+000 1.738608e+000 1.914515e+000 2.976072e+000 3.166381e+000 3.542853e+000 2.665963e+000 3.101644e+000 3.419667e+000 4.399257e+000 2.823442e+000 1.728529e+000
<GCONST> 1.010462e+002
<TRANSP> 5
 0.000000e+000 1.000000e+000 0.000000e+000 0.000000e+000 0.000000e+000
 0.000000e+000 8.004488e-001 1.995512e-001 0.000000e+000 0.000000e+000
 0.000000e+000 0.000000e+000 6.269514e-001 3.730486e-001 0.000000e+000
 0.000000e+000 0.000000e+000 0.000000e+000 5.637159e-001 4.362842e-001
 0.000000e+000 0.000000e+000 0.000000e+000 0.000000e+000 0.000000e+000
<ENDHMM>
~h "x"
<BEGINHMM>
<NUMSTATES> 5
<STATE> 2
<MEAN> 25
 6.385526e+000 3.033910e+000 1.456103e-001 2.735431e+000 -5.777192e+000 -2.644396e+000 -4.746199e+000 -4.931633e+000 -1.009118e+000 2.846655e+000 -2.386972e+000 -4.452916e+000 5.914475e-002 -3.095973e-001 -9.843904e-002 -5.032721e-001 -5.403247e-002 5.376614e-002 -6.004600e-002 -1.887611e-001 1.453545e-002 7.109278e-001 -7.080178e-001 -3.798760e-001 6.214677e-001
<VARIANCE> 25
 8.502709e+000 2.809669e+001 4.023285e+001 3.163583e+001 2.072461e+001 2.989397e+001 3.240907e+001 4.979185e+001 3.902144e+001 4.066515e+001 2.977281e+001 2.682108e+001 9.903495e-001 1.096211e+000 1.489234e+000 2.179105e+000 2.023351e+000 2.008453e+000 2.768741e+000 2.323750e+000 2.653761e+000 2.077229e+000 1.869722e+000 1.295671e+000 1.044965e+000
<GCONST> 9.359832e+001
<STATE> 3
<MEAN> 25
 1.770693e+000 4.413313e+000 2.929504e+000 -4.365355e+000 -2.541142e+000 -2.953633e+000 -3.556962e+000 -4.987046e+000 -1.595531e+000 5.461651e+000 -3.720833e+000 -5.543711e+000 -1.617168e+000 -3.070239e-001 9.176292e-001 -2.249451e+000 8.611330e-002 8.232884e-001 6.830691e-001 5.835677e-001 -6.599143e-001 -2.953001e-002 5.366753e-001 -1.168005e-001 1.365722e+000
<VARIANCE> 25
 1.116406e+001 2.378942e+001 5.114997e+001 3.031607e+001 3.070239e+001 1.981130e+001 3.307772e+001 5.398721e+001 4.708252e+001 2.917384e+001 2.697438e+001 2.235831e+001 5.930288e-001 2.359580e+000 1.677365e+000 2.699380e+000 3.168005e+000 2.878415e+000 4.025107e+000 4.534607e+000 3.943939e+000 2.732828e+000 2.214608e+000 1.661163e+000 4.768505e-001
<GCONST> 9.630118e+001
<STATE> 4
<MEAN> 25
 -2.288874e+000 -1.516369e+000 5.099199e+000 -7.595320e+000 -6.370171e+000 1.275654e+000 3.354015e+000 -3.843415e-001 -6.475575e+000 3.875742e-001 -2.122842e-001 -4.088211e+000 -1.330989e-001 -2.067868e+000 -8.972645e-001 6.507542e-001 -5.971789e-002 1.644385e-001 1.075781e+000 1.901056e+000 -2.329129e-001 -2.239944e+000 3.824968e-001 1.248162e+000 8.706192e-001
<VARIANCE> 25
 9.941773e+000 2.203521e+001 4.236219e+001 1.743582e+001 3.594806e+001 3.404803e+001 5.492027e+001 3.571454e+001 3.150500e+001 4.308252e+001 2.429941e+001 2.891496e+001 5.392483e-001 2.069263e+000 2.517329e+000 2.061705e+000 3.398087e+000 3.264436e+000 3.237128e+000 4.325615e+000 5.133074e+000 2.793715e+000 3.030769e+000 2.225842e+000 4.766897e-001
<GCONST> 9.703349e+001
<TRANSP> 5
 0.000000e+000 1.000000e+000 0.000000e+000 0.000000e+000 0.000000e+000
 0.000000e+000 7.472481e-001 2.527519e-001 0.000000e+000 0.000000e+000
 0.000000e+000 0.000000e+000 7.060233e-001 2.939767e-001 0.000000e+000
 0.000000e+000 0.000000e+000 0.000000e+000 6.454054e-001 3.545946e-001
 0.000000e+000 0.000000e+000 0.000000e+000 0.000000e+000 0.000000e+000
<ENDHMM>
~h "y"
<BEGINHMM>
<NUMSTATES> 5
<STATE> 2
<MEAN> 25
 -7.530352e-001 -1.460914e+000 4.317101e+000 -6.189042e+000 -1.135615e+001 -2.648535e+000 2.461362e+000 -1.575200e-001 -1.486875e+000 8.259830e-001 -6.065435e-001 -2.764119e+000 -2.778044e-001 1.548457e+000 1.599675e+000 -4.624850e-001 -6.142160e-001 1.629266e-001 -1.540489e+000 -1.736483e+000 3.363776e-001 9.511306e-001 1.823506e-001 1.411836e-001 -6.258383e-001
<VARIANCE> 25
 1.056580e+001 1.790052e+001 2.922297e+001 2.569778e+001 2.680766e+001 3.713414e+001 3.885062e+001 3.703160e+001 2.804674e+001 2.530987e+001 3.405813e+001 1.870246e+001 2.510974e-001 1.214790e+000 1.288851e+000 1.148189e+000 1.885227e+000 1.868986e+000 3.807721e+000 2.229530e+000 3.258383e+000 2.149633e+000 2.061331e+000 2.034996e+000 3.185480e-001
<GCONST> 8.984650e+001
<STATE> 3
<MEAN> 25
 -1.357982e+000 5.795675e+000 9.062190e+000 -7.185722e+000 -8.892394e+000 -1.170961e+000 -6.048677e+000 -6.477559e+000 9.411992e-001 1.547596e+000 -1.682905e+000 -1.169055e+000 2.487706e-001 7.067798e-001 3.253133e-001 4.873487e-001 6.281703e-001 9.654166e-002 -5.889155e-001 -3.422724e-001 4.449366e-002 -3.074872e-001 -1.667781e-001 7.468175e-002 -8.663187e-001
<VARIANCE> 25
 1.038862e+001 2.682396e+001 2.431246e+001 2.818450e+001 3.496379e+001 2.820149e+001 3.915570e+001 3.147579e+001 3.599440e+001 2.978689e+001 3.214477e+001 2.522036e+001 4.375424e-001 1.596906e+000 1.171502e+000 1.364321e+000 1.937039e+000 1.712803e+000 2.924357e+000 1.924680e+000 1.823800e+000 1.924099e+000 1.855105e+000 1.580544e+000 6.750111e-001
<GCONST> 9.076810e+001
<STATE> 4
<MEAN> 25
 9.096078e-001 5.933765e+000 6.993673e+000 2.879122e-001 -5.506777e+000 -1.634102e+000 -2.142493e+000 -4.216278e+000 -7.295727e-001 7.346608e-001 -3.850334e-004 -9.463300e-001 3.803557e-001 -2.119839e-001 -1.081082e+000 1.799687e+000 1.390787e+000 1.033112e-001 8.139425e-001 7.844457e-001 -7.409966e-002 1.154445e-001 4.174950e-001 2.039358e-001 -1.442005e+000
<VARIANCE> 25
 1.532970e+001 3.635378e+001 2.469569e+001 4.773261e+001 5.074046e+001 3.804314e+001 4.766151e+001 4.231348e+001 3.718163e+001 3.306257e+001 3.573894e+001 2.798347e+001 1.972914e+000 2.735021e+000 1.807836e+000 3.245909e+000 4.007600e+000 4.162020e+000 4.522417e+000 3.624655e+000 3.149222e+000 3.364702e+000 3.380645e+000 2.748003e+000 2.986302e+000
<GCONST> 1.032887e+002
<TRANSP> 5
 0.000000e+000 1.000000e+000 0.000000e+000 0.000000e+000 0.000000e+000
 0.000000e+000 7.164559e-001 2.835441e-001 0.000000e+000 0.000000e+000
 0.000000e+000 0.000000e+000 7.146066e-001 2.853934e-001 0.000000e+000
 0.000000e+000 0.000000e+000 0.000000e+000 7.307953e-001 2.692048e-001
 0.000000e+000 0.000000e+000 0.000000e+000 0.000000e+000 0.000000e+000
<ENDHMM>
~h "al"
<BEGINHMM>
<NUMSTATES> 5
<STATE> 2
<MEAN> 25
 -7.586856e+000 -1.362112e+000 -1.609044e+000 7.040094e+000 1.031893e+001 -7.815661e-001 7.958508e-001 5.797679e+000 5.404622e+000 9.043965e-001 1.339349e+000 9.060909e-001 7.923243e-001 -9.285841e-001 -5.378051e-001 -5.230870e-001 -5.342397e-001 -3.863674e-001 -4.341011e-002 -2.470220e-001 -1.412780e-001 -1.017423e+000 -6.558299e-001 -3.665243e-001 1.262304e+000
<VARIANCE> 25
 2.180101e+001 3.028303e+001 2.726514e+001 2.658340e+001 4.431757e+001 5.508264e+001 4.660814e+001 3.736166e+001 3.295150e+001 3.518811e+001 3.190049e+001 2.164686e+001 6.801417e+000 2.424916e+000 2.446004e+000 4.357982e+000 7.542124e+000 5.043576e+000 5.104455e+000 5.271966e+000 4.966578e+000 4.243265e+000 3.664353e+000 2.829674e+000 3.892320e+000
<GCONST> 1.067276e+002
<STATE> 3
<MEAN> 25
 3.932719e+000 -7.075306e+000 -6.744706e+000 -2.165462e+000 7.939991e-001 -2.341494e+000 1.430140e+000 8.219460e-001 6.316076e-001 -5.378057e+000 -4.275323e+000 -2.946412e+000 1.581787e+000 -1.864091e+000 -1.003103e+000 -1.714086e+000 -1.292261e+000 3.094040e-001 8.654656e-001 -4.460860e-001 -7.842431e-001 -9.602672e-001 -9.264084e-001 -5.925629e-001 2.196915e+000
<VARIANCE> 25
 1.185046e+001 1.937072e+001 1.634450e+001 2.331874e+001 2.924485e+001 2.484602e+001 4.738734e+001 3.576122e+001 3.198563e+001 2.791512e+001 2.462683e+001 3.797043e+001 3.636312e+000 1.697051e+000 2.334492e+000 3.195389e+000 5.819093e+000 6.010923e+000 4.233983e+000 4.037580e+000 3.760255e+000 2.755187e+000 2.727212e+000 2.539678e+000 2.076041e+000
<GCONST> 1.002116e+002
<STATE> 4
<MEAN> 25
 4.120167e+000 -8.312375e+000 -6.850622e+000 -7.925169e-001 2.122553e+000 9.765131e-001 3.806916e-001 4.291906e-001 -2.177125e+000 -4.538953e+000 -3.986234e+000 -9.763188e-001 7.706927e-002 8.248224e-001 4.952998e-001 4.449951e-001 -1.851747e-001 2.025101e-001 -4.043116e-001 -9.465200e-002 -2.703288e-001 4.903446e-001 4.021080e-001 3.884158e-001 -8.921032e-001
<VARIANCE> 25
 1.236931e+001 2.336013e+001 1.671998e+001 2.641675e+001 3.342045e+001 3.033092e+001 5.528184e+001 3.717799e+001 3.978304e+001 3.137453e+001 2.685786e+001 3.289151e+001 6.292391e-001 1.985014e+000 1.256209e+000 1.736048e+000 2.030303e+000 2.069904e+000 2.626347e+000 2.236101e+000 2.024237e+000 1.997277e+000 2.083180e+000 1.997292e+000 1.600641e+000
<GCONST> 9.366766e+001
<TRANSP> 5
 0.000000e+000 1.000000e+000 0.000000e+000 0.000000e+000 0.000000e+000
 0.000000e+000 7.967013e-001 2.032987e-001 0.000000e+000 0.000000e+000
 0.000000e+000 0.000000e+000 6.510844e-001 3.489156e-001 0.000000e+000
 0.000000e+000 0.000000e+000 0.000000e+000 8.491214e-001 1.508786e-001
 0.000000e+000 0.000000e+000 0.000000e+000 0.000000e+000 0.000000e+000
<ENDHMM>
~h "ch"
<BEGINHMM>
<NUMSTATES> 5
<STATE> 2
<MEAN> 25
 -1.227529e+001 5.407555e+000 2.837088e+000 2.507188e+000 7.385477e+000 3.603363e+000 4.851620e+000 2.526153e+000 4.005007e+000 2.985892e+000 6.918109e+000 1.849831e+000 -2.297586e+000 -4.860980e-001 2.631819e-001 -8.915765e-001 -1.426820e-001 -4.042940e-001 5.252464e-001 5.548582e-001 5.170464e-001 4.350896e-001 7.801507e-001 2.778485e-003 1.958387e+000
<VARIANCE> 25
 6.802930e+001 3.383603e+001 3.137692e+001 3.497490e+001 4.538379e+001 3.996103e+001 5.179392e+001 3.462613e+001 3.255369e+001 3.008619e+001 3.147981e+001 2.320537e+001 6.277465e+000 2.232528e+000 2.159496e+000 3.317708e+000 5.987336e+000 5.169373e+000 3.570889e+000 3.548805e+000 3.091481e+000 2.723904e+000 2.368708e+000 1.869666e+000 3.869687e+000
<GCONST> 1.047178e+002
<STATE> 3
<MEAN> 25
 -1.384772e+001 2.542635e+000 4.458416e+000 9.711606e-001 2.460192e+000 -5.237160e-001 5.600780e+000 4.041350e+000 3.830945e+000 1.546878e+000 8.122973e+000 1.552875e+000 4.993780e+000 -6.893029e-001 4.857516e-001 -6.006718e-001 -3.444868e+000 -3.010139e+000 -2.361944e+000 -1.315406e+000 -1.931885e+000 -2.434905e+000 -2.139938e+000 -1.304083e+000 6.645156e-001
<VARIANCE> 25
 3.549905e+001 3.282336e+001 2.979934e+001 4.551432e+001 4.327854e+001 5.275551e+001 5.243136e+001 4.372376e+001 4.497742e+001 4.412422e+001 3.723513e+001 2.880518e+001 2.752359e+000 2.502264e+000 3.328537e+000 3.646064e+000 7.371886e+000 4.624579e+000 4.461888e+000 3.816323e+000 3.947673e+000 3.634056e+000 3.986117e+000 2.238554e+000 1.985949e+000
<GCONST> 1.065898e+002
<STATE> 4
<MEAN> 25
 1.389360e+000 4.468377e-002 3.527540e+000 -3.275074e+000 -8.350292e+000 -8.337873e+000 -2.147108e+000 3.918542e-001 -1.388773e+000 -4.210282e+000 1.002917e+000 -1.894096e+000 4.083580e+000 -2.140510e+000 -1.199205e+000 -1.436650e+000 -2.363541e+000 -1.029848e+000 -1.528005e+000 3.834500e-002 -1.002112e+000 -1.107025e+000 -2.111768e+000 -1.006893e+000 1.466635e+000
<VARIANCE> 25
 1.623916e+001 2.952851e+001 2.702026e+001 4.120562e+001 4.074166e+001 3.285151e+001 3.150737e+001 4.476643e+001 2.980624e+001 2.748961e+001 2.469648e+001 2.558843e+001 3.516194e+000 3.592926e+000 3.955312e+000 3.591129e+000 7.930058e+000 6.969687e+000 7.136777e+000 5.569255e+000 5.482038e+000 6.003379e+000 5.039691e+000 3.175972e+000 1.817939e+000
<GCONST> 1.064922e+002
<TRANSP> 5
 0.000000e+000 1.000000e+000 0.000000e+000 0.000000e+000 0.000000e+000
 0.000000e+000 8.067389e-001 1.932611e-001 0.000000e+000 0.000000e+000
 0.000000e+000 0.000000e+000 5.124299e-001 4.875702e-001 0.000000e+000
 0.000000e+000 0.000000e+000 0.000000e+000 4.221747e-001 5.778252e-001
 0.000000e+000 0.000000e+000 0.000000e+000 0.000000e+000 0.000000e+000
<ENDHMM>
~h "ll"
<BEGINHMM>
<NUMSTATES> 5
<STATE> 2
<MEAN> 25
 1.268918e+000 3.832695e+000 6.513086e+000 3.991995e+000 -9.560365e+000 -6.947302e+000 1.723775e+000 -6.260926e+000 -2.328759e+000 9.879787e-001 3.460765e-001 -2.445416e+000 -2.450212e-001 5.008727e-001 4.331047e-001 5.066006e-001 6.060012e-002 -2.250607e-001 1.168624e-001 -2.436196e-001 -2.529323e-001 3.857725e-001 8.688045e-002 -2.059266e-001 -4.664410e-001
<VARIANCE> 25
 9.335011e+000 2.078104e+001 2.765043e+001 3.324689e+001 4.680594e+001 3.660606e+001 5.233132e+001 7.159444e+001 3.596756e+001 3.791129e+001 2.738782e+001 3.232053e+001 1.074201e+000 1.628875e+000 1.695988e+000 3.065112e+000 3.428241e+000 3.048862e+000 4.128865e+000 6.268292e+000 3.040132e+000 2.582850e+000 2.581140e+000 2.239576e+000 1.509660e+000
<GCONST> 9.975218e+001
<STATE> 3
<MEAN> 25
 -7.217851e-001 4.148734e+000 5.904672e+000 1.595597e+000 -5.925888e+000 -7.187182e+000 -8.353755e-001 -1.161899e+000 -3.348690e+000 2.288096e+000 2.448632e+000 -1.843275e+000 -7.278318e-001 -8.463756e-001 -9.250183e-001 -1.673807e+000 9.125142e-001 2.703807e-001 -4.369737e-001 2.308305e+000 3.308571e-001 8.830664e-002 7.853951e-001 3.013053e-001 9.918168e-001
<VARIANCE> 25
 8.369247e+000 2.165507e+001 2.957936e+001 3.788321e+001 3.997367e+001 3.178717e+001 4.258990e+001 5.068770e+001 3.474476e+001 4.034946e+001 2.676236e+001 3.148450e+001 1.305151e+000 3.082661e+000 1.573579e+000 4.306073e+000 3.802958e+000 3.774533e+000 6.144570e+000 6.090333e+000 4.128376e+000 3.216625e+000 2.719116e+000 2.462100e+000 2.253684e+000
<GCONST> 1.018669e+002
<STATE> 4
<MEAN> 25
 -2.027284e+000 3.046490e-001 1.981287e+000 -2.621630e+000 -3.592230e+000 -4.396219e+000 1.135751e-001 4.330683e+000 -3.322600e-001 7.807913e-001 2.369020e+000 -1.111501e+000 -6.220924e-001 -1.513008e+000 -1.374140e+000 -5.742483e-001 1.379380e+000 1.627736e+000 1.009134e+000 1.242950e+000 9.208759e-001 -1.347116e+000 -9.285946e-001 1.074667e-001 8.472005e-001
<VARIANCE> 25
 9.722562e+000 3.154364e+001 2.378062e+001 4.965197e+001 5.663540e+001 3.846344e+001 5.671104e+001 3.296008e+001 3.214420e+001 3.182274e+001 2.308585e+001 2.456947e+001 1.328626e+000 2.356646e+000 2.458489e+000 4.052885e+000 2.373002e+000 3.037112e+000 7.081896e+000 3.495104e+000 4.318659e+000 3.863605e+000 3.309399e+000 3.373933e+000 1.396142e+000
<GCONST> 1.014228e+002
<TRANSP> 5
 0.000000e+000 1.000000e+000 0.000000e+000 0.000000e+000 0.000000e+000
 0.000000e+000 7.131757e-001 2.868243e-001 0.000000e+000 0.000000e+000
 0.000000e+000 0.000000e+000 5.264974e-001 4.735025e-001 0.000000e+000
 0.000000e+000 0.000000e+000 0.000000e+000 4.394631e-001 5.605369e-001
 0.000000e+000 0.000000e+000 0.000000e+000 0.000000e+000 0.000000e+000
<ENDHMM>
~h "rr"
<BEGINHMM>
<NUMSTATES> 5
<STATE> 2
<MEAN> 25
 6.624092e-001 -7.197907e-001 5.967432e+000 8.870221e+000 -2.193697e+000 -8.867743e+000 -6.838330e+000 -3.632129e+000 5.425000e+000 -3.603654e-001 -1.219724e+000 -5.866114e+000 -4.759494e-001 -1.747798e-001 4.051674e-001 -1.757550e-001 2.722551e-001 -1.035006e+000 9.824205e-001 1.122511e+000 2.230225e-002 -1.319756e+000 -3.358335e-001 7.656588e-002 6.988491e-002
<VARIANCE> 25
 2.914960e+001 1.781154e+001 2.291780e+001 2.289364e+001 2.526151e+001 2.445939e+001 1.681719e+001 3.180170e+001 2.325589e+001 2.916386e+001 1.892632e+001 1.569720e+001 5.734062e+000 3.367233e+000 5.013996e+000 9.415359e+000 2.846313e+000 7.725407e+000 2.016409e+000 8.639968e+000 2.445444e+000 1.304530e+000 2.032335e+000 2.406284e+000 5.890505e-001
<GCONST> 9.836517e+001
<STATE> 3
<MEAN> 25
 4.562626e+000 -1.025963e+001 5.416129e-001 -3.464422e+000 -2.312031e+000 -2.422904e+000 1.749970e+000 1.184511e+001 -6.664310e+000 -4.705107e+000 -7.708401e+000 2.162894e-001 -5.005135e-001 -1.536558e+000 -7.997415e-001 -1.230384e+000 7.633190e-001 1.382581e+000 2.868870e+000 9.213512e-001 -4.456652e+000 -2.294558e-001 -8.088179e-001 2.688883e+000 1.453540e+000
<VARIANCE> 25
 5.588904e+000 9.911777e+000 2.228257e+000 1.406140e+001 1.359241e+001 9.077822e+000 1.429991e+001 1.112517e+001 7.872063e+001 1.629698e+001 1.217267e+001 3.940451e+001 2.685403e+000 1.617626e+000 1.381222e+000 2.792770e+000 1.894455e+000 3.014528e+000 5.989082e-001 6.391346e+000 3.504880e+000 2.074583e+000 1.421334e+000 4.882074e+000 2.206191e-001
<GCONST> 8.493408e+001
<STATE> 4
<MEAN> 25
 -1.724572e+000 -8.219301e+000 2.189349e-001 -3.176311e+000 -2.406594e+000 -2.725461e+000 1.124434e+001 4.296697e+000 -1.328695e+001 -1.003261e+001 -1.662572e+000 5.286970e+000 -1.515239e+000 1.502545e+000 -2.520137e-001 3.552242e-001 -1.793067e+000 6.480026e-001 9.802815e-001 -2.262264e+000 6.394672e-001 5.099015e-002 3.176219e+000 -7.160462e-001 6.433033e-001
<VARIANCE> 25
 4.616158e+000 1.008690e+001 7.326480e+000 3.489923e+000 1.092551e+001 1.327132e+001 3.443465e+000 1.920364e+001 2.244291e+001 6.809742e+000 2.362404e+001 1.753090e+001 2.940236e-001 2.303085e-001 1.221074e+000 2.875862e-001 6.086154e-001 1.143896e+000 2.355071e+000 1.121178e+000 4.198533e+000 3.014656e+000 1.306919e+000 2.008451e+000 1.590910e-001
<GCONST> 7.178781e+001
<TRANSP> 5
 0.000000e+000 1.000000e+000 0.000000e+000 0.000000e+000 0.000000e+000
 0.000000e+000 8.864067e-001 1.135933e-001 0.000000e+000 0.000000e+000
 0.000000e+000 0.000000e+000 7.222549e-001 2.777451e-001 0.000000e+000
 0.000000e+000 0.000000e+000 0.000000e+000 6.814793e-001 3.185207e-001
 0.000000e+000 0.000000e+000 0.000000e+000 0.000000e+000 0.000000e+000
<ENDHMM>
~h "sp"
<BEGINHMM>
<NUMSTATES> 3
<STATE> 2
~s "silst"
<TRANSP> 3
 0.000000e+000 1.774370e-001 8.225629e-001
 0.000000e+000 4.681486e-001 5.318514e-001
 0.000000e+000 0.000000e+000 0.000000e+000
<ENDHMM>
~h "ul"
<BEGINHMM>
<NUMSTATES> 5
<STATE> 2
<MEAN> 25
 3.213223e+000 -3.030632e+000 3.164494e+000 3.617818e-002 -7.207180e+000 -8.315475e+000 -6.348735e+000 2.347466e+000 -1.066664e+000 2.728113e+000 -1.660359e+000 -2.841739e+000 1.335277e+000 -1.447721e-001 -2.900716e+000 -7.477464e-001 2.368982e+000 4.920589e-001 -1.835420e+000 -3.827623e-001 1.922721e+000 1.104310e+000 -6.767330e-001 -4.859590e-001 -1.452302e-001
<VARIANCE> 25
 1.191069e+001 1.794160e+001 3.038344e+001 3.161965e+001 4.140935e+001 3.298155e+001 5.114007e+001 3.796781e+001 4.259380e+001 4.031719e+001 3.611633e+001 2.159068e+001 8.023697e-001 1.169671e+000 1.253184e+000 2.667254e+000 2.867593e+000 4.519694e+000 3.340792e+000 9.177775e+000 3.538592e+000 3.324633e+000 2.886147e+000 2.057836e+000 6.451085e-001
<GCONST> 9.801393e+001
<STATE> 3
<MEAN> 25
 7.017956e+000 5.329913e-001 -4.947134e+000 -7.799496e+000 -3.470360e-001 1.243462e-002 -5.453076e+000 -6.783158e+000 -2.702578e-001 5.562178e+000 5.898123e-001 -3.597572e+000 3.430407e-001 1.347067e+000 -1.093175e+000 -7.771908e-001 9.422359e-001 1.569231e+000 1.693662e+000 -1.190355e+000 -8.729234e-001 -5.761667e-001 1.143682e+000 1.016949e+000 -1.116291e+000
<VARIANCE> 25
 1.010171e+001 2.292059e+001 1.909299e+001 2.936378e+001 3.273516e+001 3.058281e+001 3.824866e+001 4.343055e+001 5.042759e+001 3.647387e+001 4.296740e+001 2.754731e+001 6.454449e-001 1.137532e+000 1.140498e+000 2.808013e+000 3.014024e+000 2.502931e+000 3.998680e+000 3.429922e+000 2.595963e+000 2.928069e+000 2.377893e+000 2.666637e+000 8.916405e-001
<GCONST> 9.589326e+001
<STATE> 4
<MEAN> 25
 -7.796393e-002 5.018227e+000 -5.580471e+000 -1.924757e+000 6.445052e+000 4.637967e+000 -1.709730e-001 -1.236247e+000 3.464984e-001 1.178338e+000 3.391704e+000 8.747970e-001 -1.189624e+000 -4.045568e-002 6.415297e-002 1.183791e+000 1.119447e+000 3.360906e-001 1.141411e-001 1.288195e+000 4.833392e-001 -4.807018e-001 3.497070e-002 3.001584e-001 -7.011529e-001
<VARIANCE> 25
 3.570674e+001 3.122326e+001 2.439059e+001 3.956480e+001 7.759985e+001 4.616787e+001 4.519265e+001 4.780914e+001 5.101100e+001 4.571417e+001 2.988046e+001 3.081706e+001 2.725218e+000 2.845410e+000 1.826951e+000 2.318014e+000 4.797789e+000 3.293947e+000 4.057211e+000 3.916793e+000 4.550744e+000 5.146306e+000 3.594372e+000 2.566632e+000 1.684265e+000
<GCONST> 1.051918e+002
<TRANSP> 5
 0.000000e+000 1.000000e+000 0.000000e+000 0.000000e+000 0.000000e+000
 0.000000e+000 6.609336e-001 3.390665e-001 0.000000e+000 0.000000e+000
 0.000000e+000 0.000000e+000 7.004454e-001 2.995545e-001 0.000000e+000
 0.000000e+000 0.000000e+000 0.000000e+000 8.256543e-001 1.743457e-001
 0.000000e+000 0.000000e+000 0.000000e+000 0.000000e+000 0.000000e+000
<ENDHMM>
~h "sil"
<BEGINHMM>
<NUMSTATES> 5
<STATE> 2
<MEAN> 25
 -2.183763e+000 3.198802e+000 1.268364e+000 6.120855e+000 5.429703e+000 4.959778e+000 4.094020e+000 2.884831e+000 2.374294e+000 2.157930e+000 4.366527e+000 2.750528e+000 -3.658531e-001 1.341084e-001 2.484545e-002 2.096507e-001 2.367982e-001 3.429606e-001 3.720701e-001 3.219374e-001 2.562156e-001 2.596850e-001 3.320207e-001 1.433799e-001 -4.125435e-001
<VARIANCE> 25
 2.459614e+001 3.501457e+001 3.164746e+001 4.088155e+001 4.983527e+001 4.949963e+001 6.317897e+001 5.188278e+001 4.087530e+001 3.836327e+001 4.486451e+001 2.926078e+001 1.384032e+000 2.194849e+000 1.682631e+000 2.320019e+000 3.105058e+000 3.180898e+000 3.547826e+000 3.155745e+000 2.668761e+000 2.651052e+000 2.682893e+000 2.224066e+000 2.947806e+000
<GCONST> 1.023165e+002
<STATE> 3
~s "silst"
<STATE> 4
<MEAN> 25
 -1.969989e+000 1.945267e+000 3.578492e-001 3.816585e+000 4.068299e+000 3.257668e+000 2.163631e+000 1.714792e+000 1.749216e+000 1.950005e+000 3.074758e+000 2.194075e+000 -1.599410e-001 -1.453493e-001 -8.019052e-002 -3.514467e-001 -1.726651e-001 -9.543980e-002 1.122800e-001 2.660570e-002 1.281463e-003 5.905601e-002 -2.650529e-002 -7.804117e-002 4.368233e-001
<VARIANCE> 25
 3.731277e+001 5.301038e+001 4.403276e+001 5.580159e+001 6.906843e+001 5.473097e+001 6.469543e+001 6.354596e+001 4.407088e+001 3.838325e+001 4.497806e+001 3.469508e+001 1.775851e+000 2.142090e+000 1.706312e+000 2.890384e+000 3.479686e+000 3.690184e+000 3.370290e+000 3.244928e+000 2.654111e+000 2.531039e+000 2.963062e+000 2.242832e+000 3.649593e+000
<GCONST> 1.056585e+002
<TRANSP> 5
 0.000000e+000 1.000000e+000 0.000000e+000 0.000000e+000 0.000000e+000
 0.000000e+000 4.472086e-001 1.850489e-001 3.677426e-001 0.000000e+000
 0.000000e+000 0.000000e+000 4.007401e-001 5.992599e-001 0.000000e+000
 0.000000e+000 9.918731e-002 0.000000e+000 2.210044e-001 6.798083e-001
 0.000000e+000 0.000000e+000 0.000000e+000 0.000000e+000 0.000000e+000
<ENDHMM>
